{"learner":{"attributes":{"scikit_learn":"{\"_estimator_type\": \"regressor\"}"},"feature_names":["location.address.city","condos","description.baths","description.sqft","fireplace","hardwood_floors","single_family","mobile","townhomes","description.baths_full","basement","description.beds","dishwasher","description.baths_3qtr","description.garage"],"feature_types":["float","int","float","float","int","int","int","int","int","float","int","float","int","float","float"],"gradient_booster":{"model":{"gbtree_model_param":{"num_parallel_tree":"1","num_trees":"100"},"iteration_indptr":[0,1,2,3,4,5,6,7,8,9,10,11,12,13,14,15,16,17,18,19,20,21,22,23,24,25,26,27,28,29,30,31,32,33,34,35,36,37,38,39,40,41,42,43,44,45,46,47,48,49,50,51,52,53,54,55,56,57,58,59,60,61,62,63,64,65,66,67,68,69,70,71,72,73,74,75,76,77,78,79,80,81,82,83,84,85,86,87,88,89,90,91,92,93,94,95,96,97,98,99,100],"tree_info":[0,0,0,0,0,0,0,0,0,0,0,0,0,0,0,0,0,0,0,0,0,0,0,0,0,0,0,0,0,0,0,0,0,0,0,0,0,0,0,0,0,0,0,0,0,0,0,0,0,0,0,0,0,0,0,0,0,0,0,0,0,0,0,0,0,0,0,0,0,0,0,0,0,0,0,0,0,0,0,0,0,0,0,0,0,0,0,0,0,0,0,0,0,0,0,0,0,0,0,0],"trees":[{"base_weights":[6.468066E-4,-8.9254086E4,1.24286625E5,-1.4161786E5,1.820551E4,7.278713E4,2.3737423E5,-2.1855288E5,-1.2077461E5,-3.5151656E4,1.0341814E5,3.8091457E4,1.7032988E5,1.6197381E5,3.14808E5,-2.3089962E5,-1.6482217E5,-1.5245523E5,-8.6918695E4,-5.7723902E4,1.0666661E5,1.6214609E4,1.8441202E5,-2.9504328E4,7.223391E4,1.358792E5,2.9604662E5,1.4747123E5,3.2136625E5,2.7105406E5,4.3287066E5,-1.5119334E5,-2.3748525E5,-5.236789E4,-3.2735412E4,-1.8193567E5,-1.344729E5,-1.1812584E5,-6.1600484E4,-1.02500305E5,-1.68341E4,6.1362855E4,1.8927567E5,-1.6222516E3,8.145015E4,6.4843207E4,2.282425E5,-1.1369172E5,-8.629973E3,-1.4126695E4,8.7583875E4,-1.47028125E4,1.5820781E5,1.5414483E5,2.6834875E5,6.2763723E4,1.677703E5,4.2014312E5,1.7590681E5,2.1122888E5,3.13627E5,1.9022512E5,4.5254378E5,-5.3532883E4,-2.6404084E4,-8.533329E4,-6.788277E4,-5.8620312E4,-4.7165285E4,-4.3946426E4,-2.4526662E4,-4.3404523E4,-2.171165E4,-2.2306941E4,-9.036301E3,-4.9361734E4,-1.9822012E4,-2.2286793E4,2.4541882E3,2.269892E4,9.739544E3,1.9600951E4,9.5917875E4,-2.3227312E3,4.232329E4,5.277038E4,8.909878E3,5.001356E3,6.940842E4,5.2568715E4,8.141693E4,-4.5338656E4,-1.4579009E4,-9.764001E3,1.0363011E4,9.700605E3,-1.1263057E4,1.4086085E4,3.196536E4,-3.447339E4,5.820045E3,3.8746508E4,6.366719E4,3.1520375E4,8.908448E4,2.9987682E4,-1.9877059E4,5.2929098E4,-1.4479584E3,1.377387E5,1.0390523E4,-2.6594766E3,6.0033418E4,7.4349305E4,5.0932797E4,2.3448376E3,9.823161E4,1.4454032E4,7.476079E4,1.09157E5,1.4777405E5],"categories":[],"categories_nodes":[],"categories_segments":[],"categories_sizes":[],"default_left":[0,0,0,0,0,0,0,0,0,0,0,0,0,0,0,0,0,0,0,0,0,0,0,0,0,0,0,0,0,0,0,0,0,0,0,0,0,0,0,0,0,0,0,0,0,0,0,0,0,0,0,0,0,0,0,0,0,0,0,0,0,0,0,0,0,0,0,0,0,0,0,0,0,0,0,0,0,0,0,0,0,0,0,0,0,0,0,0,0,0,0,0,0,0,0,0,0,0,0,0,0,0,0,0,0,0,0,0,0,0,0,0,0,0,0,0,0,0,0,0,0],"id":0,"left_children":[1,3,5,7,9,11,13,15,17,19,21,23,25,27,29,31,33,35,37,39,41,43,45,47,49,51,53,55,57,59,61,63,65,-1,-1,67,69,71,73,75,77,79,81,83,85,87,89,91,93,95,97,99,101,-1,103,105,107,109,111,113,115,117,119,-1,-1,-1,-1,-1,-1,-1,-1,-1,-1,-1,-1,-1,-1,-1,-1,-1,-1,-1,-1,-1,-1,-1,-1,-1,-1,-1,-1,-1,-1,-1,-1,-1,-1,-1,-1,-1,-1,-1,-1,-1,-1,-1,-1,-1,-1,-1,-1,-1,-1,-1,-1,-1,-1,-1,-1,-1,-1],"loss_changes":[3.752792E13,1.1082123E13,8.217795E12,2.0967368E12,2.9408064E12,3.286447E12,2.5296414E12,1.4835778E11,1.1065193E12,1.2802177E12,1.755685E12,1.6615008E12,1.0641846E12,4.7502957E11,1.00362984E12,8.272531E10,1.1327767E10,2.6074205E11,3.933088E11,6.281036E11,1.9422314E11,1.409274E11,6.61258E11,4.2429936E11,6.348897E11,6.815086E11,1.8783299E11,3.4884236E11,1.8471846E11,3.438092E11,1.8601004E11,1.8727043E10,4.4596986E10,0E0,0E0,3.617954E10,2.0211617E11,2.6412581E11,1.109978E11,3.5974926E11,2.6074566E11,1.2833587E10,2.8630096E11,8.493385E10,1.2186111E11,2.8491756E11,1.6745864E11,1.0963026E11,2.024742E11,8.063752E10,3.0788E11,9.449926E10,2.4879038E11,0E0,2.0228787E11,2.0817879E11,2.5195918E11,1.3439179E11,4.2024927E10,6.4132743E10,3.860259E11,3.8258147E10,5.408555E9,0E0,0E0,0E0,0E0,0E0,0E0,0E0,0E0,0E0,0E0,0E0,0E0,0E0,0E0,0E0,0E0,0E0,0E0,0E0,0E0,0E0,0E0,0E0,0E0,0E0,0E0,0E0,0E0,0E0,0E0,0E0,0E0,0E0,0E0,0E0,0E0,0E0,0E0,0E0,0E0,0E0,0E0,0E0,0E0,0E0,0E0,0E0,0E0,0E0,0E0,0E0,0E0,0E0,0E0,0E0,0E0,0E0,0E0],"parents":[2147483647,0,0,1,1,2,2,3,3,4,4,5,5,6,6,7,7,8,8,9,9,10,10,11,11,12,12,13,13,14,14,15,15,16,16,17,17,18,18,19,19,20,20,21,21,22,22,23,23,24,24,25,25,26,26,27,27,28,28,29,29,30,30,31,31,32,32,35,35,36,36,37,37,38,38,39,39,40,40,41,41,42,42,43,43,44,44,45,45,46,46,47,47,48,48,49,49,50,50,51,51,52,52,54,54,55,55,56,56,57,57,58,58,59,59,60,60,61,61,62,62],"right_children":[2,4,6,8,10,12,14,16,18,20,22,24,26,28,30,32,34,36,38,40,42,44,46,48,50,52,54,56,58,60,62,64,66,-1,-1,68,70,72,74,76,78,80,82,84,86,88,90,92,94,96,98,100,102,-1,104,106,108,110,112,114,116,118,120,-1,-1,-1,-1,-1,-1,-1,-1,-1,-1,-1,-1,-1,-1,-1,-1,-1,-1,-1,-1,-1,-1,-1,-1,-1,-1,-1,-1,-1,-1,-1,-1,-1,-1,-1,-1,-1,-1,-1,-1,-1,-1,-1,-1,-1,-1,-1,-1,-1,-1,-1,-1,-1,-1,-1,-1,-1,-1],"split_conditions":[8.68587E-2,9.861826E-2,4.3221614E-1,-1.2626517E0,-3.0867097E-1,1.3704187E0,7.9467136E-1,1E0,-5.635798E-1,2.0020373E0,1E0,-5.898178E-1,4.23939E-2,2.8132234E0,1.443998E0,1E0,-9.254457E-2,-9.9213433E-1,1E0,1E0,2.206407E0,1E0,8.7801075E-1,1E0,3.718066E-1,-1.0908707E0,4.7391623E-2,8.7801075E-1,3.1859605E0,7.6206577E-1,2.3732404E-1,-6.023121E-1,-1.7956245E0,-5.236789E4,-3.2735412E4,1E0,-1.521353E-1,-6.5359753E-1,-1.5270539E-1,-8.979892E-1,-1.005691E0,-6.434825E-1,-1.2444605E0,3.4758282E0,-8.794233E-2,2.727356E0,1E0,9.231875E-1,8.774246E-1,1E0,-3.124443E-1,1E0,1.9249316E0,1.5414483E5,1.4734605E-1,1.0294439E0,5.707702E0,4.2500906E0,3.126064E0,5.296717E-1,-2.4591452E-1,9.132673E-1,-8.794233E-2,-5.3532883E4,-2.6404084E4,-8.533329E4,-6.788277E4,-5.8620312E4,-4.7165285E4,-4.3946426E4,-2.4526662E4,-4.3404523E4,-2.171165E4,-2.2306941E4,-9.036301E3,-4.9361734E4,-1.9822012E4,-2.2286793E4,2.4541882E3,2.269892E4,9.739544E3,1.9600951E4,9.5917875E4,-2.3227312E3,4.232329E4,5.277038E4,8.909878E3,5.001356E3,6.940842E4,5.2568715E4,8.141693E4,-4.5338656E4,-1.4579009E4,-9.764001E3,1.0363011E4,9.700605E3,-1.1263057E4,1.4086085E4,3.196536E4,-3.447339E4,5.820045E3,3.8746508E4,6.366719E4,3.1520375E4,8.908448E4,2.9987682E4,-1.9877059E4,5.2929098E4,-1.4479584E3,1.377387E5,1.0390523E4,-2.6594766E3,6.0033418E4,7.4349305E4,5.0932797E4,2.3448376E3,9.823161E4,1.4454032E4,7.476079E4,1.09157E5,1.4777405E5],"split_indices":[0,3,3,0,0,0,0,4,3,2,4,3,3,9,11,6,3,3,12,4,3,5,2,6,0,11,3,2,3,3,9,3,0,0,0,12,0,0,3,0,0,0,0,3,14,13,5,0,14,10,3,10,0,0,3,3,13,2,2,3,11,0,14,0,0,0,0,0,0,0,0,0,0,0,0,0,0,0,0,0,0,0,0,0,0,0,0,0,0,0,0,0,0,0,0,0,0,0,0,0,0,0,0,0,0,0,0,0,0,0,0,0,0,0,0,0,0,0,0,0,0],"split_type":[0,0,0,0,0,0,0,0,0,0,0,0,0,0,0,0,0,0,0,0,0,0,0,0,0,0,0,0,0,0,0,0,0,0,0,0,0,0,0,0,0,0,0,0,0,0,0,0,0,0,0,0,0,0,0,0,0,0,0,0,0,0,0,0,0,0,0,0,0,0,0,0,0,0,0,0,0,0,0,0,0,0,0,0,0,0,0,0,0,0,0,0,0,0,0,0,0,0,0,0,0,0,0,0,0,0,0,0,0,0,0,0,0,0,0,0,0,0,0,0,0],"sum_hessian":[3.381E3,1.968E3,1.413E3,1.323E3,6.45E2,9.72E2,4.41E2,2.8E2,1.043E3,3.97E2,2.48E2,7.18E2,2.54E2,2.25E2,2.16E2,2.25E2,5.5E1,5.37E2,5.06E2,3.43E2,5.4E1,1.2E2,1.28E2,2.41E2,4.77E2,2.01E2,5.3E1,2.08E2,1.7E1,1.6E2,5.6E1,1.9E1,2.06E2,4.5E1,1E1,2E2,3.37E2,2.25E2,2.81E2,1.63E2,1.8E2,3.6E1,1.8E1,9.5E1,2.5E1,3.5E1,9.3E1,4.7E1,1.94E2,7.2E1,4.05E2,2.6E1,1.75E2,4E0,4.9E1,4.1E1,1.67E2,9E0,8E0,6.9E1,9.1E1,5E0,5.1E1,1.2E1,7E0,3.5E1,1.71E2,1.25E2,7.5E1,2.73E2,6.4E1,1.41E2,8.4E1,1.99E2,8.2E1,5.9E1,1.04E2,5.4E1,1.26E2,2.3E1,1.3E1,1E1,8E0,9.2E1,3E0,8E0,1.7E1,2.8E1,7E0,4.4E1,4.9E1,2.9E1,1.8E1,1.25E2,6.9E1,2.4E1,4.8E1,1.3E2,2.75E2,6E0,2E1,1.16E2,5.9E1,8E0,4.1E1,3.2E1,9E0,1.59E2,8E0,8E0,1E0,1E0,7E0,3.4E1,3.5E1,4E0,8.7E1,2E0,3E0,1.9E1,3.2E1],"tree_param":{"num_deleted":"0","num_feature":"15","num_nodes":"121","size_leaf_vector":"1"}},{"base_weights":[2.8173782E2,-5.841301E4,9.4918305E4,-9.662628E4,2.1373623E4,6.6609914E4,2.1416134E5,-1.5033167E5,-8.100472E4,-3.9437547E4,6.515281E4,2.6063342E4,1.035574E5,1.9050081E5,1.0581294E5,-1.7363284E5,-1.3163227E5,-9.674632E4,-4.0048465E4,-7.547415E4,1.417689E4,3.5874164E4,1.3251206E5,-4.6278833E3,7.040105E4,8.9682234E4,2.4302733E5,1.4759642E5,2.5025486E5,-5.3370242E4,-1.0121301E5,-1.4770603E5,-1.15355125E5,-1.2123822E5,-7.949448E4,-6.6053695E4,-8.741882E3,-1.0404895E5,-1.8501283E4,-2.2165625E3,1.1574991E5,-8.555172E3,7.549313E4,7.7356766E4,1.771433E5,-1.4893381E5,3.5760981E3,-1.5732955E4,8.468298E4,7.677766E4,1.7053519E5,1.0958481E5,2.5909873E5,1.5625423E5,-4.730852E4,1.4294373E5,2.7393578E5,-2.0320893E4,-4.0348195E4,-4.6209816E4,-2.8598451E4,-2.3484803E4,-3.5797555E4,-4.0414883E4,-2.0784088E4,-3.0410781E4,-1.8687035E4,-2.4810371E4,-1.0253554E4,-4.2749487E3,7.42613E4,-4.090527E4,-1.2506737E4,-4.918634E4,-1.4072343E3,-7.136475E3,1.0081607E4,-1.7571078E4,4.8144914E4,-8.78702E3,4.4979536E3,6.7210747E3,4.0818152E4,1.3149219E4,4.157188E4,3.2488209E4,6.44412E4,-4.5999508E4,-1.2444877E4,-4.7951787E3,1.0861175E4,-2.2889736E4,4.1571787E3,1.9385756E4,4.060989E4,3.1494547E4,1.1411852E4,4.08654E4,9.1573516E4,1.1999676E4,5.670991E4,2.1540445E4,7.855459E4,6.24891E4,3.719189E4,2.7498959E4,5.2440555E4,7.2623695E4,1.0147732E5],"categories":[],"categories_nodes":[],"categories_segments":[],"categories_sizes":[],"default_left":[0,0,0,0,0,0,0,0,0,0,0,0,0,0,0,0,0,0,0,0,0,0,0,0,0,0,0,0,0,0,0,0,0,0,0,0,0,0,0,0,0,0,0,0,0,0,0,0,0,0,0,0,0,0,0,0,0,0,0,0,0,0,0,0,0,0,0,0,0,0,0,0,0,0,0,0,0,0,0,0,0,0,0,0,0,0,0,0,0,0,0,0,0,0,0,0,0,0,0,0,0,0,0,0,0,0,0,0,0],"id":1,"left_children":[1,3,5,7,9,11,13,15,17,19,21,23,25,27,-1,29,31,33,35,37,39,41,43,45,47,49,51,53,55,-1,57,59,61,63,65,67,69,71,73,75,77,79,81,83,85,87,89,91,93,95,97,99,101,103,-1,105,107,-1,-1,-1,-1,-1,-1,-1,-1,-1,-1,-1,-1,-1,-1,-1,-1,-1,-1,-1,-1,-1,-1,-1,-1,-1,-1,-1,-1,-1,-1,-1,-1,-1,-1,-1,-1,-1,-1,-1,-1,-1,-1,-1,-1,-1,-1,-1,-1,-1,-1,-1,-1],"loss_changes":[1.8791438E13,6.368186E12,4.357109E12,1.172437E12,1.8049217E12,1.5673034E12,7.45785E11,1.1526681E11,7.0273466E11,5.497814E11,7.7228815E11,6.820758E11,1.03867744E12,5.1169775E11,0E0,2.4647827E10,3.0055858E10,3.2458356E11,2.4854787E11,2.7483288E11,1.9174679E11,4.8647333E11,2.7923304E11,3.5214593E11,2.5351507E11,5.0859344E11,7.6692324E10,3.603214E11,1.8447021E11,0E0,2.0312556E9,1.4146208E10,4.4936724E9,2.1826162E11,1.694373E11,8.579082E10,2.0114774E11,2.2193648E11,1.1574024E11,7.807334E10,1.3416571E11,6.440285E10,4.66414E11,1.06804675E11,1.4527719E11,1.2002263E9,1.8055135E11,5.4822273E10,1.7022714E11,4.6909253E11,2.7277486E11,3.1138202E10,3.346006E9,1.8249757E11,0E0,1.3383729E10,6.360033E10,0E0,0E0,0E0,0E0,0E0,0E0,0E0,0E0,0E0,0E0,0E0,0E0,0E0,0E0,0E0,0E0,0E0,0E0,0E0,0E0,0E0,0E0,0E0,0E0,0E0,0E0,0E0,0E0,0E0,0E0,0E0,0E0,0E0,0E0,0E0,0E0,0E0,0E0,0E0,0E0,0E0,0E0,0E0,0E0,0E0,0E0,0E0,0E0,0E0,0E0,0E0,0E0],"parents":[2147483647,0,0,1,1,2,2,3,3,4,4,5,5,6,6,7,7,8,8,9,9,10,10,11,11,12,12,13,13,15,15,16,16,17,17,18,18,19,19,20,20,21,21,22,22,23,23,24,24,25,25,26,26,27,27,28,28,30,30,31,31,32,32,33,33,34,34,35,35,36,36,37,37,38,38,39,39,40,40,41,41,42,42,43,43,44,44,45,45,46,46,47,47,48,48,49,49,50,50,51,51,52,52,53,53,55,55,56,56],"right_children":[2,4,6,8,10,12,14,16,18,20,22,24,26,28,-1,30,32,34,36,38,40,42,44,46,48,50,52,54,56,-1,58,60,62,64,66,68,70,72,74,76,78,80,82,84,86,88,90,92,94,96,98,100,102,104,-1,106,108,-1,-1,-1,-1,-1,-1,-1,-1,-1,-1,-1,-1,-1,-1,-1,-1,-1,-1,-1,-1,-1,-1,-1,-1,-1,-1,-1,-1,-1,-1,-1,-1,-1,-1,-1,-1,-1,-1,-1,-1,-1,-1,-1,-1,-1,-1,-1,-1,-1,-1,-1,-1],"split_conditions":[2.6395E-1,1.4734605E-1,7.820566E-1,-1.2214155E0,8.7801075E-1,-3.124443E-1,2.8132234E0,-2.4601589E-1,-3.124443E-1,-4.5617676E-1,2.0020373E0,1.0830967E0,1.997561E0,9.308332E-1,1.0581294E5,5.9904176E-1,1E0,-2.4601589E-1,-2.7260086E-1,1E0,2.727356E0,1E0,-3.0867097E-1,-1.4219384E0,-1.0908707E0,1.5252737E0,1E0,2.8523626E0,-8.794233E-2,-5.3370242E4,-5.348429E-1,-1.258103E-2,-9.0967196E-1,1E0,-8.794233E-2,8.7801075E-1,1E0,1E0,-1.6964943E0,1E0,3.472549E-1,8.774246E-1,-3.652653E-1,2.206407E0,1E0,9.231875E-1,8.774246E-1,1E0,1.7497826E0,1E0,1.8427916E0,2.1454887E0,-2.6746482E-1,5.9904176E-1,-4.730852E4,1.443998E0,1.443998E0,-2.0320893E4,-4.0348195E4,-4.6209816E4,-2.8598451E4,-2.3484803E4,-3.5797555E4,-4.0414883E4,-2.0784088E4,-3.0410781E4,-1.8687035E4,-2.4810371E4,-1.0253554E4,-4.2749487E3,7.42613E4,-4.090527E4,-1.2506737E4,-4.918634E4,-1.4072343E3,-7.136475E3,1.0081607E4,-1.7571078E4,4.8144914E4,-8.78702E3,4.4979536E3,6.7210747E3,4.0818152E4,1.3149219E4,4.157188E4,3.2488209E4,6.44412E4,-4.5999508E4,-1.2444877E4,-4.7951787E3,1.0861175E4,-2.2889736E4,4.1571787E3,1.9385756E4,4.060989E4,3.1494547E4,1.1411852E4,4.08654E4,9.1573516E4,1.1999676E4,5.670991E4,2.1540445E4,7.855459E4,6.24891E4,3.719189E4,2.7498959E4,5.2440555E4,7.2623695E4,1.0147732E5],"split_indices":[0,3,3,0,2,3,9,2,3,0,2,0,0,0,0,11,12,2,0,5,13,4,0,3,11,9,12,3,14,0,3,3,3,4,14,2,1,12,0,12,3,14,0,3,4,0,14,10,0,10,14,0,3,11,0,11,11,0,0,0,0,0,0,0,0,0,0,0,0,0,0,0,0,0,0,0,0,0,0,0,0,0,0,0,0,0,0,0,0,0,0,0,0,0,0,0,0,0,0,0,0,0,0,0,0,0,0,0,0],"split_type":[0,0,0,0,0,0,0,0,0,0,0,0,0,0,0,0,0,0,0,0,0,0,0,0,0,0,0,0,0,0,0,0,0,0,0,0,0,0,0,0,0,0,0,0,0,0,0,0,0,0,0,0,0,0,0,0,0,0,0,0,0,0,0,0,0,0,0,0,0,0,0,0,0,0,0,0,0,0,0,0,0,0,0,0,0,0,0,0,0,0,0,0,0,0,0,0,0,0,0,0,0,0,0,0,0,0,0,0,0],"sum_hessian":[3.381E3,2.087E3,1.294E3,1.411E3,6.76E2,1.047E3,2.47E2,3.16E2,1.095E3,2.83E2,3.93E2,5E2,5.47E2,2.13E2,3.4E1,1.37E2,1.79E2,7.9E2,3.05E2,1.69E2,1.14E2,2.75E2,1.18E2,2.96E2,2.04E2,4.99E2,4.8E1,1.26E2,8.7E1,1.28E2,9E0,8.6E1,9.3E1,3.24E2,4.66E2,1.66E2,1.39E2,1.12E2,5.7E1,9.9E1,1.5E1,1.3E2,1.45E2,5.4E1,6.4E1,1.5E1,2.81E2,2.9E1,1.75E2,4.32E2,6.7E1,6E0,4.2E1,1.23E2,3E0,1.7E1,7E1,6E0,3E0,7.5E1,1.1E1,1.1E1,8.2E1,2.56E2,6.8E1,2.03E2,2.63E2,1.08E2,5.8E1,1.37E2,2E0,7.3E1,3.9E1,4E0,5.3E1,6.2E1,3.7E1,3E0,1.2E1,6.9E1,6.1E1,7.8E1,6.7E1,3.6E1,1.8E1,2.4E1,4E1,1.4E1,1E0,1.76E2,1.05E2,9E0,2E1,1.27E2,4.8E1,2.49E2,1.83E2,5.5E1,1.2E1,4E0,2E0,1E0,4.1E1,4.5E1,7.8E1,8E0,9E0,5E1,2E1],"tree_param":{"num_deleted":"0","num_feature":"15","num_nodes":"109","size_leaf_vector":"1"}},{"base_weights":[3.5870984E2,-4.036225E4,6.828022E4,-6.538824E4,2.1775172E4,2.353558E4,1.0792942E5,-8.481198E4,-3.159493E4,-8.440311E3,6.688532E4,-1.7423611E4,4.4058953E4,7.592252E4,1.5530294E5,-9.773518E4,-5.415042E4,-7.370438E4,-1.3294739E4,-4.046086E4,1.0752943E4,3.1448506E4,9.875424E4,-6.858148E4,-3.3906245E3,2.5329668E3,6.536494E4,5.7771527E4,1.571836E5,1.3834961E5,2.3279747E5,-1.0789425E5,-7.390017E4,-6.162504E4,-2.1827188E3,-8.6560625E4,-2.6194348E4,-2.4209762E4,2.135377E4,-8.058009E4,-1.7206057E4,3.2563804E3,8.664974E4,1.2128627E4,1.0988068E5,1.6735236E5,5.114571E4,-1.0502668E5,-5.2771355E4,-2.0314518E4,1.7106172E4,-3.782855E4,3.5864715E4,5.7716637E4,1.0536999E5,8.897387E4,3.0451686E4,-3.66641E4,1.7090367E5,1.0824317E5,1.9914181E5,1.6105927E5,2.5548973E5,-4.6786965E4,-3.0727645E4,-2.931575E4,-1.732351E4,-2.3824219E4,-1.4890003E4,-1.2141981E4,1.7002494E4,-3.485898E4,-2.1227695E4,-1.2139175E4,3.0493672E4,-1.9248668E3,-1.1845533E4,-3.9777463E3,2.73022E4,-2.6007367E4,-1.4239943E4,-1.6719947E4,1.4175153E3,-7.232774E3,5.2415703E3,-1.6898072E4,6.811335E3,2.9174575E3,5.5852668E4,-8.341887E2,5.8163785E4,6.2319644E3,3.0210336E4,-7.7087534E3,-3.2970777E4,-1.9133297E4,1.6656674E3,-1.782679E4,-2.7753613E3,1.5822151E4,2.7300889E3,-1.721657E4,-1.9752578E3,6.11616E4,7.8098574E3,9.956899E3,2.1948793E4,2.1235236E4,4.1443793E4,6.4523777E4,2.304073E4,3.913993E3,2.4481E4,4.442542E4,8.7902664E4,2.6429686E4,4.4636766E4,3.7787168E4,6.3028387E4,1.6357608E4,5.554714E4,1.698904E4,7.793992E4],"categories":[],"categories_nodes":[],"categories_segments":[],"categories_sizes":[],"default_left":[0,0,0,0,0,0,0,0,0,0,0,0,0,0,0,0,0,0,0,0,0,0,0,0,0,0,0,0,0,0,0,0,0,0,0,0,0,0,0,0,0,0,0,0,0,0,0,0,0,0,0,0,0,0,0,0,0,0,0,0,0,0,0,0,0,0,0,0,0,0,0,0,0,0,0,0,0,0,0,0,0,0,0,0,0,0,0,0,0,0,0,0,0,0,0,0,0,0,0,0,0,0,0,0,0,0,0,0,0,0,0,0,0,0,0,0,0,0,0,0,0,0,0],"id":2,"left_children":[1,3,5,7,9,11,13,15,17,19,21,23,25,27,29,31,33,35,37,39,41,43,45,47,49,51,53,55,57,59,61,63,65,67,69,71,73,75,77,79,81,83,-1,85,87,89,91,93,95,97,99,101,103,105,107,109,111,-1,113,115,117,119,121,-1,-1,-1,-1,-1,-1,-1,-1,-1,-1,-1,-1,-1,-1,-1,-1,-1,-1,-1,-1,-1,-1,-1,-1,-1,-1,-1,-1,-1,-1,-1,-1,-1,-1,-1,-1,-1,-1,-1,-1,-1,-1,-1,-1,-1,-1,-1,-1,-1,-1,-1,-1,-1,-1,-1,-1,-1,-1,-1,-1],"loss_changes":[9.356789E12,3.2903555E12,2.2470056E12,9.8715986E11,8.292836E11,5.0261823E11,1.00714886E12,3.7391434E11,4.2439737E11,2.2475624E11,2.7245163E11,1.4334699E11,3.5196587E11,5.8533216E11,3.2251524E11,1.5474622E11,1.1095894E11,9.9736355E10,1.4649801E11,1.2642974E11,4.7644217E11,1.7595738E11,4.0947024E11,1.9234324E10,5.515542E10,1.8432023E11,7.438873E10,2.7944917E11,3.007215E11,3.884177E11,3.536244E10,1.07298685E11,7.285637E10,4.938865E10,8.568049E10,5.3124858E10,7.160914E10,7.96566E10,2.2542164E11,6.0031304E9,7.4618225E10,8.7560946E10,0E0,7.005636E10,1.739411E11,2.352205E11,1.1380248E11,1.8176819E9,2.0895777E10,3.7092143E10,2.0060492E10,3.751283E10,1.1857944E11,8.205389E10,3.6698456E10,2.1985336E11,1.5740813E11,0E0,1.5165175E11,1.1104066E11,3.2052085E10,2.5845596E10,1.4427881E10,0E0,0E0,0E0,0E0,0E0,0E0,0E0,0E0,0E0,0E0,0E0,0E0,0E0,0E0,0E0,0E0,0E0,0E0,0E0,0E0,0E0,0E0,0E0,0E0,0E0,0E0,0E0,0E0,0E0,0E0,0E0,0E0,0E0,0E0,0E0,0E0,0E0,0E0,0E0,0E0,0E0,0E0,0E0,0E0,0E0,0E0,0E0,0E0,0E0,0E0,0E0,0E0,0E0,0E0,0E0,0E0,0E0,0E0,0E0,0E0],"parents":[2147483647,0,0,1,1,2,2,3,3,4,4,5,5,6,6,7,7,8,8,9,9,10,10,11,11,12,12,13,13,14,14,15,15,16,16,17,17,18,18,19,19,20,20,21,21,22,22,23,23,24,24,25,25,26,26,27,27,28,28,29,29,30,30,31,31,32,32,33,33,34,34,35,35,36,36,37,37,38,38,39,39,40,40,41,41,43,43,44,44,45,45,46,46,47,47,48,48,49,49,50,50,51,51,52,52,53,53,54,54,55,55,56,56,58,58,59,59,60,60,61,61,62,62],"right_children":[2,4,6,8,10,12,14,16,18,20,22,24,26,28,30,32,34,36,38,40,42,44,46,48,50,52,54,56,58,60,62,64,66,68,70,72,74,76,78,80,82,84,-1,86,88,90,92,94,96,98,100,102,104,106,108,110,112,-1,114,116,118,120,122,-1,-1,-1,-1,-1,-1,-1,-1,-1,-1,-1,-1,-1,-1,-1,-1,-1,-1,-1,-1,-1,-1,-1,-1,-1,-1,-1,-1,-1,-1,-1,-1,-1,-1,-1,-1,-1,-1,-1,-1,-1,-1,-1,-1,-1,-1,-1,-1,-1,-1,-1,-1,-1,-1,-1,-1,-1,-1,-1,-1],"split_conditions":[3.0197132E-1,8.7801075E-1,-1.7000924E-1,-4.5617676E-1,8.0829465E-1,7.9467136E-1,9.5004517E-1,1E0,-8.047198E-1,-1.5270539E-1,-3.3938968E-1,-8.571959E-1,-8.794233E-2,1.1968675E0,1.8427916E0,1E0,5.1467854E-1,1E0,2.6854077E-1,1E0,1E0,2.206407E0,-2.3175871E-2,-1.3319794E0,1E0,1E0,1.7497826E0,1E0,8.7801075E-1,2.0176795E0,1.0501574E0,-1.6964943E0,-1.2444605E0,-8.794233E-2,1E0,1E0,1E0,1E0,1E0,-3.3493403E-1,-8.794233E-2,1E0,8.664974E4,1E0,-1.2444605E0,-8.794233E-2,2.0020373E0,6.82214E-1,7.4269867E-1,-2.4601589E-1,-7.247563E-1,-2.4591452E-1,-1.0506256E0,-6.4479274E-1,1E0,-1.757875E-2,7.820566E-1,-3.66641E4,2.8523626E0,1.5252737E0,1.1627034E-3,8.6701787E-1,7.987681E-2,-4.6786965E4,-3.0727645E4,-2.931575E4,-1.732351E4,-2.3824219E4,-1.4890003E4,-1.2141981E4,1.7002494E4,-3.485898E4,-2.1227695E4,-1.2139175E4,3.0493672E4,-1.9248668E3,-1.1845533E4,-3.9777463E3,2.73022E4,-2.6007367E4,-1.4239943E4,-1.6719947E4,1.4175153E3,-7.232774E3,5.2415703E3,-1.6898072E4,6.811335E3,2.9174575E3,5.5852668E4,-8.341887E2,5.8163785E4,6.2319644E3,3.0210336E4,-7.7087534E3,-3.2970777E4,-1.9133297E4,1.6656674E3,-1.782679E4,-2.7753613E3,1.5822151E4,2.7300889E3,-1.721657E4,-1.9752578E3,6.11616E4,7.8098574E3,9.956899E3,2.1948793E4,2.1235236E4,4.1443793E4,6.4523777E4,2.304073E4,3.913993E3,2.4481E4,4.442542E4,8.7902664E4,2.6429686E4,4.4636766E4,3.7787168E4,6.3028387E4,1.6357608E4,5.554714E4,1.698904E4,7.793992E4],"split_indices":[0,2,3,0,3,0,0,4,3,3,0,3,14,3,14,12,3,5,3,6,1,3,0,3,4,12,0,10,2,0,0,0,0,14,5,6,4,10,5,3,14,12,0,6,0,14,2,0,0,2,3,11,9,3,10,3,3,0,3,9,3,3,3,0,0,0,0,0,0,0,0,0,0,0,0,0,0,0,0,0,0,0,0,0,0,0,0,0,0,0,0,0,0,0,0,0,0,0,0,0,0,0,0,0,0,0,0,0,0,0,0,0,0,0,0,0,0,0,0,0,0,0,0],"split_type":[0,0,0,0,0,0,0,0,0,0,0,0,0,0,0,0,0,0,0,0,0,0,0,0,0,0,0,0,0,0,0,0,0,0,0,0,0,0,0,0,0,0,0,0,0,0,0,0,0,0,0,0,0,0,0,0,0,0,0,0,0,0,0,0,0,0,0,0,0,0,0,0,0,0,0,0,0,0,0,0,0,0,0,0,0,0,0,0,0,0,0,0,0,0,0,0,0,0,0,0,0,0,0,0,0,0,0,0,0,0,0,0,0,0,0,0,0,0,0,0,0,0,0],"sum_hessian":[3.381E3,2.114E3,1.267E3,1.507E3,6.07E2,5.96E2,6.71E2,9.56E2,5.51E2,3.64E2,2.43E2,1.99E2,3.97E2,4.02E2,2.69E2,6.71E2,2.85E2,1.66E2,3.85E2,1.36E2,2.28E2,1.16E2,1.27E2,4.2E1,1.57E2,1.35E2,2.62E2,3.3E2,7.2E1,2.23E2,4.6E1,4.68E2,2.03E2,2.49E2,3.6E1,1.3E2,3.6E1,2.93E2,9.2E1,4.9E1,8.7E1,2.23E2,5E0,9.4E1,2.2E1,5.1E1,7.6E1,1.1E1,3.1E1,8.6E1,7.1E1,6.1E1,7.4E1,2.22E2,4E1,1.53E2,1.77E2,3E0,6.9E1,1.51E2,7.2E1,1.3E1,3.3E1,4.5E1,4.23E2,8E1,1.23E2,9.8E1,1.51E2,2.2E1,1.4E1,4.3E1,8.7E1,3.3E1,3E0,1.36E2,1.57E2,6.2E1,3E1,4E1,9E0,3.1E1,5.6E1,7.6E1,1.47E2,1.2E1,8.2E1,1E1,1.2E1,7E0,4.4E1,4.8E1,2.8E1,1E0,1E1,2.6E1,5E0,1.8E1,6.8E1,1.2E1,5.9E1,3.7E1,2.4E1,3E0,7.1E1,8.7E1,1.35E2,2.1E1,1.9E1,1.2E1,1.41E2,1.33E2,4.4E1,6E1,9E0,1.03E2,4.8E1,1.1E1,6.1E1,3E0,1E1,1E0,3.2E1],"tree_param":{"num_deleted":"0","num_feature":"15","num_nodes":"123","size_leaf_vector":"1"}},{"base_weights":[4.3438675E2,-2.600184E4,5.3636023E4,-4.7852906E4,1.2355696E4,2.0717012E4,8.387484E4,-5.8477586E4,-2.357301E4,-1.6183717E4,3.286867E4,-5.658647E3,3.54458E4,6.5251625E4,1.1994523E5,-7.459441E4,-3.825465E4,-7.13612E4,-1.5693218E4,-4.7945082E4,-1.2478281E3,4.156898E3,5.082381E4,-2.963381E4,2.1803723E4,2.071627E4,6.3730688E4,3.857543E4,9.401515E4,1.0474787E5,1.8324327E5,-8.548605E4,-5.78228E4,-4.602381E4,-4.2550082E2,-5.4776105E4,-8.834507E4,-2.7568826E4,5.728413E3,-3.775515E4,-3.889604E4,4.4638656E4,-5.828857E3,-2.7764277E3,2.8831111E4,1.7844625E4,7.614604E4,-7.8263375E4,-9.786866E3,-2.878047E4,4.140047E4,-1.9088988E4,2.7754564E4,3.3464848E4,7.941166E4,1.2956269E4,7.398843E4,7.174011E4,1.3250753E5,7.387542E4,1.3253567E5,1.1676168E5,6.4316715E4,-3.2072771E4,-2.2361203E4,-2.0127309E4,-1.2354247E4,-1.5352755E4,-7.081923E3,-1.0718946E4,5.8060293E3,-1.2341267E4,-3.7695656E4,-2.8259846E4,-1.8621031E3,-6.1762656E3,-1.647939E4,-5.4661436E3,8.180814E3,-1.5493032E4,6.6133613E3,-6.2699287E3,5.3038613E3,4.6051987E2,-1.8225068E4,1.6097722E3,3.1692062E4,2.1090709E4,7.5075664E4,-1.7762578E4,-3.0573455E4,-5.634222E3,4.636488E4,-3.1763525E4,-2.9850027E3,1.9951111E4,-5.8986484E3,-1.2434531E3,-1.6810459E4,1.1184491E4,-6.596377E2,2.75869E3,3.642907E4,2.2117695E4,7.673224E4,4.936379E1,2.5416873E4,2.4394682E4,-2.841468E4,4.4452844E4,1.807407E4,5.3204215E4,2.873024E4,1.3436283E4,3.757717E4,6.8135555E4,3.4085234E4,3.6216414E4,9.792854E3],"categories":[],"categories_nodes":[],"categories_segments":[],"categories_sizes":[],"default_left":[0,0,0,0,0,0,0,0,0,0,0,0,0,0,0,0,0,0,0,0,0,0,0,0,0,0,0,0,0,0,0,0,0,0,0,0,0,0,0,0,0,0,0,0,0,0,0,0,0,0,0,0,0,0,0,0,0,0,0,0,0,0,0,0,0,0,0,0,0,0,0,0,0,0,0,0,0,0,0,0,0,0,0,0,0,0,0,0,0,0,0,0,0,0,0,0,0,0,0,0,0,0,0,0,0,0,0,0,0,0,0,0,0,0,0,0,0,0,0],"id":3,"left_children":[1,3,5,7,9,11,13,15,17,19,21,23,25,27,29,31,33,35,37,39,41,43,45,47,49,51,53,55,57,59,61,63,65,67,69,71,73,75,77,-1,79,-1,81,83,-1,85,87,89,91,93,95,97,99,101,103,105,107,109,111,113,115,117,-1,-1,-1,-1,-1,-1,-1,-1,-1,-1,-1,-1,-1,-1,-1,-1,-1,-1,-1,-1,-1,-1,-1,-1,-1,-1,-1,-1,-1,-1,-1,-1,-1,-1,-1,-1,-1,-1,-1,-1,-1,-1,-1,-1,-1,-1,-1,-1,-1,-1,-1,-1,-1,-1,-1,-1,-1],"loss_changes":[4.7580106E12,1.8948172E12,1.1161329E12,3.7009254E11,4.8116862E11,2.095921E11,3.851446E11,3.2340207E11,1.6456699E11,1.6312834E11,2.4620915E11,1.2837859E11,1.4283129E11,2.9408625E11,1.712744E11,9.662156E10,1.3106014E11,1.2624888E10,9.65736E10,7.265157E10,1.6239523E11,1.18203785E11,2.441625E11,9.960949E10,9.139852E10,6.468671E10,5.3345026E10,1.832134E11,1.499739E11,1.2918509E11,5.1580633E10,7.06077E10,3.1478776E10,4.152525E10,5.445918E10,2.7696972E10,1.3360546E10,4.54792E10,7.065684E10,0E0,7.882187E10,0E0,8.150254E10,4.333524E10,0E0,1.4076248E11,1.5129864E11,7.4842604E9,1.1375416E11,3.669305E10,1.02477E11,1.90921E10,5.57287E10,8.85471E10,5.83584E10,1.0923031E11,1.1277232E11,9.649226E10,9.339286E10,1.124622E11,1.2449992E11,7.225016E8,0E0,0E0,0E0,0E0,0E0,0E0,0E0,0E0,0E0,0E0,0E0,0E0,0E0,0E0,0E0,0E0,0E0,0E0,0E0,0E0,0E0,0E0,0E0,0E0,0E0,0E0,0E0,0E0,0E0,0E0,0E0,0E0,0E0,0E0,0E0,0E0,0E0,0E0,0E0,0E0,0E0,0E0,0E0,0E0,0E0,0E0,0E0,0E0,0E0,0E0,0E0,0E0,0E0,0E0,0E0,0E0,0E0],"parents":[2147483647,0,0,1,1,2,2,3,3,4,4,5,5,6,6,7,7,8,8,9,9,10,10,11,11,12,12,13,13,14,14,15,15,16,16,17,17,18,18,19,19,20,20,21,21,22,22,23,23,24,24,25,25,26,26,27,27,28,28,29,29,30,30,31,31,32,32,33,33,34,34,35,35,36,36,37,37,38,38,40,40,42,42,43,43,45,45,46,46,47,47,48,48,49,49,50,50,51,51,52,52,53,53,54,54,55,55,56,56,57,57,58,58,59,59,60,60,61,61],"right_children":[2,4,6,8,10,12,14,16,18,20,22,24,26,28,30,32,34,36,38,40,42,44,46,48,50,52,54,56,58,60,62,64,66,68,70,72,74,76,78,-1,80,-1,82,84,-1,86,88,90,92,94,96,98,100,102,104,106,108,110,112,114,116,118,-1,-1,-1,-1,-1,-1,-1,-1,-1,-1,-1,-1,-1,-1,-1,-1,-1,-1,-1,-1,-1,-1,-1,-1,-1,-1,-1,-1,-1,-1,-1,-1,-1,-1,-1,-1,-1,-1,-1,-1,-1,-1,-1,-1,-1,-1,-1,-1,-1,-1,-1,-1,-1,-1,-1,-1,-1],"split_conditions":[5.4489446E-1,8.737339E-2,-1.7000924E-1,-2.2456409E-1,8.7801075E-1,-8.794233E-2,1.5252737E0,-8.794233E-2,-9.6714574E-1,-8.5461146E-1,1E0,1E0,1.3618093E0,1E0,2.8132234E0,1E0,8.7801075E-1,-7.477911E-2,1E0,-1.6964943E0,-2.4591452E-1,3.126064E0,-3.652653E-1,-1.2270273E0,1E0,-8.047198E-1,1E0,4.3221614E-1,1.3618093E0,9.231875E-1,1.6529095E0,-9.0217537E-1,-7.1113884E-1,-5.752176E-1,1E0,1E0,1E0,1E0,2.3732404E-1,-3.775515E4,1E0,4.4638656E4,1E0,1E0,2.8831111E4,2.206407E0,1E0,-1.0908707E0,1.9586854E0,-1.3700426E0,8.7801075E-1,-8.896811E-1,1E0,-3.7741467E-1,1E0,2.727356E0,2.8523626E0,-1.757875E-2,2.1481527E-1,1.0431875E0,3.472549E-1,2.1814806E0,6.4316715E4,-3.2072771E4,-2.2361203E4,-2.0127309E4,-1.2354247E4,-1.5352755E4,-7.081923E3,-1.0718946E4,5.8060293E3,-1.2341267E4,-3.7695656E4,-2.8259846E4,-1.8621031E3,-6.1762656E3,-1.647939E4,-5.4661436E3,8.180814E3,-1.5493032E4,6.6133613E3,-6.2699287E3,5.3038613E3,4.6051987E2,-1.8225068E4,1.6097722E3,3.1692062E4,2.1090709E4,7.5075664E4,-1.7762578E4,-3.0573455E4,-5.634222E3,4.636488E4,-3.1763525E4,-2.9850027E3,1.9951111E4,-5.8986484E3,-1.2434531E3,-1.6810459E4,1.1184491E4,-6.596377E2,2.75869E3,3.642907E4,2.2117695E4,7.673224E4,4.936379E1,2.5416873E4,2.4394682E4,-2.841468E4,4.4452844E4,1.807407E4,5.3204215E4,2.873024E4,1.3436283E4,3.757717E4,6.8135555E4,3.4085234E4,3.6216414E4,9.792854E3],"split_indices":[0,3,3,0,2,14,9,14,3,0,4,5,0,5,9,12,2,0,5,0,11,2,0,3,12,3,4,3,0,0,3,3,0,0,12,7,1,8,9,0,5,0,5,8,0,3,1,11,0,2,2,3,10,3,8,13,3,3,3,3,3,0,0,0,0,0,0,0,0,0,0,0,0,0,0,0,0,0,0,0,0,0,0,0,0,0,0,0,0,0,0,0,0,0,0,0,0,0,0,0,0,0,0,0,0,0,0,0,0,0,0,0,0,0,0,0,0,0,0],"split_type":[0,0,0,0,0,0,0,0,0,0,0,0,0,0,0,0,0,0,0,0,0,0,0,0,0,0,0,0,0,0,0,0,0,0,0,0,0,0,0,0,0,0,0,0,0,0,0,0,0,0,0,0,0,0,0,0,0,0,0,0,0,0,0,0,0,0,0,0,0,0,0,0,0,0,0,0,0,0,0,0,0,0,0,0,0,0,0,0,0,0,0,0,0,0,0,0,0,0,0,0,0,0,0,0,0,0,0,0,0,0,0,0,0,0,0,0,0,0,0],"sum_hessian":[3.381E3,2.259E3,1.122E3,1.439E3,8.2E2,5.38E2,5.84E2,1E3,4.39E2,3.43E2,4.77E2,1.93E2,3.45E2,3.87E2,1.97E2,5.55E2,4.45E2,6.1E1,3.78E2,1.09E2,2.34E2,1.84E2,2.93E2,1.03E2,9E1,2.28E2,1.17E2,2.02E2,1.85E2,1.61E2,3.6E1,3.34E2,2.21E2,3.69E2,7.6E1,3.3E1,2.8E1,2.43E2,1.35E2,1E1,9.9E1,6E0,2.28E2,1.72E2,1.2E1,1.28E2,1.65E2,2.9E1,7.4E1,2.5E1,6.5E1,3.4E1,1.94E2,4.1E1,7.6E1,1.18E2,8.4E1,1.19E2,6.6E1,7.8E1,8.3E1,1.3E1,2.3E1,1.1E2,2.24E2,1.4E2,8.1E1,2.99E2,7E1,2.7E1,4.9E1,2.9E1,4E0,2.6E1,2E0,1.95E2,4.8E1,6.4E1,7.1E1,8.2E1,1.7E1,1.39E2,8.9E1,1.61E2,1.1E1,1.13E2,1.5E1,1.61E2,4E0,1.8E1,1.1E1,7.1E1,3E0,4E0,2.1E1,4.6E1,1.9E1,2.5E1,9E0,1.47E2,4.7E1,3.3E1,8E0,7.5E1,1E0,1.01E2,1.7E1,8.1E1,3E0,1.4E1,1.05E2,2.8E1,3.8E1,5.1E1,2.7E1,1.2E1,7.1E1,1.2E1,1E0],"tree_param":{"num_deleted":"0","num_feature":"15","num_nodes":"119","size_leaf_vector":"1"}},{"base_weights":[4.3856958E2,-2.938522E4,2.4054104E4,-3.9308492E4,3.9316167E3,2.3258762E3,4.5779867E4,-5.0827973E4,-2.555042E4,-2.005547E4,2.3942473E4,-1.4415011E4,2.2930633E4,2.63918E4,7.660043E4,-7.830316E4,-4.688903E4,-3.9918652E4,-1.3303346E4,-2.414373E4,1.0905639E5,1.415897E4,8.435666E4,-4.7834953E4,-8.436203E3,1.855356E4,8.660266E4,1.4592662E4,6.1769953E4,7.025958E4,1.3419708E5,-8.707257E4,-3.262133E4,-8.609578E4,-4.4700355E4,-4.7247957E4,1.7785592E4,-8.470991E4,-9.316575E3,2.8265916E4,-3.0902773E4,9.978469E3,6.1835355E4,-1.2141341E4,3.000662E4,3.4699246E4,1.24441625E5,-1.8511682E4,-5.042872E4,-1.0204424E4,7.816162E4,-6.199713E3,2.9647568E4,4.972486E4,4.0716793E4,4.732253E4,-3.385156E3,6.4852023E4,5.4711445E4,5.9671016E4,1.1597517E5,1.6355319E5,8.9114625E4,-2.7150342E4,-8.554577E3,-1.2970631E4,1.4168356E3,-2.0712463E4,-3.4328375E4,-2.0945193E3,-1.3973952E4,1.47633545E4,-1.4653521E4,-1.3328066E3,1.9561678E4,-1.2217837E4,-3.285219E4,-5.113665E3,2.111312E3,3.5732112E3,9.222874E3,-7.47198E3,-3.3824414E4,-1.0086567E4,6.2984243E3,1.2096217E4,1.172625E3,3.1282252E4,1.01980505E3,4.2976656E4,2.311653E3,-2.2463443E4,3.8270486E3,-1.3353849E4,-1.9711037E4,-1.799834E3,-1.1951895E4,3.3264133E3,4.7769477E4,-7.89424E3,5.608451E3,1.0521078E4,-1.3578553E4,1.742768E4,2.402318E3,5.44518E3,2.5610102E4,-8.462184E3,5.5501367E3,8.420104E3,2.3428836E4,1.851986E4,-1.8586072E4,2.357659E4,4.422025E4,1.1364807E4,5.2623598E4,2.9438023E4,1.4898788E4],"categories":[],"categories_nodes":[],"categories_segments":[],"categories_sizes":[],"default_left":[0,0,0,0,0,0,0,0,0,0,0,0,0,0,0,0,0,0,0,0,0,0,0,0,0,0,0,0,0,0,0,0,0,0,0,0,0,0,0,0,0,0,0,0,0,0,0,0,0,0,0,0,0,0,0,0,0,0,0,0,0,0,0,0,0,0,0,0,0,0,0,0,0,0,0,0,0,0,0,0,0,0,0,0,0,0,0,0,0,0,0,0,0,0,0,0,0,0,0,0,0,0,0,0,0,0,0,0,0,0,0,0,0,0,0,0,0,0,0],"id":4,"left_children":[1,3,5,7,9,11,13,15,17,19,21,23,25,27,29,31,33,35,37,39,41,43,45,47,49,51,53,55,57,59,61,63,65,67,69,71,73,75,77,79,81,-1,-1,83,85,87,89,91,93,95,97,99,101,103,-1,105,107,-1,109,111,113,115,117,-1,-1,-1,-1,-1,-1,-1,-1,-1,-1,-1,-1,-1,-1,-1,-1,-1,-1,-1,-1,-1,-1,-1,-1,-1,-1,-1,-1,-1,-1,-1,-1,-1,-1,-1,-1,-1,-1,-1,-1,-1,-1,-1,-1,-1,-1,-1,-1,-1,-1,-1,-1,-1,-1,-1,-1],"loss_changes":[2.3826656E12,4.9441944E11,8.911472E11,1.8127703E11,1.6560092E11,3.2630066E11,5.620665E11,6.407599E10,9.220453E10,8.550434E10,1.0992532E11,1.0389798E11,1.1656079E11,2.4162642E11,1.2350862E11,2.8005958E10,4.3347608E10,1.0318981E11,8.0629735E10,5.507208E10,2.9927981E10,6.830241E10,4.7435383E10,5.0750423E9,6.878468E10,1.0947979E11,4.2159997E10,2.5729607E11,1.4620217E11,1.5282025E11,3.1745573E10,1.0268475E10,5.753431E9,5.6288543E9,3.6751016E10,3.552592E10,2.9803508E10,1.1900436E10,3.4501255E10,3.630428E8,6.393499E10,0E0,0E0,4.4836327E10,2.7298357E10,2.7955483E10,2.9643817E10,1.505517E10,3.5815424E9,5.409333E10,4.7173296E10,6.2583624E10,1.13295245E11,5.4689055E9,0E0,1.704743E11,1.5426083E11,0E0,8.503807E10,7.153294E10,6.0084716E10,2.3161012E10,8.155054E8,0E0,0E0,0E0,0E0,0E0,0E0,0E0,0E0,0E0,0E0,0E0,0E0,0E0,0E0,0E0,0E0,0E0,0E0,0E0,0E0,0E0,0E0,0E0,0E0,0E0,0E0,0E0,0E0,0E0,0E0,0E0,0E0,0E0,0E0,0E0,0E0,0E0,0E0,0E0,0E0,0E0,0E0,0E0,0E0,0E0,0E0,0E0,0E0,0E0,0E0,0E0,0E0,0E0,0E0,0E0,0E0],"parents":[2147483647,0,0,1,1,2,2,3,3,4,4,5,5,6,6,7,7,8,8,9,9,10,10,11,11,12,12,13,13,14,14,15,15,16,16,17,17,18,18,19,19,20,20,21,21,22,22,23,23,24,24,25,25,26,26,27,27,28,28,29,29,30,30,31,31,32,32,33,33,34,34,35,35,36,36,37,37,38,38,39,39,40,40,43,43,44,44,45,45,46,46,47,47,48,48,49,49,50,50,51,51,52,52,53,53,55,55,56,56,58,58,59,59,60,60,61,61,62,62],"right_children":[2,4,6,8,10,12,14,16,18,20,22,24,26,28,30,32,34,36,38,40,42,44,46,48,50,52,54,56,58,60,62,64,66,68,70,72,74,76,78,80,82,-1,-1,84,86,88,90,92,94,96,98,100,102,104,-1,106,108,-1,110,112,114,116,118,-1,-1,-1,-1,-1,-1,-1,-1,-1,-1,-1,-1,-1,-1,-1,-1,-1,-1,-1,-1,-1,-1,-1,-1,-1,-1,-1,-1,-1,-1,-1,-1,-1,-1,-1,-1,-1,-1,-1,-1,-1,-1,-1,-1,-1,-1,-1,-1,-1,-1,-1,-1,-1,-1,-1,-1],"split_conditions":[-2.095479E-1,3.6974463E-1,-6.005938E-2,-8.794233E-2,8.774246E-1,7.9467136E-1,7.8853256E-1,-1.1620569E0,1E0,2.8132234E0,-2.8567407E-1,-9.6714574E-1,2.727356E0,1.2730827E0,2.1454887E0,-2.4591452E-1,-1.6964943E0,-2.8567407E-1,-1.3319794E0,4.3721387E-1,-1.3693645E0,6.0713637E-1,8.0829465E-1,-1.8676908E-1,1.8427916E0,-8.5094875E-1,1E0,1E0,1.3293071E0,1.8427916E0,2.2581413E0,-3.3938968E-1,-2.4601589E-1,-8.2549125E-2,-1.0770956E0,-1.0908707E0,-9.254457E-2,-1.4219384E0,8.7801075E-1,-1.2846901E0,-8.794233E-2,9.978469E3,6.1835355E4,1E0,1.5879391E0,-2.5595453E-1,-2.1869522E-1,-1.9360377E-1,-1.0970865E0,1E0,-1.9624728E-1,1E0,-1.5270539E-1,2.3732404E-1,4.0716793E4,1E0,5.9904176E-1,6.4852023E4,1E0,1E0,1.0501574E0,2.3732404E-1,1.0069541E0,-2.7150342E4,-8.554577E3,-1.2970631E4,1.4168356E3,-2.0712463E4,-3.4328375E4,-2.0945193E3,-1.3973952E4,1.47633545E4,-1.4653521E4,-1.3328066E3,1.9561678E4,-1.2217837E4,-3.285219E4,-5.113665E3,2.111312E3,3.5732112E3,9.222874E3,-7.47198E3,-3.3824414E4,-1.0086567E4,6.2984243E3,1.2096217E4,1.172625E3,3.1282252E4,1.01980505E3,4.2976656E4,2.311653E3,-2.2463443E4,3.8270486E3,-1.3353849E4,-1.9711037E4,-1.799834E3,-1.1951895E4,3.3264133E3,4.7769477E4,-7.89424E3,5.608451E3,1.0521078E4,-1.3578553E4,1.742768E4,2.402318E3,5.44518E3,2.5610102E4,-8.462184E3,5.5501367E3,8.420104E3,2.3428836E4,1.851986E4,-1.8586072E4,2.357659E4,4.422025E4,1.1364807E4,5.2623598E4,2.9438023E4,1.4898788E4],"split_indices":[0,3,3,14,14,0,0,3,10,9,0,3,13,3,0,11,0,0,3,3,0,3,3,0,14,3,5,10,3,14,0,0,2,3,3,11,3,3,2,0,14,0,0,12,3,0,0,0,3,8,3,12,3,9,0,5,11,0,6,7,0,9,3,0,0,0,0,0,0,0,0,0,0,0,0,0,0,0,0,0,0,0,0,0,0,0,0,0,0,0,0,0,0,0,0,0,0,0,0,0,0,0,0,0,0,0,0,0,0,0,0,0,0,0,0,0,0,0,0],"split_type":[0,0,0,0,0,0,0,0,0,0,0,0,0,0,0,0,0,0,0,0,0,0,0,0,0,0,0,0,0,0,0,0,0,0,0,0,0,0,0,0,0,0,0,0,0,0,0,0,0,0,0,0,0,0,0,0,0,0,0,0,0,0,0,0,0,0,0,0,0,0,0,0,0,0,0,0,0,0,0,0,0,0,0,0,0,0,0,0,0,0,0,0,0,0,0,0,0,0,0,0,0,0,0,0,0,0,0,0,0,0,0,0,0,0,0,0,0,0,0],"sum_hessian":[3.381E3,1.494E3,1.887E3,1.151E3,3.43E2,9.44E2,9.43E2,6.25E2,5.26E2,1.56E2,1.87E2,5.21E2,4.23E2,5.8E2,3.63E2,7.6E1,5.49E2,2.41E2,2.85E2,1.52E2,4E0,1.62E2,2.5E1,7.8E1,4.43E2,3.97E2,2.6E1,4.36E2,1.44E2,3.29E2,3.4E1,6.3E1,1.3E1,2.7E1,5.22E2,2.14E2,2.7E1,1.4E1,2.71E2,1.7E1,1.35E2,3E0,1E0,6.1E1,1.01E2,1.2E1,1.3E1,7E0,7.1E1,4.35E2,8E0,1.23E2,2.74E2,1.6E1,1E1,1.54E2,2.82E2,5E0,1.39E2,2.69E2,6E1,1.9E1,1.5E1,5.9E1,4E0,1E1,3E0,1.9E1,8E0,2.5E1,4.97E2,3E0,2.11E2,1.9E1,8E0,6E0,8E0,1.84E2,8.7E1,3E0,1.4E1,1.27E2,8E0,3.7E1,2.4E1,7.2E1,2.9E1,3E0,9E0,1.1E1,2E0,2E0,5E0,5.4E1,1.7E1,3.82E2,5.3E1,5E0,3E0,6.8E1,5.5E1,2.56E2,1.8E1,1.3E1,3E0,8.8E1,6.6E1,1.32E2,1.5E2,6.6E1,7.3E1,2.65E2,4E0,2.9E1,3.1E1,2E0,1.7E1,1.1E1,4E0],"tree_param":{"num_deleted":"0","num_feature":"15","num_nodes":"119","size_leaf_vector":"1"}},{"base_weights":[4.028096E2,-1.3523918E4,2.6538766E4,-2.8836744E4,3.976948E2,1.752792E4,6.49684E4,-4.7123527E4,-2.4268805E4,-4.590698E3,3.7571062E4,8.212672E3,3.8106723E4,1.2776334E5,5.6753113E4,-5.7413723E4,-3.6582926E4,-3.062084E4,-1.07485625E4,-5.860977E3,1.5699102E5,-3.6951912E3,5.070069E4,-6.583766E4,1.0398209E4,-2.2391555E4,4.4239484E4,1.0709379E5,6.285151E4,5.2082297E4,5.9495195E4,-6.263853E4,-3.62899E4,-4.672342E4,-2.1798627E4,-2.8444822E4,-7.195958E4,-3.6630793E4,-1.5526077E3,-3.0164656E4,-9.990589E2,-9.280078E1,5.3852004E4,3.2471205E4,-2.2403955E4,8.649208E3,6.460697E4,-1.8849774E3,-2.063915E4,-1.3120633E4,1.4933704E4,-5.7229496E4,1.4227257E2,9.148932E3,5.7441277E4,1.2663417E5,5.706885E4,-5.4218543E4,5.6945875E4,-1.5965503E4,-2.4596352E4,-1.2233451E4,-1.4328247E3,-4.183978E3,-1.5827536E4,-4.8637593E3,-1.4942123E4,-1.1507746E4,-4.9130884E3,-3.1520818E4,-1.67759E4,-1.3495399E4,3.9075857E3,1.7812594E4,-1.8244604E3,-2.3445139E4,-7.4949736E3,-2.1476284E3,3.443372E3,1.3998484E4,4.700777E3,-8.856532E3,2.012821E4,-7.6836484E3,2.0836426E4,1.339768E4,3.083562E4,-9.723628E3,1.0663611E4,7.631731E3,-2.8624124E3,-2.9004477E4,-1.131599E4,-5.884194E3,2.2257795E4,-6.1605874E3,1.112289E4,9.729434E3,2.494661E4,4.0315473E4,1.5250889E4,8.738621E3,2.0402152E4,-7.7297705E3,-2.1548244E4,2.6701904E4,1.3351344E4],"categories":[],"categories_nodes":[],"categories_segments":[],"categories_sizes":[],"default_left":[0,0,0,0,0,0,0,0,0,0,0,0,0,0,0,0,0,0,0,0,0,0,0,0,0,0,0,0,0,0,0,0,0,0,0,0,0,0,0,0,0,0,0,0,0,0,0,0,0,0,0,0,0,0,0,0,0,0,0,0,0,0,0,0,0,0,0,0,0,0,0,0,0,0,0,0,0,0,0,0,0,0,0,0,0,0,0,0,0,0,0,0,0,0,0,0,0,0,0,0,0,0,0,0,0,0,0],"id":5,"left_children":[1,3,5,7,9,11,13,15,17,19,21,23,25,27,29,31,33,35,37,39,41,43,45,47,49,51,53,55,-1,57,-1,59,61,63,65,67,69,71,73,75,77,-1,-1,79,81,83,85,-1,-1,87,89,91,93,95,97,99,101,103,105,-1,-1,-1,-1,-1,-1,-1,-1,-1,-1,-1,-1,-1,-1,-1,-1,-1,-1,-1,-1,-1,-1,-1,-1,-1,-1,-1,-1,-1,-1,-1,-1,-1,-1,-1,-1,-1,-1,-1,-1,-1,-1,-1,-1,-1,-1,-1,-1],"loss_changes":[1.2313674E12,4.7049805E11,4.060906E11,8.664954E10,2.147212E11,1.8256567E11,1.0778988E11,2.0568801E10,7.206853E10,2.104843E11,7.441541E10,1.0717513E11,1.1118399E11,1.9802423E10,1.2125405E11,9.205154E9,1.4873035E10,4.9496654E10,6.4444342E10,1.1978666E11,2.838931E10,2.3732857E10,6.025827E10,2.9165158E9,6.8464484E10,2.198904E10,1.2455415E11,1.4278279E10,0E0,1.0338599E11,0E0,1.0583245E10,3.0584177E9,1.152838E10,6.2331064E9,6.4697827E10,8.99475E9,3.0038188E10,5.582465E10,4.006671E10,6.510098E10,0E0,0E0,2.129964E9,1.6632434E10,5.802748E10,5.4813327E10,0E0,0E0,9.879127E10,1.3831638E11,4.8197837E9,2.7788454E10,6.2936535E10,1.2335166E11,1.9806945E9,4.639826E8,2.6584863E9,7.022995E10,0E0,0E0,0E0,0E0,0E0,0E0,0E0,0E0,0E0,0E0,0E0,0E0,0E0,0E0,0E0,0E0,0E0,0E0,0E0,0E0,0E0,0E0,0E0,0E0,0E0,0E0,0E0,0E0,0E0,0E0,0E0,0E0,0E0,0E0,0E0,0E0,0E0,0E0,0E0,0E0,0E0,0E0,0E0,0E0,0E0,0E0,0E0,0E0],"parents":[2147483647,0,0,1,1,2,2,3,3,4,4,5,5,6,6,7,7,8,8,9,9,10,10,11,11,12,12,13,13,14,14,15,15,16,16,17,17,18,18,19,19,20,20,21,21,22,22,23,23,24,24,25,25,26,26,27,27,29,29,31,31,32,32,33,33,34,34,35,35,36,36,37,37,38,38,39,39,40,40,43,43,44,44,45,45,46,46,49,49,50,50,51,51,52,52,53,53,54,54,55,55,56,56,57,57,58,58],"right_children":[2,4,6,8,10,12,14,16,18,20,22,24,26,28,30,32,34,36,38,40,42,44,46,48,50,52,54,56,-1,58,-1,60,62,64,66,68,70,72,74,76,78,-1,-1,80,82,84,86,-1,-1,88,90,92,94,96,98,100,102,104,106,-1,-1,-1,-1,-1,-1,-1,-1,-1,-1,-1,-1,-1,-1,-1,-1,-1,-1,-1,-1,-1,-1,-1,-1,-1,-1,-1,-1,-1,-1,-1,-1,-1,-1,-1,-1,-1,-1,-1,-1,-1,-1,-1,-1,-1,-1,-1,-1],"split_conditions":[4.9043864E-1,-3.124443E-1,7.820566E-1,-1.2626517E0,2.0020373E0,1.3618093E0,8.6701787E-1,1E0,1E0,1E0,-7.81995E-1,-1.4219384E0,-1.0908707E0,1.443998E0,4.823823E0,1E0,1E0,-3.5742378E-1,-1.017123E0,-1.2214155E0,-6.5359753E-1,1E0,1E0,6.82214E-1,1E0,1E0,1E0,8.70318E-1,6.285151E4,8.7801075E-1,5.9495195E4,-1.3693645E0,1E0,1E0,-6.173053E-1,-7.3600113E-1,-7.184499E-1,1E0,-9.6714574E-1,-1.7956245E0,1E0,-9.280078E1,5.3852004E4,1.5879391E0,3.4758282E0,3.4758282E0,2.206407E0,-1.8849774E3,-2.063915E4,1.336023E-1,1E0,-1.3669634E0,-1.4869088E0,1E0,1E0,1.8427916E0,1.0213099E0,1.1069084E0,5.9904176E-1,-1.5965503E4,-2.4596352E4,-1.2233451E4,-1.4328247E3,-4.183978E3,-1.5827536E4,-4.8637593E3,-1.4942123E4,-1.1507746E4,-4.9130884E3,-3.1520818E4,-1.67759E4,-1.3495399E4,3.9075857E3,1.7812594E4,-1.8244604E3,-2.3445139E4,-7.4949736E3,-2.1476284E3,3.443372E3,1.3998484E4,4.700777E3,-8.856532E3,2.012821E4,-7.6836484E3,2.0836426E4,1.339768E4,3.083562E4,-9.723628E3,1.0663611E4,7.631731E3,-2.8624124E3,-2.9004477E4,-1.131599E4,-5.884194E3,2.2257795E4,-6.1605874E3,1.112289E4,9.729434E3,2.494661E4,4.0315473E4,1.5250889E4,8.738621E3,2.0402152E4,-7.7297705E3,-2.1548244E4,2.6701904E4,1.3351344E4],"split_indices":[0,3,3,0,2,0,3,10,5,1,0,3,11,11,11,4,12,3,3,0,0,4,6,0,6,5,12,0,0,2,0,0,5,6,3,3,0,1,3,0,5,0,0,3,3,3,3,0,0,3,10,3,3,4,10,14,0,3,11,0,0,0,0,0,0,0,0,0,0,0,0,0,0,0,0,0,0,0,0,0,0,0,0,0,0,0,0,0,0,0,0,0,0,0,0,0,0,0,0,0,0,0,0,0,0,0,0],"split_type":[0,0,0,0,0,0,0,0,0,0,0,0,0,0,0,0,0,0,0,0,0,0,0,0,0,0,0,0,0,0,0,0,0,0,0,0,0,0,0,0,0,0,0,0,0,0,0,0,0,0,0,0,0,0,0,0,0,0,0,0,0,0,0,0,0,0,0,0,0,0,0,0,0,0,0,0,0,0,0,0,0,0,0,0,0,0,0,0,0,0,0,0,0,0,0,0,0,0,0,0,0,0,0,0,0,0,0],"sum_hessian":[3.381E3,2.206E3,1.175E3,1.05E3,1.156E3,9.53E2,2.22E2,2.08E2,8.42E2,1.02E3,1.36E2,6.57E2,2.96E2,2.4E1,1.98E2,1.03E2,1.05E2,5.72E2,2.7E2,1.013E3,7E0,3.3E1,1.03E2,1.8E1,6.39E2,2.7E1,2.69E2,2.1E1,3E0,1.93E2,5E0,8.1E1,2.2E1,6.1E1,4.4E1,5.45E2,2.7E1,7E1,2E2,1.68E2,8.45E2,1E0,6E0,1.1E1,2.2E1,2.6E1,7.7E1,1E0,1.7E1,1.03E2,5.36E2,1E1,1.7E1,7.4E1,1.95E2,1.4E1,7E0,8E0,1.85E2,5.7E1,2.4E1,1.9E1,3E0,1E1,5.1E1,3.8E1,6E0,2.98E2,2.47E2,7E0,2E1,6E1,1E1,1.3E1,1.87E2,1.5E1,1.53E2,5.66E2,2.79E2,5E0,6E0,2.1E1,1E0,1.7E1,9E0,5.2E1,2.5E1,7.4E1,2.9E1,3.75E2,1.61E2,2E0,8E0,1.4E1,3E0,3.6E1,3.8E1,1E2,9.5E1,1.2E1,2E0,3E0,4E0,4E0,4E0,5E1,1.35E2],"tree_param":{"num_deleted":"0","num_feature":"15","num_nodes":"107","size_leaf_vector":"1"}},{"base_weights":[3.3395288E2,-1.5248383E4,1.2481605E4,-2.32684E4,-8.4102716E2,6.4098E3,3.583861E4,-3.0437912E4,-1.0793749E4,-9.445024E3,2.2795592E4,-1.3899381E3,2.1660932E4,2.1115135E4,4.824007E4,-2.9329066E4,-1.0048614E5,-2.9764703E4,-4.9489277E3,-1.8517895E4,-9.0929425E2,-4.393446E3,4.274359E4,1.9824663E2,-5.6529715E4,1.2862997E4,4.0881004E4,5.584288E4,6.683462E3,3.9394363E4,9.339128E4,-3.820937E4,-2.3401398E4,-1.2885723E4,-3.6628285E4,-1.8872678E4,-2.5832457E4,-3.073322E3,-4.4705742E4,-1.5388106E4,-6.339993E4,-2.2187877E4,8.89458E3,-3.3823938E4,2.3334936E4,-1.6333245E4,5.4110723E4,-1.1809587E4,7.394734E3,-1.0022464E5,-2.668672E4,-5.132494E3,2.1729986E4,7.011002E4,3.5708027E4,2.9756229E4,5.4021414E4,4.215486E4,1.276685E3,9.95328E4,3.0333355E4,6.391327E4,3.6767844E4,-7.9703135E3,-1.4324978E4,-1.6109498E4,-5.7038726E3,-1.2390503E4,-4.3805493E3,-1.2869392E3,1.4559257E4,-1.54446455E4,4.475208E3,-7.5287803E3,1.2366653E3,-2.4413992E4,-9.556969E3,-3.478644E3,-2.0136592E4,3.1512916E4,9.000052E2,-1.2609713E4,-2.5461964E2,-4.64564E3,2.0509129E4,-1.6056938E2,-1.3398788E4,2.2845484E4,8.327548E3,-6.7191245E3,8.037771E2,-1.5006876E3,5.2446616E3,-3.8736164E4,-1.9580072E4,2.837047E3,-1.239466E4,1.2787388E3,-1.5273348E4,7.1342427E3,-1.8254494E4,4.4874855E4,9.525973E3,-8.674938E3,1.3568292E4,-9.711278E3,6.383617E3,2.4596832E4,4.870992E4,5.8324243E3,2.0323227E4,1.1895882E4,2.7694385E4],"categories":[],"categories_nodes":[],"categories_segments":[],"categories_sizes":[],"default_left":[0,0,0,0,0,0,0,0,0,0,0,0,0,0,0,0,0,0,0,0,0,0,0,0,0,0,0,0,0,0,0,0,0,0,0,0,0,0,0,0,0,0,0,0,0,0,0,0,0,0,0,0,0,0,0,0,0,0,0,0,0,0,0,0,0,0,0,0,0,0,0,0,0,0,0,0,0,0,0,0,0,0,0,0,0,0,0,0,0,0,0,0,0,0,0,0,0,0,0,0,0,0,0,0,0,0,0,0,0,0,0,0,0],"id":6,"left_children":[1,3,5,7,9,11,13,15,17,19,21,23,25,27,29,31,33,35,37,39,41,43,45,47,49,51,53,55,57,59,61,63,65,-1,-1,-1,67,69,71,73,75,77,79,81,83,85,87,89,91,93,95,97,99,-1,101,103,-1,-1,105,107,109,111,-1,-1,-1,-1,-1,-1,-1,-1,-1,-1,-1,-1,-1,-1,-1,-1,-1,-1,-1,-1,-1,-1,-1,-1,-1,-1,-1,-1,-1,-1,-1,-1,-1,-1,-1,-1,-1,-1,-1,-1,-1,-1,-1,-1,-1,-1,-1,-1,-1,-1,-1],"loss_changes":[6.4036504E11,1.7122148E11,2.693685E11,8.481564E10,1.0820447E11,1.796519E11,7.055776E10,4.396712E10,3.855045E10,3.018616E10,7.720387E10,8.758335E10,8.588267E10,9.034025E10,8.099247E10,3.0478991E10,5.944533E9,9.062064E9,1.9846863E10,2.5573458E10,4.2337083E10,5.0568933E10,5.5949607E10,8.416836E10,3.383699E10,5.62787E10,1.512468E11,1.6639915E11,9.316549E10,9.452057E10,2.1400682E10,2.5054478E10,4.684384E10,0E0,0E0,0E0,1.2426596E10,1.6341413E10,5.616341E9,3.3817158E10,4.2133258E9,2.9683116E10,7.846356E10,8.084572E9,5.699583E10,6.2417664E9,3.796317E10,5.6051204E10,7.624573E10,2.6841907E9,9.907981E9,5.053737E10,4.141442E10,0E0,6.5955283E10,4.2156528E10,0E0,0E0,8.4816404E10,1.2040847E10,6.265661E10,9.43095E9,0E0,0E0,0E0,0E0,0E0,0E0,0E0,0E0,0E0,0E0,0E0,0E0,0E0,0E0,0E0,0E0,0E0,0E0,0E0,0E0,0E0,0E0,0E0,0E0,0E0,0E0,0E0,0E0,0E0,0E0,0E0,0E0,0E0,0E0,0E0,0E0,0E0,0E0,0E0,0E0,0E0,0E0,0E0,0E0,0E0,0E0,0E0,0E0,0E0,0E0,0E0],"parents":[2147483647,0,0,1,1,2,2,3,3,4,4,5,5,6,6,7,7,8,8,9,9,10,10,11,11,12,12,13,13,14,14,15,15,16,16,17,17,18,18,19,19,20,20,21,21,22,22,23,23,24,24,25,25,26,26,27,27,28,28,29,29,30,30,31,31,32,32,36,36,37,37,38,38,39,39,40,40,41,41,42,42,43,43,44,44,45,45,46,46,47,47,48,48,49,49,50,50,51,51,52,52,54,54,55,55,58,58,59,59,60,60,61,61],"right_children":[2,4,6,8,10,12,14,16,18,20,22,24,26,28,30,32,34,36,38,40,42,44,46,48,50,52,54,56,58,60,62,64,66,-1,-1,-1,68,70,72,74,76,78,80,82,84,86,88,90,92,94,96,98,100,-1,102,104,-1,-1,106,108,110,112,-1,-1,-1,-1,-1,-1,-1,-1,-1,-1,-1,-1,-1,-1,-1,-1,-1,-1,-1,-1,-1,-1,-1,-1,-1,-1,-1,-1,-1,-1,-1,-1,-1,-1,-1,-1,-1,-1,-1,-1,-1,-1,-1,-1,-1,-1,-1,-1,-1,-1,-1],"split_conditions":[-2.1350592E-1,1E0,7.820566E-1,1E0,5.783995E-1,8.8662744E-1,5.837753E-1,1.8427916E0,-9.9213433E-1,8.774246E-1,1E0,7.320794E-1,-3.2571916E-2,-2.3175871E-2,2.8132234E0,-2.4601589E-1,5.9904176E-1,-1.2857505E0,1E0,3.972321E-1,-3.711675E-1,1E0,-1.2444605E0,2.3732404E-1,4.7340053E-1,-8.794233E-2,-1.757875E-2,2.727356E0,-2.4591452E-1,8.6701787E-1,2.283872E0,-9.509032E-1,-7.572415E-1,-1.2885723E4,-3.6628285E4,-1.8872678E4,1E0,5.707702E0,2.3730503E-1,1E0,-1.273869E0,-6.29864E-1,-3.4243062E-1,2.0020373E0,1E0,1.8565667E0,1E0,1E0,-1.7000924E-1,5.6419104E-2,7.358277E-1,1E0,1E0,7.011002E4,-2.4601589E-1,-8.794233E-2,5.4021414E4,4.215486E4,1.2730827E0,1.443998E0,1.8427916E0,1.443998E0,3.6767844E4,-7.9703135E3,-1.4324978E4,-1.6109498E4,-5.7038726E3,-1.2390503E4,-4.3805493E3,-1.2869392E3,1.4559257E4,-1.54446455E4,4.475208E3,-7.5287803E3,1.2366653E3,-2.4413992E4,-9.556969E3,-3.478644E3,-2.0136592E4,3.1512916E4,9.000052E2,-1.2609713E4,-2.5461964E2,-4.64564E3,2.0509129E4,-1.6056938E2,-1.3398788E4,2.2845484E4,8.327548E3,-6.7191245E3,8.037771E2,-1.5006876E3,5.2446616E3,-3.8736164E4,-1.9580072E4,2.837047E3,-1.239466E4,1.2787388E3,-1.5273348E4,7.1342427E3,-1.8254494E4,4.4874855E4,9.525973E3,-8.674938E3,1.3568292E4,-9.711278E3,6.383617E3,2.4596832E4,4.870992E4,5.8324243E3,2.0323227E4,1.1895882E4,2.7694385E4],"split_indices":[0,4,3,12,3,0,0,14,3,14,5,3,3,0,9,2,11,3,8,3,3,12,0,9,0,14,3,13,11,3,3,3,3,0,0,0,10,13,3,5,0,0,3,2,10,3,10,12,3,0,3,8,7,0,2,14,0,0,3,11,14,11,0,0,0,0,0,0,0,0,0,0,0,0,0,0,0,0,0,0,0,0,0,0,0,0,0,0,0,0,0,0,0,0,0,0,0,0,0,0,0,0,0,0,0,0,0,0,0,0,0,0,0],"split_type":[0,0,0,0,0,0,0,0,0,0,0,0,0,0,0,0,0,0,0,0,0,0,0,0,0,0,0,0,0,0,0,0,0,0,0,0,0,0,0,0,0,0,0,0,0,0,0,0,0,0,0,0,0,0,0,0,0,0,0,0,0,0,0,0,0,0,0,0,0,0,0,0,0,0,0,0,0,0,0,0,0,0,0,0,0,0,0,0,0,0,0,0,0,0,0,0,0,0,0,0,0,0,0,0,0,0,0,0,0,0,0,0,0],"sum_hessian":[3.381E3,1.481E3,1.9E3,9.51E2,5.3E2,1.509E3,3.91E2,6.03E2,3.48E2,3.89E2,1.41E2,9.99E2,5.1E2,1.8E2,2.11E2,5.95E2,8E0,8.1E1,2.67E2,1.88E2,2.01E2,6E1,8.1E1,9.72E2,2.7E1,3.51E2,1.59E2,5.2E1,1.28E2,1.78E2,3.3E1,2.36E2,3.59E2,3E0,5E0,7E0,7.4E1,2.56E2,1.1E1,1.77E2,1.1E1,6.3E1,1.38E2,2.9E1,3.1E1,1.3E1,6.8E1,3.64E2,6.08E2,1E1,1.7E1,1.16E2,2.35E2,3E0,1.56E2,4.4E1,8E0,4E0,1.24E2,2.2E1,1.56E2,1.8E1,1.5E1,1.08E2,1.28E2,4.4E1,3.15E2,3E1,4.4E1,2.51E2,5E0,1E1,1E0,1.18E2,5.9E1,6E0,5E0,5.2E1,1.1E1,7E0,1.31E2,2.3E1,6E0,1.7E1,1.4E1,9E0,4E0,3.6E1,3.2E1,2.1E2,1.54E2,2.73E2,3.35E2,4E0,6E0,5E0,1.2E1,9.7E1,1.9E1,2.3E2,5E0,4E0,1.52E2,9E0,3.5E1,4.6E1,7.8E1,1.9E1,3E0,1.22E2,3.4E1,1.1E1,7E0],"tree_param":{"num_deleted":"0","num_feature":"15","num_nodes":"113","size_leaf_vector":"1"}},{"base_weights":[2.825817E2,-5.339784E3,1.7855559E4,-9.136401E3,1.4619368E4,7.448428E3,3.0307406E4,-1.815732E4,-4.584943E3,4.7591387E3,2.999623E4,4.8066255E3,4.6903805E4,5.990036E4,2.7930416E4,-2.6485742E4,-1.1646414E4,-3.891589E3,-6.987055E4,-1.9845223E4,1.3109777E4,5.194305E4,9.521214E3,7.310011E3,-3.350673E4,3.253799E4,3.1943688E4,-1.8330865E4,3.1058566E4,-3.6703457E4,-9.262267E3,-1.3934999E4,1.6561424E4,-1.9467671E3,-2.2681771E4,-8.869307E4,4.064664E3,-5.870837E4,3.3879673E3,3.3678354E3,4.2263945E4,-1.6259611E4,6.0086254E4,5.4917355E4,4.3575967E2,-1.4472432E3,1.7934432E4,-4.3054305E4,-1.8359666E4,3.1816355E4,1.6985414E4,1.170791E4,-2.8383154E4,1.7230803E5,2.7633629E4,-8.913876E3,-2.6580145E4,-1.5844668E4,-1.1652545E3,-8.551919E3,-3.358888E3,8.440355E3,-8.141091E3,-2.8841565E3,8.0593915E2,-1.1820753E4,-5.475163E3,-1.3647203E4,-2.9411807E4,3.5090674E3,-7.135125E2,-2.0776652E4,-1.4334451E3,6.603758E3,-2.2856973E4,-6.4932367E2,1.5105549E4,3.2323607E4,5.7788433E3,1.40289E3,-1.0183081E4,2.2112742E4,3.9085178E2,2.7135713E3,2.1708504E4,-8.346491E3,8.146186E3,-7.578434E3,1.9065802E3,-4.7966924E3,7.2196475E3,-1.0669025E4,1.1753647E4,6.7851875E3,-3.7813174E3,-5.220318E3,-1.8013695E4,1.0497066E4,7.43102E4,-5.4101997E3,9.735755E3],"categories":[],"categories_nodes":[],"categories_segments":[],"categories_sizes":[],"default_left":[0,0,0,0,0,0,0,0,0,0,0,0,0,0,0,0,0,0,0,0,0,0,0,0,0,0,0,0,0,0,0,0,0,0,0,0,0,0,0,0,0,0,0,0,0,0,0,0,0,0,0,0,0,0,0,0,0,0,0,0,0,0,0,0,0,0,0,0,0,0,0,0,0,0,0,0,0,0,0,0,0,0,0,0,0,0,0,0,0,0,0,0,0,0,0,0,0,0,0,0,0],"id":7,"left_children":[1,3,5,7,9,11,13,15,17,19,21,23,25,-1,27,29,31,33,35,37,39,41,43,45,47,49,-1,51,53,55,57,59,61,63,65,67,69,71,73,75,77,79,81,83,85,87,89,-1,91,-1,93,-1,95,97,99,-1,-1,-1,-1,-1,-1,-1,-1,-1,-1,-1,-1,-1,-1,-1,-1,-1,-1,-1,-1,-1,-1,-1,-1,-1,-1,-1,-1,-1,-1,-1,-1,-1,-1,-1,-1,-1,-1,-1,-1,-1,-1,-1,-1,-1,-1],"loss_changes":[3.342427E11,1.9435065E11,1.0603641E11,8.8356405E10,6.2021198E10,4.6471078E10,1.445812E11,3.8842384E10,6.4594297E10,5.1831153E10,7.140329E10,4.062435E10,2.0499067E10,0E0,5.3968142E10,5.527118E10,2.650509E10,5.1811156E10,2.123522E10,5.798546E10,5.3253095E10,4.3741856E10,3.462141E10,3.6870095E10,4.068873E10,2.5639535E10,0E0,1.4945407E10,1.626232E11,6.919946E10,2.7668615E10,1.4725685E10,1.6440978E10,4.5744427E10,9.135309E9,3.8549914E8,2.2451853E8,1.3320511E10,6.2443344E10,3.701863E10,6.8713415E10,3.4908047E9,5.515911E10,1.0548384E10,5.435952E10,4.0667242E10,3.7614342E10,0E0,2.51504E10,0E0,3.7846472E9,0E0,6.257273E9,7.415492E10,7.5187995E10,0E0,0E0,0E0,0E0,0E0,0E0,0E0,0E0,0E0,0E0,0E0,0E0,0E0,0E0,0E0,0E0,0E0,0E0,0E0,0E0,0E0,0E0,0E0,0E0,0E0,0E0,0E0,0E0,0E0,0E0,0E0,0E0,0E0,0E0,0E0,0E0,0E0,0E0,0E0,0E0,0E0,0E0,0E0,0E0,0E0,0E0],"parents":[2147483647,0,0,1,1,2,2,3,3,4,4,5,5,6,6,7,7,8,8,9,9,10,10,11,11,12,12,14,14,15,15,16,16,17,17,18,18,19,19,20,20,21,21,22,22,23,23,24,24,25,25,27,27,28,28,29,29,30,30,31,31,32,32,33,33,34,34,35,35,36,36,37,37,38,38,39,39,40,40,41,41,42,42,43,43,44,44,45,45,46,46,48,48,50,50,52,52,53,53,54,54],"right_children":[2,4,6,8,10,12,14,16,18,20,22,24,26,-1,28,30,32,34,36,38,40,42,44,46,48,50,-1,52,54,56,58,60,62,64,66,68,70,72,74,76,78,80,82,84,86,88,90,-1,92,-1,94,-1,96,98,100,-1,-1,-1,-1,-1,-1,-1,-1,-1,-1,-1,-1,-1,-1,-1,-1,-1,-1,-1,-1,-1,-1,-1,-1,-1,-1,-1,-1,-1,-1,-1,-1,-1,-1,-1,-1,-1,-1,-1,-1,-1,-1,-1,-1,-1,-1],"split_conditions":[7.7815336E-1,8.0829465E-1,-3.2571916E-2,-7.9606366E-1,1E0,2.727356E0,-1.757875E-2,1E0,1E0,1E0,1E0,-1.5270539E-1,8.7801075E-1,5.990036E4,4.23939E-2,1E0,2.727356E0,1E0,1E0,-8.794233E-2,2.4117143E-1,-1.2444605E0,8.5202473E-1,1.3618093E0,-1.2627919E-1,-2.4601589E-1,3.1943688E4,-2.4591452E-1,4.7391623E-2,1.3235289E-1,-7.572415E-1,-1.1120796E0,-3.0244884E-1,2.3732404E-1,2.3732404E-1,-2.4601589E-1,1.3344991E-1,1E0,-9.6548624E-2,3.126064E0,4.3282324E-1,1.8565667E0,1.8427916E0,-7.5575876E-1,1.2730827E0,1E0,-1.0908707E0,-4.3054305E4,5.9904176E-1,3.1816355E4,2.0380723E0,1.170791E4,1E0,1.3265815E0,2.073187E-1,-8.913876E3,-2.6580145E4,-1.5844668E4,-1.1652545E3,-8.551919E3,-3.358888E3,8.440355E3,-8.141091E3,-2.8841565E3,8.0593915E2,-1.1820753E4,-5.475163E3,-1.3647203E4,-2.9411807E4,3.5090674E3,-7.135125E2,-2.0776652E4,-1.4334451E3,6.603758E3,-2.2856973E4,-6.4932367E2,1.5105549E4,3.2323607E4,5.7788433E3,1.40289E3,-1.0183081E4,2.2112742E4,3.9085178E2,2.7135713E3,2.1708504E4,-8.346491E3,8.146186E3,-7.578434E3,1.9065802E3,-4.7966924E3,7.2196475E3,-1.0669025E4,1.1753647E4,6.7851875E3,-3.7813174E3,-5.220318E3,-1.8013695E4,1.0497066E4,7.43102E4,-5.4101997E3,9.735755E3],"split_indices":[0,3,3,0,5,13,3,10,7,10,10,3,2,0,3,4,13,8,4,14,0,0,3,0,3,2,0,11,3,3,3,3,3,9,9,2,0,12,0,2,0,3,14,0,3,6,11,0,11,0,0,0,10,0,3,0,0,0,0,0,0,0,0,0,0,0,0,0,0,0,0,0,0,0,0,0,0,0,0,0,0,0,0,0,0,0,0,0,0,0,0,0,0,0,0,0,0,0,0,0,0],"split_type":[0,0,0,0,0,0,0,0,0,0,0,0,0,0,0,0,0,0,0,0,0,0,0,0,0,0,0,0,0,0,0,0,0,0,0,0,0,0,0,0,0,0,0,0,0,0,0,0,0,0,0,0,0,0,0,0,0,0,0,0,0,0,0,0,0,0,0,0,0,0,0,0,0,0,0,0,0,0,0,0,0,0,0,0,0,0,0,0,0,0,0,0,0,0,0,0,0,0,0,0,0],"sum_hessian":[3.381E3,2.562E3,8.19E2,2.153E3,4.09E2,4.47E2,3.72E2,7.21E2,1.432E3,2.5E2,1.59E2,4.2E2,2.7E1,4E0,3.68E2,3.15E2,4.06E2,1.418E3,1.4E1,6.3E1,1.87E2,7.6E1,8.3E1,3.95E2,2.5E1,2.3E1,4E0,2.3E1,3.45E2,1.97E2,1.18E2,3.76E2,3E1,1.286E3,1.32E2,1.1E1,3E0,2.3E1,4E1,1.41E2,4.6E1,8E0,6.8E1,1.3E1,7E1,2.17E2,1.78E2,2E0,2.3E1,3E0,2E1,3E0,2E1,7E0,3.38E2,1.75E2,2.2E1,1.2E1,1.06E2,5.8E1,3.18E2,2.4E1,6E0,4.84E2,8.02E2,2.6E1,1.06E2,3E0,8E0,1E0,2E0,1.9E1,4E0,3.3E1,7E0,1.27E2,1.4E1,1.1E1,3.5E1,4E0,4E0,5.5E1,1.3E1,4E0,9E0,3.4E1,3.6E1,5.3E1,1.64E2,2.7E1,1.51E2,1.8E1,5E0,1.7E1,3E0,1.6E1,4E0,3E0,4E0,3.2E1,3.06E2],"tree_param":{"num_deleted":"0","num_feature":"15","num_nodes":"101","size_leaf_vector":"1"}},{"base_weights":[2.236314E2,-8.1807334E3,6.566021E3,-1.1392533E4,2.5912302E3,7.429561E3,-5.2296668E4,-1.5742835E4,-5.9383633E3,2.6618758E4,-6.6448706E2,6.4354805E3,5.127622E4,-6.560889E4,-2.1773771E4,-1.5099369E4,-6.3321824E4,-1.2320527E4,-9.432304E2,1.474373E4,4.7619258E4,-2.9259264E4,2.912377E3,2.3162047E2,1.2468045E4,2.0061287E4,6.1705348E4,-1.5541978E4,-2.6063838E4,1.2354219E3,-1.3509016E4,-2.2105486E4,-1.0537823E4,-4.0511977E4,6.7170186E3,-1.8103537E4,9.228009E3,2.2169248E3,-4.017453E4,8.1588E3,-7.584039E2,1.9195832E4,9.4251E3,-7.308806E3,-2.3704332E4,-7.728837E3,1.2109257E4,-1.0139141E4,1.2498621E4,2.010427E4,1.7766948E3,3.1332852E4,-1.985475E3,1.4552866E4,7.243983E4,2.982708E3,-2.4944375E3,-3.7984463E3,-1.1130016E4,4.927399E3,-4.0085046E3,3.7941423E3,-2.5505205E3,-8.303121E3,-1.4765072E3,1.4754559E4,-8.6987067E2,-4.688234E3,2.5010098E3,-3.3917144E3,-1.4546829E4,3.386642E3,-9.206049E3,2.1481447E4,-9.553268E3,-6.957174E2,-2.5561361E4,7.1555664E2,9.154939E3,-4.5728584E3,5.654724E3,-1.3535137E3,7.177275E3,5.5726963E3,3.02376E4,-4.6814355E3,4.6360864E3,2.9346548E3,1.9196973E4,-1.0693885E4,4.602389E3,6.9556006E3,-5.586291E3,2.7572035E4,8.286017E3,-1.27293755E2,-1.6162407E3],"categories":[],"categories_nodes":[],"categories_segments":[],"categories_sizes":[],"default_left":[0,0,0,0,0,0,0,0,0,0,0,0,0,0,0,0,0,0,0,0,0,0,0,0,0,0,0,0,0,0,0,0,0,0,0,0,0,0,0,0,0,0,0,0,0,0,0,0,0,0,0,0,0,0,0,0,0,0,0,0,0,0,0,0,0,0,0,0,0,0,0,0,0,0,0,0,0,0,0,0,0,0,0,0,0,0,0,0,0,0,0,0,0,0,0,0,0],"id":8,"left_children":[1,3,5,7,9,11,13,15,17,19,21,23,25,27,29,31,33,35,37,39,41,43,45,47,49,51,53,-1,-1,55,-1,57,59,-1,61,63,65,67,69,-1,71,-1,-1,73,-1,75,77,79,81,83,85,87,89,91,93,-1,95,-1,-1,-1,-1,-1,-1,-1,-1,-1,-1,-1,-1,-1,-1,-1,-1,-1,-1,-1,-1,-1,-1,-1,-1,-1,-1,-1,-1,-1,-1,-1,-1,-1,-1,-1,-1,-1,-1,-1,-1],"loss_changes":[1.8032704E11,5.0368692E10,9.838931E10,2.6504806E10,2.622368E10,8.252909E10,9.948627E9,1.8117313E10,1.5896379E10,9.273174E9,3.0359982E10,6.9607965E10,1.2434973E10,1.0771333E9,5.406714E9,1.9453624E10,4.109149E10,2.745783E10,3.49266E10,5.232617E9,1.7022669E9,3.5463414E10,2.5930205E10,1.1691296E11,7.695227E10,3.0442286E9,1.4636679E10,0E0,0E0,2.1965451E8,0E0,3.3799553E10,2.8771295E10,0E0,5.587679E8,2.1695836E10,2.2916145E10,2.8632402E10,4.4926587E9,0E0,5.03362E9,0E0,0E0,4.8748495E10,0E0,5.135495E10,2.534421E10,7.3965306E10,8.193086E10,6.5965048E10,9.390489E10,5.00429E9,3.463026E9,2.4363377E9,1.9274138E10,0E0,2.7658712E7,0E0,0E0,0E0,0E0,0E0,0E0,0E0,0E0,0E0,0E0,0E0,0E0,0E0,0E0,0E0,0E0,0E0,0E0,0E0,0E0,0E0,0E0,0E0,0E0,0E0,0E0,0E0,0E0,0E0,0E0,0E0,0E0,0E0,0E0,0E0,0E0,0E0,0E0,0E0,0E0],"parents":[2147483647,0,0,1,1,2,2,3,3,4,4,5,5,6,6,7,7,8,8,9,9,10,10,11,11,12,12,13,13,14,14,15,15,16,16,17,17,18,18,19,19,20,20,21,21,22,22,23,23,24,24,25,25,26,26,29,29,31,31,32,32,34,34,35,35,36,36,37,37,38,38,40,40,43,43,45,45,46,46,47,47,48,48,49,49,50,50,51,51,52,52,53,53,54,54,56,56],"right_children":[2,4,6,8,10,12,14,16,18,20,22,24,26,28,30,32,34,36,38,40,42,44,46,48,50,52,54,-1,-1,56,-1,58,60,-1,62,64,66,68,70,-1,72,-1,-1,74,-1,76,78,80,82,84,86,88,90,92,94,-1,96,-1,-1,-1,-1,-1,-1,-1,-1,-1,-1,-1,-1,-1,-1,-1,-1,-1,-1,-1,-1,-1,-1,-1,-1,-1,-1,-1,-1,-1,-1,-1,-1,-1,-1,-1,-1,-1,-1,-1,-1],"split_conditions":[-2.2456409E-1,3.6974463E-1,1E0,1E0,4.3721387E-1,2.1454887E0,8.774246E-1,2.7478793E-1,1E0,1E0,5.209257E-1,8.774246E-1,2.3732404E-1,1E0,9.231875E-1,-6.9477E-1,1E0,-3.9920992E-1,2.073187E-1,8.774246E-1,5.9904176E-1,1.8427916E0,8.774246E-1,1E0,1E0,9.4448256E-1,1E0,-1.5541978E4,-2.6063838E4,1.3344991E-1,-1.3509016E4,-9.509032E-1,-6.422939E-1,-4.0511977E4,-5.752176E-1,-3.6991808E-1,-2.4591452E-1,-2.4591452E-1,8.7801075E-1,8.1588E3,4.0347925E-1,1.9195832E4,9.4251E3,4.472093E-1,-2.3704332E4,-8.794233E-2,1E0,2.2889543E0,1E0,1E0,1E0,2.1814806E0,2.2581413E0,1.6529095E0,1E0,2.982708E3,7.8853256E-1,-3.7984463E3,-1.1130016E4,4.927399E3,-4.0085046E3,3.7941423E3,-2.5505205E3,-8.303121E3,-1.4765072E3,1.4754559E4,-8.6987067E2,-4.688234E3,2.5010098E3,-3.3917144E3,-1.4546829E4,3.386642E3,-9.206049E3,2.1481447E4,-9.553268E3,-6.957174E2,-2.5561361E4,7.1555664E2,9.154939E3,-4.5728584E3,5.654724E3,-1.3535137E3,7.177275E3,5.5726963E3,3.02376E4,-4.6814355E3,4.6360864E3,2.9346548E3,1.9196973E4,-1.0693885E4,4.602389E3,6.9556006E3,-5.586291E3,2.7572035E4,8.286017E3,-1.27293755E2,-1.6162407E3],"split_indices":[0,3,7,12,3,0,14,3,10,12,3,14,9,10,0,3,10,0,3,14,11,14,14,12,10,3,10,0,0,0,0,3,3,0,0,3,11,11,2,0,3,0,0,3,0,14,10,11,5,1,4,0,0,3,8,0,0,0,0,0,0,0,0,0,0,0,0,0,0,0,0,0,0,0,0,0,0,0,0,0,0,0,0,0,0,0,0,0,0,0,0,0,0,0,0,0,0],"split_type":[0,0,0,0,0,0,0,0,0,0,0,0,0,0,0,0,0,0,0,0,0,0,0,0,0,0,0,0,0,0,0,0,0,0,0,0,0,0,0,0,0,0,0,0,0,0,0,0,0,0,0,0,0,0,0,0,0,0,0,0,0,0,0,0,0,0,0,0,0,0,0,0,0,0,0,0,0,0,0,0,0,0,0,0,0,0,0,0,0,0,0,0,0,0,0,0,0],"sum_hessian":[3.381E3,1.454E3,1.927E3,1.12E3,3.34E2,1.9E3,2.7E1,6.22E2,4.98E2,3.9E1,2.95E2,1.859E3,4.1E1,1.8E1,9E0,6.15E2,7E0,2.18E2,2.8E2,2.6E1,1.3E1,3.2E1,2.63E2,9.17E2,9.42E2,1.1E1,3E1,1.3E1,5E0,5E0,4E0,2.41E2,3.74E2,3E0,4E0,1.72E2,4.6E1,2.6E2,2E1,1.4E1,1.2E1,5E0,8E0,2.3E1,9E0,1.22E2,1.41E2,4.97E2,4.2E2,5.49E2,3.93E2,7E0,4E0,6E0,2.4E1,1E0,4E0,1.49E2,9.2E1,3.5E1,3.39E2,3E0,1E0,9.9E1,7.3E1,1E1,3.6E1,6.6E1,1.94E2,5E0,1.5E1,9E0,3E0,5E0,1.8E1,1.15E2,7E0,9.3E1,4.8E1,4.23E2,7.4E1,1.69E2,2.51E2,5.4E2,9E0,1.73E2,2.2E2,5E0,2E0,1E0,3E0,5E0,1E0,1.6E1,8E0,3E0,1E0],"tree_param":{"num_deleted":"0","num_feature":"15","num_nodes":"97","size_leaf_vector":"1"}},{"base_weights":[1.4931578E2,-3.4949822E3,8.1686987E3,-7.2380103E3,2.3795627E3,7.350682E3,1.0260545E5,-6.8110903E3,-4.9656938E4,1.8130852E3,3.1228865E4,3.94744E3,2.2716143E4,4.6276255E3,3.759312E4,-2.1637414E4,-5.61203E3,-5.477686E4,2.5353E3,5.31835E3,-6.4990654E3,1.1103723E3,2.031327E4,2.0193713E4,3.3602188E4,-2.6506908E4,7.105834E3,-4.2299326E3,-1.849997E4,-7.9604023E3,-1.8178814E4,2.9206648E3,6.623773E4,8.050104E3,-2.2715467E4,-1.4332824E4,4.8713027E3,4.1420967E3,3.8881023E4,3.5645188E4,6.8370747E3,-1.056244E4,-1.7947437E3,8.0425913E3,-3.359192E3,-1.7311885E3,6.3081523E3,-1.3257889E4,-2.672373E3,1.17750635E1,1.0384638E4,-1.4956191E4,2.982362E4,2.7124121E4,1.5022742E3,-2.0166305E4,-3.8250884E3,-1.4344743E2,-7.9145923E3,2.9055198E3,-3.485418E3,-3.3108674E3,1.7855941E4,1.8110557E4,2.785971E3,2.251177E4,5.480981E3,-1.0927127E4,6.0181333E3],"categories":[],"categories_nodes":[],"categories_segments":[],"categories_sizes":[],"default_left":[0,0,0,0,0,0,0,0,0,0,0,0,0,0,0,0,0,0,0,0,0,0,0,0,0,0,0,0,0,0,0,0,0,0,0,0,0,0,0,0,0,0,0,0,0,0,0,0,0,0,0,0,0,0,0,0,0,0,0,0,0,0,0,0,0,0,0,0,0],"id":9,"left_children":[1,3,5,7,9,11,13,15,17,19,-1,21,23,-1,-1,25,27,29,-1,31,33,35,37,39,-1,41,43,45,47,-1,-1,49,51,53,55,57,59,61,63,65,67,-1,-1,-1,-1,-1,-1,-1,-1,-1,-1,-1,-1,-1,-1,-1,-1,-1,-1,-1,-1,-1,-1,-1,-1,-1,-1,-1,-1],"loss_changes":[9.886758E10,5.1162673E10,8.089991E10,2.5395347E10,5.2015174E10,5.4765036E10,1.5881806E10,2.490952E10,4.6280294E9,2.6315495E10,0E0,3.9908073E10,4.053197E10,0E0,0E0,1.4884692E10,2.3149097E10,5.2861338E8,0E0,9.255812E10,6.341349E10,4.270111E10,3.7972275E10,3.814292E10,0E0,1.5862256E10,6.070155E9,4.600037E10,3.0658867E10,0E0,0E0,5.589005E10,9.7386455E10,3.513149E10,5.546811E10,2.4026302E10,4.702366E10,5.865418E10,3.6958118E10,5.7494438E10,5.8508124E10,0E0,0E0,0E0,0E0,0E0,0E0,0E0,0E0,0E0,0E0,0E0,0E0,0E0,0E0,0E0,0E0,0E0,0E0,0E0,0E0,0E0,0E0,0E0,0E0,0E0,0E0,0E0,0E0],"parents":[2147483647,0,0,1,1,2,2,3,3,4,4,5,5,6,6,7,7,8,8,9,9,11,11,12,12,15,15,16,16,17,17,19,19,20,20,21,21,22,22,23,23,25,25,26,26,27,27,28,28,31,31,32,32,33,33,34,34,35,35,36,36,37,37,38,38,39,39,40,40],"right_children":[2,4,6,8,10,12,14,16,18,20,-1,22,24,-1,-1,26,28,30,-1,32,34,36,38,40,-1,42,44,46,48,-1,-1,50,52,54,56,58,60,62,64,66,68,-1,-1,-1,-1,-1,-1,-1,-1,-1,-1,-1,-1,-1,-1,-1,-1,-1,-1,-1,-1,-1,-1,-1,-1,-1,-1,-1,-1],"split_conditions":[5.837753E-1,1.1627034E-3,3.9788668E0,1E0,1E0,1.5252737E0,1.4442546E0,-1.2045375E0,1E0,-2.3175871E-2,3.1228865E4,1.9249316E0,3.7735255E0,4.6276255E3,3.759312E4,-2.4601589E-1,-1.2627919E-1,-2.4601589E-1,2.5353E3,2.727356E0,1E0,1E0,1E0,1E0,3.3602188E4,1E0,2.727356E0,-2.1124044E-1,-9.254457E-2,-7.9604023E3,-1.8178814E4,-1.1840986E-1,3.472549E-1,-2.4591452E-1,2.3732404E-1,1E0,2.7478793E-1,2.6854077E-1,2.2231185E-1,5.9904176E-1,5.9904176E-1,-1.056244E4,-1.7947437E3,8.0425913E3,-3.359192E3,-1.7311885E3,6.3081523E3,-1.3257889E4,-2.672373E3,1.17750635E1,1.0384638E4,-1.4956191E4,2.982362E4,2.7124121E4,1.5022742E3,-2.0166305E4,-3.8250884E3,-1.4344743E2,-7.9145923E3,2.9055198E3,-3.485418E3,-3.3108674E3,1.7855941E4,1.8110557E4,2.785971E3,2.251177E4,5.480981E3,-1.0927127E4,6.0181333E3],"split_indices":[0,3,11,7,1,9,3,3,4,0,0,0,14,0,0,2,3,2,0,13,12,6,4,10,0,5,13,3,3,0,0,0,3,11,9,4,3,3,3,11,11,0,0,0,0,0,0,0,0,0,0,0,0,0,0,0,0,0,0,0,0,0,0,0,0,0,0,0,0],"split_type":[0,0,0,0,0,0,0,0,0,0,0,0,0,0,0,0,0,0,0,0,0,0,0,0,0,0,0,0,0,0,0,0,0,0,0,0,0,0,0,0,0,0,0,0,0,0,0,0,0,0,0,0,0,0,0,0,0,0,0,0,0,0,0,0,0,0,0,0,0],"sum_hessian":[3.381E3,2.325E3,1.056E3,1.42E3,9.05E2,1.048E3,8E0,1.407E3,1.3E1,9.01E2,4E0,8.59E2,1.89E2,2E0,6E0,1.04E2,1.303E3,1.2E1,1E0,6.34E2,2.67E2,7.33E2,1.26E2,1.85E2,4E0,8.9E1,1.5E1,1.178E3,1.25E2,3E0,9E0,6.11E2,2.3E1,1.41E2,1.26E2,1.43E2,5.9E2,6.8E1,5.8E1,8.5E1,1E2,6.2E1,2.7E1,7E0,8E0,1.111E3,6.7E1,3.3E1,9.2E1,5.61E2,5E1,5E0,1.8E1,4E0,1.37E2,2.2E1,1.04E2,6.7E1,7.6E1,4.57E2,1.33E2,5.4E1,1.4E1,3.3E1,2.5E1,2.5E1,6E1,2.3E1,7.7E1],"tree_param":{"num_deleted":"0","num_feature":"15","num_nodes":"69","size_leaf_vector":"1"}},{"base_weights":[1.4715785E2,-3.5330435E3,5.0413184E3,-7.9880977E3,4.9798213E3,1.8909924E3,1.5105971E4,-2.5079543E4,-6.4073984E3,3.31972E3,8.785723E4,3.002859E3,-1.943058E4,4.7634344E4,1.0938073E4,-1.9822312E4,-5.858669E4,8.130275E3,-9.045443E3,-8.88743E3,1.0933339E4,5.7938945E4,5.11595E4,-5.3416694E3,6.685868E3,3.5167824E4,-3.2345066E4,7.88514E4,-7.569704E3,-1.7971225E4,1.2784582E4,7.2486587E3,-2.153787E4,-2.4969424E4,-6.6155327E3,-5.350708E2,2.370918E4,-1.0304502E4,1.6852414E4,-1.2304615E4,2.7241666E4,-2.2274216E3,1.6675625E4,5.788722E3,2.5661059E4,-2.789698E3,-6.598177E4,1.8459797E3,1.806668E4,3.9363668E4,-1.0185938E3,-4.6825086E4,-8.0236406E3,4.7431367E4,1.14528586E5,-8.837999E4,5.612382E4,6.169214E4,1.0540351E4,-7.633934E3,-1.1396875E1,4.0753105E3,-6.4657915E3,1.4495899E4,1.718632E2,-3.3881824E3,6.687286E3,2.2855307E4,1.0838564E2,-1.670932E3,-1.0931596E4,-3.1247646E3,2.4837967E4,-4.4966494E3,7.2744574E2,8.1152427E3,4.5236786E1,8.635095E2,-7.4129565E3,1.0538625E4,-2.626771E4,-3.9454236E2,5.3447446E3,-5.673878E3,7.0847544E3,1.6084351E4,7.679087E3,-4.1799473E3,-1.9297295E4,-6.3494395E3,4.6950874E3,6.8012E3,4.167519E4,1.4459283E4,4.0013402E4,-6.8301377E3,-3.3021516E4,4.6240127E3,2.5682852E4,3.39072E4,1.0497056E4,2.6111123E3,1.4659259E4],"categories":[],"categories_nodes":[],"categories_segments":[],"categories_sizes":[],"default_left":[0,0,0,0,0,0,0,0,0,0,0,0,0,0,0,0,0,0,0,0,0,0,0,0,0,0,0,0,0,0,0,0,0,0,0,0,0,0,0,0,0,0,0,0,0,0,0,0,0,0,0,0,0,0,0,0,0,0,0,0,0,0,0,0,0,0,0,0,0,0,0,0,0,0,0,0,0,0,0,0,0,0,0,0,0,0,0,0,0,0,0,0,0,0,0,0,0,0,0,0,0,0,0],"id":10,"left_children":[1,3,5,7,9,11,13,15,17,19,21,23,25,27,29,31,33,35,37,39,41,-1,43,45,47,49,51,53,55,-1,57,-1,59,-1,-1,61,63,65,67,69,71,73,75,-1,-1,77,79,81,83,85,-1,87,89,91,93,95,97,99,101,-1,-1,-1,-1,-1,-1,-1,-1,-1,-1,-1,-1,-1,-1,-1,-1,-1,-1,-1,-1,-1,-1,-1,-1,-1,-1,-1,-1,-1,-1,-1,-1,-1,-1,-1,-1,-1,-1,-1,-1,-1,-1,-1,-1],"loss_changes":[6.093269E10,7.3273475E10,4.6009905E10,3.4096153E10,9.1064705E10,2.6301714E10,4.6387896E10,1.7687237E10,4.4637442E10,6.069443E10,4.034203E10,3.2397537E10,3.9918576E10,6.780589E10,4.1055527E10,7.6134523E9,1.0770096E10,2.4177076E10,3.2258867E10,3.1323613E10,3.0417433E10,0E0,1.0398818E10,4.9800765E10,4.023149E10,1.9135058E9,1.5472157E10,2.2592209E10,8.2166596E10,0E0,3.2387473E10,0E0,7.646118E9,0E0,0E0,3.4716504E10,3.6413637E10,3.053564E10,4.49812E10,3.7180998E10,4.688494E10,7.3387505E9,4.8001417E10,0E0,0E0,3.8711267E10,3.1437775E10,2.5971476E10,4.5181567E10,5.895035E8,0E0,1.5220089E10,5.931086E9,3.082949E10,7.3248113E9,7.4567803E9,9.483846E9,1.3863858E10,1.9916618E10,0E0,0E0,0E0,0E0,0E0,0E0,0E0,0E0,0E0,0E0,0E0,0E0,0E0,0E0,0E0,0E0,0E0,0E0,0E0,0E0,0E0,0E0,0E0,0E0,0E0,0E0,0E0,0E0,0E0,0E0,0E0,0E0,0E0,0E0,0E0,0E0,0E0,0E0,0E0,0E0,0E0,0E0,0E0,0E0],"parents":[2147483647,0,0,1,1,2,2,3,3,4,4,5,5,6,6,7,7,8,8,9,9,10,10,11,11,12,12,13,13,14,14,15,15,16,16,17,17,18,18,19,19,20,20,22,22,23,23,24,24,25,25,26,26,27,27,28,28,30,30,32,32,35,35,36,36,37,37,38,38,39,39,40,40,41,41,42,42,45,45,46,46,47,47,48,48,49,49,51,51,52,52,53,53,54,54,55,55,56,56,57,57,58,58],"right_children":[2,4,6,8,10,12,14,16,18,20,22,24,26,28,30,32,34,36,38,40,42,-1,44,46,48,50,52,54,56,-1,58,-1,60,-1,-1,62,64,66,68,70,72,74,76,-1,-1,78,80,82,84,86,-1,88,90,92,94,96,98,100,102,-1,-1,-1,-1,-1,-1,-1,-1,-1,-1,-1,-1,-1,-1,-1,-1,-1,-1,-1,-1,-1,-1,-1,-1,-1,-1,-1,-1,-1,-1,-1,-1,-1,-1,-1,-1,-1,-1,-1,-1,-1,-1,-1,-1],"split_conditions":[8.774246E-1,1E0,8.20789E-1,-1.2045375E0,2.8132234E0,6.8335164E-1,9.169951E-1,9.132673E-1,-9.284134E-1,1E0,3.126064E0,-4.0989986E-1,2.3732404E-1,1.8427916E0,9.332377E-1,-1.935827E0,1E0,1E0,3.1339107E0,5.1467854E-1,-4.3793678E-1,5.7938945E4,7.817463E-1,5.9904176E-1,8.1451094E-1,2.0176795E0,4.7340053E-1,1.3344991E-1,7.353471E-1,-1.7971225E4,9.4448256E-1,7.2486587E3,-2.4601589E-1,-2.4969424E4,-6.6155327E3,-2.4591452E-1,1E0,1.9586854E0,1.5252737E0,-1.9624728E-1,1E0,-2.4591452E-1,8.7801075E-1,5.788722E3,2.5661059E4,-4.823668E-1,-1.2499421E-1,4.9468765E-1,1E0,1E0,-1.0185938E3,-7.4151427E-1,1E0,1.5252737E0,8.5202473E-1,9.007525E-1,1.0213099E0,1E0,4.101173E0,-7.633934E3,-1.1396875E1,4.0753105E3,-6.4657915E3,1.4495899E4,1.718632E2,-3.3881824E3,6.687286E3,2.2855307E4,1.0838564E2,-1.670932E3,-1.0931596E4,-3.1247646E3,2.4837967E4,-4.4966494E3,7.2744574E2,8.1152427E3,4.5236786E1,8.635095E2,-7.4129565E3,1.0538625E4,-2.626771E4,-3.9454236E2,5.3447446E3,-5.673878E3,7.0847544E3,1.6084351E4,7.679087E3,-4.1799473E3,-1.9297295E4,-6.3494395E3,4.6950874E3,6.8012E3,4.167519E4,1.4459283E4,4.0013402E4,-6.8301377E3,-3.3021516E4,4.6240127E3,2.5682852E4,3.39072E4,1.0497056E4,2.6111123E3,1.4659259E4],"split_indices":[14,5,3,3,9,3,3,0,3,12,2,3,9,14,3,11,4,10,11,3,0,0,0,11,0,0,0,0,0,0,3,0,2,0,0,11,12,0,9,3,4,11,2,0,0,3,0,3,6,12,0,0,5,9,3,3,0,5,9,0,0,0,0,0,0,0,0,0,0,0,0,0,0,0,0,0,0,0,0,0,0,0,0,0,0,0,0,0,0,0,0,0,0,0,0,0,0,0,0,0,0,0,0],"split_type":[0,0,0,0,0,0,0,0,0,0,0,0,0,0,0,0,0,0,0,0,0,0,0,0,0,0,0,0,0,0,0,0,0,0,0,0,0,0,0,0,0,0,0,0,0,0,0,0,0,0,0,0,0,0,0,0,0,0,0,0,0,0,0,0,0,0,0,0,0,0,0,0,0,0,0,0,0,0,0,0,0,0,0,0,0,0,0,0,0,0,0,0,0,0,0,0,0,0,0,0,0,0,0],"sum_hessian":[3.381E3,1.93E3,1.451E3,1.267E3,6.63E2,1.106E3,3.45E2,1.06E2,1.161E3,6.51E2,1.2E1,1.052E3,5.4E1,3.8E1,3.07E2,9.3E1,1.3E1,1.78E2,9.83E2,2.5E2,4.01E2,2E0,1E1,3.22E2,7.3E2,1E1,4.4E1,2.4E1,1.4E1,7E0,3E2,3E0,9E1,7E0,6E0,1.15E2,6.3E1,9.38E2,4.5E1,2.29E2,2.1E1,1.22E2,2.79E2,6E0,4E0,3.1E2,1.2E1,5.13E2,2.17E2,9E0,1E0,2.7E1,1.7E1,1.4E1,1E1,6E0,8E0,1.2E1,2.88E2,7.6E1,1.4E1,6.9E1,4.6E1,3E1,3.3E1,9.11E2,2.7E1,9E0,3.6E1,1.8E2,4.9E1,1.3E1,8E0,3.2E1,9E1,1.71E2,1.08E2,2.47E2,6.3E1,2E0,1E1,4.29E2,8.4E1,2.8E1,1.89E2,3E0,6E0,1E1,1.7E1,1.1E1,6E0,1.2E1,2E0,3E0,7E0,2E0,4E0,4E0,4E0,3E0,9E0,2.76E2,1.2E1],"tree_param":{"num_deleted":"0","num_feature":"15","num_nodes":"103","size_leaf_vector":"1"}},{"base_weights":[1.7049998E2,-3.1154367E2,2.032875E4,-2.9084893E3,3.1832188E3,3.604158E4,-4.5427856E2,-6.6409385E3,2.0184318E3,-4.332248E3,5.2721265E3,1.6908777E4,6.966298E4,-2.2036527E4,5.5704992E4,-7.6157334E3,9.200448E3,1.6673568E3,2.9051408E4,-1.8018503E3,-3.8708055E4,4.876825E3,4.7990863E4,5.249453E3,3.6570387E4,4.635116E4,4.6506863E4,-4.866792E4,2.5440496E4,1.8997355E4,1.6817938E4,-5.9306343E3,-2.2511363E4,-7.0291562E3,3.4150613E4,2.5602922E3,-4.045122E4,6.6188135E2,-6.3679285E4,-4.7219902E4,8.4309E3,1.8077785E4,3.4570288E3,-2.7549793E4,2.5290336E4,1.1243741E4,-7.4890444E3,5.3554844E3,1.4281962E4,7.269649E4,5.333275E3,-6.443824E3,-7.758041E4,1.2053297E4,1.6734E4,3.3426562E2,7.2338066E3,-1.9485508E3,2.0467627E4,-1.6419951E4,-2.9256338E3,9.296127E3,-5.3518154E3,6.885011E3,3.2591445E4,-8.592753E2,2.464066E3,7.8725397E2,-1.4960732E4,-2.4146934E3,3.2154392E3,9.558914E2,-2.6745652E4,-1.3033391E3,-1.8666672E4,2.089668E3,1.2421407E4,1.0749053E4,8.153113E2,-1.1410159E4,5.853633E2,-2.3575627E2,5.40425E3,-3.6361165E3,8.178625E2,-2.4368752E2,3.578822E3,2.6614361E4,1.1551299E4,3.7344446E3,-6.0805913E3,-2.4478363E4,-6.2179785E3,9.2400006E2,1.15392E4],"categories":[],"categories_nodes":[],"categories_segments":[],"categories_sizes":[],"default_left":[0,0,0,0,0,0,0,0,0,0,0,0,0,0,0,0,0,0,0,0,0,0,0,0,0,0,0,0,0,0,0,0,0,0,0,0,0,0,0,0,0,0,0,0,0,0,0,0,0,0,0,0,0,0,0,0,0,0,0,0,0,0,0,0,0,0,0,0,0,0,0,0,0,0,0,0,0,0,0,0,0,0,0,0,0,0,0,0,0,0,0,0,0,0,0],"id":11,"left_children":[1,3,5,7,9,11,13,15,17,19,21,23,25,27,29,31,33,35,-1,37,39,41,43,45,47,-1,49,51,53,-1,55,57,59,61,63,65,67,69,71,73,-1,75,77,79,-1,81,83,85,-1,87,-1,89,91,-1,93,-1,-1,-1,-1,-1,-1,-1,-1,-1,-1,-1,-1,-1,-1,-1,-1,-1,-1,-1,-1,-1,-1,-1,-1,-1,-1,-1,-1,-1,-1,-1,-1,-1,-1,-1,-1,-1,-1,-1,-1],"loss_changes":[3.2869755E10,2.9995397E10,2.581462E10,3.4879865E10,2.2142894E10,2.7769307E10,4.3649065E10,1.6732094E10,2.7068764E10,2.6634486E10,1.8392062E10,6.6852577E9,2.4247878E10,3.4111996E10,1.8980188E9,2.5393816E10,2.5750723E10,3.0792655E10,0E0,4.3795124E10,1.3269418E10,2.044199E10,2.975148E10,1.6113692E9,3.534461E9,0E0,9.241358E9,2.0253745E10,6.107571E8,0E0,3.1679725E8,3.874837E10,4.1812226E10,1.6580397E10,1.8364332E10,2.4556607E10,7.027411E9,2.4351074E10,1.9019923E10,1.1951079E10,0E0,2.718826E10,2.3573619E10,1.3113748E9,0E0,1.1543932E9,3.6421507E8,1.7187608E8,0E0,4.1794765E8,0E0,2.3417308E9,5.9101594E8,0E0,2.2551424E9,0E0,0E0,0E0,0E0,0E0,0E0,0E0,0E0,0E0,0E0,0E0,0E0,0E0,0E0,0E0,0E0,0E0,0E0,0E0,0E0,0E0,0E0,0E0,0E0,0E0,0E0,0E0,0E0,0E0,0E0,0E0,0E0,0E0,0E0,0E0,0E0,0E0,0E0,0E0,0E0],"parents":[2147483647,0,0,1,1,2,2,3,3,4,4,5,5,6,6,7,7,8,8,9,9,10,10,11,11,12,12,13,13,14,14,15,15,16,16,17,17,19,19,20,20,21,21,22,22,23,23,24,24,26,26,27,27,28,28,30,30,31,31,32,32,33,33,34,34,35,35,36,36,37,37,38,38,39,39,41,41,42,42,43,43,45,45,46,46,47,47,49,49,51,51,52,52,54,54],"right_children":[2,4,6,8,10,12,14,16,18,20,22,24,26,28,30,32,34,36,-1,38,40,42,44,46,48,-1,50,52,54,-1,56,58,60,62,64,66,68,70,72,74,-1,76,78,80,-1,82,84,86,-1,88,-1,90,92,-1,94,-1,-1,-1,-1,-1,-1,-1,-1,-1,-1,-1,-1,-1,-1,-1,-1,-1,-1,-1,-1,-1,-1,-1,-1,-1,-1,-1,-1,-1,-1,-1,-1,-1,-1,-1,-1,-1,-1,-1,-1],"split_conditions":[2.8132234E0,8.774246E-1,2.2889543E0,1E0,-4.3114018E-1,2.283872E0,2.4117143E-1,2.2889543E0,4.823823E0,-4.5238048E-1,1E0,1.443998E0,3.126064E0,5.6687794E0,1.9249316E0,6.1463296E-1,1.8331242E-1,1.7816008E0,2.9051408E4,5.9904176E-1,5.9904176E-1,-3.0244884E-1,-6.5359753E-1,8.4032214E-1,6.8335164E-1,4.635116E4,1E0,-1.6915838E-1,8.68587E-2,1.8997355E4,2.0664895E0,5.1467854E-1,9.332377E-1,6.0213864E-1,3.9788668E0,1E0,-1.3352637E0,1E0,-8.272096E-1,-7.765657E-1,8.4309E3,-3.4368005E-1,-2.4591452E-1,-8.478186E-1,2.5290336E4,-2.3175871E-2,3.126064E0,1.4163969E0,1.4281962E4,2.4406645E-2,5.333275E3,-3.0867097E-1,3.4758282E0,1.2053297E4,1.3344991E-1,3.3426562E2,7.2338066E3,-1.9485508E3,2.0467627E4,-1.6419951E4,-2.9256338E3,9.296127E3,-5.3518154E3,6.885011E3,3.2591445E4,-8.592753E2,2.464066E3,7.8725397E2,-1.4960732E4,-2.4146934E3,3.2154392E3,9.558914E2,-2.6745652E4,-1.3033391E3,-1.8666672E4,2.089668E3,1.2421407E4,1.0749053E4,8.153113E2,-1.1410159E4,5.853633E2,-2.3575627E2,5.40425E3,-3.6361165E3,8.178625E2,-2.4368752E2,3.578822E3,2.6614361E4,1.1551299E4,3.7344446E3,-6.0805913E3,-2.4478363E4,-6.2179785E3,9.2400006E2,1.15392E4],"split_indices":[9,14,11,12,3,3,0,11,11,3,1,11,2,11,0,3,0,3,0,11,11,3,0,0,3,0,5,0,0,0,0,3,3,3,11,5,0,4,3,0,0,3,11,0,0,0,2,0,0,0,0,0,3,0,0,0,0,0,0,0,0,0,0,0,0,0,0,0,0,0,0,0,0,0,0,0,0,0,0,0,0,0,0,0,0,0,0,0,0,0,0,0,0,0,0],"split_type":[0,0,0,0,0,0,0,0,0,0,0,0,0,0,0,0,0,0,0,0,0,0,0,0,0,0,0,0,0,0,0,0,0,0,0,0,0,0,0,0,0,0,0,0,0,0,0,0,0,0,0,0,0,0,0,0,0,0,0,0,0,0,0,0,0,0,0,0,0,0,0,0,0,0,0,0,0,0,0,0,0,0,0,0,0,0,0,0,0,0,0,0,0,0,0],"sum_hessian":[3.381E3,3.303E3,7.8E1,1.895E3,1.408E3,4.4E1,3.4E1,1.078E3,8.17E2,3.06E2,1.102E3,2.9E1,1.5E1,2.5E1,9E0,1.016E3,6.2E1,8.15E2,2E0,2.86E2,2E1,1.093E3,9E0,1.9E1,1E1,2E0,1.3E1,1.6E1,9E0,7E0,2E0,9.14E2,1.02E2,3.8E1,2.4E1,7.99E2,1.6E1,2.76E2,1E1,1.8E1,2E0,1.05E2,9.88E2,3E0,6E0,1.3E1,6E0,3E0,7E0,6E0,7E0,7E0,9E0,2E0,7E0,1E0,1E0,9.08E2,6E0,2.8E1,7.4E1,8E0,3E1,2.2E1,2E0,4.08E2,3.91E2,3E0,1.3E1,1.48E2,1.28E2,3E0,7E0,5E0,1.3E1,7.2E1,3.3E1,2.1E1,9.67E2,2E0,1E0,5E0,8E0,4E0,2E0,2E0,1E0,3E0,3E0,3E0,4E0,8E0,1E0,5E0,2E0],"tree_param":{"num_deleted":"0","num_feature":"15","num_nodes":"95","size_leaf_vector":"1"}},{"base_weights":[1.7581058E2,-9.8797845E2,6.067438E3,-2.4957283E0,-1.0669109E4,3.1327012E4,3.6286409E3,-1.0908651E3,9.06462E3,1.2614871E4,-1.5192132E4,1.6120929E4,4.925625E4,-4.3666043E4,4.278312E3,-8.1735757E3,5.9012245E1,7.43399E1,2.0338705E4,-1.4828564E4,2.9426854E4,-7.077976E3,-2.1124979E4,2.667234E4,-1.9343639E4,2.2332303E4,9.3581625E4,-4.8063145E3,-1.5455951E4,2.862644E3,2.7367266E4,-8.859076E3,1.4458719E4,-1.1273289E4,9.511896E2,1.4242314E4,-2.061658E4,-1.7118775E4,2.5352812E4,5.2592544E3,-2.626367E4,4.5409406E4,-2.2844297E3,-1.0908141E4,5.236911E4,-3.829778E4,-1.5359542E4,1.785155E4,1.85709E4,-9.427599E3,-2.426039E3,1.4708958E4,1.1885777E4,3.1089447E4,3.4848938E3,4.281816E3,-4.10387E4,1.9763162E4,9.559802E3,-3.315886E3,1.5876378E2,-5.22745E3,1.3816776E3,2.938851E3,-1.2498471E2,-1.9188048E3,6.8740684E3,-3.886093E3,-1.9546477E4,7.510583E3,-1.0417036E4,1.7768668E4,4.6468604E3,3.0457922E3,-3.6151594E3,-8.792753E3,-4.082024E3,1.8271264E4,9.0037E3,-1.2964677E4,6.429345E3,-1.3702343E4,-1.5581075E3,-1.3440253E4,1.3434863E3,2.8525513E2,-8.753679E3,-8.246747E3,6.5692964E3,6.985139E3,-5.6271753E3,6.698137E2,6.200398E3,8.3728546E2,1.6667791E4,-1.8982262E4,-4.102008E3,5.8689746E3,-5.612806E3],"categories":[],"categories_nodes":[],"categories_segments":[],"categories_sizes":[],"default_left":[0,0,0,0,0,0,0,0,0,0,0,0,0,0,0,0,0,0,0,0,0,0,0,0,0,0,0,0,0,0,0,0,0,0,0,0,0,0,0,0,0,0,0,0,0,0,0,0,0,0,0,0,0,0,0,0,0,0,0,0,0,0,0,0,0,0,0,0,0,0,0,0,0,0,0,0,0,0,0,0,0,0,0,0,0,0,0,0,0,0,0,0,0,0,0,0,0,0,0],"id":12,"left_children":[1,3,5,7,9,11,13,15,17,19,21,23,25,27,29,31,33,35,37,39,41,43,45,47,49,51,53,-1,-1,55,57,59,-1,61,63,65,67,69,71,73,75,77,79,81,-1,83,85,87,-1,-1,89,91,-1,-1,-1,93,95,-1,97,-1,-1,-1,-1,-1,-1,-1,-1,-1,-1,-1,-1,-1,-1,-1,-1,-1,-1,-1,-1,-1,-1,-1,-1,-1,-1,-1,-1,-1,-1,-1,-1,-1,-1,-1,-1,-1,-1,-1,-1],"loss_changes":[2.3195054E10,2.695213E10,3.4260783E10,2.5322258E10,2.7678595E10,1.2564984E10,1.5857069E10,1.8658955E10,2.7871717E10,2.0275636E10,1.0393145E10,1.0993574E10,2.4165216E10,6.944246E8,1.639555E10,1.2792148E10,1.9948474E10,4.5438484E10,2.3347536E10,4.0431355E9,1.3788074E10,6.7301614E10,1.1886862E10,5.731704E9,1.3545134E9,1.3940076E9,5.3861007E9,0E0,0E0,2.9832215E10,1.9257391E10,6.5350226E9,0E0,1.4146124E10,2.2131708E10,1.6610875E10,2.0657562E10,1.200094E10,3.5168526E10,7.152689E8,2.521088E7,2.4664637E9,1.063322E10,1.8239132E10,0E0,8.824062E9,2.1666107E10,4.0875587E9,0E0,0E0,2.116231E9,8.460106E8,0E0,0E0,0E0,3.5163816E10,8.26206E9,0E0,6.304584E9,0E0,0E0,0E0,0E0,0E0,0E0,0E0,0E0,0E0,0E0,0E0,0E0,0E0,0E0,0E0,0E0,0E0,0E0,0E0,0E0,0E0,0E0,0E0,0E0,0E0,0E0,0E0,0E0,0E0,0E0,0E0,0E0,0E0,0E0,0E0,0E0,0E0,0E0,0E0,0E0],"parents":[2147483647,0,0,1,1,2,2,3,3,4,4,5,5,6,6,7,7,8,8,9,9,10,10,11,11,12,12,13,13,14,14,15,15,16,16,17,17,18,18,19,19,20,20,21,21,22,22,23,23,24,24,25,25,26,26,29,29,30,30,31,31,33,33,34,34,35,35,36,36,37,37,38,38,39,39,40,40,41,41,42,42,43,43,45,45,46,46,47,47,50,50,51,51,55,55,56,56,58,58],"right_children":[2,4,6,8,10,12,14,16,18,20,22,24,26,28,30,32,34,36,38,40,42,44,46,48,50,52,54,-1,-1,56,58,60,-1,62,64,66,68,70,72,74,76,78,80,82,-1,84,86,88,-1,-1,90,92,-1,-1,-1,94,96,-1,98,-1,-1,-1,-1,-1,-1,-1,-1,-1,-1,-1,-1,-1,-1,-1,-1,-1,-1,-1,-1,-1,-1,-1,-1,-1,-1,-1,-1,-1,-1,-1,-1,-1,-1,-1,-1,-1,-1,-1,-1],"split_conditions":[8.0829465E-1,1E0,9.007525E-1,1.3265815E0,-1.2025639E0,2.0020373E0,-2.4601589E-1,-1.2626517E0,1E0,-6.023121E-1,-4.0989986E-1,8.6701787E-1,8.5202473E-1,-2.2679422E0,3.4758282E0,7.0209306E-1,-1.1620569E0,1.5221899E0,-1.4869088E0,-8.5094875E-1,1.443998E0,1.9249316E0,-2.9745114E-1,1.0213099E0,6.900286E-2,8.20789E-1,8.70318E-1,-4.8063145E3,-1.5455951E4,3.3346426E0,1.443998E0,-8.794233E-2,1.4458719E4,1E0,-2.4591452E-1,-8.272096E-1,2.5479704E-1,1E0,-2.4591452E-1,-1.2276801E0,-6.772779E-1,-5.348429E-1,-2.1124044E-1,-7.041787E-1,5.236911E4,8.774246E-1,9.140587E-3,8.20789E-1,1.85709E4,-9.427599E3,1.3344991E-1,-7.5575876E-1,1.1885777E4,3.1089447E4,3.4848938E3,3.1859605E0,1E0,1.9763162E4,1E0,-3.315886E3,1.5876378E2,-5.22745E3,1.3816776E3,2.938851E3,-1.2498471E2,-1.9188048E3,6.8740684E3,-3.886093E3,-1.9546477E4,7.510583E3,-1.0417036E4,1.7768668E4,4.6468604E3,3.0457922E3,-3.6151594E3,-8.792753E3,-4.082024E3,1.8271264E4,9.0037E3,-1.2964677E4,6.429345E3,-1.3702343E4,-1.5581075E3,-1.3440253E4,1.3434863E3,2.8525513E2,-8.753679E3,-8.246747E3,6.5692964E3,6.985139E3,-5.6271753E3,6.698137E2,6.200398E3,8.3728546E2,1.6667791E4,-1.8982262E4,-4.102008E3,5.8689746E3,-5.612806E3],"split_indices":[3,8,3,0,0,2,2,0,10,3,3,3,3,0,3,3,3,0,3,3,11,0,3,0,0,3,0,0,0,3,11,14,0,12,11,3,3,12,11,0,3,3,3,0,0,14,0,3,0,0,0,0,0,0,0,3,4,0,4,0,0,0,0,0,0,0,0,0,0,0,0,0,0,0,0,0,0,0,0,0,0,0,0,0,0,0,0,0,0,0,0,0,0,0,0,0,0,0,0],"split_type":[0,0,0,0,0,0,0,0,0,0,0,0,0,0,0,0,0,0,0,0,0,0,0,0,0,0,0,0,0,0,0,0,0,0,0,0,0,0,0,0,0,0,0,0,0,0,0,0,0,0,0,0,0,0,0,0,0,0,0,0,0,0,0,0,0,0,0,0,0,0,0,0,0,0,0,0,0,0,0,0,0,0,0,0,0,0,0,0,0,0,0,0,0,0,0,0,0,0,0],"sum_hessian":[3.381E3,2.824E3,5.57E2,2.564E3,2.6E2,4.8E1,5.09E2,2.29E3,2.74E2,4.2E1,2.18E2,2.7E1,2.1E1,6E0,5.03E2,3.19E2,1.971E3,1.53E2,1.21E2,1.6E1,2.6E1,9.3E1,1.25E2,2.1E1,6E0,1.4E1,7E0,2E0,4E0,4.75E2,2.8E1,3.16E2,3E0,1.43E2,1.828E3,9.1E1,6.2E1,1.4E1,1.07E2,6E0,1E1,1.7E1,9E0,9.2E1,1E0,3E1,9.5E1,1.8E1,3E0,3E0,3E0,1.1E1,3E0,6E0,1E0,4.61E2,1.4E1,8E0,2E1,2.56E2,6E1,1.03E2,4E1,2.44E2,1.584E3,2.7E1,6.4E1,5.4E1,8E0,4E0,1E1,2.3E1,8.4E1,5E0,1E0,7E0,3E0,7E0,1E1,3E0,6E0,1.2E1,8E1,2.6E1,4E0,4.4E1,5.1E1,1E0,1.7E1,1E0,2E0,4E0,7E0,4.49E2,1.2E1,7E0,7E0,1.5E1,5E0],"tree_param":{"num_deleted":"0","num_feature":"15","num_nodes":"99","size_leaf_vector":"1"}},{"base_weights":[1.5011787E2,3.9790717E2,-2.5802758E4,-2.3112507E3,2.1908313E3,-1.925951E4,-1.5284077E4,-6.3258037E3,1.2103677E3,3.112083E3,-5.9673164E3,-2.8339453E4,-7.301149E3,-1.6040967E4,-3.0808335E3,-2.644262E3,6.2461606E3,-2.506463E3,5.528971E3,-9.526564E3,1.8903146E4,-4.247964E3,-9.211308E3,6.7149897E3,-1.690061E4,8.497646E3,-2.1711182E4,1.881056E4,-5.738066E3,6.088867E3,-5.3860454E3,-6.525388E3,9.80905E3,-3.3865183E3,6.57416E4,3.0011965E4,4.541106E3,5.0128204E1,-1.6686326E4,4.189835E4,-1.6262892E4,2.4165208E3,2.1890626E0,-7.1712974E3,-1.1762438E3,1.5918593E4,-1.4563054E3,1.4940698E3,-8.1138267E3,2.550452E3,1.8068262E4,5.0267233E2,-3.366196E3,-2.2668289E3,6.229666E3,-1.1042681E4,-1.1629596E3,-7.078613E3,3.3715742E3,5.280846E3,-1.06971054E2,-4.2775534E2,-1.8049998E4,3.253368E4,1.980661E3,1.6838805E4,-1.377757E3,3.064775E2,3.4552202E3,-1.1409673E3,4.451374E4,8.954025E3,-5.3709863E3,-5.3739443E3,1.551671E4,-1.5447784E4,3.3673394E3],"categories":[],"categories_nodes":[],"categories_segments":[],"categories_sizes":[],"default_left":[0,0,0,0,0,0,0,0,0,0,0,0,0,0,0,0,0,0,0,0,0,0,0,0,0,0,0,0,0,0,0,0,0,0,0,0,0,0,0,0,0,0,0,0,0,0,0,0,0,0,0,0,0,0,0,0,0,0,0,0,0,0,0,0,0,0,0,0,0,0,0,0,0,0,0,0,0],"id":13,"left_children":[1,3,5,7,9,11,-1,13,15,17,19,21,23,25,27,29,31,33,35,37,39,-1,-1,41,43,45,47,49,51,53,55,57,59,61,63,65,67,69,71,73,75,-1,-1,-1,-1,-1,-1,-1,-1,-1,-1,-1,-1,-1,-1,-1,-1,-1,-1,-1,-1,-1,-1,-1,-1,-1,-1,-1,-1,-1,-1,-1,-1,-1,-1,-1,-1],"loss_changes":[2.1759386E10,1.6281925E10,4.2835722E9,1.888152E10,1.5177754E10,2.724783E9,0E0,1.9622439E10,1.3837232E10,2.4633303E10,1.8326714E10,6.823014E7,1.862603E9,2.1890216E10,2.7389911E10,9.706312E9,1.4124625E10,3.3016533E10,3.0531437E10,1.2342868E10,2.1706295E10,0E0,0E0,5.387424E7,6.335301E8,1.8108264E10,1.8219012E10,2.1263438E10,1.7049444E10,1.95824E10,1.4466756E10,2.0884867E10,1.9179573E10,6.0030763E10,1.6962435E10,4.4542927E10,2.9943093E10,4.51463E10,6.3671316E9,1.0327929E10,1.1230067E10,0E0,0E0,0E0,0E0,0E0,0E0,0E0,0E0,0E0,0E0,0E0,0E0,0E0,0E0,0E0,0E0,0E0,0E0,0E0,0E0,0E0,0E0,0E0,0E0,0E0,0E0,0E0,0E0,0E0,0E0,0E0,0E0,0E0,0E0,0E0,0E0],"parents":[2147483647,0,0,1,1,2,2,3,3,4,4,5,5,7,7,8,8,9,9,10,10,11,11,12,12,13,13,14,14,15,15,16,16,17,17,18,18,19,19,20,20,23,23,24,24,25,25,26,26,27,27,28,28,29,29,30,30,31,31,32,32,33,33,34,34,35,35,36,36,37,37,38,38,39,39,40,40],"right_children":[2,4,6,8,10,12,-1,14,16,18,20,22,24,26,28,30,32,34,36,38,40,-1,-1,42,44,46,48,50,52,54,56,58,60,62,64,66,68,70,72,74,76,-1,-1,-1,-1,-1,-1,-1,-1,-1,-1,-1,-1,-1,-1,-1,-1,-1,-1,-1,-1,-1,-1,-1,-1,-1,-1,-1,-1,-1,-1,-1,-1,-1,-1,-1,-1],"split_conditions":[1E0,-2.8567407E-1,1E0,1E0,1E0,-8.19713E-1,-1.5284077E4,-7.572415E-1,-8.794233E-2,2.3732404E-1,8.0829465E-1,-2.4601589E-1,9.231875E-1,-1.1870455E0,-5.348429E-1,-9.284134E-1,-2.4591452E-1,1.1968675E0,-2.4591452E-1,-4.0989986E-1,1.2301148E0,-4.247964E3,-9.211308E3,7.8853256E-1,-2.3747848E-1,1E0,-1.5221573E0,1E0,-8.794233E-2,-1.1120796E0,-9.1342026E-1,1E0,1E0,9.4448256E-1,-9.0948604E-2,-5.6233037E-1,1E0,1.9249316E0,-2.6348504E-1,3.3764537E-2,1.8040118E0,2.4165208E3,2.1890626E0,-7.1712974E3,-1.1762438E3,1.5918593E4,-1.4563054E3,1.4940698E3,-8.1138267E3,2.550452E3,1.8068262E4,5.0267233E2,-3.366196E3,-2.2668289E3,6.229666E3,-1.1042681E4,-1.1629596E3,-7.078613E3,3.3715742E3,5.280846E3,-1.06971054E2,-4.2775534E2,-1.8049998E4,3.253368E4,1.980661E3,1.6838805E4,-1.377757E3,3.064775E2,3.4552202E3,-1.1409673E3,4.451374E4,8.954025E3,-5.3709863E3,-5.3739443E3,1.551671E4,-1.5447784E4,3.3673394E3],"split_indices":[7,0,10,10,8,3,0,3,14,9,3,2,0,3,3,3,11,3,11,3,0,0,0,0,3,6,0,5,14,3,3,5,5,3,0,3,5,0,0,0,0,0,0,0,0,0,0,0,0,0,0,0,0,0,0,0,0,0,0,0,0,0,0,0,0,0,0,0,0,0,0,0,0,0,0,0,0],"split_type":[0,0,0,0,0,0,0,0,0,0,0,0,0,0,0,0,0,0,0,0,0,0,0,0,0,0,0,0,0,0,0,0,0,0,0,0,0,0,0,0,0,0,0,0,0,0,0,0,0,0,0,0,0,0,0,0,0,0,0,0,0,0,0,0,0,0,0,0,0,0,0,0,0,0,0,0,0],"sum_hessian":[3.381E3,3.35E3,3.1E1,1.334E3,2.016E3,2.6E1,5E0,6.23E2,7.11E2,1.812E3,2.04E2,1.4E1,1.2E1,1.55E2,4.68E2,4.03E2,3.08E2,5.45E2,1.267E3,1.79E2,2.5E1,3E0,1.1E1,5E0,7E0,2.9E1,1.26E2,5E1,4.18E2,9.6E1,3.07E2,6.7E1,2.41E2,5.39E2,6E0,4.8E1,1.219E3,7.7E1,1.02E2,1.5E1,1E1,4E0,1E0,4E0,3E0,6E0,2.3E1,2.1E1,1.05E2,4.1E1,9E0,1.78E2,2.4E2,5E1,4.6E1,1.3E1,2.94E2,3.4E1,3.3E1,1.36E2,1.05E2,5.22E2,1.7E1,3E0,3E0,2.7E1,2.1E1,8.11E2,4.08E2,7.6E1,1E0,2E0,1E2,2E0,1.3E1,4E0,6E0],"tree_param":{"num_deleted":"0","num_feature":"15","num_nodes":"77","size_leaf_vector":"1"}},{"base_weights":[1.24130516E2,-2.0283383E2,1.3797119E4,-4.3042212E2,1.9904229E4,2.39597E4,3.3674017E2,3.0312183E1,-1.3911447E4,4.878511E4,8.878764E3,1.1768952E4,4.531987E4,-1.4685578E4,3.9361094E4,-2.0442743E2,2.2286977E4,-2.6670996E4,1.7225951E4,1.1900117E4,6.2892945E4,-7.141947E3,4.3493812E4,2.8493562E3,2.6916494E4,3.6517664E4,2.5710094E4,-3.1108564E4,1.4702057E4,1.335606E4,1.2483125E4,-2.820866E2,1.81612E4,2.4533395E4,-7.439766E3,-5.36777E3,-4.839358E4,6.4896514E3,2.7227293E4,-1.0781719E2,4.8319253E3,1.0908401E4,2.5844395E4,5.6177397E3,-2.3361312E4,1.6833762E4,4.107682E3,7.383183E3,-6.625348E3,5.8023438E3,1.0232703E4,4.9951965E4,1.2846953E3,8.230869E3,-4.384615E4,8.407544E3,7.8681406E3,1.1255625E2,5.50485E3,-3.020567E2,1.6242618E3,-4.6548984E3,7.8977554E3,7.442213E3,-1.0155119E4,-7.9695376E3,-3.2057021E4,-1.1595935E4,1.0867287E4,-4.2386157E3,2.6091904E3,-6.753375E2,-8.721362E3,-3.1212814E2,3.653571E3,-3.0379612E3,4.25525E2,-1.6310626E3,5.928E3,2.0368768E4,5.856014E3,1.7248922E3,-7.6326E2,2.8092166E3,5.5471875E2,-1.5613192E4,-6.0962515E3,-8.5087506E2,7.996263E3],"categories":[],"categories_nodes":[],"categories_segments":[],"categories_sizes":[],"default_left":[0,0,0,0,0,0,0,0,0,0,0,0,0,0,0,0,0,0,0,0,0,0,0,0,0,0,0,0,0,0,0,0,0,0,0,0,0,0,0,0,0,0,0,0,0,0,0,0,0,0,0,0,0,0,0,0,0,0,0,0,0,0,0,0,0,0,0,0,0,0,0,0,0,0,0,0,0,0,0,0,0,0,0,0,0,0,0,0,0],"id":14,"left_children":[1,3,5,7,9,11,13,15,17,19,21,23,25,27,29,31,33,35,37,39,41,43,45,47,49,-1,51,53,55,-1,57,59,-1,61,-1,63,65,67,-1,-1,-1,-1,-1,69,71,-1,-1,73,75,77,-1,79,81,83,85,-1,87,-1,-1,-1,-1,-1,-1,-1,-1,-1,-1,-1,-1,-1,-1,-1,-1,-1,-1,-1,-1,-1,-1,-1,-1,-1,-1,-1,-1,-1,-1,-1,-1],"loss_changes":[1.51223E10,1.5128106E10,1.0798513E10,2.0298529E10,1.1348579E10,1.1184474E10,2.109631E10,1.6519266E10,4.3367743E10,4.4552397E9,1.5838247E10,3.9766036E9,2.0843194E10,1.300581E10,8.3090944E8,1.4777054E10,4.0989942E9,3.537284E10,2.4673681E10,2.1205715E8,1.1864986E9,4.270318E9,2.6162084E9,9.0804954E8,1.4725893E9,0E0,8.2254694E9,8.879411E9,6.899827E8,0E0,2.0620464E8,1.2911131E10,0E0,2.7056722E9,0E0,3.521844E10,4.5655417E10,4.0326988E10,0E0,0E0,0E0,0E0,0E0,8.52607E8,1.0193889E9,0E0,0E0,5.781935E8,2.1150285E8,7.349253E8,0E0,2.497147E9,1.513947E8,1.884416E7,1.4495539E9,0E0,1.6843452E9,0E0,0E0,0E0,0E0,0E0,0E0,0E0,0E0,0E0,0E0,0E0,0E0,0E0,0E0,0E0,0E0,0E0,0E0,0E0,0E0,0E0,0E0,0E0,0E0,0E0,0E0,0E0,0E0,0E0,0E0,0E0,0E0],"parents":[2147483647,0,0,1,1,2,2,3,3,4,4,5,5,6,6,7,7,8,8,9,9,10,10,11,11,12,12,13,13,14,14,15,15,16,16,17,17,18,18,19,19,20,20,21,21,22,22,23,23,24,24,26,26,27,27,28,28,30,30,31,31,33,33,35,35,36,36,37,37,43,43,44,44,47,47,48,48,49,49,51,51,52,52,53,53,54,54,56,56],"right_children":[2,4,6,8,10,12,14,16,18,20,22,24,26,28,30,32,34,36,38,40,42,44,46,48,50,-1,52,54,56,-1,58,60,-1,62,-1,64,66,68,-1,-1,-1,-1,-1,70,72,-1,-1,74,76,78,-1,80,82,84,86,-1,88,-1,-1,-1,-1,-1,-1,-1,-1,-1,-1,-1,-1,-1,-1,-1,-1,-1,-1,-1,-1,-1,-1,-1,-1,-1,-1,-1,-1,-1,-1,-1,-1],"split_conditions":[2.8132234E0,3.1339107E0,2.2889543E0,1.8565667E0,1.5252737E0,2.283872E0,2.4117143E-1,2.1454887E0,1.443998E0,1.0152997E-1,2.5237625E0,1.443998E0,3.126064E0,5.6687794E0,1.9249316E0,4.738892E0,1.1568857E0,-1.1840986E-1,2.958564E0,7.534915E-2,4.3721387E-1,1.4442546E0,3.3346426E0,8.4032214E-1,6.8335164E-1,3.6517664E4,1E0,-2.8567407E-1,8.68587E-2,1.335606E4,2.0664895E0,7.820566E-1,1.81612E4,-1.4869088E0,-7.439766E3,1E0,2.0020373E0,-8.794233E-2,2.7227293E4,-1.0781719E2,4.8319253E3,1.0908401E4,2.5844395E4,-6.954111E-1,6.525732E-2,1.6833762E4,4.107682E3,-2.3175871E-2,3.126064E0,1.4163969E0,1.0232703E4,2.4406645E-2,-1.3693645E0,-3.0867097E-1,3.4758282E0,8.407544E3,1.3344991E-1,1.1255625E2,5.50485E3,-3.020567E2,1.6242618E3,-4.6548984E3,7.8977554E3,7.442213E3,-1.0155119E4,-7.9695376E3,-3.2057021E4,-1.1595935E4,1.0867287E4,-4.2386157E3,2.6091904E3,-6.753375E2,-8.721362E3,-3.1212814E2,3.653571E3,-3.0379612E3,4.25525E2,-1.6310626E3,5.928E3,2.0368768E4,5.856014E3,1.7248922E3,-7.6326E2,2.8092166E3,5.5471875E2,-1.5613192E4,-6.0962515E3,-8.5087506E2,7.996263E3],"split_indices":[9,11,11,3,9,3,0,0,11,0,3,11,2,11,0,14,3,0,3,0,3,3,3,0,3,0,5,0,0,0,0,3,0,3,0,12,2,14,0,0,0,0,0,0,0,0,0,0,2,0,0,0,0,0,3,0,0,0,0,0,0,0,0,0,0,0,0,0,0,0,0,0,0,0,0,0,0,0,0,0,0,0,0,0,0,0,0,0,0],"split_type":[0,0,0,0,0,0,0,0,0,0,0,0,0,0,0,0,0,0,0,0,0,0,0,0,0,0,0,0,0,0,0,0,0,0,0,0,0,0,0,0,0,0,0,0,0,0,0,0,0,0,0,0,0,0,0,0,0,0,0,0,0,0,0,0,0,0,0,0,0,0,0,0,0,0,0,0,0,0,0,0,0,0,0,0,0,0,0,0,0],"sum_hessian":[3.381E3,3.303E3,7.8E1,3.267E3,3.6E1,4.4E1,3.4E1,3.16E3,1.07E2,9E0,2.7E1,2.9E1,1.5E1,2.5E1,9E0,3.128E3,3.2E1,7.6E1,3.1E1,3E0,6E0,1.9E1,8E0,1.9E1,1E1,2E0,1.3E1,1.6E1,9E0,7E0,2E0,3.125E3,3E0,3.1E1,1E0,3.9E1,3.7E1,2.8E1,3E0,1E0,2E0,4E0,2E0,1.1E1,8E0,5E0,3E0,1.3E1,6E0,3E0,7E0,6E0,7E0,4E0,1.2E1,2E0,7E0,1E0,1E0,2.773E3,3.52E2,1E0,3E1,1.9E1,2E1,2.8E1,9E0,1.1E1,1.7E1,1E0,1E1,2E0,6E0,5E0,8E0,4E0,2E0,2E0,1E0,3E0,3E0,3E0,4E0,3E0,1E0,8E0,4E0,5E0,2E0],"tree_param":{"num_deleted":"0","num_feature":"15","num_nodes":"89","size_leaf_vector":"1"}},{"base_weights":[1.2994287E2,3.0431348E2,-1.8133988E4,-4.7637666E3,9.406995E2,-2.2730062E4,-5.7496187E3,-5.9516577E3,1.906073E4,1.5661952E3,-5.262714E3,-2.5577156E4,-8.436235E2,5.3553228E3,-5.3776875E3,1.5433369E4,-6.869511E3,-5.59225E3,3.525738E4,-5.7074653E3,2.0560334E3,-1.937183E4,-2.9686074E3,-1.0747367E4,-8.268595E3,1.9090482E3,4.7170315E1,7.335897E3,1.0760232E4,-9.049866E3,9.0949506E2,3.7622463E3,-5.694077E3,4.3197297E4,3.16896E3,6.839448E2,-1.2986244E4,9.969372E3,1.0457292E3,-9.909905E3,-3.9046844E4,5.0404136E3,-7.7647847E3,-4.472325E3,-1.3173969E3,3.7309983E3,-1.792438E3,-3.0797568E3,7.0047764E3,6.2779287E3,-9.511966E2,5.3122407E3,1.4622799E4,-3.141473E3,3.620133E3,-2.2508923E3,-1.8419342E4,5.65784E3,-2.1309978E3,-2.9750327E3,6.3955023E2,-5.688386E3,1.4062759E4,-1.2441702E4,-1.854954E3,6.683531E2,3.7881984E4,-1.2210021E3,-5.5059272E3],"categories":[],"categories_nodes":[],"categories_segments":[],"categories_sizes":[],"default_left":[0,0,0,0,0,0,0,0,0,0,0,0,0,0,0,0,0,0,0,0,0,0,0,0,0,0,0,0,0,0,0,0,0,0,0,0,0,0,0,0,0,0,0,0,0,0,0,0,0,0,0,0,0,0,0,0,0,0,0,0,0,0,0,0,0,0,0,0,0],"id":15,"left_children":[1,3,5,7,9,11,13,15,17,19,21,23,-1,25,-1,27,29,31,33,35,37,39,41,43,-1,-1,-1,45,-1,47,49,-1,-1,51,-1,53,55,57,59,61,63,65,67,-1,-1,-1,-1,-1,-1,-1,-1,-1,-1,-1,-1,-1,-1,-1,-1,-1,-1,-1,-1,-1,-1,-1,-1,-1,-1],"loss_changes":[1.0776149E10,1.0812312E10,1.6907346E9,1.0697986E10,1.1563502E10,1.2323676E9,1.448136E9,7.1133297E9,7.384489E9,9.652988E9,8.778908E9,2.924718E8,0E0,3.04428E7,0E0,2.218845E9,5.8258504E9,2.1801533E9,1.7004657E9,7.964086E9,2.0264587E10,6.6872617E9,9.104531E9,4.030957E7,0E0,0E0,0E0,8.890425E8,0E0,1.0798094E10,6.2734295E9,0E0,0E0,2.6769408E8,0E0,1.1808994E10,2.0775623E10,4.369422E10,2.6810606E10,1.4766547E10,7.0009856E8,3.006554E10,5.715276E9,0E0,0E0,0E0,0E0,0E0,0E0,0E0,0E0,0E0,0E0,0E0,0E0,0E0,0E0,0E0,0E0,0E0,0E0,0E0,0E0,0E0,0E0,0E0,0E0,0E0,0E0],"parents":[2147483647,0,0,1,1,2,2,3,3,4,4,5,5,6,6,7,7,8,8,9,9,10,10,11,11,13,13,15,15,16,16,17,17,18,18,19,19,20,20,21,21,22,22,23,23,27,27,29,29,30,30,33,33,35,35,36,36,37,37,38,38,39,39,40,40,41,41,42,42],"right_children":[2,4,6,8,10,12,14,16,18,20,22,24,-1,26,-1,28,30,32,34,36,38,40,42,44,-1,-1,-1,46,-1,48,50,-1,-1,52,-1,54,56,58,60,62,64,66,68,-1,-1,-1,-1,-1,-1,-1,-1,-1,-1,-1,-1,-1,-1,-1,-1,-1,-1,-1,-1,-1,-1,-1,-1,-1,-1],"split_conditions":[1E0,-1.2626517E0,8.774246E-1,1E0,1E0,9.231875E-1,9.231875E-1,-1.267009E0,-6.023121E-1,-1.1620569E0,-2.4601589E-1,-2.4601589E-1,-8.436235E2,7.8853256E-1,-5.3776875E3,-1.2857505E0,-8.794233E-2,-8.5094875E-1,1.948244E-1,-1.3082402E0,-2.4591452E-1,-5.348429E-1,8.7801075E-1,-2.4421568E-1,-8.268595E3,1.9090482E3,4.7170315E1,-1.4219384E0,1.0760232E4,1.443998E0,-8.9217997E-1,3.7622463E3,-5.694077E3,-1.4122744E0,3.16896E3,7.7815336E-1,8.0875725E-1,-6.422939E-1,-2.4601589E-1,-6.772779E-1,-2.1124044E-1,1.9249316E0,1.3265815E0,-4.472325E3,-1.3173969E3,3.7309983E3,-1.792438E3,-3.0797568E3,7.0047764E3,6.2779287E3,-9.511966E2,5.3122407E3,1.4622799E4,-3.141473E3,3.620133E3,-2.2508923E3,-1.8419342E4,5.65784E3,-2.1309978E3,-2.9750327E3,6.3955023E2,-5.688386E3,1.4062759E4,-1.2441702E4,-1.854954E3,6.683531E2,3.7881984E4,-1.2210021E3,-5.5059272E3],"split_indices":[7,0,14,8,8,0,0,3,3,3,2,2,0,0,0,3,14,3,3,3,11,3,2,0,0,0,0,3,0,11,3,0,0,0,0,0,0,3,2,3,3,0,0,0,0,0,0,0,0,0,0,0,0,0,0,0,0,0,0,0,0,0,0,0,0,0,0,0,0],"split_type":[0,0,0,0,0,0,0,0,0,0,0,0,0,0,0,0,0,0,0,0,0,0,0,0,0,0,0,0,0,0,0,0,0,0,0,0,0,0,0,0,0,0,0,0,0,0,0,0,0,0,0,0,0,0,0,0,0,0,0,0,0,0,0,0,0,0,0,0,0],"sum_hessian":[3.381E3,3.35E3,3.1E1,3.73E2,2.977E3,2.2E1,9E0,3.56E2,1.7E1,2.705E3,2.72E2,1.9E1,3E0,5E0,4E0,1.4E1,3.42E2,7E0,1E1,1.7E2,2.535E3,3.7E1,2.35E2,3E0,1.6E1,4E0,1E0,1.1E1,3E0,2.67E2,7.5E1,3E0,4E0,7E0,3E0,9.1E1,7.9E1,2.86E2,2.249E3,2.6E1,1.1E1,8.8E1,1.47E2,1E0,2E0,8E0,3E0,2.58E2,9E0,1.2E1,6.3E1,2E0,5E0,4.6E1,4.5E1,7.2E1,7E0,1.88E2,9.8E1,2.02E2,2.047E3,2.3E1,3E0,1E1,1E0,8.7E1,1E0,1.1E2,3.7E1],"tree_param":{"num_deleted":"0","num_feature":"15","num_nodes":"69","size_leaf_vector":"1"}},{"base_weights":[1.0032716E2,4.5445225E1,1.393103E4,-1.6008864E2,1.2470075E4,-3.587138E2,1.1441062E4,1.6534074E4,-7.471325E3,-1.1945027E2,-1.3606904E4,3.8594844E4,-7.264175E3,4.5368438E3,2.2192834E4,-1.0352086E4,9.0449375E3,8.7775256E2,-2.4537344E3,-2.8947076E4,1.281097E4,-1.6497994E4,5.4814965E4,-3.5898293E4,1.6761195E4,-2.1846594E4,2.7484695E4,-4.4996816E3,2.3932525E4,8.1914507E3,-1.1159963E3,-3.4741125E2,3.1178967E3,-1.09704E4,1.1660505E2,4.1450217E2,-1.4906573E4,1.7089936E4,-6.6420728E3,-9.5093066E2,-1.2470869E4,2.1229684E4,3.3358252E3,-8.1106333E3,-1.7394281E4,-1.0744417E4,4.0115593E3,1.4016353E4,3.0238782E3,8.673604E3,2.7303833E3],"categories":[],"categories_nodes":[],"categories_segments":[],"categories_sizes":[],"default_left":[0,0,0,0,0,0,0,0,0,0,0,0,0,0,0,0,0,0,0,0,0,0,0,0,0,0,0,0,0,0,0,0,0,0,0,0,0,0,0,0,0,0,0,0,0,0,0,0,0,0,0],"id":16,"left_children":[1,3,-1,5,7,9,11,13,15,17,19,21,23,25,27,-1,29,31,33,35,37,39,41,43,-1,45,47,-1,49,-1,-1,-1,-1,-1,-1,-1,-1,-1,-1,-1,-1,-1,-1,-1,-1,-1,-1,-1,-1,-1,-1],"loss_changes":[8.59843E9,8.630888E9,0E0,7.6658376E9,4.5808317E9,1.0363651E10,2.8723761E10,3.0222295E9,4.7773885E9,7.4812293E9,2.3875615E10,2.1457426E10,6.34712E10,1.0287537E10,2.3647283E9,0E0,1.7331768E9,4.3635577E10,9.329647E10,2.334401E10,3.521358E10,1.8731913E9,1.1758621E10,3.1296225E9,0E0,4.414398E9,2.5423852E9,0E0,1.9524219E9,0E0,0E0,0E0,0E0,0E0,0E0,0E0,0E0,0E0,0E0,0E0,0E0,0E0,0E0,0E0,0E0,0E0,0E0,0E0,0E0,0E0,0E0],"parents":[2147483647,0,0,1,1,3,3,4,4,5,5,6,6,7,7,8,8,9,9,10,10,11,11,12,12,13,13,14,14,16,16,17,17,18,18,19,19,20,20,21,21,22,22,23,23,25,25,26,26,28,28],"right_children":[2,4,-1,6,8,10,12,14,16,18,20,22,24,26,28,-1,30,32,34,36,38,40,42,44,-1,46,48,-1,50,-1,-1,-1,-1,-1,-1,-1,-1,-1,-1,-1,-1,-1,-1,-1,-1,-1,-1,-1,-1,-1,-1],"split_conditions":[4.738892E0,2.123853E0,1.393103E4,5.707702E0,1.1568857E0,1.997561E0,-5.4897547E-2,1E0,2.0020373E0,2.972777E-1,2.6854077E-1,1E0,9.308332E-1,1E0,-1.4869088E0,-1.0352086E4,2.2581413E0,-6.005938E-2,3.6974463E-1,-2.4601589E-1,1E0,8.7801075E-1,2.0020373E0,9.007525E-1,1.6761195E4,2.727356E0,-2.4601589E-1,-4.4996816E3,1E0,8.1914507E3,-1.1159963E3,-3.4741125E2,3.1178967E3,-1.09704E4,1.1660505E2,4.1450217E2,-1.4906573E4,1.7089936E4,-6.6420728E3,-9.5093066E2,-1.2470869E4,2.1229684E4,3.3358252E3,-8.1106333E3,-1.7394281E4,-1.0744417E4,4.0115593E3,1.4016353E4,3.0238782E3,8.673604E3,2.7303833E3],"split_indices":[14,0,0,13,3,0,0,10,2,3,3,5,0,4,3,0,0,3,3,2,4,2,2,3,0,13,2,0,8,0,0,0,0,0,0,0,0,0,0,0,0,0,0,0,0,0,0,0,0,0,0],"split_type":[0,0,0,0,0,0,0,0,0,0,0,0,0,0,0,0,0,0,0,0,0,0,0,0,0,0,0,0,0,0,0,0,0,0,0,0,0,0,0,0,0,0,0,0,0,0,0,0,0,0,0],"sum_hessian":[3.381E3,3.378E3,3E0,3.324E3,5.4E1,3.269E3,5.5E1,4.5E1,9E0,3.212E3,5.7E1,2.2E1,3.3E1,1.5E1,3E1,3E0,6E0,2.251E3,9.61E2,3.6E1,2.1E1,5E0,1.7E1,2.3E1,1E1,7E0,8E0,1E0,2.9E1,2E0,4E0,1.855E3,3.96E2,7.3E1,8.88E2,1.5E1,2.1E1,9E0,1.2E1,4E0,1E0,1.2E1,5E0,1.8E1,5E0,5E0,2E0,3E0,5E0,2.1E1,8E0],"tree_param":{"num_deleted":"0","num_feature":"15","num_nodes":"51","size_leaf_vector":"1"}},{"base_weights":[7.5589424E1,-1.30030625E4,2.47912E2,-4.9287363E3,-2.8284842E4,1.9165491E1,9.687082E3,-1.5346063E4,3.940165E3,-1.3205329E4,-1.4610969E4,3.8827084E2,-6.8215547E3,1.726397E4,-3.3140445E2,-3.3250112E3,-6.240672E3,7.303738E2,8.294524E3,-4.975215E3,-1.197371E3,-9.2513916E1,1.0387214E4,-1.4656221E4,6.683223E3,7.6423916E3,3.422543E4,-1.1460708E4,2.8637926E4,2.6136794E3,-1.4024822E4,1.1063519E2,-6.657971E4,3.1742125E4,-1.7599446E2,-3.1190159E3,-2.451945E4,-1.2672336E4,2.6447568E4,1.7463718E3,1.7667664E4,7.963561E4,1.2452403E4,-2.4096477E4,1.1166169E4,1.6568E4,3.739425E4,-6.8398574E3,4.4773022E3,-3.1762667E0,7.1394805E3,-5.0277285E3,-2.6609053E4,1.1914408E4,-8.806859E3,-1.729255E3,8.437563E3,-4.0930059E3,2.948649E3,-3.2186138E3,-2.1111152E4,-8.311971E3,1.3493829E4,2.2561287E4,5.56133E3,1.5708993E3,-1.6449081E3,1.1525767E3,6.7116235E3,2.9062889E4,1.075492E4,8.771507E3,-2.7619814E3,-1.2136138E3,-1.13183125E4,6.5748003E3,1.7217633E3,7.2244175E3,3.0824374E2,1.234561E4,3.354469E3],"categories":[],"categories_nodes":[],"categories_segments":[],"categories_sizes":[],"default_left":[0,0,0,0,0,0,0,0,0,0,0,0,0,0,0,0,0,0,0,0,0,0,0,0,0,0,0,0,0,0,0,0,0,0,0,0,0,0,0,0,0,0,0,0,0,0,0,0,0,0,0,0,0,0,0,0,0,0,0,0,0,0,0,0,0,0,0,0,0,0,0,0,0,0,0,0,0,0,0,0,0],"id":17,"left_children":[1,3,5,7,9,11,13,15,17,19,-1,21,23,25,27,-1,-1,29,-1,-1,-1,31,33,35,37,39,41,43,45,-1,47,49,51,53,55,57,59,61,63,65,67,69,71,73,75,77,79,-1,-1,-1,-1,-1,-1,-1,-1,-1,-1,-1,-1,-1,-1,-1,-1,-1,-1,-1,-1,-1,-1,-1,-1,-1,-1,-1,-1,-1,-1,-1,-1,-1,-1],"loss_changes":[7.625396E9,5.289754E9,7.2093066E9,2.8321736E9,3.9753472E9,8.236499E9,6.0025277E9,9.505306E7,1.2734812E9,2.4512755E8,0E0,1.4879676E10,1.7767459E10,7.0822595E9,1.1612507E10,0E0,0E0,2.0065778E9,0E0,0E0,0E0,3.9906497E10,3.2037433E10,1.1985695E10,2.405325E10,1.742422E9,1.4827819E10,7.702673E9,4.373335E8,0E0,1.8643891E9,8.4596316E9,8.4305224E9,2.406006E10,1.5344755E10,6.947472E9,3.5287253E10,2.8982225E10,1.0561217E10,5.33317E8,6.295104E8,3.015004E8,4.6319903E9,4.4938363E9,4.5760832E8,6.7582886E8,3.236352E7,0E0,0E0,0E0,0E0,0E0,0E0,0E0,0E0,0E0,0E0,0E0,0E0,0E0,0E0,0E0,0E0,0E0,0E0,0E0,0E0,0E0,0E0,0E0,0E0,0E0,0E0,0E0,0E0,0E0,0E0,0E0,0E0,0E0,0E0],"parents":[2147483647,0,0,1,1,2,2,3,3,4,4,5,5,6,6,7,7,8,8,9,9,11,11,12,12,13,13,14,14,17,17,21,21,22,22,23,23,24,24,25,25,26,26,27,27,28,28,30,30,31,31,32,32,33,33,34,34,35,35,36,36,37,37,38,38,39,39,40,40,41,41,42,42,43,43,44,44,45,45,46,46],"right_children":[2,4,6,8,10,12,14,16,18,20,-1,22,24,26,28,-1,-1,30,-1,-1,-1,32,34,36,38,40,42,44,46,-1,48,50,52,54,56,58,60,62,64,66,68,70,72,74,76,78,80,-1,-1,-1,-1,-1,-1,-1,-1,-1,-1,-1,-1,-1,-1,-1,-1,-1,-1,-1,-1,-1,-1,-1,-1,-1,-1,-1,-1,-1,-1,-1,-1,-1,-1],"split_conditions":[-1.7956245E0,-8.2549125E-2,2.8132234E0,-2.4591452E-1,5.9904176E-1,1.6316692E0,2.2889543E0,-2.4601589E-1,-3.124443E-1,-2.4601589E-1,-1.4610969E4,1.1069084E0,1.443998E0,2.283872E0,2.4117143E-1,-3.3250112E3,-6.240672E3,-7.4474716E-1,8.294524E3,-4.975215E3,-1.197371E3,1.0844188E0,5.9904176E-1,-3.8539776E-1,-8.794233E-2,1.443998E0,1.443998E0,5.6687794E0,3.126064E0,2.6136794E3,5.9904176E-1,1.0431875E0,2.6395E-1,1.3265815E0,1.6041818E0,2.206407E0,2.0020373E0,2.958564E0,6.900286E-2,8.4032214E-1,6.8335164E-1,9.293679E-2,2.4406645E-2,-1.6915838E-1,8.68587E-2,7.817463E-1,1.9249316E0,-6.8398574E3,4.4773022E3,-3.1762667E0,7.1394805E3,-5.0277285E3,-2.6609053E4,1.1914408E4,-8.806859E3,-1.729255E3,8.437563E3,-4.0930059E3,2.948649E3,-3.2186138E3,-2.1111152E4,-8.311971E3,1.3493829E4,2.2561287E4,5.56133E3,1.5708993E3,-1.6449081E3,1.1525767E3,6.7116235E3,2.9062889E4,1.075492E4,8.771507E3,-2.7619814E3,-1.2136138E3,-1.13183125E4,6.5748003E3,1.7217633E3,7.2244175E3,3.0824374E2,1.234561E4,3.354469E3],"split_indices":[0,3,9,11,11,3,11,2,3,2,0,3,11,3,0,0,0,3,0,0,0,3,11,0,14,11,11,11,2,0,11,3,0,0,3,3,2,3,0,0,3,0,0,0,0,0,0,0,0,0,0,0,0,0,0,0,0,0,0,0,0,0,0,0,0,0,0,0,0,0,0,0,0,0,0,0,0,0,0,0,0],"split_type":[0,0,0,0,0,0,0,0,0,0,0,0,0,0,0,0,0,0,0,0,0,0,0,0,0,0,0,0,0,0,0,0,0,0,0,0,0,0,0,0,0,0,0,0,0,0,0,0,0,0,0,0,0,0,0,0,0,0,0,0,0,0,0,0,0,0,0,0,0,0,0,0,0,0,0,0,0,0,0,0,0],"sum_hessian":[3.381E3,4.3E1,3.338E3,2.9E1,1.4E1,3.26E3,7.8E1,1.3E1,1.6E1,9E0,5E0,3.094E3,1.66E2,4.4E1,3.4E1,9E0,4E0,1.5E1,1E0,6E0,3E0,2.953E3,1.41E2,1.05E2,6.1E1,2.9E1,1.5E1,2.5E1,9E0,1E1,5E0,2.945E3,8E0,4.6E1,9.5E1,4.9E1,5.6E1,3.1E1,3E1,1.9E1,1E1,4E0,1.1E1,1.6E1,9E0,5E0,4E0,4E0,1E0,2.931E3,1.4E1,3E0,5E0,4.1E1,5E0,8E1,1.5E1,2.7E1,2.2E1,4.4E1,1.2E1,2.5E1,6E0,3E0,2.7E1,1.3E1,6E0,3E0,7E0,2E0,2E0,6E0,5E0,7E0,9E0,2E0,7E0,3E0,2E0,3E0,1E0],"tree_param":{"num_deleted":"0","num_feature":"15","num_nodes":"81","size_leaf_vector":"1"}},{"base_weights":[6.5914825E1,-1.4337366E4,1.9476437E2,2.861955E3,-1.9696375E4,3.9995957E4,6.3741966E1,-2.4064812E3,8.732012E3,-1.0311973E4,-1.4797392E4,4.395142E3,1.5715851E4,1.8988152E2,-1.2993693E4,2.8552814E2,-1.4887688E3,3.027147E3,6.9848676E2,2.0958506E3,-8.182176E3,-1.2337697E3,1.2924042E3,-9.718515E3,-2.5566383E4,-3.829605E3,4.9613643E3,-3.4636042E3,1.5877329E3,7.4145415E3,2.9284473E2,-1.3588319E4,-4.5057764E3,-1.0961746E4,-3.2835635E3,-7.466145E1,-2.4574646E3,-7.6670586E1,2.2035718E3,1.4797034E2,5.586638E3,-3.058709E3,6.348177E2,-2.943004E3,-6.457848E3,1.310075E3,-3.1791223E3],"categories":[],"categories_nodes":[],"categories_segments":[],"categories_sizes":[],"default_left":[0,0,0,0,0,0,0,0,0,0,0,0,0,0,0,0,0,0,0,0,0,0,0,0,0,0,0,0,0,0,0,0,0,0,0,0,0,0,0,0,0,0,0,0,0,0,0],"id":18,"left_children":[1,3,5,7,9,11,13,15,17,-1,19,-1,-1,21,23,-1,-1,-1,-1,25,-1,27,29,31,33,-1,-1,35,37,39,41,43,45,-1,-1,-1,-1,-1,-1,-1,-1,-1,-1,-1,-1,-1,-1],