{"learner":{"attributes":{"scikit_learn":"{\"_estimator_type\": \"regressor\"}"},"feature_names":["location.address.city","description.baths","fireplace","description.sqft","condos","townhomes","location.address.state","description.baths_full","single_family","description.garage"],"feature_types":["float","float","int","float","int","int","float","float","int","float"],"gradient_booster":{"model":{"gbtree_model_param":{"num_parallel_tree":"1","num_trees":"300"},"iteration_indptr":[0,1,2,3,4,5,6,7,8,9,10,11,12,13,14,15,16,17,18,19,20,21,22,23,24,25,26,27,28,29,30,31,32,33,34,35,36,37,38,39,40,41,42,43,44,45,46,47,48,49,50,51,52,53,54,55,56,57,58,59,60,61,62,63,64,65,66,67,68,69,70,71,72,73,74,75,76,77,78,79,80,81,82,83,84,85,86,87,88,89,90,91,92,93,94,95,96,97,98,99,100,101,102,103,104,105,106,107,108,109,110,111,112,113,114,115,116,117,118,119,120,121,122,123,124,125,126,127,128,129,130,131,132,133,134,135,136,137,138,139,140,141,142,143,144,145,146,147,148,149,150,151,152,153,154,155,156,157,158,159,160,161,162,163,164,165,166,167,168,169,170,171,172,173,174,175,176,177,178,179,180,181,182,183,184,185,186,187,188,189,190,191,192,193,194,195,196,197,198,199,200,201,202,203,204,205,206,207,208,209,210,211,212,213,214,215,216,217,218,219,220,221,222,223,224,225,226,227,228,229,230,231,232,233,234,235,236,237,238,239,240,241,242,243,244,245,246,247,248,249,250,251,252,253,254,255,256,257,258,259,260,261,262,263,264,265,266,267,268,269,270,271,272,273,274,275,276,277,278,279,280,281,282,283,284,285,286,287,288,289,290,291,292,293,294,295,296,297,298,299,300],"tree_info":[0,0,0,0,0,0,0,0,0,0,0,0,0,0,0,0,0,0,0,0,0,0,0,0,0,0,0,0,0,0,0,0,0,0,0,0,0,0,0,0,0,0,0,0,0,0,0,0,0,0,0,0,0,0,0,0,0,0,0,0,0,0,0,0,0,0,0,0,0,0,0,0,0,0,0,0,0,0,0,0,0,0,0,0,0,0,0,0,0,0,0,0,0,0,0,0,0,0,0,0,0,0,0,0,0,0,0,0,0,0,0,0,0,0,0,0,0,0,0,0,0,0,0,0,0,0,0,0,0,0,0,0,0,0,0,0,0,0,0,0,0,0,0,0,0,0,0,0,0,0,0,0,0,0,0,0,0,0,0,0,0,0,0,0,0,0,0,0,0,0,0,0,0,0,0,0,0,0,0,0,0,0,0,0,0,0,0,0,0,0,0,0,0,0,0,0,0,0,0,0,0,0,0,0,0,0,0,0,0,0,0,0,0,0,0,0,0,0,0,0,0,0,0,0,0,0,0,0,0,0,0,0,0,0,0,0,0,0,0,0,0,0,0,0,0,0,0,0,0,0,0,0,0,0,0,0,0,0,0,0,0,0,0,0,0,0,0,0,0,0,0,0,0,0,0,0,0,0,0,0,0,0,0,0,0,0,0,0,0,0,0,0,0,0,0,0,0,0,0,0],"trees":[{"base_weights":[9.374254E2,-7.496589E4,1.3375673E5,-1.314979E5,5.0227406E4,9.7366305E4,3.2607344E5,-1.8820016E5,-1.0237409E5,8.357433E3,1.8073745E5,7.660125E4,1.958822E5,2.8124756E5,4.7245188E5,-2.1467014E5,-1.4101667E5,-1.4908542E5,-6.75502E4,-3.683848E4,4.6328402E4,1.5377997E5,3.164687E5,2.4563678E4,1.27487664E5,1.611745E5,2.979979E5,2.0960669E5,3.586156E5,2.956985E5,4.858698E4,-2.8250701E4,-2.0146519E5,-1.0216357E5,-1.4945103E5,-2.6611873E4,-1.3914856E5,-9.308942E4,-2.6816807E4,-8.217177E4,-1.5922173E4,2.6659644E3,1.1512968E5,5.2728164E4,1.7661523E5,3.485009E4,2.0907424E4,-6.785629E2,1.1614545E5,1.2106452E5,1.9258578E5,9.8545375E4,1.965918E5,1.6998332E4,3.1894434E5,1.7566431E5,3.018651E5,3.1547453E5,4.3095367E4,1.259875E4,3.383852E4,-2.1151294E5,-1.5904917E5,-1.140415E4,-7.7406714E3,-1.7228736E5,-1.2691965E4,-1.6696064E5,-1.2354834E5,-1.0269017E5,3.4932444E3,1.7576144E5,-3.2824793E4,-6.714253E4,-1.542524E5,3.4525605E4,-3.4327008E4,-1.1020314E4,6.9029484E4,8.6451805E4,4.1290617E4,-3.5773934E4,1.8491623E4,1.4895428E5,2.9356856E5,-2.8052053E4,3.595898E4,9.082064E4,2.5798266E5,9.433525E4,1.3797498E5,2.1287998E5,-4.48144E3,6.5361656E4,1.1863331E5,2.1509102E5,1.08417195E5,1.8131701E4,3.3938215E4,1.9220864E5,4.689241E4,3.2792645E4,1.11185205E4,2.3909325E5,4.5119992E4,-2.1960965E4,-1.872108E4,-1.9289506E4,-1.3334125E4,-2.1907594E4,-1.6090273E4,-1.7712873E4,-1.2737129E4,-1.598687E4,-1.146389E4,-1.2298541E4,-9.031955E3,-5.8859346E3,4.724165E3,-6.06785E3,2.5198422E4,-6.8894985E3,-1.0225346E3,-1.0637597E4,-2.0529978E3,-1.06905E4,-1.8446057E4,-5.9202065E3,9.24526E2,-5.726506E2,-6.7358296E3,3.698037E3,1.5307424E4,-3.9124946E3,1.1569182E4,-8.761611E3,-2.2836333E2,7.3627964E3,1.7513814E4,1.2341279E4,3.325912E4,-1.2860563E4,-1.0116432E2,8.895519E3,2.3857043E3,4.1703555E3,1.5681616E4,1.1242812E4,3.536197E4,5.338925E3,1.3369361E4,1.3993883E4,2.4841357E3,5.11452E3,2.2611982E4,8.0069453E3,7.6985004E2,1.0157194E4,2.2798521E4,2.0077746E4,3.1134697E4,1.87829E3,2.4576123E4,1.5759758E4,2.2349574E4,8.569851E3,-1.6814401E3,6.9320835E3,2.453775E4],"categories":[],"categories_nodes":[],"categories_segments":[],"categories_sizes":[],"default_left":[0,0,0,0,0,0,0,0,0,0,0,0,0,0,0,0,0,0,0,0,0,0,0,0,0,0,0,0,0,0,0,0,0,0,0,0,0,0,0,0,0,0,0,0,0,0,0,0,0,0,0,0,0,0,0,0,0,0,0,0,0,0,0,0,0,0,0,0,0,0,0,0,0,0,0,0,0,0,0,0,0,0,0,0,0,0,0,0,0,0,0,0,0,0,0,0,0,0,0,0,0,0,0,0,0,0,0,0,0,0,0,0,0,0,0,0,0,0,0,0,0,0,0,0,0,0,0,0,0,0,0,0,0,0,0,0,0,0,0,0,0,0,0,0,0,0,0,0,0,0,0,0,0,0,0,0,0,0,0,0,0,0,0,0,0,0,0,0,0],"id":0,"left_children":[1,3,5,7,9,11,13,15,17,19,21,23,25,27,29,31,33,35,37,39,41,43,45,47,49,51,53,55,57,59,-1,-1,61,63,65,-1,67,69,71,73,75,77,79,81,83,-1,-1,85,87,89,91,93,95,-1,97,99,101,103,-1,-1,-1,105,107,-1,-1,109,-1,111,113,115,117,119,121,123,125,-1,127,129,131,133,-1,135,-1,137,139,141,143,145,147,149,151,153,-1,155,157,159,161,-1,-1,163,165,-1,-1,167,-1,-1,-1,-1,-1,-1,-1,-1,-1,-1,-1,-1,-1,-1,-1,-1,-1,-1,-1,-1,-1,-1,-1,-1,-1,-1,-1,-1,-1,-1,-1,-1,-1,-1,-1,-1,-1,-1,-1,-1,-1,-1,-1,-1,-1,-1,-1,-1,-1,-1,-1,-1,-1,-1,-1,-1,-1,-1,-1,-1,-1,-1,-1,-1,-1],"loss_changes":[2.3993768E13,1.0722069E13,6.041318E12,1.7135871E12,2.5757341E12,1.4827814E12,8.3577274E11,4.2636673E11,1.1181805E12,6.143707E11,3.9461873E11,1.5938575E12,4.243262E11,5.527144E11,2.8720497E9,1.7354038E11,3.4475344E10,3.239712E11,4.112304E11,1.5437729E11,5.8413056E11,2.1802176E11,2.7209892E10,6.900907E11,1.156637E11,2.021471E11,5.735763E10,1.504143E11,8.961969E10,4.0390164E9,0E0,0E0,6.436736E10,2.7906048E9,4.283538E10,0E0,1.079163E11,2.2596852E11,1.8970755E11,5.061224E10,7.53761E11,1.0891862E11,6.2689116E11,2.1973772E11,2.320863E11,0E0,0E0,2.356838E11,2.199687E11,1.1937487E11,1.3244308E11,1.9786891E10,8.7025254E10,0E0,4.3771232E10,8.603723E10,5.3825372E10,2.933504E11,0E0,0E0,0E0,9.450815E9,2.0638597E10,0E0,0E0,9.274786E9,0E0,2.7565228E10,4.7950856E10,5.005692E10,6.2766387E10,8.874459E10,1.21515114E11,7.845952E10,2.2973153E9,0E0,1.1678894E11,2.9482224E10,5.2387504E10,2.5745791E11,0E0,1.9866331E10,0E0,1.20767775E11,7.575568E10,3.6564173E11,6.33952E10,1.7663368E11,1.1236521E11,1.7289767E11,3.5920544E10,4.6680375E10,0E0,1.198918E10,2.8533785E10,3.694343E10,1.3926528E11,0E0,0E0,2.2996582E10,1.4317686E10,0E0,0E0,1.550005E10,0E0,0E0,0E0,0E0,0E0,0E0,0E0,0E0,0E0,0E0,0E0,0E0,0E0,0E0,0E0,0E0,0E0,0E0,0E0,0E0,0E0,0E0,0E0,0E0,0E0,0E0,0E0,0E0,0E0,0E0,0E0,0E0,0E0,0E0,0E0,0E0,0E0,0E0,0E0,0E0,0E0,0E0,0E0,0E0,0E0,0E0,0E0,0E0,0E0,0E0,0E0,0E0,0E0,0E0,0E0,0E0,0E0,0E0,0E0,0E0,0E0,0E0,0E0,0E0,0E0],"parents":[2147483647,0,0,1,1,2,2,3,3,4,4,5,5,6,6,7,7,8,8,9,9,10,10,11,11,12,12,13,13,14,14,15,15,16,16,17,17,18,18,19,19,20,20,21,21,22,22,23,23,24,24,25,25,26,26,27,27,28,28,29,29,32,32,33,33,34,34,36,36,37,37,38,38,39,39,40,40,41,41,42,42,43,43,44,44,47,47,48,48,49,49,50,50,51,51,52,52,54,54,55,55,56,56,57,57,61,61,62,62,65,65,67,67,68,68,69,69,70,70,71,71,72,72,73,73,74,74,76,76,77,77,78,78,79,79,81,81,83,83,84,84,85,85,86,86,87,87,88,88,89,89,90,90,91,91,93,93,94,94,95,95,96,96,99,99,100,100,103,103],"right_children":[2,4,6,8,10,12,14,16,18,20,22,24,26,28,30,32,34,36,38,40,42,44,46,48,50,52,54,56,58,60,-1,-1,62,64,66,-1,68,70,72,74,76,78,80,82,84,-1,-1,86,88,90,92,94,96,-1,98,100,102,104,-1,-1,-1,106,108,-1,-1,110,-1,112,114,116,118,120,122,124,126,-1,128,130,132,134,-1,136,-1,138,140,142,144,146,148,150,152,154,-1,156,158,160,162,-1,-1,164,166,-1,-1,168,-1,-1,-1,-1,-1,-1,-1,-1,-1,-1,-1,-1,-1,-1,-1,-1,-1,-1,-1,-1,-1,-1,-1,-1,-1,-1,-1,-1,-1,-1,-1,-1,-1,-1,-1,-1,-1,-1,-1,-1,-1,-1,-1,-1,-1,-1,-1,-1,-1,-1,-1,-1,-1,-1,-1,-1,-1,-1,-1,-1,-1,-1,-1,-1,-1],"split_conditions":[3.932918E-1,9.022825E-1,1.5553036E0,-2.302376E-1,2.0348027E0,1.8201237E0,2.8607016E0,-6.512383E-1,-8.269836E-1,9.069426E-1,1.3283105E-1,9.069426E-1,9.069426E-1,1.1230894E0,4.4619673E-1,-1.3871244E0,-4.5592588E-1,-1.4103789E0,9.069426E-1,-7.9109347E-1,-1.9471876E-1,1E0,2.8607016E0,9.022825E-1,1.8719295E0,-2.302376E-1,2.0238578E0,1.8719295E0,2.0238578E0,3.1673226E0,4.858698E4,-2.8250701E4,-5.804433E-2,-5.804433E-2,6.281327E-2,-2.6611873E4,-1.363503E0,2.5080153E-1,-1.0554924E0,-8.269836E-1,-7.290419E-1,1.8719295E0,1E0,3.1673226E0,2.8607016E0,3.485009E4,2.0907424E4,2.4990557E-1,2.0348027E0,9.656578E-1,3.8019035E0,2.0971918E0,1E0,1.6998332E4,-2.302376E-1,1E0,1.0624241E0,1.8719295E0,4.3095367E4,1.259875E4,3.383852E4,-7.9109347E-1,-8.4599257E-1,-1.140415E4,-7.7406714E3,1E0,-1.2691965E4,9.069426E-1,1E0,1E0,1E0,6.281327E-2,-1.9471876E-1,-1.363503E0,1.5553036E0,3.4525605E4,1.5553036E0,-4.5592588E-1,1.5553036E0,2.4990557E-1,4.1290617E4,1.5553036E0,1.8491623E4,-8.354753E-1,-1.363503E0,1E0,1E0,8.242865E-1,1E0,9.022825E-1,1E0,-2.302376E-1,-4.48144E3,1E0,-5.804433E-2,9.022825E-1,-5.804433E-2,1.8131701E4,3.3938215E4,9.656578E-1,2.0348027E0,3.2792645E4,1.11185205E4,1.365288E0,4.5119992E4,-2.1960965E4,-1.872108E4,-1.9289506E4,-1.3334125E4,-2.1907594E4,-1.6090273E4,-1.7712873E4,-1.2737129E4,-1.598687E4,-1.146389E4,-1.2298541E4,-9.031955E3,-5.8859346E3,4.724165E3,-6.06785E3,2.5198422E4,-6.8894985E3,-1.0225346E3,-1.0637597E4,-2.0529978E3,-1.06905E4,-1.8446057E4,-5.9202065E3,9.24526E2,-5.726506E2,-6.7358296E3,3.698037E3,1.5307424E4,-3.9124946E3,1.1569182E4,-8.761611E3,-2.2836333E2,7.3627964E3,1.7513814E4,1.2341279E4,3.325912E4,-1.2860563E4,-1.0116432E2,8.895519E3,2.3857043E3,4.1703555E3,1.5681616E4,1.1242812E4,3.536197E4,5.338925E3,1.3369361E4,1.3993883E4,2.4841357E3,5.11452E3,2.2611982E4,8.0069453E3,7.6985004E2,1.0157194E4,2.2798521E4,2.0077746E4,3.1134697E4,1.87829E3,2.4576123E4,1.5759758E4,2.2349574E4,8.569851E3,-1.6814401E3,6.9320835E3,2.453775E4],"split_indices":[6,1,7,1,1,6,7,6,6,9,6,9,9,6,6,6,6,6,9,6,6,8,7,1,9,1,6,9,6,1,0,0,9,9,6,0,6,6,7,6,6,9,4,1,7,0,0,7,1,6,9,6,5,0,1,5,6,9,0,0,0,6,6,0,0,8,0,9,8,8,8,6,6,6,7,0,7,6,7,7,0,7,0,6,6,8,8,6,5,1,4,1,0,4,9,1,9,0,0,6,1,0,0,6,0,0,0,0,0,0,0,0,0,0,0,0,0,0,0,0,0,0,0,0,0,0,0,0,0,0,0,0,0,0,0,0,0,0,0,0,0,0,0,0,0,0,0,0,0,0,0,0,0,0,0,0,0,0,0,0,0,0,0,0,0,0,0,0,0],"split_type":[0,0,0,0,0,0,0,0,0,0,0,0,0,0,0,0,0,0,0,0,0,0,0,0,0,0,0,0,0,0,0,0,0,0,0,0,0,0,0,0,0,0,0,0,0,0,0,0,0,0,0,0,0,0,0,0,0,0,0,0,0,0,0,0,0,0,0,0,0,0,0,0,0,0,0,0,0,0,0,0,0,0,0,0,0,0,0,0,0,0,0,0,0,0,0,0,0,0,0,0,0,0,0,0,0,0,0,0,0,0,0,0,0,0,0,0,0,0,0,0,0,0,0,0,0,0,0,0,0,0,0,0,0,0,0,0,0,0,0,0,0,0,0,0,0,0,0,0,0,0,0,0,0,0,0,0,0,0,0,0,0,0,0,0,0,0,0,0,0],"sum_hessian":[2.379E3,1.514E3,8.65E2,1.043E3,4.71E2,7.28E2,1.37E2,3.53E2,6.9E2,3.57E2,1.14E2,6.02E2,1.26E2,1.06E2,3.1E1,2.25E2,1.28E2,2.94E2,3.96E2,1.63E2,1.94E2,9.6E1,1.8E1,2.98E2,3.04E2,9.5E1,3.1E1,5.6E1,5E1,3E0,2.8E1,3.5E1,1.9E2,2.4E1,1.04E2,2.2E1,2.72E2,2.43E2,1.53E2,5.1E1,1.12E2,1.19E2,7.5E1,1.8E1,7.8E1,1.3E1,5E0,2.34E2,6.4E1,2.78E2,2.6E1,3.5E1,6E1,5E0,2.6E1,4.2E1,1.4E1,3.3E1,1.7E1,1E0,2E0,1.52E2,3.8E1,1.5E1,9E0,5E1,5.4E1,9.6E1,1.76E2,2.21E2,2.2E1,4E0,1.49E2,4.3E1,8E0,5E0,1.07E2,9.9E1,2E1,6.9E1,6E0,1.1E1,7E0,6.4E1,1.4E1,1.34E2,1E2,5.5E1,9E0,1.09E2,1.69E2,2.4E1,2E0,1.4E1,2.1E1,4.9E1,1.1E1,4E0,2.2E1,3.7E1,5E0,1.2E1,2E0,2.2E1,1.1E1,1.11E2,4.1E1,1.5E1,2.3E1,8E0,4.2E1,7.5E1,2.1E1,3.3E1,1.43E2,8.2E1,1.39E2,9E0,1.3E1,1E0,3E0,5.7E1,9.2E1,2.3E1,2E1,4E0,4E0,6.8E1,3.9E1,9.1E1,8E0,1.5E1,5E0,1.3E1,5.6E1,4E0,7E0,1.7E1,4.7E1,3E0,1.1E1,2.8E1,1.06E2,1.8E1,8.2E1,3.2E1,2.3E1,4E0,5E0,5.4E1,5.5E1,1.66E2,3E0,2E0,2.2E1,1.1E1,3E0,1.9E1,2E0,4.4E1,5E0,7E0,4E0,1.9E1,1.8E1,3E0,2E0,1E0,2.1E1],"tree_param":{"num_deleted":"0","num_feature":"10","num_nodes":"169","size_leaf_vector":"1"}},{"base_weights":[4.187541E3,-6.803269E4,1.2737973E5,-1.167382E5,3.9759215E4,9.4812766E4,2.8474338E5,-1.525585E5,-7.334164E4,-2.2149107E4,8.763321E4,6.605938E4,1.6766162E5,2.544226E5,4.263981E4,-1.7379184E5,-8.906246E4,-9.668015E4,-2.984042E4,-4.637486E4,6.326991E4,2.8077756E4,1.5141653E5,1.9873293E4,1.04711195E5,1.391377E5,2.5722167E5,1.9678131E5,3.3088247E5,-2.1269984E5,-1.5117408E5,-9.9703664E4,-1.7201674E4,-1.15050516E5,-4.302236E4,-5.6927457E4,-1.8171088E4,-5.6776832E4,7.1305445E4,3.1411934E4,2.9790094E4,1.9664111E4,4.8857793E4,1.999504E5,6.159243E4,-3.6957837E3,9.8747695E4,8.577267E4,1.3787345E5,8.869422E4,1.6201797E5,1.4615173E5,3.2765848E4,7.584238E3,2.013253E5,2.9532072E5,4.108339E4,-2.6010281E4,-1.9770754E4,-1.2708162E5,-1.7063294E5,-1.4054025E5,-9.145248E4,-6.757E2,-2.4173708E3,-1.3444266E5,-1.0210418E5,-8.114287E4,-1.832928E4,1.5885444E3,-6.3361754E4,2.3148523E4,-3.781978E4,-9.8539625E4,-2.9309348E4,8.618942E4,-1.14217E3,-2.6575916E3,2.1506773E4,-3.3603857E3,7.7413625E4,1.7340128E5,2.9664125E5,-3.2547861E4,1.5442227E5,-1.964636E4,-6.8246315E1,7.585176E4,2.2358052E5,4.4949207E4,1.1045928E5,2.9732127E4,1.5030402E5,4.3431445E4,1.4170023E5,1.4713102E5,2.9679225E5,3.262984E3,2.0380639E4,1.6098653E5,2.2399167E5,2.1810578E5,3.9634434E5,-1.4688073E4,-1.0898102E4,-2.0313924E4,-1.4995116E4,-1.823932E4,-8.247926E3,-1.657228E4,-8.702113E3,-1.4835977E4,-7.5516704E3,-1.1779208E4,-8.300226E3,-1.0795067E4,-5.3500864E3,7.501643E3,-3.999891E3,-8.364426E3,-4.908429E3,8.2094794E2,6.831979E3,7.3532964E3,-4.1125166E3,-1.0945831E4,4.7072974E3,-8.1889126E3,-1.4029061E3,7.3679E2,1.0239559E4,1.3942106E3,-7.7790327E3,-4.529468E1,-1.1607823E4,-7.9828003E3,9.625534E3,1.5628067E4,3.9572535E4,-9.265531E3,3.8038043E4,-7.159686E3,7.508767E3,1.7985043E4,-1.6574268E3,-1.2189374E3,3.098557E3,1.384706E4,3.9859497E3,3.143286E4,1.0799006E4,7.6094916E2,5.652664E3,8.1537554E3,1.2943125E4,3.9985208E3,2.1598071E3,1.3568388E4,2.2628803E4,-4.9271665E3,6.4203867E3,4.1307515E3,1.8303932E4,1.086501E4,1.696582E4,2.046653E4,3.61938E4,1.7768725E4,9.336209E3,2.0393809E4,3.476499E4,7.7639526E3,2.2936682E4,4.7422723E4,3.1399756E4],"categories":[],"categories_nodes":[],"categories_segments":[],"categories_sizes":[],"default_left":[0,0,0,0,0,0,0,0,0,0,0,0,0,0,0,0,0,0,0,0,0,0,0,0,0,0,0,0,0,0,0,0,0,0,0,0,0,0,0,0,0,0,0,0,0,0,0,0,0,0,0,0,0,0,0,0,0,0,0,0,0,0,0,0,0,0,0,0,0,0,0,0,0,0,0,0,0,0,0,0,0,0,0,0,0,0,0,0,0,0,0,0,0,0,0,0,0,0,0,0,0,0,0,0,0,0,0,0,0,0,0,0,0,0,0,0,0,0,0,0,0,0,0,0,0,0,0,0,0,0,0,0,0,0,0,0,0,0,0,0,0,0,0,0,0,0,0,0,0,0,0,0,0,0,0,0,0,0,0,0,0,0,0,0,0,0,0,0,0,0,0,0,0,0,0],"id":1,"left_children":[1,3,5,7,9,11,13,15,17,19,21,23,25,27,-1,29,31,33,35,37,39,41,43,45,47,49,51,53,55,57,59,61,63,65,67,69,71,73,75,77,-1,79,-1,81,83,85,87,89,91,93,95,97,-1,-1,99,101,-1,-1,-1,103,105,107,109,-1,-1,111,113,115,117,-1,119,121,123,125,127,129,-1,131,-1,133,135,137,139,141,143,-1,145,147,149,151,153,155,157,159,161,163,165,-1,-1,167,169,171,173,-1,-1,-1,-1,-1,-1,-1,-1,-1,-1,-1,-1,-1,-1,-1,-1,-1,-1,-1,-1,-1,-1,-1,-1,-1,-1,-1,-1,-1,-1,-1,-1,-1,-1,-1,-1,-1,-1,-1,-1,-1,-1,-1,-1,-1,-1,-1,-1,-1,-1,-1,-1,-1,-1,-1,-1,-1,-1,-1,-1,-1,-1,-1,-1,-1,-1,-1,-1,-1,-1,-1,-1],"loss_changes":[2.172628E13,8.084789E12,4.6116844E12,1.6429298E12,1.4221118E12,1.5623085E12,6.0934744E11,7.7491025E11,4.8638696E11,4.3499376E11,1.025408E12,9.584915E11,5.224037E11,5.3377394E11,0E0,3.6628752E11,1.1116898E11,3.055603E11,5.2743487E10,2.0216585E11,3.4290244E11,5.395611E11,5.6275816E11,4.5656628E11,1.7779E11,1.7921186E11,3.7113823E11,3.3306444E10,9.429162E10,8.69301E10,1.1878426E11,3.6534616E10,1.3383153E9,5.15071E10,7.503197E10,2.4162533E10,9.664511E10,1.7119727E11,1.7114919E10,2.5995413E11,0E0,1.8428712E11,0E0,1.9119735E11,4.088779E11,1.3250531E11,1.5300664E11,1.8647862E11,1.395846E11,1.2048155E11,1.998709E11,1.3084865E11,0E0,0E0,4.734504E10,2.6489835E11,0E0,0E0,0E0,3.6972528E10,8.662129E10,4.229356E10,2.8169273E10,0E0,0E0,6.943539E10,3.751451E10,2.0454375E10,1.0162725E11,0E0,1.1412734E10,2.569993E10,3.1141102E10,9.717527E10,7.293974E10,1.4312767E10,0E0,4.4817224E10,0E0,3.2581814E10,1.2086868E11,2.2600457E11,5.88111E11,1.0145993E11,1.0367153E11,0E0,7.038879E10,1.0654925E11,7.218931E10,3.0694212E10,5.8646987E10,5.272576E8,8.962769E10,5.6463258E10,9.374781E10,7.79033E10,2.5979322E10,0E0,0E0,2.2763078E10,7.490057E10,2.8268167E10,3.1367627E10,0E0,0E0,0E0,0E0,0E0,0E0,0E0,0E0,0E0,0E0,0E0,0E0,0E0,0E0,0E0,0E0,0E0,0E0,0E0,0E0,0E0,0E0,0E0,0E0,0E0,0E0,0E0,0E0,0E0,0E0,0E0,0E0,0E0,0E0,0E0,0E0,0E0,0E0,0E0,0E0,0E0,0E0,0E0,0E0,0E0,0E0,0E0,0E0,0E0,0E0,0E0,0E0,0E0,0E0,0E0,0E0,0E0,0E0,0E0,0E0,0E0,0E0,0E0,0E0,0E0,0E0,0E0,0E0,0E0,0E0,0E0,0E0],"parents":[2147483647,0,0,1,1,2,2,3,3,4,4,5,5,6,6,7,7,8,8,9,9,10,10,11,11,12,12,13,13,15,15,16,16,17,17,18,18,19,19,20,20,21,21,22,22,23,23,24,24,25,25,26,26,27,27,28,28,29,29,30,30,31,31,32,32,33,33,34,34,35,35,36,36,37,37,38,38,39,39,41,41,43,43,44,44,45,45,46,46,47,47,48,48,49,49,50,50,51,51,54,54,55,55,59,59,60,60,61,61,62,62,65,65,66,66,67,67,68,68,70,70,71,71,72,72,73,73,74,74,75,75,77,77,79,79,80,80,81,81,82,82,83,83,84,84,86,86,87,87,88,88,89,89,90,90,91,91,92,92,93,93,94,94,95,95,96,96,99,99,100,100,101,101,102,102],"right_children":[2,4,6,8,10,12,14,16,18,20,22,24,26,28,-1,30,32,34,36,38,40,42,44,46,48,50,52,54,56,58,60,62,64,66,68,70,72,74,76,78,-1,80,-1,82,84,86,88,90,92,94,96,98,-1,-1,100,102,-1,-1,-1,104,106,108,110,-1,-1,112,114,116,118,-1,120,122,124,126,128,130,-1,132,-1,134,136,138,140,142,144,-1,146,148,150,152,154,156,158,160,162,164,166,-1,-1,168,170,172,174,-1,-1,-1,-1,-1,-1,-1,-1,-1,-1,-1,-1,-1,-1,-1,-1,-1,-1,-1,-1,-1,-1,-1,-1,-1,-1,-1,-1,-1,-1,-1,-1,-1,-1,-1,-1,-1,-1,-1,-1,-1,-1,-1,-1,-1,-1,-1,-1,-1,-1,-1,-1,-1,-1,-1,-1,-1,-1,-1,-1,-1,-1,-1,-1,-1,-1,-1,-1,-1,-1,-1,-1],"split_conditions":[3.6155495E-1,9.022825E-1,1.5553036E0,-7.064945E-1,1E0,1.1096267E0,2.8607016E0,1E0,9.069426E-1,5.1317867E-2,-5.4815114E-1,9.069426E-1,9.022825E-1,1.0520827E0,4.263981E4,-1.2514442E0,-7.5688165E-1,5.1317867E-2,-5.3448695E-1,2.0348027E0,1E0,2.8607016E0,5.1317867E-2,9.022825E-1,9.022825E-1,-2.302376E-1,1.9258057E0,4.245793E-1,1.8719295E0,-1.8908806E0,-8.0711466E-1,-2.302376E-1,-5.804433E-2,-2.302376E-1,-2.302376E-1,1E0,-9.0576276E-2,-5.804433E-2,-9.0576276E-2,3.1673226E0,2.9790094E4,2.0348027E0,4.8857793E4,1.8466048E-2,1.5553036E0,-1.3627577E0,2.0348027E0,9.362499E-1,4.7888488E-1,1E0,1.9955866E0,1E0,3.2765848E4,7.584238E3,1E0,1.9258057E0,4.108339E4,-2.6010281E4,-1.9770754E4,-2.302376E-1,-2.302376E-1,-7.909525E-1,-1.3420486E0,-6.757E2,-2.4173708E3,1E0,-1.3453896E-1,1E0,5.6219574E-2,1.5885444E3,1E0,-1.3453896E-1,-1.0554924E0,-9.0576276E-2,1E0,1E0,-1.14217E3,6.355541E-2,2.1506773E4,1E0,1E0,1E0,-5.804433E-2,6.700026E-2,6.700026E-2,-1.964636E4,-5.804433E-2,1E0,7.8435135E-1,2.4990557E-1,1E0,1.8719295E0,1.8719295E0,1.7319419E0,-5.804433E-2,1E0,2.4990557E-1,3.262984E3,2.0380639E4,1E0,9.362499E-1,1.1096267E0,1E0,-1.4688073E4,-1.0898102E4,-2.0313924E4,-1.4995116E4,-1.823932E4,-8.247926E3,-1.657228E4,-8.702113E3,-1.4835977E4,-7.5516704E3,-1.1779208E4,-8.300226E3,-1.0795067E4,-5.3500864E3,7.501643E3,-3.999891E3,-8.364426E3,-4.908429E3,8.2094794E2,6.831979E3,7.3532964E3,-4.1125166E3,-1.0945831E4,4.7072974E3,-8.1889126E3,-1.4029061E3,7.3679E2,1.0239559E4,1.3942106E3,-7.7790327E3,-4.529468E1,-1.1607823E4,-7.9828003E3,9.625534E3,1.5628067E4,3.9572535E4,-9.265531E3,3.8038043E4,-7.159686E3,7.508767E3,1.7985043E4,-1.6574268E3,-1.2189374E3,3.098557E3,1.384706E4,3.9859497E3,3.143286E4,1.0799006E4,7.6094916E2,5.652664E3,8.1537554E3,1.2943125E4,3.9985208E3,2.1598071E3,1.3568388E4,2.2628803E4,-4.9271665E3,6.4203867E3,4.1307515E3,1.8303932E4,1.086501E4,1.696582E4,2.046653E4,3.61938E4,1.7768725E4,9.336209E3,2.0393809E4,3.476499E4,7.7639526E3,2.2936682E4,4.7422723E4,3.1399756E4],"split_indices":[0,1,7,0,2,0,7,2,9,0,0,9,1,0,0,0,0,0,0,1,4,7,0,1,1,1,0,0,9,0,0,1,9,1,1,8,0,9,0,1,0,1,0,0,7,1,1,0,0,2,0,8,0,0,8,0,0,0,0,1,1,0,0,0,0,2,0,8,0,0,2,0,7,0,8,8,0,0,0,4,8,4,9,0,0,0,9,2,0,7,2,9,9,0,9,2,7,0,0,2,0,0,2,0,0,0,0,0,0,0,0,0,0,0,0,0,0,0,0,0,0,0,0,0,0,0,0,0,0,0,0,0,0,0,0,0,0,0,0,0,0,0,0,0,0,0,0,0,0,0,0,0,0,0,0,0,0,0,0,0,0,0,0,0,0,0,0,0,0,0,0,0,0,0,0],"split_type":[0,0,0,0,0,0,0,0,0,0,0,0,0,0,0,0,0,0,0,0,0,0,0,0,0,0,0,0,0,0,0,0,0,0,0,0,0,0,0,0,0,0,0,0,0,0,0,0,0,0,0,0,0,0,0,0,0,0,0,0,0,0,0,0,0,0,0,0,0,0,0,0,0,0,0,0,0,0,0,0,0,0,0,0,0,0,0,0,0,0,0,0,0,0,0,0,0,0,0,0,0,0,0,0,0,0,0,0,0,0,0,0,0,0,0,0,0,0,0,0,0,0,0,0,0,0,0,0,0,0,0,0,0,0,0,0,0,0,0,0,0,0,0,0,0,0,0,0,0,0,0,0,0,0,0,0,0,0,0,0,0,0,0,0,0,0,0,0,0,0,0,0,0,0,0],"sum_hessian":[2.441E3,1.539E3,9.02E2,1.06E3,4.79E2,7.48E2,1.54E2,5.8E2,4.8E2,2.09E2,2.7E2,5.37E2,2.11E2,1.28E2,2.6E1,4.34E2,1.46E2,3.12E2,1.68E2,1.63E2,4.6E1,1.4E2,1.3E2,2.45E2,2.92E2,1.61E2,5E1,7.4E1,5.4E1,1.58E2,2.76E2,1.27E2,1.9E1,2.32E2,8E1,5E1,1.18E2,1.5E2,1.3E1,4.1E1,5E0,1.38E2,2E0,8.4E1,4.6E1,1.89E2,5.6E1,1.87E2,1.05E2,5.1E1,1.1E2,2E1,3E1,3E0,7.1E1,3.9E1,1.5E1,3.6E1,1.22E2,1.25E2,1.51E2,2E1,1.07E2,8E0,1.1E1,9.1E1,1.41E2,3.1E1,4.9E1,4E0,4.6E1,3.8E1,8E1,5.9E1,9.1E1,1.1E1,2E0,3.5E1,6E0,9.9E1,3.9E1,6.7E1,1.7E1,2.3E1,2.3E1,3E0,1.86E2,4.8E1,8E0,7.1E1,1.16E2,1.1E1,9.4E1,2.8E1,2.3E1,1E2,1E1,7E0,1.3E1,2.7E1,4.4E1,2.3E1,1.6E1,5.8E1,6.7E1,5.7E1,9.4E1,1.1E1,9E0,5E0,1.02E2,7.3E1,1.8E1,7.6E1,6.5E1,1.5E1,1.6E1,9E0,4E1,1.8E1,2.8E1,2.9E1,9E0,2E0,7.8E1,5.5E1,4E0,2E1,7.1E1,2E0,9E0,2.9E1,6E0,9.7E1,2E0,4E0,3.5E1,6.3E1,4E0,3E0,1.4E1,1.7E1,6E0,2E1,3E0,1.34E2,5.2E1,1.7E1,3.1E1,4E0,4E0,1.7E1,5.4E1,4.7E1,6.9E1,4E0,7E0,8E1,1.4E1,5E0,2.3E1,7E0,1.6E1,3.8E1,6.2E1,5E0,5E0,2.1E1,6E0,3.9E1,5E0,2E0,2.1E1,7E0,9E0],"tree_param":{"num_deleted":"0","num_feature":"10","num_nodes":"175","size_leaf_vector":"1"}},{"base_weights":[1.7797108E3,-5.9099484E4,1.0862151E5,-1.1230671E5,4.278154E4,4.2421938E4,1.867221E5,-1.7426548E5,-9.820656E4,-4.5506285E4,9.942242E4,1.5439621E4,1.04606086E5,1.5386575E5,2.9119447E5,-1.9097125E5,-1.1881149E5,-1.1466672E5,-4.969167E4,-6.0899016E4,1.6041464E5,1.2433863E4,1.4339689E5,-1.2810883E4,6.694612E4,5.5815938E4,1.3643419E5,1.1962344E5,2.375382E5,-8.4099195E4,3.0382075E5,-2.0216577E5,-1.5693102E5,-1.3633044E5,-9.050563E4,-1.5457305E5,-1.00209016E5,-5.5300805E4,8.620079E4,-2.0558713E4,-4.9847543E4,3.1336096E4,2.267014E5,-1.2667147E3,7.127702E4,7.801138E4,2.1933928E5,-1.48747E5,-3.671709E3,5.901877E4,1.3744953E5,2.305046E4,1.1907555E5,1.20642875E5,1.8136967E5,3.2694654E4,1.1499516E5,1.2867379E5,2.6637397E5,1.0778434E4,-1.8240967E4,2.637923E5,4.6783418E4,-2.185449E4,-1.8483348E5,-1.9524004E4,-1.46535E5,-1.4405106E4,-6.501607E3,-5.6444644E3,-9.527726E3,-1.699093E5,-1.3228744E5,-1.10921945E5,-7.552078E4,-8.972019E4,-4.239567E4,-6.4833975E3,2.276578E5,-8.127449E4,-7.002919E3,-1.270635E3,5.8318545E3,2.5542387E4,9.519356E3,-4.2396277E4,1.7134844E4,9.230453E4,3.6161395E4,4.6172133E4,2.5499198E5,2.4031836E5,1.2212383E5,-1.8204154E4,-8.376925E3,-2.943824E4,2.6850135E4,3.0820086E4,7.574865E4,5.8621626E3,3.0925297E4,-4.289894E4,4.105194E4,-1.1450648E3,1.6447947E5,3.734695E3,1.2297229E5,1.5511042E5,2.124067E4,9.919577E4,1.7776916E5,1.9053808E5,8.640822E4,4.2336028E5,2.4820708E5,3.0249262E5,2.2054273E5,-1.7504277E4,-2.3451914E4,-1.5421925E4,-6.3029536E3,-5.5826616E3,-1.7334467E4,-1.3820609E4,-7.4935283E3,-1.1874921E4,-7.162679E3,-8.062574E3,-3.7920005E3,-1.3667042E4,-6.052192E3,-2.7470496E2,-5.0868843E3,8.717134E3,2.553436E4,-1.2063538E4,-3.1728496E3,-3.2289114E3,3.6150818E3,-1.3933405E4,-3.2061257E3,1.877932E4,1.2762026E3,6.7784753E2,1.0827237E4,-3.9375143E2,1.3318647E4,3.2943848E3,3.1883572E4,1.9143652E3,3.241639E4,2.5548174E4,1.1354565E4,1.3193917E3,1.878553E4,-7.883941E3,-1.030044E3,4.6623315E2,5.4060894E3,3.6390488E3,-1.7786416E3,1.9921461E3,9.044616E3,1.5354553E2,-6.727556E3,8.670138E3,1.9926545E3,2.266265E4,1.1984274E4,9.597466E3,1.3428183E4,1.3741703E4,2.5085146E4,1.0928152E4,4.4029434E3,2.2929436E4,1.1688125E4,1.0289043E4,2.3753746E4,2.8597292E3,1.1193111E4,1.2163561E4,5.4394496E4,8.748298E3,2.7058639E4,3.1478078E4,1.7467307E4,1.5502083E4,2.415503E4],"categories":[],"categories_nodes":[],"categories_segments":[],"categories_sizes":[],"default_left":[0,0,0,0,0,0,0,0,0,0,0,0,0,0,0,0,0,0,0,0,0,0,0,0,0,0,0,0,0,0,0,0,0,0,0,0,0,0,0,0,0,0,0,0,0,0,0,0,0,0,0,0,0,0,0,0,0,0,0,0,0,0,0,0,0,0,0,0,0,0,0,0,0,0,0,0,0,0,0,0,0,0,0,0,0,0,0,0,0,0,0,0,0,0,0,0,0,0,0,0,0,0,0,0,0,0,0,0,0,0,0,0,0,0,0,0,0,0,0,0,0,0,0,0,0,0,0,0,0,0,0,0,0,0,0,0,0,0,0,0,0,0,0,0,0,0,0,0,0,0,0,0,0,0,0,0,0,0,0,0,0,0,0,0,0,0,0,0,0,0,0,0,0,0,0,0,0,0,0,0,0,0,0,0,0,0,0,0,0],"id":2,"left_children":[1,3,5,7,9,11,13,15,17,19,21,23,25,27,29,31,33,35,37,39,41,43,45,47,49,51,53,55,57,59,61,63,65,67,69,71,73,75,77,-1,79,81,83,85,87,89,91,93,95,97,99,101,103,105,107,-1,109,111,113,-1,-1,115,-1,-1,117,-1,119,-1,-1,-1,-1,121,123,125,127,129,131,-1,133,135,137,-1,-1,-1,-1,139,141,143,145,147,149,151,153,-1,-1,155,157,159,161,-1,-1,163,165,-1,167,-1,169,171,-1,173,175,177,179,181,183,185,187,-1,-1,-1,-1,-1,-1,-1,-1,-1,-1,-1,-1,-1,-1,-1,-1,-1,-1,-1,-1,-1,-1,-1,-1,-1,-1,-1,-1,-1,-1,-1,-1,-1,-1,-1,-1,-1,-1,-1,-1,-1,-1,-1,-1,-1,-1,-1,-1,-1,-1,-1,-1,-1,-1,-1,-1,-1,-1,-1,-1,-1,-1,-1,-1,-1,-1,-1,-1,-1,-1,-1,-1],"loss_changes":[1.5688675E13,8.3314706E12,4.522572E12,8.733705E11,2.6401317E12,7.9534286E11,1.3557784E12,1.614288E11,6.5476755E11,6.594246E11,1.2289342E12,4.827894E11,2.1903311E11,8.639569E11,4.6530822E11,3.8438175E10,1.5897592E10,3.4679292E11,1.6207256E11,3.0268667E11,1.2051281E11,8.751628E10,1.0515854E12,2.6620957E11,6.161521E10,1.1780964E11,5.0438996E10,1.9086259E11,2.6068019E11,7.585505E10,5.4557514E11,9.752805E9,6.298665E8,9.907732E9,3.177349E8,4.430024E10,1.1549016E11,8.760171E10,1.8898192E11,0E0,2.4140775E11,6.9065815E9,2.372613E10,6.7344294E10,1.3468082E10,6.449475E11,1.8621556E11,2.1581038E10,1.5886328E11,4.907516E10,1.4667876E11,4.658724E10,1.1650659E11,1.0412556E10,1.0492969E9,0E0,2.0392208E11,4.2755064E10,1.4567028E11,0E0,0E0,9.3012886E10,0E0,0E0,5.9863204E9,0E0,1.5352529E10,0E0,0E0,0E0,0E0,3.2196788E10,1.807378E10,9.24789E10,2.5056379E10,7.057624E10,4.948266E10,0E0,6.3731794E9,1.9992917E11,8.405996E10,0E0,0E0,0E0,0E0,2.531729E10,4.4696453E10,1.6703816E10,3.3332376E10,3.5002483E11,2.8239344E11,1.4024022E11,1.3122293E11,0E0,0E0,1.0311846E11,5.572053E10,1.128933E10,5.3663695E10,0E0,0E0,9.258544E9,2.8549177E10,0E0,2.6643628E10,0E0,1.2944605E10,5.6329175E9,0E0,9.357204E10,1.1993337E11,1.8675057E10,1.6843252E10,2.0340998E11,2.1656633E11,3.2978502E10,3.2894222E10,0E0,0E0,0E0,0E0,0E0,0E0,0E0,0E0,0E0,0E0,0E0,0E0,0E0,0E0,0E0,0E0,0E0,0E0,0E0,0E0,0E0,0E0,0E0,0E0,0E0,0E0,0E0,0E0,0E0,0E0,0E0,0E0,0E0,0E0,0E0,0E0,0E0,0E0,0E0,0E0,0E0,0E0,0E0,0E0,0E0,0E0,0E0,0E0,0E0,0E0,0E0,0E0,0E0,0E0,0E0,0E0,0E0,0E0,0E0,0E0,0E0,0E0,0E0,0E0,0E0,0E0,0E0,0E0,0E0,0E0,0E0,0E0],"parents":[2147483647,0,0,1,1,2,2,3,3,4,4,5,5,6,6,7,7,8,8,9,9,10,10,11,11,12,12,13,13,14,14,15,15,16,16,17,17,18,18,19,19,20,20,21,21,22,22,23,23,24,24,25,25,26,26,27,27,28,28,29,29,30,30,31,31,32,32,33,33,34,34,35,35,36,36,37,37,38,38,40,40,41,41,42,42,43,43,44,44,45,45,46,46,47,47,48,48,49,49,50,50,51,51,52,52,53,53,54,54,56,56,57,57,58,58,61,61,64,64,66,66,71,71,72,72,73,73,74,74,75,75,76,76,78,78,79,79,80,80,85,85,86,86,87,87,88,88,89,89,90,90,91,91,92,92,95,95,96,96,97,97,98,98,101,101,102,102,104,104,106,106,107,107,109,109,110,110,111,111,112,112,113,113,114,114,115,115,116,116],"right_children":[2,4,6,8,10,12,14,16,18,20,22,24,26,28,30,32,34,36,38,40,42,44,46,48,50,52,54,56,58,60,62,64,66,68,70,72,74,76,78,-1,80,82,84,86,88,90,92,94,96,98,100,102,104,106,108,-1,110,112,114,-1,-1,116,-1,-1,118,-1,120,-1,-1,-1,-1,122,124,126,128,130,132,-1,134,136,138,-1,-1,-1,-1,140,142,144,146,148,150,152,154,-1,-1,156,158,160,162,-1,-1,164,166,-1,168,-1,170,172,-1,174,176,178,180,182,184,186,188,-1,-1,-1,-1,-1,-1,-1,-1,-1,-1,-1,-1,-1,-1,-1,-1,-1,-1,-1,-1,-1,-1,-1,-1,-1,-1,-1,-1,-1,-1,-1,-1,-1,-1,-1,-1,-1,-1,-1,-1,-1,-1,-1,-1,-1,-1,-1,-1,-1,-1,-1,-1,-1,-1,-1,-1,-1,-1,-1,-1,-1,-1,-1,-1,-1,-1,-1,-1,-1,-1,-1,-1],"split_conditions":[3.932918E-1,1.2362756E-1,-4.482409E-2,-9.308005E-1,9.022825E-1,1.365288E0,1.129309E0,1E0,-2.9875866E-1,1.3283105E-1,1E0,9.069426E-1,-8.204559E-1,1.1230894E0,9.022825E-1,-3.327004E-1,-2.0321892E-1,-9.8765045E-1,2.5080153E-1,-1.4103789E0,2.1791019E-1,2.0348027E0,-1.9471876E-1,-1.4200935E0,1.8719295E0,2.0971918E0,2.0238578E0,-2.7224664E-2,5.825826E-2,1.1808501E0,2.647888E0,-1.3871244E0,-2.302376E-1,-1.363503E0,-1.9819051E-1,-5.804433E-2,1E0,1E0,-2.4470328E-1,-2.0558713E4,1E0,1E0,1.0953673E0,-7.9109347E-1,-1.4138901E-1,2.2594435E0,1E0,-1.4804344E0,-5.753211E-1,9.656578E-1,9.022825E-1,1E0,-1.5344898E0,-2.302376E-1,2.0971918E0,3.2694654E4,8.024625E-1,1.4259697E-2,6.0772464E-2,1.0778434E4,-1.8240967E4,1.6396923E0,4.6783418E4,-2.185449E4,-1.363503E0,-1.9524004E4,2.8087817E-2,-1.4405106E4,-6.501607E3,-5.6444644E3,-9.527726E3,-1.4804344E0,-1.0354203E0,6.281327E-2,1.3283105E-1,-5.804433E-2,-2.3087516E-1,-6.4833975E3,9.022825E-1,-7.290419E-1,5.8121264E-1,-1.270635E3,5.8318545E3,2.5542387E4,9.519356E3,-1.3871244E0,-7.290419E-1,3.0716443E-1,3.1673226E0,1E0,-8.4599257E-1,2.5080153E-1,6.281327E-2,-1.8204154E4,-8.376925E3,4.4619673E-1,8.4724474E-1,-2.3841777E-1,-7.161165E-1,5.8621626E3,3.0925297E4,1E0,-1.0580481E0,-1.1450648E3,-1.0052499E0,3.734695E3,-5.804433E-2,9.022825E-1,2.124067E4,1.0624241E0,9.4702923E-1,-2.7224664E-2,-5.804433E-2,1.365288E0,2.0282497E-1,1E0,-5.804433E-2,-1.7504277E4,-2.3451914E4,-1.5421925E4,-6.3029536E3,-5.5826616E3,-1.7334467E4,-1.3820609E4,-7.4935283E3,-1.1874921E4,-7.162679E3,-8.062574E3,-3.7920005E3,-1.3667042E4,-6.052192E3,-2.7470496E2,-5.0868843E3,8.717134E3,2.553436E4,-1.2063538E4,-3.1728496E3,-3.2289114E3,3.6150818E3,-1.3933405E4,-3.2061257E3,1.877932E4,1.2762026E3,6.7784753E2,1.0827237E4,-3.9375143E2,1.3318647E4,3.2943848E3,3.1883572E4,1.9143652E3,3.241639E4,2.5548174E4,1.1354565E4,1.3193917E3,1.878553E4,-7.883941E3,-1.030044E3,4.6623315E2,5.4060894E3,3.6390488E3,-1.7786416E3,1.9921461E3,9.044616E3,1.5354553E2,-6.727556E3,8.670138E3,1.9926545E3,2.266265E4,1.1984274E4,9.597466E3,1.3428183E4,1.3741703E4,2.5085146E4,1.0928152E4,4.4029434E3,2.2929436E4,1.1688125E4,1.0289043E4,2.3753746E4,2.8597292E3,1.1193111E4,1.2163561E4,5.4394496E4,8.748298E3,2.7058639E4,3.1478078E4,1.7467307E4,1.5502083E4,2.415503E4],"split_indices":[6,3,3,6,1,6,3,2,3,6,2,9,3,6,1,3,3,3,6,6,3,1,6,3,9,6,6,3,3,3,3,6,1,6,3,9,2,8,3,0,2,2,3,6,6,3,5,3,3,6,1,8,3,1,6,0,3,3,3,0,0,3,0,0,6,0,3,0,0,0,0,3,3,6,6,9,3,0,1,6,3,0,0,0,0,6,6,3,1,5,6,6,6,0,0,6,6,3,3,0,0,2,3,0,3,0,9,1,0,6,3,3,9,6,3,5,9,0,0,0,0,0,0,0,0,0,0,0,0,0,0,0,0,0,0,0,0,0,0,0,0,0,0,0,0,0,0,0,0,0,0,0,0,0,0,0,0,0,0,0,0,0,0,0,0,0,0,0,0,0,0,0,0,0,0,0,0,0,0,0,0,0,0,0,0,0,0,0,0],"split_type":[0,0,0,0,0,0,0,0,0,0,0,0,0,0,0,0,0,0,0,0,0,0,0,0,0,0,0,0,0,0,0,0,0,0,0,0,0,0,0,0,0,0,0,0,0,0,0,0,0,0,0,0,0,0,0,0,0,0,0,0,0,0,0,0,0,0,0,0,0,0,0,0,0,0,0,0,0,0,0,0,0,0,0,0,0,0,0,0,0,0,0,0,0,0,0,0,0,0,0,0,0,0,0,0,0,0,0,0,0,0,0,0,0,0,0,0,0,0,0,0,0,0,0,0,0,0,0,0,0,0,0,0,0,0,0,0,0,0,0,0,0,0,0,0,0,0,0,0,0,0,0,0,0,0,0,0,0,0,0,0,0,0,0,0,0,0,0,0,0,0,0,0,0,0,0,0,0,0,0,0,0,0,0,0,0,0,0,0,0],"sum_hessian":[2.411E3,1.536E3,8.75E2,1.009E3,5.27E2,4.74E2,4.01E2,1.86E2,8.23E2,2.06E2,3.21E2,3.31E2,1.43E2,3.06E2,9.5E1,1.42E2,4.4E1,6.14E2,2.09E2,1.92E2,1.4E1,1.08E2,2.13E2,2.14E2,1.17E2,5.7E1,8.6E1,2.18E2,8.8E1,3E0,9.2E1,1.05E2,3.7E1,2.6E1,1.8E1,1.62E2,4.52E2,2.01E2,8E0,1.3E1,1.79E2,5E0,9E0,8.8E1,2E1,1.15E2,9.8E1,1.3E1,2.01E2,1.06E2,1.1E1,3.8E1,1.9E1,6.5E1,2.1E1,4E0,2.14E2,1.9E1,6.9E1,1E0,2E0,7.5E1,1.7E1,5.1E1,5.4E1,6E0,3.1E1,2.3E1,3E0,3E0,1.5E1,9.4E1,6.8E1,3.14E2,1.38E2,5.4E1,1.47E2,4E0,4E0,1.03E2,7.6E1,2E0,3E0,7E0,2E0,2.7E1,6.1E1,1.2E1,8E0,9.8E1,1.7E1,8E1,1.8E1,8E0,5E0,1.09E2,9.2E1,4E1,6.6E1,8E0,3E0,8E0,3E1,5E0,1.4E1,2E0,6.3E1,1.3E1,8E0,1.72E2,4.2E1,7E0,1.2E1,6E0,6.3E1,3.8E1,3.7E1,4.7E1,7E0,2.8E1,3E0,3E0,9.1E1,6.1E1,7E0,2.61E2,5.3E1,1.21E2,1.7E1,2E1,3.4E1,2.6E1,1.21E2,1E0,3E0,5.7E1,4.6E1,4.8E1,2.8E1,2E0,2.5E1,1E0,6E1,2E0,1E1,6E0,2E0,9.4E1,4E0,4E0,1.3E1,7.1E1,9E0,7E0,1.1E1,3E1,7.9E1,5.1E1,4.1E1,3.6E1,4E0,1.4E1,5.2E1,3E0,5E0,9E0,2.1E1,5E0,9E0,2E1,4.3E1,1.2E1,1E0,1.45E2,2.7E1,2.2E1,2E1,3E0,4E0,4E0,8E0,2E0,4E0,8E0,5.5E1,3.4E1,4E0,1E1,2.7E1],"tree_param":{"num_deleted":"0","num_feature":"10","num_nodes":"189","size_leaf_vector":"1"}},{"base_weights":[8.556876E2,-5.5905387E4,1.0144898E5,-9.989491E4,3.0232871E4,3.2631023E4,1.6874573E5,-1.5349562E5,-8.37137E4,-2.3214566E4,9.3925445E4,5.2409155E3,9.309378E4,1.4126884E5,2.6220288E5,-2.1986236E4,-1.4142234E5,-9.955389E4,-3.5244957E4,-3.915061E4,1.5461019E5,2.1626041E4,1.5168336E5,-2.6601578E4,3.7713293E4,5.042018E4,1.3147534E5,1.119315E5,2.2081384E5,2.3382455E5,3.6586016E5,-1.4959919E5,-1.0599324E5,-1.28584266E5,-8.8940664E4,-5.202035E4,4.0622586E4,-8.152081E4,-3.4817312E3,4.538128E4,9.975581E4,1.1703004E4,1.3534434E5,9.548177E4,1.9614803E5,-1.9704688E4,-2.0663727E4,5.843782E3,5.6087957E4,1.6348095E4,1.0571442E5,1.2068572E5,2.140624E5,9.785861E4,1.6283672E5,1.7943402E5,2.4852816E5,2.6703897E5,1.9103714E5,-1.3984726E4,3.9537972E5,-1.6206694E5,-1.2193279E5,-1.1442113E5,-6.8525503E3,-9.7269836E4,-1.3779588E5,-9.938813E4,-5.2692027E4,-7.252204E4,-2.5624441E4,1.1194764E4,2.4210361E4,-1.6739883E5,-5.9062465E4,-4.785801E4,8.067526E3,5.0950914E4,2.282281E4,3.1245986E3,1.3288E5,2.4908E4,6.5703057E3,8.0370875E4,3.2577451E4,1.5435775E5,3.162175E5,-1.3761534E5,-7.616789E3,-1.8818506E4,1.8263807E4,1.0833812E5,3.9253367E4,-2.5416033E4,3.2351957E4,-8.6873E2,1.5172334E5,1.4755728E5,9.595949E4,1.3559713E4,2.5130615E4,8.603879E4,1.7956511E5,2.1086575E5,1.2018825E5,2.1853302E5,6.4763656E4,1.9003039E5,3.0454416E5,-3.4466458E2,2.734439E5,1.0961897E4,1.966922E5,1.5412601E4,4.1854793E4,-1.7037201E4,-1.4043481E4,-1.41346045E4,-1.0440132E4,-1.29674795E4,-7.227182E3,-1.2021026E4,-4.0177961E3,-1.5370239E4,-1.0323184E4,-1.1362531E4,-7.224777E3,1.4026641E3,-6.8725596E3,4.95826E2,-7.811919E3,6.692572E2,-7.065306E3,1.3679245E4,-2.7481953E3,-1.8029365E4,-9.005568E3,-6.862543E3,2.1619885E3,-7.7140894E3,-1.0295269E3,-5.3452484E2,3.8858318E3,-6.5303315E3,7.0592446E3,1.563207E4,-1.1245953E2,7.6921704E3,1.698553E4,4.956517E3,-1.2794536E3,1.0577856E4,1.5571023E3,2.4375756E4,1.2952007E4,2.3998342E4,3.5218676E4,-1.649082E4,-8.292487E3,1.2551292E4,-1.3329774E3,4.596525E3,-2.3833757E3,4.3266987E3,3.5116663E2,1.5359057E4,9.440269E3,1.8238713E3,7.254519E3,-6.716511E3,1.3277501E2,9.083585E3,2.1396902E3,2.1187875E4,1.0153023E4,1.0646168E4,2.8478307E4,1.0794534E4,2.294812E3,7.0105664E2,9.349568E3,4.6942695E3,2.042977E4,2.5797021E4,2.468928E3,8.173144E3,1.7682795E4,1.6318435E4,4.955943E4,4.3808887E3,7.9830728E3,1.3389983E4,2.1827926E4,2.2511375E4,3.328083E4,1.1639954E4,2.8389791E4,2.3910342E4,1.6746027E4],"categories":[],"categories_nodes":[],"categories_segments":[],"categories_sizes":[],"default_left":[0,0,0,0,0,0,0,0,0,0,0,0,0,0,0,0,0,0,0,0,0,0,0,0,0,0,0,0,0,0,0,0,0,0,0,0,0,0,0,0,0,0,0,0,0,0,0,0,0,0,0,0,0,0,0,0,0,0,0,0,0,0,0,0,0,0,0,0,0,0,0,0,0,0,0,0,0,0,0,0,0,0,0,0,0,0,0,0,0,0,0,0,0,0,0,0,0,0,0,0,0,0,0,0,0,0,0,0,0,0,0,0,0,0,0,0,0,0,0,0,0,0,0,0,0,0,0,0,0,0,0,0,0,0,0,0,0,0,0,0,0,0,0,0,0,0,0,0,0,0,0,0,0,0,0,0,0,0,0,0,0,0,0,0,0,0,0,0,0,0,0,0,0,0,0,0,0,0,0,0,0,0,0,0,0,0,0,0,0,0,0,0,0,0,0,0,0,0,0],"id":3,"left_children":[1,3,5,7,9,11,13,15,17,19,21,23,25,27,29,-1,31,33,35,37,39,41,43,45,47,49,51,53,55,57,59,61,63,65,67,69,71,73,75,-1,77,79,81,83,85,87,-1,89,91,93,95,97,99,101,103,105,107,109,111,-1,113,115,117,119,-1,121,123,125,127,129,131,133,-1,135,137,139,141,143,-1,145,147,-1,149,151,-1,153,155,157,159,161,163,165,167,169,171,-1,173,175,177,-1,-1,179,181,183,185,187,189,191,193,-1,195,-1,197,-1,-1,-1,-1,-1,-1,-1,-1,-1,-1,-1,-1,-1,-1,-1,-1,-1,-1,-1,-1,-1,-1,-1,-1,-1,-1,-1,-1,-1,-1,-1,-1,-1,-1,-1,-1,-1,-1,-1,-1,-1,-1,-1,-1,-1,-1,-1,-1,-1,-1,-1,-1,-1,-1,-1,-1,-1,-1,-1,-1,-1,-1,-1,-1,-1,-1,-1,-1,-1,-1,-1,-1,-1,-1,-1,-1,-1,-1,-1,-1,-1,-1,-1,-1,-1,-1],"loss_changes":[1.3794816E13,5.8539E12,4.0333602E12,8.804148E11,1.7797875E12,7.1435525E11,1.112643E12,1.7395194E11,6.0208395E11,8.0924914E11,9.943029E11,3.0811705E11,2.1698013E11,7.845797E11,2.499176E11,0E0,5.0446205E10,1.76835E11,2.4859833E11,3.9506238E11,3.6305994E11,1.19385825E11,3.217511E11,1.8483783E11,8.621082E10,1.2065317E11,4.990409E10,1.7148648E11,8.263618E10,8.747457E10,3.3367602E11,4.6171423E10,8.552612E9,3.872968E10,1.6230803E11,8.538594E10,2.0912946E11,2.2553343E11,7.322618E10,0E0,1.2272219E11,1.0218361E11,1.2367428E11,1.9396428E11,3.4439797E11,2.0685583E11,0E0,1.6865538E10,8.011714E10,2.748082E10,1.2961487E11,3.5111633E10,4.879155E9,1.8301216E11,9.6915554E10,1.6553778E11,1.4637256E11,7.5832754E10,6.0247245E9,0E0,7.673872E10,7.8886994E9,1.0489496E10,1.5566307E10,0E0,4.6699184E10,5.8316554E10,1.2630596E11,1.0585126E11,3.9007027E10,1.0282741E11,1.5489748E11,0E0,1.631617E10,7.442612E10,3.205125E10,4.697823E10,3.7697823E10,0E0,6.0301775E10,6.916088E9,0E0,4.0637489E9,9.21988E10,0E0,1.0745086E11,8.468824E9,1.3313278E10,1.0161171E11,6.5585265E9,1.338705E10,6.9389844E9,4.9360953E10,1.2884696E10,1.792862E10,0E0,4.208309E10,1.5120217E11,2.8952396E10,0E0,0E0,1.0191661E11,7.5567006E10,2.1167394E11,5.7030083E10,3.9660985E11,1.5664251E9,2.8990767E10,2.2033203E10,0E0,5.3250884E10,0E0,2.1511799E10,0E0,0E0,0E0,0E0,0E0,0E0,0E0,0E0,0E0,0E0,0E0,0E0,0E0,0E0,0E0,0E0,0E0,0E0,0E0,0E0,0E0,0E0,0E0,0E0,0E0,0E0,0E0,0E0,0E0,0E0,0E0,0E0,0E0,0E0,0E0,0E0,0E0,0E0,0E0,0E0,0E0,0E0,0E0,0E0,0E0,0E0,0E0,0E0,0E0,0E0,0E0,0E0,0E0,0E0,0E0,0E0,0E0,0E0,0E0,0E0,0E0,0E0,0E0,0E0,0E0,0E0,0E0,0E0,0E0,0E0,0E0,0E0,0E0,0E0,0E0,0E0,0E0,0E0,0E0,0E0,0E0,0E0,0E0,0E0,0E0,0E0],"parents":[2147483647,0,0,1,1,2,2,3,3,4,4,5,5,6,6,7,7,8,8,9,9,10,10,11,11,12,12,13,13,14,14,16,16,17,17,18,18,19,19,20,20,21,21,22,22,23,23,24,24,25,25,26,26,27,27,28,28,29,29,30,30,31,31,32,32,33,33,34,34,35,35,36,36,37,37,38,38,40,40,41,41,42,42,43,43,44,44,45,45,47,47,48,48,49,49,50,50,51,51,52,52,53,53,54,54,55,55,56,56,57,57,58,58,60,60,61,61,62,62,63,63,65,65,66,66,67,67,68,68,69,69,70,70,71,71,73,73,74,74,75,75,76,76,77,77,79,79,80,80,82,82,83,83,85,85,86,86,87,87,88,88,89,89,90,90,91,91,92,92,93,93,94,94,96,96,97,97,98,98,101,101,102,102,103,103,104,104,105,105,106,106,107,107,108,108,110,110,112,112],"right_children":[2,4,6,8,10,12,14,16,18,20,22,24,26,28,30,-1,32,34,36,38,40,42,44,46,48,50,52,54,56,58,60,62,64,66,68,70,72,74,76,-1,78,80,82,84,86,88,-1,90,92,94,96,98,100,102,104,106,108,110,112,-1,114,116,118,120,-1,122,124,126,128,130,132,134,-1,136,138,140,142,144,-1,146,148,-1,150,152,-1,154,156,158,160,162,164,166,168,170,172,-1,174,176,178,-1,-1,180,182,184,186,188,190,192,194,-1,196,-1,198,-1,-1,-1,-1,-1,-1,-1,-1,-1,-1,-1,-1,-1,-1,-1,-1,-1,-1,-1,-1,-1,-1,-1,-1,-1,-1,-1,-1,-1,-1,-1,-1,-1,-1,-1,-1,-1,-1,-1,-1,-1,-1,-1,-1,-1,-1,-1,-1,-1,-1,-1,-1,-1,-1,-1,-1,-1,-1,-1,-1,-1,-1,-1,-1,-1,-1,-1,-1,-1,-1,-1,-1,-1,-1,-1,-1,-1,-1,-1,-1,-1,-1,-1,-1,-1,-1],"split_conditions":[3.6155495E-1,1.1482784E-1,-1.4790644E-1,-1.2003529E0,-5.4815114E-1,1.365288E0,1.129309E0,-1.7042737E0,-2.9875866E-1,2.2594435E0,1E0,-5.753211E-1,-8.204559E-1,1.3842634E0,2.647888E0,-2.1986236E4,1E0,-9.8765045E-1,5.1317867E-2,1E0,2.5171494E0,6.355541E-2,8.238333E-1,-5.7783526E-1,9.362499E-1,1.9955866E0,1.9955866E0,8.024625E-1,1.6385481E-1,1.6396923E0,1.5553036E0,-1.2514442E0,-1.2974436E0,-8.0711466E-1,1.8466048E-2,-5.4815114E-1,1E0,-1.3199208E0,-1.2974436E0,4.538128E4,-8.312238E-1,3.5077457E0,3.1973544E-1,1E0,1.3283105E-1,-1.4200935E0,-2.0663727E4,1E0,9.5343584E-1,-1.2692412E0,-1.5344898E0,-5.514361E-1,1E0,1.5553036E0,1.5553036E0,6.0772464E-2,1.9258057E0,4.245793E-1,6.9063455E-1,-1.3984726E4,-4.5592588E-1,-4.1441202E-1,-6.658324E-1,-7.4994534E-2,-6.8525503E3,-1.1133606E0,6.281327E-2,1E0,-8.921107E-1,-8.0711466E-1,7.117948E-3,5.6219574E-2,2.4210361E4,1.5553036E0,-6.591744E-1,5.8121264E-1,9.4702923E-1,2.4990557E-1,2.282281E4,-1.3453896E-1,2.8607016E0,2.4908E4,6.700026E-2,6.2395406E-1,3.2577451E4,-1.3453896E-1,1.0953673E0,9.5343584E-1,-1.0554924E0,4.6842232E-1,2.4990557E-1,1E0,1E0,1.5124344E0,-1.0580481E0,-8.6873E2,-1.0052499E0,-6.3566196E-1,1E0,1.3559713E4,2.5130615E4,-4.482409E-2,7.8435135E-1,9.9102783E-1,9.9102783E-1,5.825826E-2,1.9258057E0,1.5553036E0,2.4990557E-1,-3.4466458E2,2.4990557E-1,1.0961897E4,9.843705E-1,1.5412601E4,4.1854793E4,-1.7037201E4,-1.4043481E4,-1.41346045E4,-1.0440132E4,-1.29674795E4,-7.227182E3,-1.2021026E4,-4.0177961E3,-1.5370239E4,-1.0323184E4,-1.1362531E4,-7.224777E3,1.4026641E3,-6.8725596E3,4.95826E2,-7.811919E3,6.692572E2,-7.065306E3,1.3679245E4,-2.7481953E3,-1.8029365E4,-9.005568E3,-6.862543E3,2.1619885E3,-7.7140894E3,-1.0295269E3,-5.3452484E2,3.8858318E3,-6.5303315E3,7.0592446E3,1.563207E4,-1.1245953E2,7.6921704E3,1.698553E4,4.956517E3,-1.2794536E3,1.0577856E4,1.5571023E3,2.4375756E4,1.2952007E4,2.3998342E4,3.5218676E4,-1.649082E4,-8.292487E3,1.2551292E4,-1.3329774E3,4.596525E3,-2.3833757E3,4.3266987E3,3.5116663E2,1.5359057E4,9.440269E3,1.8238713E3,7.254519E3,-6.716511E3,1.3277501E2,9.083585E3,2.1396902E3,2.1187875E4,1.0153023E4,1.0646168E4,2.8478307E4,1.0794534E4,2.294812E3,7.0105664E2,9.349568E3,4.6942695E3,2.042977E4,2.5797021E4,2.468928E3,8.173144E3,1.7682795E4,1.6318435E4,4.955943E4,4.3808887E3,7.9830728E3,1.3389983E4,2.1827926E4,2.2511375E4,3.328083E4,1.1639954E4,2.8389791E4,2.3910342E4,1.6746027E4],"split_indices":[0,3,3,0,0,6,3,0,3,3,2,3,3,0,3,0,2,3,0,2,3,0,3,3,0,0,0,3,3,3,7,0,0,0,0,0,4,0,0,0,6,3,3,4,6,3,0,2,0,3,3,3,4,7,7,3,0,0,0,0,6,3,3,3,0,3,6,2,3,0,0,0,0,7,0,3,3,7,0,0,7,0,0,3,0,0,3,0,7,0,7,2,2,0,3,0,3,3,5,0,0,3,0,3,3,3,0,7,7,0,7,0,6,0,0,0,0,0,0,0,0,0,0,0,0,0,0,0,0,0,0,0,0,0,0,0,0,0,0,0,0,0,0,0,0,0,0,0,0,0,0,0,0,0,0,0,0,0,0,0,0,0,0,0,0,0,0,0,0,0,0,0,0,0,0,0,0,0,0,0,0,0,0,0,0,0,0,0,0,0,0,0,0,0,0,0,0,0,0],"split_type":[0,0,0,0,0,0,0,0,0,0,0,0,0,0,0,0,0,0,0,0,0,0,0,0,0,0,0,0,0,0,0,0,0,0,0,0,0,0,0,0,0,0,0,0,0,0,0,0,0,0,0,0,0,0,0,0,0,0,0,0,0,0,0,0,0,0,0,0,0,0,0,0,0,0,0,0,0,0,0,0,0,0,0,0,0,0,0,0,0,0,0,0,0,0,0,0,0,0,0,0,0,0,0,0,0,0,0,0,0,0,0,0,0,0,0,0,0,0,0,0,0,0,0,0,0,0,0,0,0,0,0,0,0,0,0,0,0,0,0,0,0,0,0,0,0,0,0,0,0,0,0,0,0,0,0,0,0,0,0,0,0,0,0,0,0,0,0,0,0,0,0,0,0,0,0,0,0,0,0,0,0,0,0,0,0,0,0,0,0,0,0,0,0,0,0,0,0,0,0],"sum_hessian":[2.415E3,1.544E3,8.71E2,1.022E3,5.22E2,4.31E2,4.4E2,2.36E2,7.86E2,2.84E2,2.38E2,2.97E2,1.34E2,3.41E2,9.9E1,3.5E1,2.01E2,5.92E2,1.94E2,2.61E2,2.3E1,1.06E2,1.32E2,1.5E2,1.47E2,6.4E1,7E1,2.5E2,9.1E1,7.9E1,2E1,1.62E2,3.9E1,1.57E2,4.35E2,1.59E2,3.5E1,1.19E2,1.42E2,3E0,2E1,9.8E1,8E0,5.9E1,7.3E1,1.45E2,5E0,5.4E1,9.3E1,4E1,2.4E1,6.3E1,7E0,1.97E2,5.3E1,3.8E1,5.3E1,4.3E1,3.6E1,1E0,1.9E1,1.1E2,5.2E1,3.1E1,8E0,3.7E1,1.2E2,3.37E2,9.8E1,8.9E1,7E1,3.1E1,4E0,2.4E1,9.5E1,2.9E1,1.13E2,1.5E1,5E0,9.2E1,6E0,4E0,4E0,5.6E1,3E0,5.5E1,1.8E1,1.3E1,1.32E2,1.8E1,3.6E1,2.2E1,7.1E1,1.1E1,2.9E1,7E0,1.7E1,2.9E1,3.4E1,3E0,4E0,1.73E2,2.4E1,2.4E1,2.9E1,2.8E1,1E1,2.7E1,2.6E1,1E0,4.2E1,3E0,3.3E1,2E0,1.7E1,7.7E1,3.3E1,2.3E1,2.9E1,2.2E1,9E0,2.6E1,1.1E1,8.1E1,3.9E1,2.2E2,1.17E2,1.9E1,7.9E1,6E0,8.3E1,4.1E1,2.9E1,7E0,2.4E1,2E1,4E0,8.5E1,1E1,1.6E1,1.3E1,7.9E1,3.4E1,2E0,1.3E1,2E0,9E1,3E0,3E0,1E0,3E0,4E1,1.6E1,1.1E1,4.4E1,7E0,1.1E1,8E0,5E0,5E0,1.27E2,1E0,1.7E1,1.3E1,2.3E1,4E0,1.8E1,4.4E1,2.7E1,4E0,7E0,4E0,2.5E1,7E0,1E1,2.3E1,6E0,2.9E1,5E0,1.5E1,1.58E2,4E0,2E1,1.9E1,5E0,1.8E1,1.1E1,2.4E1,4E0,5E0,5E0,1E1,1.7E1,8E0,1.8E1,3E0,3.9E1,1.2E1,2.1E1],"tree_param":{"num_deleted":"0","num_feature":"10","num_nodes":"199","size_leaf_vector":"1"}},{"base_weights":[4.1008316E2,-7.5937914E4,5.679042E4,-1.02206125E5,8.1144385E3,1.2294605E4,1.2644623E5,-1.3135469E5,-8.5382625E4,-2.405486E4,7.300207E4,-4.1426418E4,5.6034715E4,6.2651746E4,1.562069E5,-1.7161072E5,-1.1819284E5,-1.2500093E5,-7.216823E4,-8.0868125E4,-2.6184172E3,5.444261E4,2.8010638E5,-7.0727445E4,6.326937E2,-4.5841027E4,6.6240414E4,-1.4281684E4,9.175225E4,1.1191025E5,2.118141E5,-1.737758E5,-1.6978666E3,-1.6001466E5,-1.029119E5,-1.7975797E4,-1.1408051E5,-9.020156E4,-5.0750227E4,-9.047456E4,1.45750625E4,-4.5389055E4,6.296372E3,2.034015E4,1.5010747E5,3.4016605E4,1.8003139E4,-1.0021553E5,-6.074564E4,-3.445232E4,5.60096E4,-9.115883E4,2.1503195E4,4.336103E4,1.052387E5,-4.9549688E4,1.7117156E4,8.326293E4,3.0888254E4,8.557621E4,2.1128262E5,9.295587E4,2.2456498E5,-1.761282E4,-1.0559902E4,-1.7553264E4,-1.3770786E4,-1.3180897E5,-9.536905E4,-1.3029655E5,-8.1183625E4,-1.0643141E5,-7.875525E4,-6.546401E4,-5.6655957E3,-9.313615E4,9.7716876E2,2.1971724E3,-7.5418335E2,-8.462234E4,4.4927236E3,-8.769827E2,8.230119E4,1.7778797E4,9.649903E3,3.537956E4,2.6901153E5,-1.25516766E5,-8.83781E4,-7.162491E4,-2.2075852E4,7.3622055E4,-4.3416523E4,3.8699086E4,2.2559656E4,-1.2849579E5,-3.1701416E4,-5.196006E3,5.7448598E4,9.914596E3,6.473624E4,6.1931934E4,1.2151626E5,-6.291628E4,-2.794712E4,1.563921E5,-2.066676E4,4.370129E4,1.3408847E5,9.583302E4,2.2869234E4,1.893122E5,2.8802826E4,-1.3582927E4,1.9402672E5,2.1139136E5,3.455443E5,-1.734032E4,-1.1395978E4,-9.741557E3,-8.9472235E2,-6.258435E3,-1.3186244E4,-5.943681E3,-1.4676542E4,-1.4666323E4,-8.51545E3,-7.1094087E3,-9.660023E3,-7.280062E3,5.5316547E2,-2.4843826E3,1.7591875E3,-1.1524077E4,-7.8740635E3,-1.009082E4,-5.7682393E3,2.898425E3,-1.5954137E3,-5.281312E2,4.192245E3,9.878929E3,4.4633857E3,-1.0790087E3,4.7506943E3,1.9347831E3,8.281133E3,3.8725355E4,2.116634E4,-1.3418822E4,-7.413859E3,-4.535402E3,-1.0219381E4,-7.86947E3,-2.0394274E3,1.3092292E3,-4.581224E3,1.0409547E4,2.3924375E3,-8.705205E2,-5.626488E3,1.368864E2,1.075813E4,-1.4281213E4,-5.900932E3,-1.2629138E4,3.6222434E3,1.2900447E2,-7.876496E2,6.8311935E1,1.7084271E4,4.1155597E2,6.7688296E3,4.305955E3,9.416804E3,1.142557E4,4.2464556E3,1.1276718E4,1.8699822E4,-7.3653706E3,-2.171584E3,-4.6727866E3,-1.8875279E2,2.5075678E4,-6.99665E2,-3.2031572E3,2.3300417E3,3.345181E4,3.2439736E3,8.291354E3,1.6688898E4,1.0355688E4,2.5677117E3,9.168873E3,-4.135943E3,1.5399414E4,2.327166E4,4.2479604E3,-1.5662913E4,1.4876226E4,3.5567316E4,3.1046244E4,1.9446115E4,1.5881263E4,3.7111445E4],"categories":[],"categories_nodes":[],"categories_segments":[],"categories_sizes":[],"default_left":[0,0,0,0,0,0,0,0,0,0,0,0,0,0,0,0,0,0,0,0,0,0,0,0,0,0,0,0,0,0,0,0,0,0,0,0,0,0,0,0,0,0,0,0,0,0,0,0,0,0,0,0,0,0,0,0,0,0,0,0,0,0,0,0,0,0,0,0,0,0,0,0,0,0,0,0,0,0,0,0,0,0,0,0,0,0,0,0,0,0,0,0,0,0,0,0,0,0,0,0,0,0,0,0,0,0,0,0,0,0,0,0,0,0,0,0,0,0,0,0,0,0,0,0,0,0,0,0,0,0,0,0,0,0,0,0,0,0,0,0,0,0,0,0,0,0,0,0,0,0,0,0,0,0,0,0,0,0,0,0,0,0,0,0,0,0,0,0,0,0,0,0,0,0,0,0,0,0,0,0,0,0,0,0,0,0,0,0,0,0,0,0,0,0,0,0,0,0,0,0,0,0,0,0,0],"id":4,"left_children":[1,3,5,7,9,11,13,15,17,19,21,23,25,27,29,31,33,35,37,39,41,43,45,47,49,51,53,55,57,59,61,63,-1,65,67,-1,69,71,73,75,77,79,81,83,85,-1,-1,87,89,91,93,95,97,99,101,103,105,107,-1,109,111,113,115,-1,-1,-1,-1,117,119,121,123,125,127,129,131,133,-1,-1,-1,135,137,139,141,-1,143,145,147,149,151,153,155,157,159,161,-1,163,165,167,169,171,173,175,177,179,181,183,185,187,189,191,193,195,-1,197,199,201,203,-1,-1,-1,-1,-1,-1,-1,-1,-1,-1,-1,-1,-1,-1,-1,-1,-1,-1,-1,-1,-1,-1,-1,-1,-1,-1,-1,-1,-1,-1,-1,-1,-1,-1,-1,-1,-1,-1,-1,-1,-1,-1,-1,-1,-1,-1,-1,-1,-1,-1,-1,-1,-1,-1,-1,-1,-1,-1,-1,-1,-1,-1,-1,-1,-1,-1,-1,-1,-1,-1,-1,-1,-1,-1,-1,-1,-1,-1,-1,-1,-1,-1,-1,-1,-1,-1,-1,-1],"loss_changes":[1.0300735E13,2.24475E12,4.2655353E12,3.741922E11,5.0707E11,1.9761368E12,1.0136867E12,1.3953978E11,2.5332862E11,1.9779867E11,3.017964E11,4.6524406E11,4.8342526E11,3.846096E11,8.8845215E11,2.1457666E10,1.2884797E11,6.299766E10,1.4081235E11,4.146004E10,4.532592E10,2.4152259E11,8.447492E9,6.244768E10,3.030857E11,1.3068554E11,3.7380463E11,5.302437E10,2.1662997E11,5.261107E11,2.3432318E11,1.5259402E9,0E0,7.4716283E9,2.8262138E10,0E0,4.992375E10,3.3056227E10,1.12918266E11,1.1261051E10,8.1902106E8,4.030917E10,5.3739266E10,9.255725E10,2.6125268E11,0E0,0E0,1.1075715E10,6.967643E10,9.411869E10,1.7324071E11,5.457214E10,1.6944263E10,1.9020641E11,1.0585335E11,5.6177254E9,1.35806116E11,2.3936428E11,0E0,1.0341974E11,4.4396708E10,1.789893E11,1.9536596E11,0E0,0E0,0E0,0E0,1.3505692E10,2.2114468E10,3.136553E9,4.626822E10,6.3520047E10,1.2903318E10,6.713285E10,1.9175105E10,8.0320266E9,0E0,0E0,0E0,2.1351219E9,4.988577E9,1.7170186E10,3.0742897E9,0E0,4.088069E10,7.1831777E9,2.3435084E10,2.376794E9,2.116164E10,4.646332E10,3.1603591E10,1.0113159E10,3.9224574E10,1.4263835E11,0E0,1.1205542E10,6.974893E10,1.8763466E8,4.82181E10,3.48715E10,1.01644894E11,4.1883402E10,5.390821E10,5.172445E9,4.605352E9,8.567703E10,1.0616594E10,2.1891483E11,8.1205854E10,7.426186E10,1.05770435E11,3.4968437E10,0E0,7.149286E10,3.573747E10,1.9205456E11,3.4990195E10,0E0,0E0,0E0,0E0,0E0,0E0,0E0,0E0,0E0,0E0,0E0,0E0,0E0,0E0,0E0,0E0,0E0,0E0,0E0,0E0,0E0,0E0,0E0,0E0,0E0,0E0,0E0,0E0,0E0,0E0,0E0,0E0,0E0,0E0,0E0,0E0,0E0,0E0,0E0,0E0,0E0,0E0,0E0,0E0,0E0,0E0,0E0,0E0,0E0,0E0,0E0,0E0,0E0,0E0,0E0,0E0,0E0,0E0,0E0,0E0,0E0,0E0,0E0,0E0,0E0,0E0,0E0,0E0,0E0,0E0,0E0,0E0,0E0,0E0,0E0,0E0,0E0,0E0,0E0,0E0,0E0,0E0,0E0,0E0,0E0,0E0,0E0,0E0],"parents":[2147483647,0,0,1,1,2,2,3,3,4,4,5,5,6,6,7,7,8,8,9,9,10,10,11,11,12,12,13,13,14,14,15,15,16,16,17,17,18,18,19,19,20,20,21,21,22,22,23,23,24,24,25,25,26,26,27,27,28,28,29,29,30,30,31,31,33,33,34,34,36,36,37,37,38,38,39,39,40,40,41,41,42,42,43,43,44,44,47,47,48,48,49,49,50,50,51,51,52,52,53,53,54,54,55,55,56,56,57,57,59,59,60,60,61,61,62,62,67,67,68,68,69,69,70,70,71,71,72,72,73,73,74,74,75,75,79,79,80,80,81,81,82,82,84,84,85,85,86,86,87,87,88,88,89,89,90,90,91,91,92,92,93,93,95,95,96,96,97,97,98,98,99,99,100,100,101,101,102,102,103,103,104,104,105,105,106,106,107,107,108,108,109,109,110,110,111,111,113,113,114,114,115,115,116,116],"right_children":[2,4,6,8,10,12,14,16,18,20,22,24,26,28,30,32,34,36,38,40,42,44,46,48,50,52,54,56,58,60,62,64,-1,66,68,-1,70,72,74,76,78,80,82,84,86,-1,-1,88,90,92,94,96,98,100,102,104,106,108,-1,110,112,114,116,-1,-1,-1,-1,118,120,122,124,126,128,130,132,134,-1,-1,-1,136,138,140,142,-1,144,146,148,150,152,154,156,158,160,162,-1,164,166,168,170,172,174,176,178,180,182,184,186,188,190,192,194,196,-1,198,200,202,204,-1,-1,-1,-1,-1,-1,-1,-1,-1,-1,-1,-1,-1,-1,-1,-1,-1,-1,-1,-1,-1,-1,-1,-1,-1,-1,-1,-1,-1,-1,-1,-1,-1,-1,-1,-1,-1,-1,-1,-1,-1,-1,-1,-1,-1,-1,-1,-1,-1,-1,-1,-1,-1,-1,-1,-1,-1,-1,-1,-1,-1,-1,-1,-1,-1,-1,-1,-1,-1,-1,-1,-1,-1,-1,-1,-1,-1,-1,-1,-1,-1,-1,-1,-1,-1,-1,-1,-1],"split_conditions":[-1.3453896E-1,9.022825E-1,2.0282497E-1,-2.302376E-1,9.4702923E-1,8.242865E-1,1.3283105E-1,-1.1535879E0,-1.2974436E0,-5.804433E-2,-5.4815114E-1,-3.4401432E-1,-1.2692412E0,9.022825E-1,8.024625E-1,4.4619673E-1,-9.308005E-1,-1.8908806E0,-2.1327573E-1,5.1961464E-1,1E0,2.2594435E0,2.0348027E0,1.8466048E-2,2.5080153E-1,1.5124344E0,1.1096267E0,6.5663874E-1,1E0,1.0686778E0,9.022825E-1,9.069426E-1,-1.6978666E3,-1.3199208E0,1E0,-1.7975797E4,2.8087817E-2,-5.804433E-2,-6.591744E-1,2.0348027E0,-1.2974436E0,3.0602021E-2,-5.303767E-1,9.646287E-1,-8.0711466E-1,3.4016605E4,1.8003139E4,-1.0266206E0,-5.325796E-1,-6.699353E-1,1E0,1E0,-1.4804344E0,9.069426E-1,-8.204559E-1,3.649911E-1,1.0651969E0,1.3166171E0,3.0888254E4,1.0624241E0,1.8719295E0,9.069426E-1,2.647888E0,-1.761282E4,-1.0559902E4,-1.7553264E4,-1.3770786E4,-8.269836E-1,-5.4815114E-1,-1.0354203E0,5.975549E-1,-8.116562E-1,-4.5592588E-1,1.1971925E0,-5.3448695E-1,-7.850421E-1,9.7716876E2,2.1971724E3,-7.5418335E2,-3.5658535E-1,6.0772464E-2,1.8719295E0,4.303604E-1,1.7778797E4,2.0348027E0,3.1673226E0,2.5171494E0,-2.302376E-1,-2.302376E-1,4.4619673E-1,-4.068694E-1,5.6219574E-2,-9.0576276E-2,-9.0079755E-2,2.2559656E4,1.0109515E0,9.843705E-1,1.9955866E0,1.9955866E0,2.8087817E-2,-3.289291E-1,-1.0052499E0,1.9955866E0,1.8466048E-2,-5.804433E-2,1.8466048E-2,3.5077457E0,2.1791019E-1,1E0,7.521785E-1,1E0,1.9258057E0,2.8802826E4,1.8056297E0,1.6099069E0,3.932918E-1,6.700026E-2,-1.734032E4,-1.1395978E4,-9.741557E3,-8.9472235E2,-6.258435E3,-1.3186244E4,-5.943681E3,-1.4676542E4,-1.4666323E4,-8.51545E3,-7.1094087E3,-9.660023E3,-7.280062E3,5.5316547E2,-2.4843826E3,1.7591875E3,-1.1524077E4,-7.8740635E3,-1.009082E4,-5.7682393E3,2.898425E3,-1.5954137E3,-5.281312E2,4.192245E3,9.878929E3,4.4633857E3,-1.0790087E3,4.7506943E3,1.9347831E3,8.281133E3,3.8725355E4,2.116634E4,-1.3418822E4,-7.413859E3,-4.535402E3,-1.0219381E4,-7.86947E3,-2.0394274E3,1.3092292E3,-4.581224E3,1.0409547E4,2.3924375E3,-8.705205E2,-5.626488E3,1.368864E2,1.075813E4,-1.4281213E4,-5.900932E3,-1.2629138E4,3.6222434E3,1.2900447E2,-7.876496E2,6.8311935E1,1.7084271E4,4.1155597E2,6.7688296E3,4.305955E3,9.416804E3,1.142557E4,4.2464556E3,1.1276718E4,1.8699822E4,-7.3653706E3,-2.171584E3,-4.6727866E3,-1.8875279E2,2.5075678E4,-6.99665E2,-3.2031572E3,2.3300417E3,3.345181E4,3.2439736E3,8.291354E3,1.6688898E4,1.0355688E4,2.5677117E3,9.168873E3,-4.135943E3,1.5399414E4,2.327166E4,4.2479604E3,-1.5662913E4,1.4876226E4,3.5567316E4,3.1046244E4,1.9446115E4,1.5881263E4,3.7111445E4],"split_indices":[0,1,3,1,3,6,6,3,0,9,0,3,3,1,3,6,6,0,3,3,8,3,1,0,6,0,0,3,4,0,1,9,0,0,8,0,3,9,0,1,0,3,0,3,0,0,0,3,3,6,4,8,3,9,3,3,3,3,0,6,9,9,3,0,0,0,0,6,0,3,3,3,6,3,0,0,0,0,0,3,3,9,3,0,1,1,3,1,1,6,3,0,0,3,0,0,6,0,0,3,3,3,0,0,9,0,3,3,8,3,8,0,0,3,0,6,0,0,0,0,0,0,0,0,0,0,0,0,0,0,0,0,0,0,0,0,0,0,0,0,0,0,0,0,0,0,0,0,0,0,0,0,0,0,0,0,0,0,0,0,0,0,0,0,0,0,0,0,0,0,0,0,0,0,0,0,0,0,0,0,0,0,0,0,0,0,0,0,0,0,0,0,0,0,0,0,0,0,0,0,0,0,0,0,0],"split_type":[0,0,0,0,0,0,0,0,0,0,0,0,0,0,0,0,0,0,0,0,0,0,0,0,0,0,0,0,0,0,0,0,0,0,0,0,0,0,0,0,0,0,0,0,0,0,0,0,0,0,0,0,0,0,0,0,0,0,0,0,0,0,0,0,0,0,0,0,0,0,0,0,0,0,0,0,0,0,0,0,0,0,0,0,0,0,0,0,0,0,0,0,0,0,0,0,0,0,0,0,0,0,0,0,0,0,0,0,0,0,0,0,0,0,0,0,0,0,0,0,0,0,0,0,0,0,0,0,0,0,0,0,0,0,0,0,0,0,0,0,0,0,0,0,0,0,0,0,0,0,0,0,0,0,0,0,0,0,0,0,0,0,0,0,0,0,0,0,0,0,0,0,0,0,0,0,0,0,0,0,0,0,0,0,0,0,0,0,0,0,0,0,0,0,0,0,0,0,0,0,0,0,0,0,0],"sum_hessian":[2.392E3,1.016E3,1.376E3,7.74E2,2.42E2,8.4E2,5.36E2,2.82E2,4.92E2,1.62E2,8E1,3.77E2,4.63E2,1.71E2,3.65E2,6.8E1,2.14E2,1.22E2,3.7E2,4.4E1,1.18E2,7.4E1,6E0,2.22E2,1.55E2,4.2E1,4.21E2,4.7E1,1.24E2,2.04E2,1.61E2,6.7E1,1E0,5.6E1,1.58E2,1.9E1,1.03E2,2E2,1.7E2,4E1,4E0,2E1,9.8E1,5.5E1,1.9E1,3E0,3E0,5.5E1,1.67E2,9.5E1,6E1,2.5E1,1.7E1,2.66E2,1.55E2,2.2E1,2.5E1,1.2E2,4E0,1.62E2,4.2E1,1.6E1,1.45E2,6.4E1,3E0,3.1E1,2.5E1,3.1E1,1.27E2,6.8E1,3.5E1,8.1E1,1.19E2,1.28E2,4.2E1,3.9E1,1E0,3E0,1E0,1.1E1,9E0,9E1,8E0,3E0,5.2E1,1E1,9E0,1.6E1,3.9E1,1.3E2,3.7E1,7E0,8.8E1,5.5E1,5E0,1.5E1,1E1,1E1,7E0,1.04E2,1.62E2,4.3E1,1.12E2,1.3E1,9E0,5E0,2E1,6.8E1,5.2E1,1.39E2,2.3E1,3.4E1,8E0,8E0,8E0,1.32E2,1.3E1,8E0,2.3E1,1.24E2,3E0,2E0,6.6E1,2.7E1,8E0,2.7E1,5.4E1,8.5E1,3.4E1,1.16E2,1.2E1,2.3E1,1.9E1,1.4E1,2.5E1,6E0,5E0,4E0,5E0,8.2E1,8E0,5E0,3E0,3.4E1,1.8E1,8E0,2E0,2E0,7E0,1.3E1,3E0,1E1,2.9E1,1.14E2,1.6E1,1.5E1,2.2E1,4E0,3E0,2.4E1,6.4E1,3.6E1,1.9E1,1.2E1,3E0,4E0,6E0,3E0,7E0,5E0,2E0,9.5E1,9E0,9.4E1,6.8E1,1.1E1,3.2E1,1E2,1.2E1,1E1,3E0,5E0,4E0,3E0,2E0,1.6E1,4E0,2E0,6.6E1,2.1E1,3.1E1,1.25E2,1.4E1,1.1E1,1.2E1,2E1,1.4E1,6E0,2E0,7E0,1E0,1.8E1,1.14E2,2E0,1.1E1],"tree_param":{"num_deleted":"0","num_feature":"10","num_nodes":"205","size_leaf_vector":"1"}},{"base_weights":[-6.721645E2,-4.543093E4,7.804722E4,-7.8345516E4,3.311336E4,5.2727707E4,1.8605042E5,-1.24212875E5,-6.4408348E4,-2.223816E4,8.305758E4,3.2156484E4,1.0539609E5,1.7063866E5,3.038995E5,-1.8337195E4,-1.1485848E5,-8.178246E4,-2.5805307E4,-6.884242E4,2.0736596E4,8.974248E3,1.1506666E5,-2.030538E4,5.555128E4,8.374634E4,1.8387814E5,2.6823342E4,1.7664205E5,-1.2008217E4,3.3155797E5,-1.3764116E5,-1.0197447E5,-1.1400074E5,-7.132031E4,-3.2930152E4,4.6143758E4,-8.5388664E4,6.723998E4,2.0995824E4,1.4593725E4,-1.5246267E4,6.678215E4,6.9841266E4,1.6781652E5,-4.0153293E4,2.4715207E4,5.3440246E4,2.5841742E4,7.2423604E3,9.689968E4,4.415177E4,1.5137639E5,-6.916813E2,5.6731733E3,1.4091431E5,2.0523711E5,3.9615504E4,2.696287E4,-1.4840755E4,-1.21285164E5,-1.0721807E5,-7.336363E4,-1.3119167E5,-9.0468836E4,-7.960087E4,-4.119431E4,-5.0719207E4,-1.5449898E4,2.0053025E4,9.332908E3,-1.0344676E5,-4.507057E4,7.851558E3,1.0944501E3,7.2351553E3,1.5307974E4,-4.3316734E4,1.657253E4,4.6599617E4,2.1084928E4,5.843024E4,2.814263E4,1.7984375E5,9.201718E4,-3.413947E4,-1.7668248E4,-2.4903424E4,3.2013184E4,4.6227973E4,9.122931E4,-8.669195E4,4.192535E4,6.3746293E4,1.1125011E5,6.120035E4,1.8194339E5,1.1851868E5,2.8149031E4,1.7743573E5,2.5845098E4,-9.494436E3,-1.3567336E4,-1.1659502E4,-8.540925E3,-2.8872375E3,-7.917032E3,-1.3810752E4,-6.5300034E3,-9.756564E3,-7.1720234E3,-9.813222E3,-6.2611426E3,1.9111366E3,-5.6497144E3,-6.661819E3,-2.5177722E3,1.9300957E3,-3.8914126E3,-4.031739E3,1.1173492E4,-7.224636E3,-1.5869531E4,-3.182589E3,-1.1511581E4,-1.3011077E3,2.3266484E3,-6.0541753E3,-1.6719203E3,-7.781294E2,4.4441304E3,6.9139854E3,1.9234062E3,4.1590693E3,1.9273014E4,1.5640386E4,2.7297271E4,3.758244E3,1.4798386E4,-1.0668824E4,-2.3366726E3,-4.542486E3,1.7015651E3,2.6120957E3,6.263767E3,3.0360674E3,5.660146E3,1.0517824E4,1.8151385E3,-5.594961E3,-1.2468958E4,1.4232057E3,8.769608E3,3.6276067E3,1.1364682E4,9.162318E3,1.51612295E4,1.2180199E3,2.156286E4,1.3335358E4,2.30993E4,1.775735E4,8.860248E3,2.2991578E4,1.5128124E4],"categories":[],"categories_nodes":[],"categories_segments":[],"categories_sizes":[],"default_left":[0,0,0,0,0,0,0,0,0,0,0,0,0,0,0,0,0,0,0,0,0,0,0,0,0,0,0,0,0,0,0,0,0,0,0,0,0,0,0,0,0,0,0,0,0,0,0,0,0,0,0,0,0,0,0,0,0,0,0,0,0,0,0,0,0,0,0,0,0,0,0,0,0,0,0,0,0,0,0,0,0,0,0,0,0,0,0,0,0,0,0,0,0,0,0,0,0,0,0,0,0,0,0,0,0,0,0,0,0,0,0,0,0,0,0,0,0,0,0,0,0,0,0,0,0,0,0,0,0,0,0,0,0,0,0,0,0,0,0,0,0,0,0,0,0,0,0,0,0,0,0,0,0,0,0,0,0,0,0,0,0,0,0,0,0],"id":5,"left_children":[1,3,5,7,9,11,13,15,17,19,21,23,25,27,29,-1,31,33,35,37,39,41,43,45,47,49,51,53,55,-1,57,59,61,63,65,67,69,71,73,-1,75,77,79,81,83,85,87,89,-1,91,93,-1,95,-1,-1,97,99,-1,-1,-1,101,103,105,107,109,111,113,115,117,-1,119,121,123,-1,-1,125,-1,127,129,131,-1,133,-1,135,137,139,-1,141,143,145,147,149,151,153,155,157,159,161,-1,163,-1,-1,-1,-1,-1,-1,-1,-1,-1,-1,-1,-1,-1,-1,-1,-1,-1,-1,-1,-1,-1,-1,-1,-1,-1,-1,-1,-1,-1,-1,-1,-1,-1,-1,-1,-1,-1,-1,-1,-1,-1,-1,-1,-1,-1,-1,-1,-1,-1,-1,-1,-1,-1,-1,-1,-1,-1,-1,-1,-1,-1,-1,-1,-1,-1],"loss_changes":[8.4807925E12,3.968367E12,2.3810235E12,6.8736044E11,1.254619E12,7.648485E11,2.7466242E11,1.2864848E11,5.559558E11,4.323187E11,5.650481E11,6.258911E11,3.2957478E11,1.2497899E11,2.368509E11,0E0,5.711882E10,1.8890857E11,1.3327357E11,2.3591672E11,1.2923383E11,1.02019056E11,3.9134744E11,1.4123264E11,1.4405593E11,1.5713226E11,3.2246582E11,6.7554647E9,1.3010102E11,0E0,1.6600138E10,4.64742E9,1.7295344E10,5.049824E10,1.06501505E11,7.2838595E10,1.3261693E11,6.501499E10,6.870102E9,0E0,1.1103311E11,4.6357127E10,5.760136E10,2.102814E11,6.1467525E10,8.689033E10,1.7961228E10,9.314579E10,0E0,7.837846E10,5.9968717E10,0E0,1.0055424E11,0E0,0E0,1.863836E11,9.17255E10,0E0,0E0,0E0,6.2555423E9,1.9253953E10,4.9281843E9,3.1718506E10,4.551049E9,1.0381492E11,8.7749E10,4.6470038E10,9.781607E10,0E0,1.0139612E11,1.0372717E11,2.5536029E10,0E0,0E0,3.4069352E10,0E0,1.2092781E10,1.6801346E10,1.1363144E10,0E0,1.9161602E11,0E0,1.2163495E11,3.225423E10,8.120691E10,0E0,5.978039E9,6.850855E9,4.7615115E10,5.5619813E10,4.1046262E9,2.1557893E10,5.482591E10,6.6331476E10,7.81727E10,5.2522254E10,9.1951464E10,0E0,5.466987E10,0E0,0E0,0E0,0E0,0E0,0E0,0E0,0E0,0E0,0E0,0E0,0E0,0E0,0E0,0E0,0E0,0E0,0E0,0E0,0E0,0E0,0E0,0E0,0E0,0E0,0E0,0E0,0E0,0E0,0E0,0E0,0E0,0E0,0E0,0E0,0E0,0E0,0E0,0E0,0E0,0E0,0E0,0E0,0E0,0E0,0E0,0E0,0E0,0E0,0E0,0E0,0E0,0E0,0E0,0E0,0E0,0E0,0E0,0E0,0E0,0E0,0E0,0E0,0E0,0E0],"parents":[2147483647,0,0,1,1,2,2,3,3,4,4,5,5,6,6,7,7,8,8,9,9,10,10,11,11,12,12,13,13,14,14,16,16,17,17,18,18,19,19,20,20,21,21,22,22,23,23,24,24,25,25,26,26,27,27,28,28,30,30,31,31,32,32,33,33,34,34,35,35,36,36,37,37,38,38,40,40,41,41,42,42,43,43,44,44,45,45,46,46,47,47,49,49,50,50,52,52,55,55,56,56,60,60,61,61,62,62,63,63,64,64,65,65,66,66,67,67,68,68,70,70,71,71,72,72,75,75,77,77,78,78,79,79,81,81,83,83,84,84,85,85,87,87,88,88,89,89,90,90,91,91,92,92,93,93,94,94,95,95,96,96,97,97,99,99],"right_children":[2,4,6,8,10,12,14,16,18,20,22,24,26,28,30,-1,32,34,36,38,40,42,44,46,48,50,52,54,56,-1,58,60,62,64,66,68,70,72,74,-1,76,78,80,82,84,86,88,90,-1,92,94,-1,96,-1,-1,98,100,-1,-1,-1,102,104,106,108,110,112,114,116,118,-1,120,122,124,-1,-1,126,-1,128,130,132,-1,134,-1,136,138,140,-1,142,144,146,148,150,152,154,156,158,160,162,-1,164,-1,-1,-1,-1,-1,-1,-1,-1,-1,-1,-1,-1,-1,-1,-1,-1,-1,-1,-1,-1,-1,-1,-1,-1,-1,-1,-1,-1,-1,-1,-1,-1,-1,-1,-1,-1,-1,-1,-1,-1,-1,-1,-1,-1,-1,-1,-1,-1,-1,-1,-1,-1,-1,-1,-1,-1,-1,-1,-1,-1,-1,-1,-1,-1,-1],"split_conditions":[3.6155495E-1,2.845366E-1,8.024625E-1,-1.2003529E0,1E0,1.3842634E0,2.647888E0,-1.8908806E0,-2.9875866E-1,-6.591744E-1,-7.5688165E-1,-5.753211E-1,5.825826E-2,4.245793E-1,9.022825E-1,-1.8337195E4,-2.302376E-1,-1.0266206E0,6.355541E-2,2.0348027E0,3.1973544E-1,2.0348027E0,1.0048559E0,9.069426E-1,4.7668905E0,-1.2604415E0,6.0772464E-2,2.0348027E0,1.129309E0,-1.2008217E4,1E0,-6.4194745E-1,2.8087817E-2,-5.804433E-2,1.8466048E-2,-5.4815114E-1,1E0,9.022825E-1,-7.8691775E-1,2.0995824E4,3.1673226E0,-5.804433E-2,3.5077457E0,1E0,5.1317867E-2,-5.891492E-1,-9.398806E-1,4.4544563E-1,2.5841742E4,1.7319419E0,-5.804433E-2,4.415177E4,9.022825E-1,-6.916813E2,5.6731733E3,1.9258057E0,1.8719295E0,3.9615504E4,2.696287E4,-1.4840755E4,-5.225228E-1,-1.2974436E0,1.1105654E-1,-2.302376E-1,1.8466048E-2,-5.804433E-2,-8.921107E-1,9.022825E-1,-9.0576276E-2,2.0053025E4,-1.0882339E-2,-5.804433E-2,1.4687265E0,7.851558E3,1.0944501E3,9.069426E-1,1.5307974E4,9.022825E-1,6.340109E-1,1.1971925E0,2.1084928E4,2.0348027E0,2.814263E4,1.8466048E-2,2.0348027E0,-1.4200935E0,-1.7668248E4,5.259663E-1,-6.3189065E-1,9.069426E-1,7.521785E-1,1.5124344E0,1.9955866E0,1.9955866E0,1.5124344E0,9.069426E-1,1.9258057E0,8.879455E-1,2.8149031E4,1.4473557E0,2.5845098E4,-9.494436E3,-1.3567336E4,-1.1659502E4,-8.540925E3,-2.8872375E3,-7.917032E3,-1.3810752E4,-6.5300034E3,-9.756564E3,-7.1720234E3,-9.813222E3,-6.2611426E3,1.9111366E3,-5.6497144E3,-6.661819E3,-2.5177722E3,1.9300957E3,-3.8914126E3,-4.031739E3,1.1173492E4,-7.224636E3,-1.5869531E4,-3.182589E3,-1.1511581E4,-1.3011077E3,2.3266484E3,-6.0541753E3,-1.6719203E3,-7.781294E2,4.4441304E3,6.9139854E3,1.9234062E3,4.1590693E3,1.9273014E4,1.5640386E4,2.7297271E4,3.758244E3,1.4798386E4,-1.0668824E4,-2.3366726E3,-4.542486E3,1.7015651E3,2.6120957E3,6.263767E3,3.0360674E3,5.660146E3,1.0517824E4,1.8151385E3,-5.594961E3,-1.2468958E4,1.4232057E3,8.769608E3,3.6276067E3,1.1364682E4,9.162318E3,1.51612295E4,1.2180199E3,2.156286E4,1.3335358E4,2.30993E4,1.775735E4,8.860248E3,2.2991578E4,1.5128124E4],"split_indices":[0,3,3,0,2,0,3,0,3,0,0,3,3,0,1,0,1,3,0,1,3,1,3,9,9,3,3,1,3,0,2,3,3,9,0,0,2,1,0,0,1,9,3,4,0,3,3,3,0,0,9,0,1,0,0,0,9,0,0,0,3,0,3,1,0,9,3,1,0,0,3,9,3,0,0,9,0,1,3,3,0,1,0,0,1,3,0,0,3,9,3,0,0,0,0,9,0,3,0,3,0,0,0,0,0,0,0,0,0,0,0,0,0,0,0,0,0,0,0,0,0,0,0,0,0,0,0,0,0,0,0,0,0,0,0,0,0,0,0,0,0,0,0,0,0,0,0,0,0,0,0,0,0,0,0,0,0,0,0,0,0,0,0,0,0],"split_type":[0,0,0,0,0,0,0,0,0,0,0,0,0,0,0,0,0,0,0,0,0,0,0,0,0,0,0,0,0,0,0,0,0,0,0,0,0,0,0,0,0,0,0,0,0,0,0,0,0,0,0,0,0,0,0,0,0,0,0,0,0,0,0,0,0,0,0,0,0,0,0,0,0,0,0,0,0,0,0,0,0,0,0,0,0,0,0,0,0,0,0,0,0,0,0,0,0,0,0,0,0,0,0,0,0,0,0,0,0,0,0,0,0,0,0,0,0,0,0,0,0,0,0,0,0,0,0,0,0,0,0,0,0,0,0,0,0,0,0,0,0,0,0,0,0,0,0,0,0,0,0,0,0,0,0,0,0,0,0,0,0,0,0,0,0],"sum_hessian":[2.406E3,1.534E3,8.72E2,1.081E3,4.53E2,7.07E2,1.65E2,2.51E2,8.3E2,2.15E2,2.38E2,5.09E2,1.98E2,1.47E2,1.8E1,3.3E1,2.18E2,5.72E2,2.58E2,1.03E2,1.12E2,7.2E1,1.66E2,1.57E2,3.52E2,1.56E2,4.2E1,6E0,1.41E2,1E0,1.7E1,7.7E1,1.41E2,1.39E2,4.33E2,2.35E2,2.3E1,9.2E1,1.1E1,3E0,1.09E2,5.1E1,2.1E1,9E1,7.6E1,1.09E2,4.8E1,3.49E2,3E0,2.3E1,1.33E2,4E0,3.8E1,3E0,3E0,6.4E1,7.7E1,7E0,1E1,4.4E1,3.3E1,1.18E2,2.3E1,7.9E1,6E1,3.39E2,9.4E1,1.16E2,1.19E2,4E0,1.9E1,6.3E1,2.9E1,9E0,2E0,1.04E2,5E0,2.7E1,2.4E1,1.9E1,2E0,8.6E1,4E0,6.5E1,1.1E1,1.05E2,4E0,6E0,4.2E1,2.94E2,5.5E1,6E0,1.7E1,4.1E1,9.2E1,1E1,2.8E1,5.6E1,8E0,5.2E1,2.5E1,1.3E1,2E1,8.1E1,3.7E1,3E0,2E1,7.1E1,8E0,4.2E1,1.8E1,1.61E2,1.78E2,1.9E1,7.5E1,7.1E1,4.5E1,4.8E1,7.1E1,1.3E1,6E0,4.1E1,2.2E1,2.5E1,4E0,4.6E1,5.8E1,1.6E1,1.1E1,1.3E1,1.1E1,1E1,9E0,7.7E1,9E0,5.3E1,1.2E1,6E0,5E0,1.3E1,9.2E1,4E0,2E0,3.6E1,6E0,1.17E2,1.77E2,4.6E1,9E0,4E0,2E0,1.1E1,6E0,2.7E1,1.4E1,6.3E1,2.9E1,8E0,2E0,1.5E1,1.3E1,1.8E1,3.8E1,1.6E1,3.6E1],"tree_param":{"num_deleted":"0","num_feature":"10","num_nodes":"165","size_leaf_vector":"1"}},{"base_weights":[-7.8863306E2,-4.2323008E4,7.361858E4,-7.505711E4,2.3855744E4,2.9319053E4,1.21561125E5,-1.21627086E5,-6.372503E4,-2.2289607E4,6.802195E4,-1.1635492E4,5.3008434E4,1.0092133E5,1.8329208E5,-1.3321908E5,-8.445165E4,-7.6211625E4,-3.3561285E4,-5.6418004E4,1.3310741E4,2.541608E4,1.18124234E5,-3.4045344E4,4.2776355E4,3.669071E4,9.1606266E4,7.874712E4,1.4799402E5,-7.1882734E4,1.9126688E5,-1.6140167E5,-1.24831305E5,-9.764921E4,-6.3400223E4,-9.97648E4,-6.711444E4,-4.4246562E4,2.4464033E4,-9.221937E4,-8.497109E3,5.166072E3,1.23199375E5,1.00721045E4,1.9976602E5,3.4802742E4,1.4434195E5,-8.729651E4,-2.5221033E4,5.9141824E4,-1.2449106E4,3.081269E4,1.2433384E5,4.8920824E4,1.0913021E5,2.6740834E4,7.542318E4,8.5783445E4,1.8573564E5,-1.3449222E4,5.6427E3,1.7298342E5,3.0268672E4,-1.7021457E4,-1.1170076E4,-1.3428162E5,-1.0718264E4,-1.0134386E4,-3.7478E3,-4.6841145E4,-8.897981E3,-6.6722125E4,-1.1019675E5,-7.432131E4,-3.986716E4,-6.2513906E4,-2.5588965E4,3.4692988E3,1.8270533E4,-6.842458E4,-1.4463366E5,-3.2381217E4,6.015382E4,1.1559248E3,8.5263836E4,6.1227285E3,1.5143612E4,-2.4966275E4,2.1466193E4,3.683154E4,1.18612336E5,-4.96831E4,1.1271525E5,9.052262E4,1.7688027E5,1.2723258E4,-1.2127409E5,-3.3688465E4,1.6385143E4,3.802069E4,1.5694864E5,-3.7841458E3,-1.2610735E3,2.9211318E3,5.3974168E4,4.432001E3,2.6165611E4,1.0134624E5,1.7254012E4,8.1977734E4,1.23966625E5,7.833631E4,-6.663747E3,1.0494771E5,4.640708E4,1.6658078E5,2.6177498E4,-6.3239374E2,1.793868E5,-1.3718766E4,-7.2541914E3,-6.2987637E3,-2.4607336E3,-9.073472E3,-1.5336364E3,-1.302967E4,-7.9851304E3,-8.536254E3,-5.0941577E3,3.6154877E2,-4.9948975E3,-7.0884546E3,-4.1042754E3,-1.5324198E3,-6.2201567E3,1.0722885E4,-1.5934486E3,-1.39438E4,-4.508583E3,-7.689875E3,-1.6693424E4,-2.1069185E3,-1.0450813E4,7.2562705E3,1.0788232E3,5.540949E3,-4.518104E2,1.791643E4,6.0113837E2,-1.0716956E4,-1.4790171E3,1.1388332E4,1.6999066E3,-1.067319E4,1.5577377E4,-7.999261E3,7.186239E2,3.0621256E4,7.2707734E3,5.807353E3,2.6223816E4,1.6172669E4,2.5294006E4,-1.4958776E4,-7.491966E3,-5.9138257E3,-1.0147765E3,-3.8537134E3,4.6715815E3,-7.002559E2,5.6185625E3,2.0954006E4,3.0894177E3,7.312551E2,-1.4553901E3,-4.517514E3,1.0971378E3,8.532702E3,2.387498E3,4.5242944E3,1.3803557E4,-5.4996063E2,3.8992747E3,5.7629717E3,1.7296639E4,1.12182295E4,3.693959E4,6.3615483E3,9.578707E3,8.856452E3,1.952756E4,4.992652E3,2.0936025E3,1.2220854E4,2.111756E4,1.644438E4,2.1073639E4],"categories":[],"categories_nodes":[],"categories_segments":[],"categories_sizes":[],"default_left":[0,0,0,0,0,0,0,0,0,0,0,0,0,0,0,0,0,0,0,0,0,0,0,0,0,0,0,0,0,0,0,0,0,0,0,0,0,0,0,0,0,0,0,0,0,0,0,0,0,0,0,0,0,0,0,0,0,0,0,0,0,0,0,0,0,0,0,0,0,0,0,0,0,0,0,0,0,0,0,0,0,0,0,0,0,0,0,0,0,0,0,0,0,0,0,0,0,0,0,0,0,0,0,0,0,0,0,0,0,0,0,0,0,0,0,0,0,0,0,0,0,0,0,0,0,0,0,0,0,0,0,0,0,0,0,0,0,0,0,0,0,0,0,0,0,0,0,0,0,0,0,0,0,0,0,0,0,0,0,0,0,0,0,0,0,0,0,0,0,0,0,0,0,0,0,0,0,0,0,0,0,0,0,0,0,0,0,0,0,0,0,0,0,0,0,0,0],"id":6,"left_children":[1,3,5,7,9,11,13,15,17,19,21,23,25,27,29,31,33,35,37,39,41,43,45,47,49,51,53,55,57,59,61,63,65,67,69,71,73,75,77,79,81,83,85,87,89,91,93,95,97,99,101,103,105,107,109,-1,111,113,115,-1,-1,117,-1,-1,-1,119,-1,-1,-1,121,-1,123,125,127,129,131,133,135,-1,137,139,141,143,145,147,-1,-1,149,151,-1,153,155,157,159,161,-1,163,165,167,169,171,-1,173,175,177,-1,-1,179,181,183,185,187,-1,189,191,193,-1,-1,195,-1,-1,-1,-1,-1,-1,-1,-1,-1,-1,-1,-1,-1,-1,-1,-1,-1,-1,-1,-1,-1,-1,-1,-1,-1,-1,-1,-1,-1,-1,-1,-1,-1,-1,-1,-1,-1,-1,-1,-1,-1,-1,-1,-1,-1,-1,-1,-1,-1,-1,-1,-1,-1,-1,-1,-1,-1,-1,-1,-1,-1,-1,-1,-1,-1,-1,-1,-1,-1,-1,-1,-1,-1,-1,-1,-1,-1,-1],"loss_changes":[7.4665574E12,3.3597466E12,1.8363937E12,5.4364943E11,1.0473046E12,4.3737802E11,5.2014508E11,8.163898E10,3.13406E11,3.059437E11,5.5884474E11,2.0253245E11,1.781355E11,3.203604E11,2.1749354E11,2.6211779E10,1.0656907E10,1.2317701E11,1.527553E11,2.20067E11,1.1021502E11,3.8021287E11,2.6072016E11,5.4112895E10,4.4202E10,1.018908E11,6.0538094E10,1.2380078E11,2.2565211E11,3.1911463E10,1.785523E11,5.166596E9,1.2901286E10,4.6590525E9,6.599246E9,5.268203E10,8.246565E10,6.992124E10,1.2758898E11,8.671986E10,9.1975385E10,3.7049713E10,1.0237944E10,5.276677E10,1.35458E11,1.9698391E11,1.5222807E11,1.27986475E11,3.6034195E10,7.4483425E10,3.2431603E9,1.2233997E11,1.31547595E11,4.145935E10,1.8887868E10,0E0,8.972363E10,2.661761E10,6.7772744E10,0E0,0E0,1.01032395E11,0E0,0E0,0E0,8.749449E9,0E0,0E0,0E0,4.0714527E9,0E0,4.9277338E10,7.012549E10,8.494829E10,3.976405E10,1.7326834E10,3.8420718E10,7.031418E10,0E0,8.221083E10,2.7568243E10,3.275892E10,8.49084E9,3.414111E10,4.039153E10,0E0,0E0,2.6393962E10,4.010946E10,0E0,7.949298E10,2.5280852E10,1.088587E11,1.901918E11,4.4666847E10,0E0,1.3427081E10,5.0324365E10,3.0052168E10,2.5958842E10,3.9854096E10,0E0,1.0219422E9,3.3739463E10,9.66538E10,0E0,0E0,1.6432062E10,8.2687145E9,4.4862226E10,8.7738155E10,5.0000822E10,0E0,2.9089038E10,6.8752794E8,8.7024075E10,0E0,0E0,2.2257336E10,0E0,0E0,0E0,0E0,0E0,0E0,0E0,0E0,0E0,0E0,0E0,0E0,0E0,0E0,0E0,0E0,0E0,0E0,0E0,0E0,0E0,0E0,0E0,0E0,0E0,0E0,0E0,0E0,0E0,0E0,0E0,0E0,0E0,0E0,0E0,0E0,0E0,0E0,0E0,0E0,0E0,0E0,0E0,0E0,0E0,0E0,0E0,0E0,0E0,0E0,0E0,0E0,0E0,0E0,0E0,0E0,0E0,0E0,0E0,0E0,0E0,0E0,0E0,0E0,0E0,0E0,0E0,0E0,0E0,0E0,0E0,0E0,0E0,0E0,0E0,0E0,0E0,0E0],"parents":[2147483647,0,0,1,1,2,2,3,3,4,4,5,5,6,6,7,7,8,8,9,9,10,10,11,11,12,12,13,13,14,14,15,15,16,16,17,17,18,18,19,19,20,20,21,21,22,22,23,23,24,24,25,25,26,26,27,27,28,28,29,29,30,30,31,31,32,32,33,33,34,34,35,35,36,36,37,37,38,38,39,39,40,40,41,41,42,42,43,43,44,44,45,45,46,46,47,47,48,48,49,49,50,50,51,51,52,52,53,53,54,54,56,56,57,57,58,58,61,61,65,65,69,69,71,71,72,72,73,73,74,74,75,75,76,76,77,77,79,79,80,80,81,81,82,82,83,83,84,84,87,87,88,88,90,90,91,91,92,92,93,93,94,94,96,96,97,97,98,98,99,99,100,100,102,102,103,103,104,104,107,107,108,108,109,109,110,110,111,111,113,113,114,114,115,115,118,118],"right_children":[2,4,6,8,10,12,14,16,18,20,22,24,26,28,30,32,34,36,38,40,42,44,46,48,50,52,54,56,58,60,62,64,66,68,70,72,74,76,78,80,82,84,86,88,90,92,94,96,98,100,102,104,106,108,110,-1,112,114,116,-1,-1,118,-1,-1,-1,120,-1,-1,-1,122,-1,124,126,128,130,132,134,136,-1,138,140,142,144,146,148,-1,-1,150,152,-1,154,156,158,160,162,-1,164,166,168,170,172,-1,174,176,178,-1,-1,180,182,184,186,188,-1,190,192,194,-1,-1,196,-1,-1,-1,-1,-1,-1,-1,-1,-1,-1,-1,-1,-1,-1,-1,-1,-1,-1,-1,-1,-1,-1,-1,-1,-1,-1,-1,-1,-1,-1,-1,-1,-1,-1,-1,-1,-1,-1,-1,-1,-1,-1,-1,-1,-1,-1,-1,-1,-1,-1,-1,-1,-1,-1,-1,-1,-1,-1,-1,-1,-1,-1,-1,-1,-1,-1,-1,-1,-1,-1,-1,-1,-1,-1,-1,-1,-1,-1],"split_conditions":[3.6155495E-1,1.6385481E-1,-4.482409E-2,-1.2514442E0,1E0,-5.804433E-2,1.129309E0,1E0,-3.1258678E-1,-6.591744E-1,-5.4815114E-1,1.7319419E0,1.1096267E0,1.0686778E0,9.022825E-1,-1.8908806E0,-2.0321892E-1,-9.8765045E-1,5.1317867E-2,9.022825E-1,3.5077457E0,2.2594435E0,9.069426E-1,-1.3597525E0,1E0,1.8719295E0,-8.204559E-1,-2.7224664E-2,2.0282497E-1,1.0109515E0,2.647888E0,-5.804433E-2,-4.4709668E-1,-1.2974436E0,1.1105654E-1,-8.0711466E-1,1.8466048E-2,9.069426E-1,1E0,-5.804433E-2,2.0348027E0,6.355541E-2,2.0348027E0,-1.2514442E0,2.5171494E0,9.022825E-1,8.238333E-1,7.8435135E-1,-3.4401432E-1,-2.3087516E-1,9.022825E-1,9.362499E-1,9.022825E-1,-1.0052499E0,1E0,2.6740834E4,3.8019035E0,6.0772464E-2,1.8719295E0,-1.3449222E4,5.6427E3,4.245793E-1,3.0268672E4,-1.7021457E4,-1.1170076E4,9.022825E-1,-1.0718264E4,-1.0134386E4,-3.7478E3,-7.4994534E-2,-8.897981E3,-1.1133606E0,-5.804433E-2,1E0,-8.921107E-1,-6.521219E-1,-9.0576276E-2,5.6219574E-2,1.8270533E4,-1.3199208E0,-1.3199208E0,1.4687265E0,-7.8691775E-1,-1.3453896E-1,3.1973544E-1,6.1227285E3,1.5143612E4,-2.2739592E0,-7.909525E-1,3.683154E4,-2.302376E-1,1.8466048E-2,2.1791019E-1,1E0,3.1673226E0,1.2723258E4,9.5343584E-1,7.8435135E-1,1E0,-1.4804344E0,-1.3156411E-1,-3.7841458E3,-1.906479E-1,-9.398806E-1,1.0109515E0,4.432001E3,2.6165611E4,1E0,1E0,1.9955866E0,1E0,5.007581E-1,-6.663747E3,5.825826E-2,9.022825E-1,1.9258057E0,2.6177498E4,-6.3239374E2,1.8719295E0,-1.3718766E4,-7.2541914E3,-6.2987637E3,-2.4607336E3,-9.073472E3,-1.5336364E3,-1.302967E4,-7.9851304E3,-8.536254E3,-5.0941577E3,3.6154877E2,-4.9948975E3,-7.0884546E3,-4.1042754E3,-1.5324198E3,-6.2201567E3,1.0722885E4,-1.5934486E3,-1.39438E4,-4.508583E3,-7.689875E3,-1.6693424E4,-2.1069185E3,-1.0450813E4,7.2562705E3,1.0788232E3,5.540949E3,-4.518104E2,1.791643E4,6.0113837E2,-1.0716956E4,-1.4790171E3,1.1388332E4,1.6999066E3,-1.067319E4,1.5577377E4,-7.999261E3,7.186239E2,3.0621256E4,7.2707734E3,5.807353E3,2.6223816E4,1.6172669E4,2.5294006E4,-1.4958776E4,-7.491966E3,-5.9138257E3,-1.0147765E3,-3.8537134E3,4.6715815E3,-7.002559E2,5.6185625E3,2.0954006E4,3.0894177E3,7.312551E2,-1.4553901E3,-4.517514E3,1.0971378E3,8.532702E3,2.387498E3,4.5242944E3,1.3803557E4,-5.4996063E2,3.8992747E3,5.7629717E3,1.7296639E4,1.12182295E4,3.693959E4,6.3615483E3,9.578707E3,8.856452E3,1.952756E4,4.992652E3,2.0936025E3,1.2220854E4,2.111756E4,1.644438E4,2.1073639E4],"split_indices":[0,3,3,0,2,9,3,2,3,0,0,0,0,0,1,0,3,3,0,1,3,3,9,3,5,9,3,3,3,0,3,9,3,0,3,0,0,9,4,9,1,0,1,0,3,1,3,0,3,3,1,0,1,3,2,0,9,3,9,0,0,0,0,0,0,1,0,0,0,3,0,3,9,2,3,0,0,0,0,0,0,3,0,0,3,0,0,0,0,0,1,0,3,4,1,0,0,0,2,3,3,0,3,3,0,0,0,2,2,0,5,3,0,3,1,0,0,0,9,0,0,0,0,0,0,0,0,0,0,0,0,0,0,0,0,0,0,0,0,0,0,0,0,0,0,0,0,0,0,0,0,0,0,0,0,0,0,0,0,0,0,0,0,0,0,0,0,0,0,0,0,0,0,0,0,0,0,0,0,0,0,0,0,0,0,0,0,0,0,0,0,0,0,0,0,0,0],"split_type":[0,0,0,0,0,0,0,0,0,0,0,0,0,0,0,0,0,0,0,0,0,0,0,0,0,0,0,0,0,0,0,0,0,0,0,0,0,0,0,0,0,0,0,0,0,0,0,0,0,0,0,0,0,0,0,0,0,0,0,0,0,0,0,0,0,0,0,0,0,0,0,0,0,0,0,0,0,0,0,0,0,0,0,0,0,0,0,0,0,0,0,0,0,0,0,0,0,0,0,0,0,0,0,0,0,0,0,0,0,0,0,0,0,0,0,0,0,0,0,0,0,0,0,0,0,0,0,0,0,0,0,0,0,0,0,0,0,0,0,0,0,0,0,0,0,0,0,0,0,0,0,0,0,0,0,0,0,0,0,0,0,0,0,0,0,0,0,0,0,0,0,0,0,0,0,0,0,0,0,0,0,0,0,0,0,0,0,0,0,0,0,0,0,0,0,0,0],"sum_hessian":[2.415E3,1.55E3,8.65E2,1.037E3,5.13E2,4.5E2,4.15E2,2.02E2,8.35E2,2.51E2,2.62E2,1.65E2,2.85E2,3.12E2,1.03E2,1.53E2,4.9E1,5.9E2,2.45E2,1.28E2,1.23E2,1.42E2,1.2E2,1.17E2,4.8E1,2.01E2,8.4E1,2.13E2,9.9E1,3E0,1E2,3.3E1,1.2E2,2.9E1,2E1,1.63E2,4.27E2,2.07E2,3.8E1,7.3E1,5.5E1,1.15E2,8E0,1.31E2,1.1E1,2.9E1,9.1E1,1.6E1,1.01E2,3.7E1,1.1E1,1.89E2,1.2E1,2.5E1,5.9E1,3E0,2.1E2,3.8E1,6.1E1,2E0,1E0,8.7E1,1.3E1,2.7E1,6E0,7.6E1,4.4E1,2.7E1,2E0,1.3E1,7E0,4E1,1.23E2,3.37E2,9E1,1.04E2,1.03E2,3.4E1,4E0,5.1E1,2.2E1,4.1E1,1.4E1,1.1E2,5E0,3E0,5E0,3.2E1,9.9E1,3E0,8E0,1.4E1,1.5E1,3.5E1,5.6E1,2E0,1.4E1,8.4E1,1.7E1,3.1E1,6E0,3E0,8E0,8.6E1,1.03E2,8E0,4E0,9E0,1.6E1,2.2E1,3.7E1,2.06E2,4E0,2.5E1,1.3E1,5E1,1.1E1,3E0,8.4E1,7.2E1,4E0,7E0,6E0,2.7E1,1.3E1,7.3E1,5E1,2.28E2,1.09E2,1.7E1,7.3E1,7.4E1,3E1,8.1E1,2.2E1,5E0,2.9E1,1.2E1,3.9E1,6E0,1.6E1,3.6E1,5E0,1.1E1,3E0,1E1,1E2,2E0,3E0,3E0,2.9E1,4E0,9.5E1,1E0,7E0,9E0,5E0,2E0,1.3E1,3E1,5E0,4.8E1,8E0,8E0,6E0,4E1,4.4E1,6E0,1.1E1,9E0,2.2E1,4E0,2E0,5E0,3E0,1.2E1,7.4E1,5E1,5.3E1,4E0,5E0,8E0,8E0,1.8E1,4E0,3.6E1,1E0,1.13E2,9.3E1,2.2E1,3E0,1.1E1,2E0,2.6E1,2.4E1,5.9E1,2.5E1],"tree_param":{"num_deleted":"0","num_feature":"10","num_nodes":"197","size_leaf_vector":"1"}},{"base_weights":[3.327135E3,-3.8363363E4,6.4407855E4,-6.5520273E4,2.8417623E4,1.5600356E4,1.0736221E5,-1.0564379E5,-5.6369688E4,-2.0119498E4,6.997302E4,-2.6764707E3,6.0854227E4,8.1770375E4,1.6135753E5,-1.167783E5,-7.0146516E4,-6.8693875E4,-3.2423635E4,-2.7542639E4,9.791172E4,3.448385E4,1.17730734E5,-5.301845E4,5.2024604E3,2.8181393E4,9.21082E4,6.4727277E4,1.360463E5,1.461674E5,2.4307964E5,-1.4858729E4,-1.06982945E5,-8.561846E4,-3.9421168E4,-9.843952E4,-6.1819234E4,-4.821511E4,-9.774409E3,-5.9607742E4,-9.823736E3,6.7123643E3,1.2539647E4,2.5984578E4,3.3674547E4,4.631135E4,1.3755155E5,1.6900621E4,-6.006508E4,-2.0801244E4,2.0702705E4,4.1559316E3,7.103207E4,8.1255984E4,1.6265552E5,5.1088246E4,1.161759E5,1.25727086E5,1.960844E5,1.11885734E5,1.6903595E5,3.269801E4,2.1464098E4,-1.1366853E4,-9.041412E3,-4.300988E3,-8.948466E3,1.4296571E3,-5.188798E4,-1.0855089E5,-5.261804E4,-8.494925E4,-5.4713293E4,-4.487183E4,-1.27573805E5,2.36215E4,-3.3835883E4,-1.0062254E5,-4.503973E4,-2.3787422E4,3.0845498E3,1.5193688E4,1.1574555E5,1.3257612E5,-9.718708E3,1.12041766E5,1.8437345E5,-4.316158E4,-1.2712874E5,-9.968886E3,-6.6001143E3,5.9054023E3,3.3245977E4,-3.1188727E4,1.8573334E4,-1.725874E3,1.0179634E5,1.0253776E5,6.5424098E4,1.0615044E4,1.8382635E4,5.6692168E4,1.7591875E3,1.8637058E5,7.812563E4,8.857838E4,1.4894108E5,1.3071084E4,2.3631701E4,1.9636803E4,9.849621E4,1.236659E5,1.983577E5,-2.172653E3,-7.4568643E3,-8.248633E3,-1.1961933E4,-8.701325E3,-4.3727573E3,-1.2752996E4,-7.215021E3,-6.1796387E3,-3.7209075E3,-4.817748E3,2.6215945E3,-2.9674062E3,-2.0724857E4,4.229824E3,-2.7749714E3,2.168866E3,-4.3512637E3,-1.0785485E4,-5.835168E3,-2.656911E3,-7.6999976E3,-1.3955258E3,-5.458779E3,8.1817495E3,-7.7785486E2,-6.070266E3,1.8970957E3,-3.7060903E3,1.6116939E4,7.6348022E3,2.01995E4,-2.1981824E3,1.7249834E3,-6.9345986E3,1.2448987E4,2.0426887E4,9.345655E3,-2.1121772E3,-7.8295977E3,-1.4728041E4,-4.9308477E3,2.5710645E3,-2.2337964E3,9.3331366E2,-5.454557E3,4.8807193E2,4.2602188E3,-4.617319E3,5.8055553E1,5.53512E2,3.987403E3,1.5771667E4,6.5763228E3,8.489448E3,3.4476953E4,-2.6005823E2,8.857591E3,1.7395139E3,6.623937E3,5.5102056E3,-1.1263623E3,1.1600737E4,2.0078662E4,9.124068E3,-1.2373285E4,6.155689E3,1.6373758E4,1.5272189E4,-1.034923E3,7.3873813E3,1.5877836E4,8.480043E3,1.5899804E4,4.7590225E3,2.073789E4],"categories":[],"categories_nodes":[],"categories_segments":[],"categories_sizes":[],"default_left":[0,0,0,0,0,0,0,0,0,0,0,0,0,0,0,0,0,0,0,0,0,0,0,0,0,0,0,0,0,0,0,0,0,0,0,0,0,0,0,0,0,0,0,0,0,0,0,0,0,0,0,0,0,0,0,0,0,0,0,0,0,0,0,0,0,0,0,0,0,0,0,0,0,0,0,0,0,0,0,0,0,0,0,0,0,0,0,0,0,0,0,0,0,0,0,0,0,0,0,0,0,0,0,0,0,0,0,0,0,0,0,0,0,0,0,0,0,0,0,0,0,0,0,0,0,0,0,0,0,0,0,0,0,0,0,0,0,0,0,0,0,0,0,0,0,0,0,0,0,0,0,0,0,0,0,0,0,0,0,0,0,0,0,0,0,0,0,0,0,0,0,0,0,0,0,0,0,0,0,0,0,0,0,0,0,0,0,0,0],"id":7,"left_children":[1,3,5,7,9,11,13,15,17,19,21,23,25,27,29,31,33,35,37,39,41,43,45,47,49,51,53,55,57,59,61,-1,63,65,67,69,71,73,75,77,79,-1,-1,81,-1,83,85,-1,87,89,91,93,95,97,99,101,103,105,107,109,111,-1,-1,-1,-1,-1,-1,-1,113,115,117,119,121,123,125,127,129,131,133,135,137,139,141,143,145,147,149,151,153,155,-1,157,159,161,163,-1,165,167,169,-1,-1,171,173,175,177,179,181,-1,-1,-1,183,185,187,-1,-1,-1,-1,-1,-1,-1,-1,-1,-1,-1,-1,-1,-1,-1,-1,-1,-1,-1,-1,-1,-1,-1,-1,-1,-1,-1,-1,-1,-1,-1,-1,-1,-1,-1,-1,-1,-1,-1,-1,-1,-1,-1,-1,-1,-1,-1,-1,-1,-1,-1,-1,-1,-1,-1,-1,-1,-1,-1,-1,-1,-1,-1,-1,-1,-1,-1,-1,-1,-1,-1,-1,-1,-1,-1,-1],"loss_changes":[6.16755E12,2.6115582E12,2.0589684E12,3.7280442E11,8.4077596E11,3.8095972E11,7.1541404E11,7.0803E10,2.4516021E11,1.7000954E11,3.78471E11,1.3043449E11,1.34005195E11,3.2444488E11,1.9016398E11,3.6763337E10,2.0417577E10,1.0952953E11,1.0151995E11,1.0282793E11,5.5227023E9,3.2831072E11,1.3200366E11,7.469701E10,1.14886975E11,6.7285086E10,4.5069173E10,1.8754647E11,4.0024932E10,1.0225975E11,2.5751585E10,0E0,7.212499E9,3.0999347E9,1.1420795E10,4.463408E10,7.139177E10,4.1578463E10,9.481732E10,3.627293E10,2.1215746E10,0E0,0E0,1.216486E11,0E0,1.0456285E11,7.865513E10,0E0,4.6568423E10,5.181567E10,3.3032585E10,2.1946706E10,6.470924E10,1.6693101E10,4.1141862E8,5.952209E10,1.43627E11,5.678747E10,1.4801928E10,5.6502977E10,1.001474E11,0E0,0E0,0E0,0E0,0E0,0E0,0E0,8.425001E9,1.9155649E10,4.0603894E9,5.2350943E10,4.156267E10,3.8582616E10,4.762584E10,4.8079507E10,3.7276746E10,1.8974802E9,2.7607826E10,1.6729207E10,5.2918194E10,3.3114046E10,9.669083E10,2.5466864E10,4.654291E9,1.1608418E11,3.65799E10,2.6662695E10,9.698583E9,3.8461587E10,0E0,1.7349333E10,2.5506275E10,5.963996E9,8.3601756E9,0E0,3.0076125E10,9.007245E10,5.6023958E10,0E0,0E0,7.202046E10,1.5940513E10,8.1334764E9,1.0492153E11,5.4872277E10,2.7590328E10,0E0,0E0,0E0,7.057611E10,4.0633696E10,6.3750537E10,0E0,0E0,0E0,0E0,0E0,0E0,0E0,0E0,0E0,0E0,0E0,0E0,0E0,0E0,0E0,0E0,0E0,0E0,0E0,0E0,0E0,0E0,0E0,0E0,0E0,0E0,0E0,0E0,0E0,0E0,0E0,0E0,0E0,0E0,0E0,0E0,0E0,0E0,0E0,0E0,0E0,0E0,0E0,0E0,0E0,0E0,0E0,0E0,0E0,0E0,0E0,0E0,0E0,0E0,0E0,0E0,0E0,0E0,0E0,0E0,0E0,0E0,0E0,0E0,0E0,0E0,0E0,0E0,0E0,0E0,0E0,0E0,0E0,0E0,0E0,0E0],"parents":[2147483647,0,0,1,1,2,2,3,3,4,4,5,5,6,6,7,7,8,8,9,9,10,10,11,11,12,12,13,13,14,14,15,15,16,16,17,17,18,18,19,19,20,20,21,21,22,22,23,23,24,24,25,25,26,26,27,27,28,28,29,29,30,30,32,32,33,33,34,34,35,35,36,36,37,37,38,38,39,39,40,40,43,43,45,45,46,46,48,48,49,49,50,50,51,51,52,52,53,53,54,54,55,55,56,56,57,57,58,58,59,59,60,60,68,68,69,69,70,70,71,71,72,72,73,73,74,74,75,75,76,76,77,77,78,78,79,79,80,80,81,81,82,82,83,83,84,84,85,85,86,86,87,87,88,88,89,89,91,91,92,92,93,93,94,94,96,96,97,97,98,98,101,101,102,102,103,103,104,104,105,105,106,106,110,110,111,111,112,112],"right_children":[2,4,6,8,10,12,14,16,18,20,22,24,26,28,30,32,34,36,38,40,42,44,46,48,50,52,54,56,58,60,62,-1,64,66,68,70,72,74,76,78,80,-1,-1,82,-1,84,86,-1,88,90,92,94,96,98,100,102,104,106,108,110,112,-1,-1,-1,-1,-1,-1,-1,114,116,118,120,122,124,126,128,130,132,134,136,138,140,142,144,146,148,150,152,154,156,-1,158,160,162,164,-1,166,168,170,-1,-1,172,174,176,178,180,182,-1,-1,-1,184,186,188,-1,-1,-1,-1,-1,-1,-1,-1,-1,-1,-1,-1,-1,-1,-1,-1,-1,-1,-1,-1,-1,-1,-1,-1,-1,-1,-1,-1,-1,-1,-1,-1,-1,-1,-1,-1,-1,-1,-1,-1,-1,-1,-1,-1,-1,-1,-1,-1,-1,-1,-1,-1,-1,-1,-1,-1,-1,-1,-1,-1,-1,-1,-1,-1,-1,-1,-1,-1,-1,-1,-1,-1,-1,-1,-1,-1],"split_conditions":[6.355541E-2,3.1973544E-1,-1.906479E-1,-1.2974436E0,1E0,1.1096267E0,1.5553036E0,1E0,-3.1258678E-1,3.5077457E0,-5.4815114E-1,-9.788507E-1,-8.355411E-1,1.1096267E0,1.8596852E0,-2.2739592E0,-7.4994534E-2,-1.0882186E0,-5.4815114E-1,-7.850421E-1,4.1660995E0,2.8607016E0,1E0,-1.0554924E0,7.8435135E-1,1.9955866E0,1.9955866E0,8.024625E-1,1.9955866E0,9.362499E-1,1E0,-1.4858729E4,-4.1441202E-1,-1.0354203E0,2.4990557E-1,1.8466048E-2,1E0,3.0716443E-1,-9.0576276E-2,-1.3199208E0,7.144654E-1,6.7123643E3,1.2539647E4,2.2594435E0,3.3674547E4,2.4990557E-1,1.8466048E-2,1.6900621E4,1E0,1E0,-6.3189065E-1,1E0,-1.5344898E0,-5.514361E-1,1E0,7.521785E-1,9.4702923E-1,1E0,2.4990557E-1,-1.20250195E-1,1E0,3.269801E4,2.1464098E4,-1.1366853E4,-9.041412E3,-4.300988E3,-8.948466E3,1.4296571E3,1.1105654E-1,-7.909525E-1,-1.5344898E0,-7.940568E-1,1E0,2.7196556E-1,-7.8691775E-1,1E0,-2.3087516E-1,1.5553036E0,9.4702923E-1,6.340109E-1,9.6965706E-1,2.4990557E-1,2.4990557E-1,9.218872E-1,2.5171494E0,2.4990557E-1,5.1317867E-2,8.148605E-1,9.5343584E-1,-7.0605963E-1,-6.6001143E3,1E0,9.362499E-1,1.9258057E0,1E0,-1.725874E3,-1.0052499E0,-5.6023586E-1,-3.6412796E-1,1.0615044E4,1.8382635E4,-4.482409E-2,1E0,8.238333E-1,2.647888E0,2.8705078E-1,1E0,1.3071084E4,2.3631701E4,1.9636803E4,9.9102783E-1,1.0520827E0,-1.6047746E-1,-2.172653E3,-7.4568643E3,-8.248633E3,-1.1961933E4,-8.701325E3,-4.3727573E3,-1.2752996E4,-7.215021E3,-6.1796387E3,-3.7209075E3,-4.817748E3,2.6215945E3,-2.9674062E3,-2.0724857E4,4.229824E3,-2.7749714E3,2.168866E3,-4.3512637E3,-1.0785485E4,-5.835168E3,-2.656911E3,-7.6999976E3,-1.3955258E3,-5.458779E3,8.1817495E3,-7.7785486E2,-6.070266E3,1.8970957E3,-3.7060903E3,1.6116939E4,7.6348022E3,2.01995E4,-2.1981824E3,1.7249834E3,-6.9345986E3,1.2448987E4,2.0426887E4,9.345655E3,-2.1121772E3,-7.8295977E3,-1.4728041E4,-4.9308477E3,2.5710645E3,-2.2337964E3,9.3331366E2,-5.454557E3,4.8807193E2,4.2602188E3,-4.617319E3,5.8055553E1,5.53512E2,3.987403E3,1.5771667E4,6.5763228E3,8.489448E3,3.4476953E4,-2.6005823E2,8.857591E3,1.7395139E3,6.623937E3,5.5102056E3,-1.1263623E3,1.1600737E4,2.0078662E4,9.124068E3,-1.2373285E4,6.155689E3,1.6373758E4,1.5272189E4,-1.034923E3,7.3873813E3,1.5877836E4,8.480043E3,1.5899804E4,4.7590225E3,2.073789E4],"split_indices":[0,3,3,0,2,0,7,2,3,3,0,3,3,0,3,0,3,3,0,0,7,7,8,7,0,0,0,3,0,0,2,0,3,3,7,0,8,3,0,0,3,0,0,3,0,7,0,0,2,5,3,8,3,3,4,3,3,2,7,3,8,0,0,0,0,0,0,0,3,0,3,3,2,3,0,5,3,7,3,3,3,7,7,3,3,7,0,0,0,3,0,5,0,0,2,0,3,3,3,0,0,3,8,3,3,3,5,0,0,0,3,0,3,0,0,0,0,0,0,0,0,0,0,0,0,0,0,0,0,0,0,0,0,0,0,0,0,0,0,0,0,0,0,0,0,0,0,0,0,0,0,0,0,0,0,0,0,0,0,0,0,0,0,0,0,0,0,0,0,0,0,0,0,0,0,0,0,0,0,0,0,0,0,0,0,0,0,0,0],"split_type":[0,0,0,0,0,0,0,0,0,0,0,0,0,0,0,0,0,0,0,0,0,0,0,0,0,0,0,0,0,0,0,0,0,0,0,0,0,0,0,0,0,0,0,0,0,0,0,0,0,0,0,0,0,0,0,0,0,0,0,0,0,0,0,0,0,0,0,0,0,0,0,0,0,0,0,0,0,0,0,0,0,0,0,0,0,0,0,0,0,0,0,0,0,0,0,0,0,0,0,0,0,0,0,0,0,0,0,0,0,0,0,0,0,0,0,0,0,0,0,0,0,0,0,0,0,0,0,0,0,0,0,0,0,0,0,0,0,0,0,0,0,0,0,0,0,0,0,0,0,0,0,0,0,0,0,0,0,0,0,0,0,0,0,0,0,0,0,0,0,0,0,0,0,0,0,0,0,0,0,0,0,0,0,0,0,0,0,0,0],"sum_hessian":[2.421E3,1.439E3,9.82E2,1.023E3,4.16E2,4.6E2,5.22E2,1.89E2,8.34E2,1.92E2,2.24E2,3.28E2,1.32E2,3.55E2,1.67E2,1.43E2,4.6E1,5.5E2,2.84E2,1.81E2,1.1E1,1.29E2,9.5E1,4.4E1,2.84E2,6.5E1,6.7E1,2.71E2,8.4E1,1.42E2,2.5E1,3.2E1,1.11E2,3E1,1.6E1,1.02E2,4.48E2,1.67E2,1.17E2,6.4E1,1.17E2,6E0,5E0,1.26E2,3E0,2.1E1,7.4E1,1E0,4.3E1,1.06E2,1.78E2,4.2E1,2.3E1,5.9E1,8E0,2.15E2,5.6E1,7.3E1,1.1E1,5.8E1,8.4E1,5E0,2E1,7.7E1,3.4E1,3E0,2.7E1,3E0,1.3E1,8.3E1,1.9E1,1.04E2,3.44E2,1.61E2,6E0,4.9E1,6.8E1,1.6E1,4.8E1,5.6E1,6.1E1,1.13E2,1.3E1,8E0,1.3E1,4.9E1,2.5E1,3.5E1,8E0,8.6E1,2E1,8.2E1,9.6E1,1.2E1,3E1,6E0,1.7E1,2.4E1,3.5E1,3E0,5E0,1.93E2,2.2E1,1.9E1,3.7E1,2.9E1,4.4E1,5E0,6E0,7E0,5.1E1,3.4E1,5E1,6E0,7E0,2.6E1,5.7E1,3E0,1.6E1,2.3E1,8.1E1,2.44E2,1E2,1.54E2,7E0,3E0,3E0,3.6E1,1.3E1,1E1,5.8E1,1.3E1,3E0,3.1E1,1.7E1,4.3E1,1.3E1,7E0,5.4E1,5E0,1.08E2,3E0,1E1,5E0,3E0,9E0,4E0,3E0,4.6E1,2E1,5E0,2.2E1,1.3E1,6E0,2E0,2.2E1,6.4E1,7.8E1,4E0,2.4E1,7.2E1,8E0,4E0,1.9E1,1.1E1,6E0,1.1E1,2.3E1,1E0,9E0,2.6E1,3.8E1,1.55E2,4E0,1.8E1,4E0,1.5E1,3.5E1,2E0,2.2E1,7E0,4.3E1,1E0,3.7E1,1.4E1,1.7E1,1.7E1,3E0,4.7E1],"tree_param":{"num_deleted":"0","num_feature":"10","num_nodes":"189","size_leaf_vector":"1"}},{"base_weights":[-1.8850698E3,-4.646651E4,4.1501535E4,-6.689102E4,2.197272E3,1.5591945E4,1.0920121E5,-8.301466E4,-4.4532875E4,-3.5939055E4,3.4751793E4,-1.946086E4,3.9176234E4,5.7009773E4,1.2645275E5,-1.4046208E4,-7.937705E4,-6.1807543E4,-2.9328527E4,-6.556675E4,-9.186262E3,-9.524583E3,4.838456E4,-3.7393426E4,2.372052E4,-2.2645283E3,5.2837445E4,1.5729697E4,1.0488365E5,9.746545E4,1.6720498E5,-9.290364E4,-6.789777E4,-7.15248E4,-3.6170633E4,7.774863E4,-3.364861E4,-1.1035639E5,-2.5383477E4,-3.5144297E4,3.0448215E4,-9.960968E3,-1.9937449E3,3.8624117E4,1.5147145E5,-5.076916E4,-1.60876045E4,-3.4739266E4,5.5550918E4,-3.6464625E4,1.6748762E4,3.668692E4,8.767459E4,-5.359523E3,1.1032624E5,2.2631406E4,8.801381E4,8.106489E4,1.5576495E5,1.4924567E5,2.2669603E5,-1.1229064E5,-8.568544E4,2.0849385E4,-7.010921E4,-8.513168E4,-5.611274E4,-2.7836936E4,-6.341769E4,1.0054528E4,1.2046075E3,-4.0783918E4,-8.894711E1,-7.975475E4,-1.3797539E5,-8.5435875E4,-2.3246301E3,-1.5335841E4,-5.5817234E4,9.477328E3,2.0458465E4,1.4694917E3,-9.714571E3,2.4948713E4,9.138025E4,2.1479416E5,7.649702E4,1.329601E4,-5.338481E4,-2.386428E4,1.4900994E4,-4.4148824E4,-4.6821646E3,2.3880996E4,4.533439E4,-1.1469081E5,-1.1318489E4,4.0378882E3,5.4491855E4,2.1765426E4,4.9274297E4,7.061248E4,1.4781431E5,-1.8104123E4,3.4497844E4,1.3854224E4,5.0225776E3,5.751042E4,1.6846986E5,8.473152E4,-2.1237722E3,1.8546211E5,9.347173E4,1.3750145E5,1.9557542E5,7.37756E4,2.3920545E4,-9.472187E3,-1.2616951E4,-6.5178843E3,-9.788543E3,-3.9250632E3,1.2485974E4,-8.575769E3,-6.0614775E3,-9.296036E3,-6.9148237E3,2.3903232E3,-6.3960967E3,-3.7750466E3,-4.6444186E2,-1.9486223E3,-7.9691133E3,-3.5019067E3,-8.986425E3,-1.0825105E4,1.2745336E3,-1.2505419E4,-4.978569E2,-1.5836084E3,-1.9596879E4,-1.1825682E4,-3.8880508E3,-2.9111191E3,2.4536887E3,-1.7277779E2,-6.9610933E3,-8.924562E3,-4.3243203E3,-3.6842869E3,3.524336E3,-7.487507E2,1.67357E3,1.9424264E3,1.8632873E4,2.7833172E4,7.1259883E3,2.8735607E4,1.5061586E4,1.0658983E4,3.547593E3,-4.6763276E3,1.1874373E4,-4.8701274E3,-8.1668955E3,-4.4126196E3,7.522172E2,-3.935429E3,-8.61409E3,2.17986E3,-1.3197009E3,6.623023E3,-2.149875E2,-7.352815E3,-1.2489356E4,-6.026861E3,3.4792227E2,-6.366284E2,7.2957573E3,-6.3952545E2,8.41062E3,1.6194558E3,8.952267E3,2.824091E3,5.6898394E3,6.3011235E3,1.3204148E4,3.5807645E4,1.1476022E4,-1.0126242E3,-5.199604E3,8.66626E2,7.7542383E3,7.5424897E3,-3.8451892E3,2.0868018E4,1.4144775E3,6.4678555E3,1.09504795E4,1.4295547E4,2.5527742E4,1.4443839E4,6.6987056E3,1.9081588E4,1.1766476E4,2.9498385E4,9.635764E3,2.8922458E3,9.403654E3],"categories":[],"categories_nodes":[],"categories_segments":[],"categories_sizes":[],"default_left":[0,0,0,0,0,0,0,0,0,0,0,0,0,0,0,0,0,0,0,0,0,0,0,0,0,0,0,0,0,0,0,0,0,0,0,0,0,0,0,0,0,0,0,0,0,0,0,0,0,0,0,0,0,0,0,0,0,0,0,0,0,0,0,0,0,0,0,0,0,0,0,0,0,0,0,0,0,0,0,0,0,0,0,0,0,0,0,0,0,0,0,0,0,0,0,0,0,0,0,0,0,0,0,0,0,0,0,0,0,0,0,0,0,0,0,0,0,0,0,0,0,0,0,0,0,0,0,0,0,0,0,0,0,0,0,0,0,0,0,0,0,0,0,0,0,0,0,0,0,0,0,0,0,0,0,0,0,0,0,0,0,0,0,0,0,0,0,0,0,0,0,0,0,0,0,0,0,0,0,0,0,0,0,0,0,0,0,0,0,0,0,0,0,0,0,0,0,0,0,0,0,0,0,0,0,0,0,0,0],"id":8,"left_children":[1,3,5,7,9,11,13,15,17,19,21,23,25,27,29,-1,31,33,35,37,39,41,43,45,47,49,51,53,55,57,59,61,63,65,67,69,71,73,75,77,79,-1,81,83,85,87,89,91,93,95,97,99,101,103,105,-1,107,109,111,113,115,117,119,121,123,125,127,129,131,-1,-1,133,135,137,139,141,143,145,147,-1,149,151,-1,153,155,157,159,161,163,165,-1,167,169,-1,171,173,175,177,179,181,183,185,187,189,191,-1,-1,193,195,197,-1,199,201,203,205,207,-1,-1,-1,-1,-1,-1,-1,-1,-1,-1,-1,-1,-1,-1,-1,-1,-1,-1,-1,-1,-1,-1,-1,-1,-1,-1,-1,-1,-1,-1,-1,-1,-1,-1,-1,-1,-1,-1,-1,-1,-1,-1,-1,-1,-1,-1,-1,-1,-1,-1,-1,-1,-1,-1,-1,-1,-1,-1,-1,-1,-1,-1,-1,-1,-1,-1,-1,-1,-1,-1,-1,-1,-1,-1,-1,-1,-1,-1,-1,-1,-1,-1,-1,-1,-1,-1,-1,-1,-1,-1,-1,-1,-1],"loss_changes":[4.696326E12,1.1903094E12,2.1575327E12,3.0222896E11,4.407397E11,7.365536E11,3.029758E11,9.671672E10,9.220306E10,1.2929273E11,1.15821625E11,2.7804906E11,3.0152465E11,1.6814332E11,2.9367285E11,0E0,6.8505305E10,3.9935803E10,8.8967365E10,1.3808337E11,8.952911E10,3.076859E10,1.4447906E11,7.183424E10,1.9727912E11,8.646436E10,2.2372824E11,9.306168E10,7.095665E10,1.3758602E11,9.580105E10,2.4646386E10,5.0090082E10,2.2671786E10,9.675981E9,1.0627838E10,4.369937E10,2.534713E10,5.736733E10,2.1070655E10,2.1199886E10,0E0,1.407661E10,9.58966E10,5.112909E10,2.6412384E10,1.28243065E11,1.0502521E10,1.2283729E11,9.2787474E10,4.0908386E10,5.102099E10,1.2458407E11,1.9868969E10,1.093496E10,0E0,8.227897E10,4.534993E10,5.1454935E10,3.14426E10,3.613026E10,7.5572183E9,3.5712926E10,4.308211E10,3.3875558E10,4.6064927E9,3.687352E10,8.304382E9,6.7301294E9,0E0,0E0,4.1009005E10,4.5805842E10,6.235403E10,1.2948875E11,1.527287E10,2.2302745E10,2.0250749E10,8.788705E9,0E0,2.6488656E10,5.7373445E9,0E0,9.403033E10,9.3525E10,8.629453E9,6.1331046E9,4.3941704E10,1.781547E10,6.0263227E10,0E0,4.0429036E9,2.28589E9,0E0,6.5061863E10,2.379776E8,2.6543639E10,4.6482137E10,3.90363E10,4.7024587E10,2.3010083E10,4.230008E10,1.7057894E11,7.7130854E9,1.0227086E10,0E0,0E0,4.700667E10,5.7475875E10,5.333962E10,0E0,4.555689E10,1.0685252E10,6.0160606E10,1.3866559E11,9.119703E8,0E0,0E0,0E0,0E0,0E0,0E0,0E0,0E0,0E0,0E0,0E0,0E0,0E0,0E0,0E0,0E0,0E0,0E0,0E0,0E0,0E0,0E0,0E0,0E0,0E0,0E0,0E0,0E0,0E0,0E0,0E0,0E0,0E0,0E0,0E0,0E0,0E0,0E0,0E0,0E0,0E0,0E0,0E0,0E0,0E0,0E0,0E0,0E0,0E0,0E0,0E0,0E0,0E0,0E0,0E0,0E0,0E0,0E0,0E0,0E0,0E0,0E0,0E0,0E0,0E0,0E0,0E0,0E0,0E0,0E0,0E0,0E0,0E0,0E0,0E0,0E0,0E0,0E0,0E0,0E0,0E0,0E0,0E0,0E0,0E0,0E0,0E0,0E0,0E0,0E0,0E0,0E0,0E0],"parents":[2147483647,0,0,1,1,2,2,3,3,4,4,5,5,6,6,7,7,8,8,9,9,10,10,11,11,12,12,13,13,14,14,16,16,17,17,18,18,19,19,20,20,21,21,22,22,23,23,24,24,25,25,26,26,27,27,28,28,29,29,30,30,31,31,32,32,33,33,34,34,35,35,36,36,37,37,38,38,39,39,40,40,42,42,43,43,44,44,45,45,46,46,47,47,48,48,49,49,50,50,51,51,52,52,53,53,54,54,56,56,57,57,58,58,59,59,60,60,61,61,62,62,63,63,64,64,65,65,66,66,67,67,68,68,71,71,72,72,73,73,74,74,75,75,76,76,77,77,78,78,80,80,81,81,83,83,84,84,85,85,86,86,87,87,88,88,89,89,91,91,92,92,94,94,95,95,96,96,97,97,98,98,99,99,100,100,101,101,102,102,103,103,104,104,107,107,108,108,109,109,111,111,112,112,113,113,114,114,115,115],"right_children":[2,4,6,8,10,12,14,16,18,20,22,24,26,28,30,-1,32,34,36,38,40,42,44,46,48,50,52,54,56,58,60,62,64,66,68,70,72,74,76,78,80,-1,82,84,86,88,90,92,94,96,98,100,102,104,106,-1,108,110,112,114,116,118,120,122,124,126,128,130,132,-1,-1,134,136,138,140,142,144,146,148,-1,150,152,-1,154,156,158,160,162,164,166,-1,168,170,-1,172,174,176,178,180,182,184,186,188,190,192,-1,-1,194,196,198,-1,200,202,204,206,208,-1,-1,-1,-1,-1,-1,-1,-1,-1,-1,-1,-1,-1,-1,-1,-1,-1,-1,-1,-1,-1,-1,-1,-1,-1,-1,-1,-1,-1,-1,-1,-1,-1,-1,-1,-1,-1,-1,-1,-1,-1,-1,-1,-1,-1,-1,-1,-1,-1,-1,-1,-1,-1,-1,-1,-1,-1,-1,-1,-1,-1,-1,-1,-1,-1,-1,-1,-1,-1,-1,-1,-1,-1,-1,-1,-1,-1,-1,-1,-1,-1,-1,-1,-1,-1,-1,-1,-1,-1,-1,-1,-1,-1],"split_conditions":[7.480358E-3,1.6385481E-1,4.4544563E-1,-5.804433E-2,1E0,8.242865E-1,1.3283105E-1,-1.4103789E0,-5.0240916E-1,-8.269836E-1,-8.354753E-1,-5.23667E-2,-7.940568E-1,1E0,1.129309E0,-1.4046208E4,-6.658324E-1,1E0,-4.747529E-1,7.144654E-1,-5.804433E-2,-1.4103789E0,2.2594435E0,-5.438935E-1,1.3283105E-1,1.1230894E0,1.365288E0,3.5077457E0,5.4224247E-1,1.1230894E0,1.8719295E0,-1.1535879E0,-6.3189065E-1,-8.269836E-1,-5.5646455E-1,-8.4599257E-1,-1.9471876E-1,-5.804433E-2,-1.3871244E0,5.510422E-1,1.8522555E-1,-9.960968E3,3.5077457E0,-1.9471876E-1,-8.269836E-1,-1.3848946E0,1E0,6.281327E-2,-2.7224664E-2,-1.3848946E0,2.0971918E0,1E0,5.825826E-2,1.8719295E0,-5.804433E-2,2.2631406E4,2.5171494E0,1.0953673E0,9.6965706E-1,2.647888E0,8.242865E-1,-1.2440993E0,-9.5496583E-1,-7.290419E-1,-8.354753E-1,9.069426E-1,-7.290419E-1,-6.909744E-1,9.069426E-1,1.0054528E4,1.2046075E3,-4.5592588E-1,-3.5784245E-1,-1.3871244E0,-8.354753E-1,1.1971925E0,1E0,1E0,-7.9109347E-1,9.477328E3,3.649911E-1,-9.308005E-1,-9.714571E3,1E0,2.1791019E-1,2.5171494E0,2.9495924E0,-1.4804344E0,-5.7783526E-1,3.932918E-1,1.4900994E4,1E0,1E0,2.3880996E4,4.4619673E-1,9.843705E-1,1E0,-8.355411E-1,-1.5344898E0,1.8719295E0,8.4724474E-1,2.0971918E0,6.0772464E-2,2.647888E0,1.5265532E0,1.3854224E4,5.0225776E3,6.281327E-2,3.3707216E0,8.024625E-1,-2.1237722E3,7.3583615E-1,1E0,3.932918E-1,1E0,1.3606157E0,2.3920545E4,-9.472187E3,-1.2616951E4,-6.5178843E3,-9.788543E3,-3.9250632E3,1.2485974E4,-8.575769E3,-6.0614775E3,-9.296036E3,-6.9148237E3,2.3903232E3,-6.3960967E3,-3.7750466E3,-4.6444186E2,-1.9486223E3,-7.9691133E3,-3.5019067E3,-8.986425E3,-1.0825105E4,1.2745336E3,-1.2505419E4,-4.978569E2,-1.5836084E3,-1.9596879E4,-1.1825682E4,-3.8880508E3,-2.9111191E3,2.4536887E3,-1.7277779E2,-6.9610933E3,-8.924562E3,-4.3243203E3,-3.6842869E3,3.524336E3,-7.487507E2,1.67357E3,1.9424264E3,1.8632873E4,2.7833172E4,7.1259883E3,2.8735607E4,1.5061586E4,1.0658983E4,3.547593E3,-4.6763276E3,1.1874373E4,-4.8701274E3,-8.1668955E3,-4.4126196E3,7.522172E2,-3.935429E3,-8.61409E3,2.17986E3,-1.3197009E3,6.623023E3,-2.149875E2,-7.352815E3,-1.2489356E4,-6.026861E3,3.4792227E2,-6.366284E2,7.2957573E3,-6.3952545E2,8.41062E3,1.6194558E3,8.952267E3,2.824091E3,5.6898394E3,6.3011235E3,1.3204148E4,3.5807645E4,1.1476022E4,-1.0126242E3,-5.199604E3,8.66626E2,7.7542383E3,7.5424897E3,-3.8451892E3,2.0868018E4,1.4144775E3,6.4678555E3,1.09504795E4,1.4295547E4,2.5527742E4,1.4443839E4,6.6987056E3,1.9081588E4,1.1766476E4,2.9498385E4,9.635764E3,2.8922458E3,9.403654E3],"split_indices":[6,3,3,9,2,6,6,6,3,6,6,3,3,2,3,0,3,2,3,3,9,6,3,3,6,6,6,3,3,6,9,3,3,6,3,6,6,9,6,3,3,0,3,6,6,3,4,6,3,3,6,2,3,9,9,0,3,3,3,3,6,3,3,6,6,9,6,3,9,0,0,6,3,6,6,3,8,5,6,0,3,6,0,5,3,3,3,3,3,6,0,5,2,0,6,6,8,3,3,9,6,6,3,3,3,0,0,6,3,3,0,3,2,6,2,3,0,0,0,0,0,0,0,0,0,0,0,0,0,0,0,0,0,0,0,0,0,0,0,0,0,0,0,0,0,0,0,0,0,0,0,0,0,0,0,0,0,0,0,0,0,0,0,0,0,0,0,0,0,0,0,0,0,0,0,0,0,0,0,0,0,0,0,0,0,0,0,0,0,0,0,0,0,0,0,0,0,0,0,0,0,0,0,0,0,0,0,0,0],"split_type":[0,0,0,0,0,0,0,0,0,0,0,0,0,0,0,0,0,0,0,0,0,0,0,0,0,0,0,0,0,0,0,0,0,0,0,0,0,0,0,0,0,0,0,0,0,0,0,0,0,0,0,0,0,0,0,0,0,0,0,0,0,0,0,0,0,0,0,0,0,0,0,0,0,0,0,0,0,0,0,0,0,0,0,0,0,0,0,0,0,0,0,0,0,0,0,0,0,0,0,0,0,0,0,0,0,0,0,0,0,0,0,0,0,0,0,0,0,0,0,0,0,0,0,0,0,0,0,0,0,0,0,0,0,0,0,0,0,0,0,0,0,0,0,0,0,0,0,0,0,0,0,0,0,0,0,0,0,0,0,0,0,0,0,0,0,0,0,0,0,0,0,0,0,0,0,0,0,0,0,0,0,0,0,0,0,0,0,0,0,0,0,0,0,0,0,0,0,0,0,0,0,0,0,0,0,0,0,0,0],"sum_hessian":[2.427E3,1.197E3,1.23E3,8.43E2,3.54E2,8.9E2,3.4E2,4.89E2,3.54E2,1.63E2,1.91E2,3.58E2,5.32E2,8.5E1,2.55E2,2.8E1,4.61E2,1.65E2,1.89E2,7.7E1,8.6E1,4.5E1,1.46E2,2.53E2,1.05E2,1.32E2,4E2,4.6E1,3.9E1,1.5E2,1.05E2,2.1E2,2.51E2,1.19E2,4.6E1,7E0,1.82E2,3.6E1,4.1E1,5.2E1,3.4E1,3E0,4.2E1,1.34E2,1.2E1,1.55E2,9.8E1,3.7E1,6.8E1,4.7E1,8.5E1,2.74E2,1.26E2,3.8E1,8E0,4E0,3.5E1,1.18E2,3.2E1,8.2E1,2.3E1,5.5E1,1.55E2,6E0,2.45E2,6.2E1,5.7E1,3.6E1,1E1,5E0,2E0,1.5E2,3.2E1,1.8E1,1.8E1,1.1E1,3E1,2.7E1,2.5E1,4E0,3E1,4.1E1,1E0,1.07E2,2.7E1,6E0,6E0,6E0,1.49E2,9.4E1,4E0,2.8E1,9E0,3E0,6.5E1,1.1E1,3.6E1,6.4E1,2.1E1,1.26E2,1.48E2,9.9E1,2.7E1,2.9E1,9E0,5E0,3E0,2.6E1,9E0,1.14E2,4E0,2.1E1,1.1E1,6.7E1,1.5E1,2E0,2.1E1,2.6E1,2.9E1,5.9E1,9.6E1,4E0,2E0,9.1E1,1.54E2,4E1,2.2E1,5E0,5.2E1,2.5E1,1.1E1,3E0,7E0,1.35E2,1.5E1,3E0,2.9E1,1.1E1,7E0,6E0,1.2E1,6E0,5E0,1.5E1,1.5E1,2.2E1,5E0,6E0,1.9E1,6E0,2.4E1,2.6E1,1.5E1,1.04E2,3E0,2E0,2.5E1,2E0,4E0,3E0,3E0,4E0,2E0,1.29E2,2E1,5.7E1,3.7E1,2.6E1,2E0,2E0,7E0,4.5E1,2E1,3E0,8E0,8E0,2.8E1,5.6E1,8E0,7E0,1.4E1,1.17E2,9E0,4E1,1.08E2,8.9E1,1E1,3E0,2.4E1,2.4E1,5E0,6E0,3E0,2.2E1,4E0,7E0,2E0,6.4E1,5E1,1.4E1,7E0,3E0,8E0,1.7E1,5E1,7E0,8E0,1E0,1E0],"tree_param":{"num_deleted":"0","num_feature":"10","num_nodes":"209","size_leaf_vector":"1"}},{"base_weights":[1.4429172E2,-3.129473E4,4.2690535E4,-5.3393254E4,-1.0263212E4,2.9052788E3,6.8507266E4,-6.0547652E4,-2.7424973E4,-4.3564805E4,-7.256043E2,-2.2262754E4,3.6629285E4,5.9615734E4,1.5390494E5,-2.1354727E3,-6.442745E4,-9.703907E4,-2.1232768E4,-5.5586184E4,-1.2941436E3,-3.8062703E3,8.104911E4,1.23560195E5,-2.7936492E4,-2.9244014E3,5.8151223E4,5.2310184E4,1.0937965E5,1.8162716E5,8.693464E4,-2.735202E4,1.2414131E4,1.5750718E4,-6.505323E4,-6.113516E3,-1.3064914E4,1.6540004E4,-3.2966363E4,-1.1129033E4,-4.999087E4,3.998875E4,-1.8960422E4,-5.660431E2,-4.300994E4,2.0055266E4,1.7730217E4,5.201261E3,2.1834053E4,-1.616294E4,-5.169989E4,-2.2547309E4,2.984541E4,2.0690568E4,4.8434344E4,1.070611E4,5.7824953E4,3.6130707E4,1.1997758E5,7.542479E4,2.1172906E5,-1.0878889E3,1.1631939E5,-7.459423E3,-6.0579014E3,-7.4399586E4,-4.972316E4,4.1056605E4,-3.444823E4,-5.9975445E4,-5.630871E3,-4.190669E4,-9.1293195E4,9.5153125E4,-4.4136207E4,-4.0298445E4,-8.13125E1,-2.6633543E4,3.4909805E3,-5.666855E4,-2.5876191E3,-3.8988945E3,5.01343E4,-2.2986963E4,1.1093145E5,-4.2754234E4,-1.3786757E4,-1.4420522E4,-1.3343802E4,4.9642316E4,1.4209868E2,2.52243E4,4.3123508E4,-4.7424287E3,7.136315E4,2.7435566E4,5.5944977E4,7.551142E2,6.7046655E3,1.3272586E5,6.5715086E4,4.2109438E4,1.602857E4,2.2822318E4,-1.8649574E3,9.491597E3,1.9151105E4,-2.4795828E3,1.26318955E4,-7.6896963E3,-2.300614E3,-7.401901E3,-4.4347075E3,-1.1552649E2,7.781285E3,-1.5311465E3,-4.5046816E3,-6.98648E3,-4.3799175E3,-9.0917053E2,6.2635273E3,-4.791489E3,7.2960834E2,-1.1271275E4,-7.1646167E3,1.1762436E4,-1.895874E3,-1.6037787E3,-6.3407188E3,5.8766876E2,-6.5317026E3,-1.1251644E3,1.7189227E3,-3.7459634E3,4.689474E3,4.7548574E3,2.3771406E1,-6.124381E3,4.992775E2,1.1169613E3,-3.1697886E3,3.199499E3,5.7119746E3,-8.10095E3,-1.7663408E3,-3.2794314E3,1.3556583E4,-5.643173E3,-6.4808044E2,-4.1729256E1,-4.0169734E3,2.165235E3,2.6634426E4,-5.2388247E3,6.433017E3,2.2001296E3,7.685275E3,-5.9462773E3,2.7472653E2,9.586122E3,-3.600195E3,5.3429004E3,1.4266544E4,8.0473867E3,1.5072695E4,-1.1513125E3,1.0273507E4,5.104279E3,-1.0637896E3],"categories":[],"categories_nodes":[],"categories_segments":[],"categories_sizes":[],"default_left":[0,0,0,0,0,0,0,0,0,0,0,0,0,0,0,0,0,0,0,0,0,0,0,0,0,0,0,0,0,0,0,0,0,0,0,0,0,0,0,0,0,0,0,0,0,0,0,0,0,0,0,0,0,0,0,0,0,0,0,0,0,0,0,0,0,0,0,0,0,0,0,0,0,0,0,0,0,0,0,0,0,0,0,0,0,0,0,0,0,0,0,0,0,0,0,0,0,0,0,0,0,0,0,0,0,0,0,0,0,0,0,0,0,0,0,0,0,0,0,0,0,0,0,0,0,0,0,0,0,0,0,0,0,0,0,0,0,0,0,0,0,0,0,0,0,0,0,0,0,0,0,0,0,0,0,0,0,0,0,0,0,0,0,0,0,0,0,0,0],"id":9,"left_children":[1,3,5,7,9,11,13,15,17,19,21,23,25,27,29,31,33,35,37,39,41,43,45,47,49,51,53,55,57,59,61,63,-1,-1,65,-1,-1,67,69,-1,71,73,75,77,79,81,-1,-1,-1,83,85,87,89,-1,91,93,95,97,99,101,103,-1,105,-1,107,109,111,113,115,117,119,121,123,125,127,129,131,133,135,137,139,-1,141,143,145,147,-1,149,-1,151,153,-1,155,157,159,-1,161,-1,-1,163,165,167,-1,-1,-1,-1,-1,-1,-1,-1,-1,-1,-1,-1,-1,-1,-1,-1,-1,-1,-1,-1,-1,-1,-1,-1,-1,-1,-1,-1,-1,-1,-1,-1,-1,-1,-1,-1,-1,-1,-1,-1,-1,-1,-1,-1,-1,-1,-1,-1,-1,-1,-1,-1,-1,-1,-1,-1,-1,-1,-1,-1,-1,-1,-1,-1,-1,-1,-1],"loss_changes":[3.1273365E12,6.246032E11,1.0203494E12,1.2095337E11,2.1898145E11,3.3269996E11,4.529007E11,1.1630438E11,6.039648E10,7.796526E10,1.3530961E11,1.8746848E11,1.4267313E11,1.9582052E11,9.700088E10,1.05186296E11,7.199523E10,9.883705E9,5.855481E10,3.4464203E10,2.5540463E10,6.5725215E10,1.1270346E11,5.1962716E10,6.0154413E10,3.8597284E10,1.5181824E11,1.0924668E11,5.178445E10,1.1829235E11,5.093172E10,2.7438502E10,0E0,0E0,6.6996535E10,0E0,0E0,4.0083997E10,7.403091E10,0E0,3.464859E10,5.0827235E10,9.867994E9,5.0650964E10,2.1735105E10,2.317726E10,0E0,0E0,0E0,1.2746635E11,5.2166754E10,3.283224E10,1.3227207E10,0E0,1.0550654E11,5.311329E10,1.6390645E11,8.1406853E9,3.7489934E10,2.3483257E10,1.1802496E11,0E0,1.2637471E10,0E0,4.9935155E10,3.729916E10,2.2326804E10,3.340331E10,1.7847419E9,6.5485865E9,1.2215721E10,2.7519664E10,3.326722E9,1.7782567E10,1.9281838E9,1.3477173E10,2.7010885E9,5.222186E10,5.940506E10,8.4753367E9,4.3820416E9,0E0,1.632256E8,4.2065215E10,2.8777406E10,3.231359E10,0E0,1.2791909E10,0E0,7.900034E10,3.3717383E10,0E0,7.075437E10,1.8729366E10,3.197336E10,0E0,8.74996E10,0E0,0E0,3.9553925E10,3.6328792E10,3.8055916E9,0E0,0E0,0E0,0E0,0E0,0E0,0E0,0E0,0E0,0E0,0E0,0E0,0E0,0E0,0E0,0E0,