{"learner":{"attributes":{"scikit_learn":"{\"_estimator_type\": \"regressor\"}"},"feature_names":["location.address.city","condos","description.baths","description.sqft","fireplace","hardwood_floors","single_family","mobile","townhomes","description.baths_full","basement","description.beds","dishwasher","description.baths_3qtr","description.garage"],"feature_types":["float","int","float","float","int","int","int","int","int","float","int","float","int","float","float"],"gradient_booster":{"model":{"gbtree_model_param":{"num_parallel_tree":"1","num_trees":"300"},"iteration_indptr":[0,1,2,3,4,5,6,7,8,9,10,11,12,13,14,15,16,17,18,19,20,21,22,23,24,25,26,27,28,29,30,31,32,33,34,35,36,37,38,39,40,41,42,43,44,45,46,47,48,49,50,51,52,53,54,55,56,57,58,59,60,61,62,63,64,65,66,67,68,69,70,71,72,73,74,75,76,77,78,79,80,81,82,83,84,85,86,87,88,89,90,91,92,93,94,95,96,97,98,99,100,101,102,103,104,105,106,107,108,109,110,111,112,113,114,115,116,117,118,119,120,121,122,123,124,125,126,127,128,129,130,131,132,133,134,135,136,137,138,139,140,141,142,143,144,145,146,147,148,149,150,151,152,153,154,155,156,157,158,159,160,161,162,163,164,165,166,167,168,169,170,171,172,173,174,175,176,177,178,179,180,181,182,183,184,185,186,187,188,189,190,191,192,193,194,195,196,197,198,199,200,201,202,203,204,205,206,207,208,209,210,211,212,213,214,215,216,217,218,219,220,221,222,223,224,225,226,227,228,229,230,231,232,233,234,235,236,237,238,239,240,241,242,243,244,245,246,247,248,249,250,251,252,253,254,255,256,257,258,259,260,261,262,263,264,265,266,267,268,269,270,271,272,273,274,275,276,277,278,279,280,281,282,283,284,285,286,287,288,289,290,291,292,293,294,295,296,297,298,299,300],"tree_info":[0,0,0,0,0,0,0,0,0,0,0,0,0,0,0,0,0,0,0,0,0,0,0,0,0,0,0,0,0,0,0,0,0,0,0,0,0,0,0,0,0,0,0,0,0,0,0,0,0,0,0,0,0,0,0,0,0,0,0,0,0,0,0,0,0,0,0,0,0,0,0,0,0,0,0,0,0,0,0,0,0,0,0,0,0,0,0,0,0,0,0,0,0,0,0,0,0,0,0,0,0,0,0,0,0,0,0,0,0,0,0,0,0,0,0,0,0,0,0,0,0,0,0,0,0,0,0,0,0,0,0,0,0,0,0,0,0,0,0,0,0,0,0,0,0,0,0,0,0,0,0,0,0,0,0,0,0,0,0,0,0,0,0,0,0,0,0,0,0,0,0,0,0,0,0,0,0,0,0,0,0,0,0,0,0,0,0,0,0,0,0,0,0,0,0,0,0,0,0,0,0,0,0,0,0,0,0,0,0,0,0,0,0,0,0,0,0,0,0,0,0,0,0,0,0,0,0,0,0,0,0,0,0,0,0,0,0,0,0,0,0,0,0,0,0,0,0,0,0,0,0,0,0,0,0,0,0,0,0,0,0,0,0,0,0,0,0,0,0,0,0,0,0,0,0,0,0,0,0,0,0,0,0,0,0,0,0,0,0,0,0,0,0,0,0,0,0,0,0,0],"trees":[{"base_weights":[9.791949E2,-8.166158E4,1.341262E5,-1.3756431E5,2.5729236E4,7.96351E4,2.5600266E5,-2.1858966E5,-1.1780066E5,-5.412754E4,8.5913914E4,4.5966266E4,1.6595566E5,2.3122805E5,4.678773E4,-2.8325666E4,-2.087754E5,-1.6238445E5,-9.328807E4,-1.03430805E5,1.9876584E4,2.7404592E4,1.4005488E5,-2.66205E4,8.33079E4,1.30624766E5,2.9806112E5,1.7759998E5,3.132105E5,-2.304744E5,-1.9113323E5,-1.8929684E5,-1.4669225E5,-1.05363836E5,-5.1237492E4,-1.3368117E5,-2.2699848E4,-5.912822E3,1.6297214E5,4.788974E3,1.9022305E5,8.8227484E4,2.3342998E5,-1.6649144E5,-9.414294E3,5.1742082E4,1.1749325E5,6.8049984E4,1.6526548E5,4.817026E4,2.7088672E5,1.8462331E5,-1.6704738E4,2.2732103E5,3.46634E5,-2.3687807E4,-1.3076844E5,-1.9668855E5,-1.1646687E4,-1.9809325E5,-1.3980835E4,-1.5802472E5,-9.451985E4,-1.3958938E5,-8.456982E4,-5.8712863E4,4.284314E4,-1.5296956E5,-9.5139586E4,2.4756648E4,-6.4810305E4,-2.677931E4,3.4584977E4,-5.5819897E3,2.009263E5,-9.395327E3,5.842636E4,4.8111387E4,2.6911222E5,5.162205E4,1.4539277E5,1.5548134E5,2.8243816E5,-1.861612E4,-7.4183877E3,1.5355847E5,-1.5827686E4,6.9181367E3,7.3530914E4,3.600335E4,1.3150605E5,-2.836601E4,9.381863E4,1.3987678E5,2.5007602E5,1.9069539E5,3.4939403E5,1.361379E5,2.1687917E5,2.6930856E5,1.6325327E4,5.8180107E3,3.5345938E5,-1.6398389E4,-3.1819897E3,-1.2732687E4,-2.021493E4,-2.1716967E4,-1.6136614E4,-1.8896803E4,-1.2394572E4,-7.243902E3,-1.2354785E4,-1.7438016E4,-1.1673243E4,-1.0094625E4,-4.1914653E3,-2.8643845E3,-8.325261E3,7.5945854E3,-2.5797383E3,-2.350782E4,-1.4288172E4,-1.2710597E4,-6.3209375E3,-1.7256859E3,6.070014E3,-2.8250625E3,-1.0585687E4,-4.7765127E3,1.0471577E3,-7.152232E2,1.2812903E4,2.2812904E4,1.1177612E4,-6.143353E3,8.272926E2,7.7771914E3,2.8633992E3,2.5816125E3,6.3952617E3,-2.0114922E3,2.9723422E4,1.0138355E4,7.189882E2,9.678061E3,1.8939635E4,1.9514062E4,-4.2183877E3,1.1417612E4,3.0046629E4,1.9295264E4,4.9846772E3,-4.882802E3,1.3293932E3,1.2792931E3,-4.7108037E3,1.1909524E4,3.1138884E3,-4.376389E1,5.3177793E3,5.035665E3,1.4414573E4,-6.205686E3,6.2952617E3,5.8309766E2,1.213053E4,1.1502889E4,1.8705977E4,7.1513438E3,2.643566E4,7.9374424E3,2.2993215E4,1.0318011E4,3.7372203E4,1.9546041E4,5.7730464E3,2.2395852E4,-1.0784883E3,2.8660723E4,8.1513438E3,2.7019959E4,3.728698E4],"categories":[],"categories_nodes":[],"categories_segments":[],"categories_sizes":[],"default_left":[0,0,0,0,0,0,0,0,0,0,0,0,0,0,0,0,0,0,0,0,0,0,0,0,0,0,0,0,0,0,0,0,0,0,0,0,0,0,0,0,0,0,0,0,0,0,0,0,0,0,0,0,0,0,0,0,0,0,0,0,0,0,0,0,0,0,0,0,0,0,0,0,0,0,0,0,0,0,0,0,0,0,0,0,0,0,0,0,0,0,0,0,0,0,0,0,0,0,0,0,0,0,0,0,0,0,0,0,0,0,0,0,0,0,0,0,0,0,0,0,0,0,0,0,0,0,0,0,0,0,0,0,0,0,0,0,0,0,0,0,0,0,0,0,0,0,0,0,0,0,0,0,0,0,0,0,0,0,0,0,0,0,0,0,0,0,0,0,0,0,0,0,0,0,0,0,0,0,0,0,0,0,0],"id":0,"left_children":[1,3,5,7,9,11,13,15,17,19,21,23,25,27,-1,-1,29,31,33,35,37,39,41,43,45,47,49,51,53,55,57,59,61,63,65,67,69,71,73,75,77,79,81,83,85,87,89,91,93,-1,95,97,-1,99,101,-1,103,105,-1,107,-1,109,111,113,115,117,119,121,123,125,127,129,131,-1,133,135,137,139,141,143,145,147,149,-1,-1,151,153,155,157,159,161,163,165,167,169,171,173,175,177,179,-1,-1,181,-1,-1,-1,-1,-1,-1,-1,-1,-1,-1,-1,-1,-1,-1,-1,-1,-1,-1,-1,-1,-1,-1,-1,-1,-1,-1,-1,-1,-1,-1,-1,-1,-1,-1,-1,-1,-1,-1,-1,-1,-1,-1,-1,-1,-1,-1,-1,-1,-1,-1,-1,-1,-1,-1,-1,-1,-1,-1,-1,-1,-1,-1,-1,-1,-1,-1,-1,-1,-1,-1,-1,-1,-1,-1,-1,-1,-1,-1,-1,-1],"loss_changes":[2.933494E13,9.879199E12,6.760262E12,1.7069182E12,2.7153214E12,2.0471349E12,1.5452844E12,7.477605E10,9.3782855E11,8.8867655E11,1.0161779E12,1.384577E12,8.852115E11,1.1929974E12,0E0,0E0,2.7535081E10,1.0230537E11,2.8150438E11,3.535181E11,3.6261786E11,5.7351845E11,7.875831E11,4.1718936E11,3.5757307E11,3.3124018E11,7.411728E10,4.5202067E11,2.3985232E11,1.946393E10,2.2305047E10,2.0190069E10,1.027206E11,2.999137E11,9.253624E10,6.42473E10,8.353948E10,7.19101E10,1.357767E11,1.0554054E11,2.00063E11,2.2058369E11,1.8147312E11,2.068752E10,1.6548297E11,1.7236024E11,1.7911172E11,1.4676281E11,1.8249653E11,0E0,1.7260505E11,2.3790774E11,0E0,4.7496167E10,1.3300243E11,0E0,1.778838E10,1.2137791E10,0E0,2.871237E10,0E0,1.4741012E11,1.5406858E10,1.100588E11,1.878672E11,8.542375E10,2.4681075E10,2.3564386E10,3.075208E10,3.124974E10,3.0023762E10,4.4277625E10,1.14140185E11,0E0,6.0272804E9,1.0164489E11,1.4487224E10,1.1744666E9,1.0358266E11,1.4961985E11,7.151262E10,2.0421326E11,7.186494E10,0E0,0E0,1.4895727E10,1.4576357E11,1.9328817E10,2.261477E11,1.5669613E10,1.33262475E11,4.3902472E10,1.1054308E11,7.227467E10,3.71943E10,7.347457E10,6.9257265E10,3.189599E11,1.6519843E11,3.8360973E10,0E0,0E0,2.2074622E10,0E0,0E0,0E0,0E0,0E0,0E0,0E0,0E0,0E0,0E0,0E0,0E0,0E0,0E0,0E0,0E0,0E0,0E0,0E0,0E0,0E0,0E0,0E0,0E0,0E0,0E0,0E0,0E0,0E0,0E0,0E0,0E0,0E0,0E0,0E0,0E0,0E0,0E0,0E0,0E0,0E0,0E0,0E0,0E0,0E0,0E0,0E0,0E0,0E0,0E0,0E0,0E0,0E0,0E0,0E0,0E0,0E0,0E0,0E0,0E0,0E0,0E0,0E0,0E0,0E0,0E0,0E0,0E0,0E0,0E0,0E0,0E0,0E0,0E0,0E0,0E0,0E0,0E0,0E0,0E0],"parents":[2147483647,0,0,1,1,2,2,3,3,4,4,5,5,6,6,7,7,8,8,9,9,10,10,11,11,12,12,13,13,16,16,17,17,18,18,19,19,20,20,21,21,22,22,23,23,24,24,25,25,26,26,27,27,28,28,29,29,30,30,31,31,32,32,33,33,34,34,35,35,36,36,37,37,38,38,39,39,40,40,41,41,42,42,43,43,44,44,45,45,46,46,47,47,48,48,50,50,51,51,53,53,54,54,56,56,57,57,59,59,61,61,62,62,63,63,64,64,65,65,66,66,67,67,68,68,69,69,70,70,71,71,72,72,74,74,75,75,76,76,77,77,78,78,79,79,80,80,81,81,82,82,85,85,86,86,87,87,88,88,89,89,90,90,91,91,92,92,93,93,94,94,95,95,96,96,97,97,98,98,99,99,102,102],"right_children":[2,4,6,8,10,12,14,16,18,20,22,24,26,28,-1,-1,30,32,34,36,38,40,42,44,46,48,50,52,54,56,58,60,62,64,66,68,70,72,74,76,78,80,82,84,86,88,90,92,94,-1,96,98,-1,100,102,-1,104,106,-1,108,-1,110,112,114,116,118,120,122,124,126,128,130,132,-1,134,136,138,140,142,144,146,148,150,-1,-1,152,154,156,158,160,162,164,166,168,170,172,174,176,178,180,-1,-1,182,-1,-1,-1,-1,-1,-1,-1,-1,-1,-1,-1,-1,-1,-1,-1,-1,-1,-1,-1,-1,-1,-1,-1,-1,-1,-1,-1,-1,-1,-1,-1,-1,-1,-1,-1,-1,-1,-1,-1,-1,-1,-1,-1,-1,-1,-1,-1,-1,-1,-1,-1,-1,-1,-1,-1,-1,-1,-1,-1,-1,-1,-1,-1,-1,-1,-1,-1,-1,-1,-1,-1,-1,-1,-1,-1,-1,-1,-1,-1,-1],"split_conditions":[2.6395E-1,9.861826E-2,4.3221614E-1,-1.2626517E0,8.7801075E-1,1.3704187E0,2.8132234E0,-1.7956245E0,-8.272096E-1,-4.5617676E-1,-3.0867097E-1,-5.898178E-1,2.740074E-2,9.5004517E-1,4.678773E4,-2.8325666E4,-2.4601589E-1,-1.0970865E0,-1.3876604E-1,1E0,2.727356E0,2.206407E0,1E0,-1.4219384E0,7.817463E-1,-8.794233E-2,4.7391623E-2,2.8523626E0,7.320794E-1,1E0,1.2407576E-2,-2.4601589E-1,-1.4549465E-1,-8.794233E-2,1.1627034E-3,-8.5461146E-1,1E0,1E0,3.472549E-1,2.0020373E0,-1.2444605E0,1.7816008E0,7.6206577E-1,9.231875E-1,-1.0506256E0,-3.124443E-1,-8.794233E-2,1E0,1E0,4.817026E4,8.774246E-1,7.820566E-1,-1.6704738E4,5.296717E-1,-2.4601589E-1,-2.3687807E4,-6.772779E-1,-9.0967196E-1,-1.1646687E4,-6.07394E-1,-1.3980835E4,1E0,-9.284134E-1,1E0,8.7801075E-1,1E0,8.774246E-1,-1.6964943E0,1E0,5.396671E-1,4.3721387E-1,8.774246E-1,6.0713637E-1,-5.5819897E3,8.171714E-2,-8.794233E-2,-6.434825E-1,1E0,1E0,-1.3876604E-1,1E0,5.707702E0,1E0,-1.861612E4,-7.4183877E3,-2.4601589E-1,-8.794233E-2,-3.3493403E-1,1E0,-3.5742378E-1,1E0,1E0,-1.4869088E0,-3.7741467E-1,-8.896811E-1,1.6911165E0,1.4734605E-1,1E0,5.707702E0,2.0020373E0,1.6325327E4,5.8180107E3,-8.794233E-2,-1.6398389E4,-3.1819897E3,-1.2732687E4,-2.021493E4,-2.1716967E4,-1.6136614E4,-1.8896803E4,-1.2394572E4,-7.243902E3,-1.2354785E4,-1.7438016E4,-1.1673243E4,-1.0094625E4,-4.1914653E3,-2.8643845E3,-8.325261E3,7.5945854E3,-2.5797383E3,-2.350782E4,-1.4288172E4,-1.2710597E4,-6.3209375E3,-1.7256859E3,6.070014E3,-2.8250625E3,-1.0585687E4,-4.7765127E3,1.0471577E3,-7.152232E2,1.2812903E4,2.2812904E4,1.1177612E4,-6.143353E3,8.272926E2,7.7771914E3,2.8633992E3,2.5816125E3,6.3952617E3,-2.0114922E3,2.9723422E4,1.0138355E4,7.189882E2,9.678061E3,1.8939635E4,1.9514062E4,-4.2183877E3,1.1417612E4,3.0046629E4,1.9295264E4,4.9846772E3,-4.882802E3,1.3293932E3,1.2792931E3,-4.7108037E3,1.1909524E4,3.1138884E3,-4.376389E1,5.3177793E3,5.035665E3,1.4414573E4,-6.205686E3,6.2952617E3,5.8309766E2,1.213053E4,1.1502889E4,1.8705977E4,7.1513438E3,2.643566E4,7.9374424E3,2.2993215E4,1.0318011E4,3.7372203E4,1.9546041E4,5.7730464E3,2.2395852E4,-1.0784883E3,2.8660723E4,8.1513438E3,2.7019959E4,3.728698E4],"split_indices":[0,3,3,0,2,0,9,0,3,0,0,3,3,0,0,0,2,3,0,5,13,3,5,3,0,14,3,3,3,8,3,2,0,14,3,0,10,5,3,2,0,3,3,0,9,3,14,10,10,0,14,3,0,3,2,0,3,3,0,0,0,10,3,6,2,10,14,0,6,3,3,14,3,0,0,14,0,10,6,0,6,13,6,0,0,2,14,3,10,3,6,6,3,3,3,0,3,10,13,2,0,0,14,0,0,0,0,0,0,0,0,0,0,0,0,0,0,0,0,0,0,0,0,0,0,0,0,0,0,0,0,0,0,0,0,0,0,0,0,0,0,0,0,0,0,0,0,0,0,0,0,0,0,0,0,0,0,0,0,0,0,0,0,0,0,0,0,0,0,0,0,0,0,0,0,0,0,0,0,0,0,0,0],"split_type":[0,0,0,0,0,0,0,0,0,0,0,0,0,0,0,0,0,0,0,0,0,0,0,0,0,0,0,0,0,0,0,0,0,0,0,0,0,0,0,0,0,0,0,0,0,0,0,0,0,0,0,0,0,0,0,0,0,0,0,0,0,0,0,0,0,0,0,0,0,0,0,0,0,0,0,0,0,0,0,0,0,0,0,0,0,0,0,0,0,0,0,0,0,0,0,0,0,0,0,0,0,0,0,0,0,0,0,0,0,0,0,0,0,0,0,0,0,0,0,0,0,0,0,0,0,0,0,0,0,0,0,0,0,0,0,0,0,0,0,0,0,0,0,0,0,0,0,0,0,0,0,0,0,0,0,0,0,0,0,0,0,0,0,0,0,0,0,0,0,0,0,0,0,0,0,0,0,0,0,0,0,0,0],"sum_hessian":[2.664E3,1.644E3,1.02E3,1.081E3,5.63E2,7.06E2,3.14E2,2.1E2,8.71E2,2.42E2,3.21E2,5.09E2,1.97E2,2.83E2,3.1E1,2.4E1,1.86E2,3.07E2,5.64E2,1.45E2,9.7E1,1.55E2,1.66E2,1.73E2,3.36E2,1.57E2,4E1,1.73E2,1.1E2,7.8E1,1.08E2,1.09E2,1.98E2,4.37E2,1.27E2,1.05E2,4E1,8.3E1,1.4E1,1.37E2,1.8E1,1.08E2,5.8E1,1.8E1,1.55E2,1.76E2,1.6E2,5.7E1,1E2,3E0,3.7E1,1.7E2,3E0,3.3E1,7.7E1,7.2E1,6E0,9.9E1,9E0,9E1,1.9E1,1.61E2,3.7E1,1.63E2,2.74E2,1.18E2,9E0,6.8E1,3.7E1,1.9E1,2.1E1,5.5E1,2.8E1,2E0,1.2E1,1.09E2,2.8E1,7E0,1.1E1,6.7E1,4.1E1,2.4E1,3.4E1,1.4E1,4E0,5E0,1.5E2,5.8E1,1.18E2,2.4E1,1.36E2,1.2E1,4.5E1,7.9E1,2.1E1,2E1,1.7E1,7E1,1E2,1.8E1,1.5E1,2E0,7.5E1,4E0,2E0,9E0,9E1,5.6E1,3.4E1,8.2E1,7.9E1,2.3E1,1.4E1,6.2E1,1.01E2,1.97E2,7.7E1,5.4E1,6.4E1,6E0,3E0,5E0,6.3E1,1.7E1,2E1,9E0,1E1,1.2E1,9E0,3.5E1,2E1,2E1,8E0,8E0,4E0,2.7E1,8.2E1,1.6E1,1.2E1,4E0,3E0,1E0,1E1,3.1E1,3.6E1,2.1E1,2E1,2E1,4E0,4E0,3E1,3E0,2E0,7E1,8E1,5.3E1,5E0,5.6E1,6.2E1,8E0,1.6E1,1.9E1,1.17E2,9E0,3E0,1.1E1,3.4E1,5.4E1,2.5E1,2E0,1.9E1,6E0,1.4E1,2E0,1.5E1,3.9E1,3.1E1,9.7E1,3E0,1.6E1,2E0,1.7E1,5.8E1],"tree_param":{"num_deleted":"0","num_feature":"15","num_nodes":"183","size_leaf_vector":"1"}},{"base_weights":[1.387259E3,-7.419937E4,1.2220835E5,-1.2411133E5,2.2070773E4,4.6048824E4,1.8959233E5,-1.9559002E5,-1.04480695E5,-4.9571715E4,7.373387E4,1.6258765E4,1.1411696E5,1.3896355E5,2.6536412E5,-2.1789781E5,-1.6488586E5,-1.3479214E5,-7.255694E4,-1.28299836E5,-1.1359585E4,4.018945E4,1.5914658E5,-5.601353E4,4.2684234E4,-1.6017853E4,1.3441706E5,9.79263E4,2.1693927E5,2.145985E5,3.4050466E5,-2.5453037E4,-2.022175E5,-1.731436E5,-1.1292656E5,-1.6236867E5,-1.17717875E5,-9.504013E4,-3.9325305E4,-2.1878348E4,-1.1332684E5,-2.1625254E4,1.1876339E5,-8.738324E3,8.413847E4,9.513048E4,2.1977658E5,-1.5470917E5,-3.631548E4,1.2463762E4,7.610137E4,-9.483305E4,3.0163535E4,1.0873536E5,1.8688672E5,1.4820505E5,5.157117E4,1.9472883E5,3.895006E4,1.7718288E5,3.153689E4,2.8697747E5,3.990259E4,-2.0622242E4,-1.206933E4,-1.7479577E5,-1.5528297E3,-1.2051479E4,-5.813618E3,-1.7854461E5,-1.4135305E5,-1.3054702E5,-7.655596E4,-1.1441631E5,-4.8918465E4,-7.273409E4,-1.5684623E4,-1.23432375E5,-6.187518E3,-4.6330508E4,1.6616553E4,-5.2098564E3,1.5814564E5,-1.4313597E4,1.4816007E4,4.140606E4,1.6565903E5,7.098172E4,2.0398294E5,2.5336497E5,1.2250645E5,-1.6538574E4,-5.687431E3,-4.801624E4,8.92231E4,-4.2869844E3,3.7828793E4,2.6191762E4,8.6529016E4,-1.1282395E4,-2.7240251E3,2.8973296E3,9.760472E3,3.560887E4,1.1966924E5,2.583453E4,1.1342952E5,1.206226E5,1.9366297E5,-6.8429315E2,6.246485E4,-1.4778906E4,2.0784044E5,1.3258103E5,2.0985967E5,1.291293E5,3.0599978E5,-1.790617E4,-1.0107128E4,-9.812328E3,-1.8965914E4,-1.7340791E4,-1.2863448E4,-1.5021231E4,-9.949497E3,-4.8590537E3,-9.735523E3,-1.3232745E4,-8.733173E3,-9.617916E3,-2.091402E3,-5.0347246E3,-1.2030722E4,1.9783401E3,-4.4032773E3,-1.0775686E4,-1.705998E4,-2.5478274E3,1.4650117E3,-6.920816E3,5.75571E2,4.6661627E2,9.371082E3,2.049339E4,-1.9338313E3,-5.757489E3,3.1698392E2,2.2076204E2,7.699083E3,1.1368319E4,2.6520307E4,5.5652124E3,1.9503506E4,9.815618E3,2.4784775E4,1.01491875E4,2.760503E4,1.1150193E3,2.0462988E4,-1.0141108E4,-2.9668538E3,1.5864994E4,2.9722375E3,-3.3491785E3,1.3549012E3,4.667857E3,3.702164E2,4.45825E3,-4.525325E3,9.559398E3,1.359725E3,-6.2347034E2,7.10118E2,-6.1278545E3,5.879554E3,1.0010846E4,1.6706426E4,1.330495E4,2.0111699E3,2.3737627E4,9.87894E3,2.6427613E4,1.5090781E4,1.0077085E4,-1.6667512E3,6.672535E3,-5.2207964E3,1.2865573E4,-1.5451882E4,8.954927E3,2.2348686E4,4.754821E3,1.6563975E4,1.5469575E4,2.5588488E4,5.430144E3,1.4820016E4,6.9991597E3,3.0995256E4],"categories":[],"categories_nodes":[],"categories_segments":[],"categories_sizes":[],"default_left":[0,0,0,0,0,0,0,0,0,0,0,0,0,0,0,0,0,0,0,0,0,0,0,0,0,0,0,0,0,0,0,0,0,0,0,0,0,0,0,0,0,0,0,0,0,0,0,0,0,0,0,0,0,0,0,0,0,0,0,0,0,0,0,0,0,0,0,0,0,0,0,0,0,0,0,0,0,0,0,0,0,0,0,0,0,0,0,0,0,0,0,0,0,0,0,0,0,0,0,0,0,0,0,0,0,0,0,0,0,0,0,0,0,0,0,0,0,0,0,0,0,0,0,0,0,0,0,0,0,0,0,0,0,0,0,0,0,0,0,0,0,0,0,0,0,0,0,0,0,0,0,0,0,0,0,0,0,0,0,0,0,0,0,0,0,0,0,0,0,0,0,0,0,0,0,0,0,0,0,0,0,0,0,0,0,0,0,0,0,0,0,0,0,0,0,0,0,0,0],"id":1,"left_children":[1,3,5,7,9,11,13,15,17,19,21,23,25,27,29,31,33,35,37,39,41,43,45,47,49,51,53,55,57,59,61,-1,63,65,67,69,71,73,75,-1,77,79,81,83,85,87,89,91,93,95,97,99,101,103,105,107,109,111,-1,113,-1,115,-1,-1,-1,117,-1,-1,-1,119,121,123,125,127,129,131,133,135,137,139,141,-1,143,145,-1,147,149,151,153,155,157,-1,-1,159,161,163,165,167,169,-1,-1,171,-1,173,175,-1,177,179,181,183,185,187,189,191,193,195,197,-1,-1,-1,-1,-1,-1,-1,-1,-1,-1,-1,-1,-1,-1,-1,-1,-1,-1,-1,-1,-1,-1,-1,-1,-1,-1,-1,-1,-1,-1,-1,-1,-1,-1,-1,-1,-1,-1,-1,-1,-1,-1,-1,-1,-1,-1,-1,-1,-1,-1,-1,-1,-1,-1,-1,-1,-1,-1,-1,-1,-1,-1,-1,-1,-1,-1,-1,-1,-1,-1,-1,-1,-1,-1,-1,-1,-1,-1,-1,-1,-1,-1],"loss_changes":[2.4703236E13,7.998311E12,5.33361E12,1.5174415E12,2.1096792E12,9.91744E11,2.080725E12,1.2503325E11,8.24338E11,7.175429E11,9.419589E11,6.555525E11,3.95774E11,1.04432665E12,7.661295E11,2.49257E10,2.4641012E10,1.8853082E11,3.115613E11,8.088112E10,2.189678E11,5.1466355E11,3.4005293E11,1.7324E11,2.5253177E11,7.92962E10,1.5350786E11,5.0510614E11,3.610761E11,4.4935414E11,1.5801411E11,0E0,7.106986E9,1.9941294E10,6.165299E7,3.11933E10,1.3575337E11,2.1871172E11,1.3470592E11,0E0,7.3942565E10,1.4343065E11,8.898629E10,1.0184234E11,4.3207066E11,1.0906757E11,1.2251719E11,6.2618665E9,1.188581E11,5.6671633E10,5.9666006E10,6.6550825E9,2.5461322E10,6.6899083E10,1.8591108E11,1.08293E11,6.6076246E10,2.8601064E11,0E0,1.1792102E11,0E0,1.0761588E11,0E0,0E0,0E0,8.949596E9,0E0,0E0,0E0,6.18361E10,9.086042E9,1.1268024E11,3.482239E10,7.382421E10,9.8575204E10,6.955873E10,1.0342731E11,2.8197257E10,3.1870756E9,1.1002649E11,5.4841123E10,0E0,8.7004774E10,8.413802E10,0E0,1.169989E11,1.9232797E11,6.52134E10,1.2808782E10,8.912293E10,1.25747724E11,0E0,0E0,6.7527705E10,2.420118E10,4.2646413E10,1.5833883E10,3.0923887E10,6.349023E10,0E0,0E0,4.665604E8,0E0,3.2807356E10,5.4660956E10,0E0,3.7603803E10,1.4988902E11,7.484342E10,3.5732775E10,5.0385715E10,1.6018455E11,1.5951777E11,1.1862252E11,1.0259582E11,1.9417334E9,1.841981E10,0E0,0E0,0E0,0E0,0E0,0E0,0E0,0E0,0E0,0E0,0E0,0E0,0E0,0E0,0E0,0E0,0E0,0E0,0E0,0E0,0E0,0E0,0E0,0E0,0E0,0E0,0E0,0E0,0E0,0E0,0E0,0E0,0E0,0E0,0E0,0E0,0E0,0E0,0E0,0E0,0E0,0E0,0E0,0E0,0E0,0E0,0E0,0E0,0E0,0E0,0E0,0E0,0E0,0E0,0E0,0E0,0E0,0E0,0E0,0E0,0E0,0E0,0E0,0E0,0E0,0E0,0E0,0E0,0E0,0E0,0E0,0E0,0E0,0E0,0E0,0E0,0E0,0E0,0E0,0E0,0E0,0E0],"parents":[2147483647,0,0,1,1,2,2,3,3,4,4,5,5,6,6,7,7,8,8,9,9,10,10,11,11,12,12,13,13,14,14,15,15,16,16,17,17,18,18,19,19,20,20,21,21,22,22,23,23,24,24,25,25,26,26,27,27,28,28,29,29,30,30,32,32,33,33,34,34,35,35,36,36,37,37,38,38,40,40,41,41,42,42,43,43,44,44,45,45,46,46,47,47,48,48,49,49,50,50,51,51,52,52,53,53,54,54,55,55,56,56,57,57,59,59,61,61,65,65,69,69,70,70,71,71,72,72,73,73,74,74,75,75,76,76,77,77,78,78,79,79,80,80,82,82,83,83,85,85,86,86,87,87,88,88,89,89,90,90,93,93,94,94,95,95,96,96,97,97,98,98,101,101,103,103,104,104,106,106,107,107,108,108,109,109,110,110,111,111,112,112,113,113,114,114,115,115,116,116],"right_children":[2,4,6,8,10,12,14,16,18,20,22,24,26,28,30,32,34,36,38,40,42,44,46,48,50,52,54,56,58,60,62,-1,64,66,68,70,72,74,76,-1,78,80,82,84,86,88,90,92,94,96,98,100,102,104,106,108,110,112,-1,114,-1,116,-1,-1,-1,118,-1,-1,-1,120,122,124,126,128,130,132,134,136,138,140,142,-1,144,146,-1,148,150,152,154,156,158,-1,-1,160,162,164,166,168,170,-1,-1,172,-1,174,176,-1,178,180,182,184,186,188,190,192,194,196,198,-1,-1,-1,-1,-1,-1,-1,-1,-1,-1,-1,-1,-1,-1,-1,-1,-1,-1,-1,-1,-1,-1,-1,-1,-1,-1,-1,-1,-1,-1,-1,-1,-1,-1,-1,-1,-1,-1,-1,-1,-1,-1,-1,-1,-1,-1,-1,-1,-1,-1,-1,-1,-1,-1,-1,-1,-1,-1,-1,-1,-1,-1,-1,-1,-1,-1,-1,-1,-1,-1,-1,-1,-1,-1,-1,-1,-1,-1,-1,-1,-1,-1],"split_conditions":[2.6395E-1,9.861826E-2,-1.7000924E-1,-1.2276801E0,8.7801075E-1,1.3265815E0,9.5004517E-1,1E0,-5.635798E-1,-8.412176E-1,2.0020373E0,-8.047198E-1,-1.0908707E0,7.820566E-1,7.320794E-1,-1.6386683E0,8.774246E-1,-9.9213433E-1,-2.8567407E-1,-1.6964943E0,2.727356E0,-3.652653E-1,-2.8567407E-1,-1.4219384E0,8.0117184E-1,1E0,1E0,1E0,3.126064E0,1.997561E0,1.443998E0,-2.5453037E4,-7.630198E-2,-1.2444605E0,-1.7000924E-1,-8.794233E-2,-1.521353E-1,8.7801075E-1,-3.1994087E-1,-2.1878348E4,1E0,1E0,3.472549E-1,2.4812818E0,1E0,3.4758282E0,2.2889543E0,9.231875E-1,2.727356E0,8.774246E-1,-8.794233E-2,-2.4601589E-1,-1.4869088E0,-8.794233E-2,-2.4591452E-1,4.3221614E-1,4.029097E-1,8.7801075E-1,3.895006E4,1E0,3.153689E4,-8.794233E-2,3.990259E4,-2.0622242E4,-1.206933E4,1.2407576E-2,-1.5528297E3,-1.2051479E4,-5.813618E3,-9.6165854E-1,-1.3319794E0,1E0,-2.4591452E-1,1E0,8.774246E-1,8.7801075E-1,1E0,-1.005691E0,-1.273869E0,1E0,7.320794E-1,-5.2098564E3,1.443998E0,-8.794233E-2,1.4816007E4,8.774246E-1,9.007525E-1,1.8427916E0,-1.3693645E0,5.396671E-1,3.4758282E0,-1.6538574E4,-5.687431E3,-1.2770045E0,-2.4601589E-1,-5.898178E-1,1E0,1E0,1E0,-1.1282395E4,-2.7240251E3,1E0,9.760472E3,1.4910494E0,-3.7741467E-1,2.583453E4,-2.6746482E-1,-1.757875E-2,5.209257E-1,-1.6626096E-1,2.8081584E0,6.9164735E-1,4.9043864E-1,8.774246E-1,1.3618093E0,-2.4601589E-1,8.7801075E-1,-1.790617E4,-1.0107128E4,-9.812328E3,-1.8965914E4,-1.7340791E4,-1.2863448E4,-1.5021231E4,-9.949497E3,-4.8590537E3,-9.735523E3,-1.3232745E4,-8.733173E3,-9.617916E3,-2.091402E3,-5.0347246E3,-1.2030722E4,1.9783401E3,-4.4032773E3,-1.0775686E4,-1.705998E4,-2.5478274E3,1.4650117E3,-6.920816E3,5.75571E2,4.6661627E2,9.371082E3,2.049339E4,-1.9338313E3,-5.757489E3,3.1698392E2,2.2076204E2,7.699083E3,1.1368319E4,2.6520307E4,5.5652124E3,1.9503506E4,9.815618E3,2.4784775E4,1.01491875E4,2.760503E4,1.1150193E3,2.0462988E4,-1.0141108E4,-2.9668538E3,1.5864994E4,2.9722375E3,-3.3491785E3,1.3549012E3,4.667857E3,3.702164E2,4.45825E3,-4.525325E3,9.559398E3,1.359725E3,-6.2347034E2,7.10118E2,-6.1278545E3,5.879554E3,1.0010846E4,1.6706426E4,1.330495E4,2.0111699E3,2.3737627E4,9.87894E3,2.6427613E4,1.5090781E4,1.0077085E4,-1.6667512E3,6.672535E3,-5.2207964E3,1.2865573E4,-1.5451882E4,8.954927E3,2.2348686E4,4.754821E3,1.6563975E4,1.5469575E4,2.5588488E4,5.430144E3,1.4820016E4,6.9991597E3,3.0995256E4],"split_indices":[0,3,3,0,2,0,0,12,3,0,2,3,11,3,3,0,14,3,0,0,13,0,0,3,0,5,10,10,2,0,11,0,3,0,3,14,0,2,3,0,5,5,3,3,5,3,11,0,13,14,14,2,3,14,11,3,0,2,0,5,0,14,0,0,0,3,0,0,0,0,3,12,11,12,14,2,10,0,0,12,3,0,11,14,0,14,3,14,0,3,3,0,0,3,2,3,10,8,10,0,0,12,0,0,3,0,3,3,3,3,14,0,0,14,0,2,2,0,0,0,0,0,0,0,0,0,0,0,0,0,0,0,0,0,0,0,0,0,0,0,0,0,0,0,0,0,0,0,0,0,0,0,0,0,0,0,0,0,0,0,0,0,0,0,0,0,0,0,0,0,0,0,0,0,0,0,0,0,0,0,0,0,0,0,0,0,0,0,0,0,0,0,0,0,0,0,0,0,0],"split_type":[0,0,0,0,0,0,0,0,0,0,0,0,0,0,0,0,0,0,0,0,0,0,0,0,0,0,0,0,0,0,0,0,0,0,0,0,0,0,0,0,0,0,0,0,0,0,0,0,0,0,0,0,0,0,0,0,0,0,0,0,0,0,0,0,0,0,0,0,0,0,0,0,0,0,0,0,0,0,0,0,0,0,0,0,0,0,0,0,0,0,0,0,0,0,0,0,0,0,0,0,0,0,0,0,0,0,0,0,0,0,0,0,0,0,0,0,0,0,0,0,0,0,0,0,0,0,0,0,0,0,0,0,0,0,0,0,0,0,0,0,0,0,0,0,0,0,0,0,0,0,0,0,0,0,0,0,0,0,0,0,0,0,0,0,0,0,0,0,0,0,0,0,0,0,0,0,0,0,0,0,0,0,0,0,0,0,0,0,0,0,0,0,0,0,0,0,0,0,0],"sum_hessian":[2.703E3,1.663E3,1.04E3,1.095E3,5.68E2,4.89E2,5.51E2,2.34E2,8.61E2,2.38E2,3.3E2,3.41E2,1.48E2,3.32E2,2.19E2,1.32E2,1.02E2,4.4E2,4.21E2,7.7E1,1.61E2,2.38E2,9.2E1,9.1E1,2.5E2,2E1,1.28E2,2.19E2,1.13E2,1.33E2,8.6E1,3.5E1,9.7E1,8.6E1,1.6E1,1.65E2,2.75E2,2.5E2,1.71E2,9E0,6.8E1,1.5E2,1.1E1,1.13E2,1.25E2,4.6E1,4.6E1,1.4E1,7.7E1,1.32E2,1.18E2,7E0,1.3E1,8.8E1,4E1,1.04E2,1.15E2,1.02E2,1.1E1,9.9E1,3.4E1,4.8E1,3.8E1,9.1E1,6E0,8.5E1,1E0,1.3E1,3E0,8.9E1,7.6E1,2.08E2,6.7E1,1.75E2,7.5E1,7E1,1.01E2,6.2E1,6E0,9.1E1,5.9E1,2E0,9E0,1.1E2,3E0,8.3E1,4.2E1,3.9E1,7E0,3.3E1,1.3E1,1.2E1,2E0,7.1E1,6E0,8E1,5.2E1,2.1E1,9.7E1,5E0,2E0,1E1,3E0,1.2E1,7.6E1,1.9E1,2.1E1,6.7E1,3.7E1,2E1,9.5E1,6E0,9.6E1,4.4E1,5.5E1,6E0,4.2E1,7.9E1,6E0,1.2E1,7.7E1,1.8E1,5.8E1,1.25E2,8.3E1,3E1,3.7E1,1.03E2,7.2E1,2.7E1,4.8E1,4.9E1,2.1E1,4.5E1,5.6E1,4.9E1,1.3E1,3E0,3E0,6.3E1,2.8E1,5.2E1,7E0,7E0,2E0,3.1E1,7.9E1,4E1,4.3E1,2.9E1,1.3E1,3.6E1,3E0,3E0,4E0,5E0,2.8E1,6E0,7E0,1.7E1,5.4E1,2E0,4E0,3E1,5E1,4.1E1,1.1E1,1.7E1,4E0,8.6E1,1.1E1,3E0,7E0,2E0,1E1,5.6E1,2E1,1.7E1,4E0,9E0,5.8E1,1.2E1,2.5E1,2E0,1.8E1,9.2E1,3E0,3E0,3E0,1.2E1,8.4E1,1.3E1,3.1E1,2.7E1,2.8E1,2E0,4E0,1E0,4.1E1],"tree_param":{"num_deleted":"0","num_feature":"15","num_nodes":"199","size_leaf_vector":"1"}},{"base_weights":[5.8092762E1,-6.0068543E4,8.949849E4,-8.9483164E4,-7.0587886E3,9.460613E3,1.3635894E5,-1.3945808E5,-5.6661477E4,-1.4357914E4,1.0972015E5,-2.630739E4,4.0526457E4,1.2073926E5,2.7360166E5,-1.4832736E5,-4.6037316E4,-1.0365109E5,-4.3679203E4,-1.3743244E5,-8.897123E3,-1.9437447E4,2.0110234E5,-3.725567E4,2.7887578E4,2.713478E4,1.4121783E5,6.5617836E4,1.4675467E5,7.649403E4,2.9462194E5,-9.876158E4,-1.5236286E5,-8.8616914E4,6.2661453E4,-1.1242642E5,5.4913438E3,-5.689274E4,-2.5601477E4,-6.445798E3,-1.4940295E5,-1.1713972E4,1.7319753E5,1.4746507E4,-6.061147E4,-3.4882812E3,2.5246802E5,-1.3008489E4,-9.8680125E4,-4.4784355E4,1.7069622E5,1.5975788E5,1.4096337E4,6.9279086E4,1.8455838E4,6.0394863E4,3.8672043E4,1.08492305E5,1.825433E5,-4.6188516E2,1.2608553E4,3.435442E5,1.9005678E5,1.4807327E4,-1.2089065E5,-1.7109889E5,-1.4473916E5,-5.337378E4,-1.5317275E5,1.8344408E4,-3.2563486E4,-1.06159805E5,-1.9080572E4,-3.3233489E3,4.3300953E4,-3.286584E4,-6.786983E4,-3.9101962E2,-7.192892E4,-1.6687428E4,-6.710845E3,1.3463984E4,-1.3125844E4,5.0137476E3,2.8372322E4,-3.3104656E3,3.3147504E4,-1.6879719E3,-8.919035E3,-1.4802367E3,2.088403E3,2.9674E5,9.5721625E4,-8.2265266E4,5.6045244E3,-1.5672158E5,-5.2469832E4,-6.157007E3,-9.98953E3,4.3506047E4,1.7177062E4,1.0595629E4,2.9116922E5,1.6267055E5,7.8589653E3,8.36008E4,-3.6969001E3,-5.538864E4,6.4952094E4,2.4734314E5,1.00060086E5,2.3184302E5,1.5256372E5,3.5067088E5,2.9238533E3,-1.9015292E3,2.1191475E5,-1.5276085E4,-7.583251E3,-1.4883078E4,-1.9020041E4,-9.113778E3,-1.5000477E4,-1.7090014E4,-1.0640083E3,-1.8289424E4,-7.029734E3,-1.1331093E4,1.1287007E4,-1.1727877E4,-6.0106123E3,1.4529844E3,6.7228784E3,3.649785E3,-5.551075E3,-7.3800312E3,-3.1582551E3,-1.9088004E3,8.016488E3,-9.811046E3,-4.722185E3,-9.8500586E2,-7.3727E3,1.4321875E3,3.7813384E3,3.455098E4,1.1282302E4,1.5098784E4,4.415811E3,-8.578719E2,-9.657364E3,-2.6624197E2,1.4667507E4,-1.9692908E4,-1.1685644E4,-1.5552946E2,-6.766643E3,-7.8444E3,1.2427826E3,5.150146E3,-1.1154685E4,-3.4867449E3,5.3939585E3,3.6422761E3,3.587507E4,2.9275787E4,-8.08443E2,1.1445089E3,-1.4292991E4,4.540606E3,1.1271433E4,-8.1658413E3,-2.3295095E3,5.8144346E3,2.6403225E4,1.7365031E4,3.32893E4,7.47297E3,1.5538578E4,2.5483338E4,8.224407E3,3.7127273E3,1.6242511E4,2.6494428E4,4.025147E4,9.079446E3,2.2794807E4],"categories":[],"categories_nodes":[],"categories_segments":[],"categories_sizes":[],"default_left":[0,0,0,0,0,0,0,0,0,0,0,0,0,0,0,0,0,0,0,0,0,0,0,0,0,0,0,0,0,0,0,0,0,0,0,0,0,0,0,0,0,0,0,0,0,0,0,0,0,0,0,0,0,0,0,0,0,0,0,0,0,0,0,0,0,0,0,0,0,0,0,0,0,0,0,0,0,0,0,0,0,0,0,0,0,0,0,0,0,0,0,0,0,0,0,0,0,0,0,0,0,0,0,0,0,0,0,0,0,0,0,0,0,0,0,0,0,0,0,0,0,0,0,0,0,0,0,0,0,0,0,0,0,0,0,0,0,0,0,0,0,0,0,0,0,0,0,0,0,0,0,0,0,0,0,0,0,0,0,0,0,0,0,0,0,0,0,0,0,0,0,0,0,0,0,0,0,0,0,0,0,0,0,0,0,0,0],"id":2,"left_children":[1,3,5,7,9,11,13,15,17,19,21,23,25,27,29,31,33,35,37,39,41,43,45,47,49,51,53,55,57,59,61,63,65,67,69,71,73,75,77,-1,79,81,83,85,87,89,91,93,95,97,99,101,103,105,-1,107,-1,109,111,-1,-1,113,115,-1,117,119,121,123,125,-1,127,129,-1,-1,131,133,135,137,139,-1,-1,-1,141,-1,-1,-1,143,-1,-1,-1,-1,145,147,149,151,153,155,157,-1,-1,159,161,163,165,167,169,-1,171,173,175,177,179,181,183,-1,-1,185,-1,-1,-1,-1,-1,-1,-1,-1,-1,-1,-1,-1,-1,-1,-1,-1,-1,-1,-1,-1,-1,-1,-1,-1,-1,-1,-1,-1,-1,-1,-1,-1,-1,-1,-1,-1,-1,-1,-1,-1,-1,-1,-1,-1,-1,-1,-1,-1,-1,-1,-1,-1,-1,-1,-1,-1,-1,-1,-1,-1,-1,-1,-1,-1,-1,-1,-1,-1,-1,-1],"loss_changes":[1.4487657E13,2.511339E12,4.0606216E12,1.6914081E12,4.9254862E11,4.4664265E11,1.4311039E12,3.3288723E11,3.779625E11,3.63719E11,4.0520086E11,1.1199387E11,2.8607968E11,8.7228416E11,2.6334829E11,5.976149E10,1.7680181E11,1.2991503E11,1.1630667E11,1.046125E10,2.6926694E11,2.200617E10,2.1105934E11,2.3105805E11,3.397463E11,3.2802485E11,6.5160643E10,3.1038898E11,5.512175E11,3.2762442E10,2.5187215E11,1.8722963E11,2.4371528E10,5.3253652E10,1.3249027E11,4.114075E10,1.754492E10,7.26732E10,2.4523845E11,0E0,1.6119398E10,1.079766E11,9.458521E10,9.021918E9,7.2431247E9,1.6878852E9,8.26272E10,1.461268E11,1.0978981E11,4.6218318E10,4.389617E11,3.301424E11,1.6089629E11,1.982883E10,0E0,1.0754497E11,0E0,2.1409825E11,2.809177E11,0E0,0E0,8.158498E10,1.04567276E11,0E0,3.0060118E10,1.1675632E10,5.7172558E10,9.360597E10,9.311633E9,0E0,9.499311E10,5.337501E10,0E0,0E0,3.1537572E9,1.4496285E11,3.94182E10,2.0787306E11,4.3235344E10,0E0,0E0,0E0,1.00517134E11,0E0,0E0,0E0,7.330816E7,0E0,0E0,0E0,0E0,6.865368E10,7.581266E9,2.4475566E10,1.0535051E11,7.4422354E9,2.001168E10,1.978307E10,0E0,0E0,4.1091785E10,1.9615683E10,1.4187856E11,1.578582E11,9.302219E10,6.001926E9,0E0,4.8424817E9,2.4215257E11,1.154161E10,2.6026377E11,2.5074886E11,1.4878717E11,7.113225E10,0E0,0E0,1.8142724E10,0E0,0E0,0E0,0E0,0E0,0E0,0E0,0E0,0E0,0E0,0E0,0E0,0E0,0E0,0E0,0E0,0E0,0E0,0E0,0E0,0E0,0E0,0E0,0E0,0E0,0E0,0E0,0E0,0E0,0E0,0E0,0E0,0E0,0E0,0E0,0E0,0E0,0E0,0E0,0E0,0E0,0E0,0E0,0E0,0E0,0E0,0E0,0E0,0E0,0E0,0E0,0E0,0E0,0E0,0E0,0E0,0E0,0E0,0E0,0E0,0E0,0E0,0E0,0E0,0E0,0E0,0E0,0E0,0E0,0E0],"parents":[2147483647,0,0,1,1,2,2,3,3,4,4,5,5,6,6,7,7,8,8,9,9,10,10,11,11,12,12,13,13,14,14,15,15,16,16,17,17,18,18,19,19,20,20,21,21,22,22,23,23,24,24,25,25,26,26,27,27,28,28,29,29,30,30,31,31,32,32,33,33,34,34,35,35,36,36,37,37,38,38,40,40,41,41,42,42,43,43,44,44,45,45,46,46,47,47,48,48,49,49,50,50,51,51,52,52,53,53,55,55,57,57,58,58,61,61,62,62,64,64,65,65,66,66,67,67,68,68,70,70,71,71,74,74,75,75,76,76,77,77,78,78,82,82,86,86,91,91,92,92,93,93,94,94,95,95,96,96,97,97,100,100,101,101,102,102,103,103,104,104,105,105,107,107,108,108,109,109,110,110,111,111,112,112,113,113,116,116],"right_children":[2,4,6,8,10,12,14,16,18,20,22,24,26,28,30,32,34,36,38,40,42,44,46,48,50,52,54,56,58,60,62,64,66,68,70,72,74,76,78,-1,80,82,84,86,88,90,92,94,96,98,100,102,104,106,-1,108,-1,110,112,-1,-1,114,116,-1,118,120,122,124,126,-1,128,130,-1,-1,132,134,136,138,140,-1,-1,-1,142,-1,-1,-1,144,-1,-1,-1,-1,146,148,150,152,154,156,158,-1,-1,160,162,164,166,168,170,-1,172,174,176,178,180,182,184,-1,-1,186,-1,-1,-1,-1,-1,-1,-1,-1,-1,-1,-1,-1,-1,-1,-1,-1,-1,-1,-1,-1,-1,-1,-1,-1,-1,-1,-1,-1,-1,-1,-1,-1,-1,-1,-1,-1,-1,-1,-1,-1,-1,-1,-1,-1,-1,-1,-1,-1,-1,-1,-1,-1,-1,-1,-1,-1,-1,-1,-1,-1,-1,-1,-1,-1,-1,-1,-1,-1,-1,-1],"split_conditions":[2.740074E-2,1E0,8.7801075E-1,-2.4601589E-1,-6.005938E-2,1E0,2.8132234E0,1E0,-7.672369E-1,-1.0770956E0,1E0,1.443998E0,2.727356E0,1E0,4.7844505E-1,-1.0908707E0,-1.0908707E0,1E0,-3.4368005E-1,-1.0908707E0,5.707702E0,2.0020373E0,2.3732404E-1,6.371227E-1,6.483676E-1,4.7391623E-2,3.322617E-1,6.513736E0,8.0829465E-1,2.7478793E-1,3.3346426E0,-1.0506256E0,-1.1620569E0,-1.4869088E0,-1.4419292E0,1E0,-9.62148E-1,-6.4479274E-1,-1.2627919E-1,-6.445798E3,2.727356E0,-1.0671002E0,8.7801075E-1,-2.6324762E-2,-2.6324762E-2,-2.4601589E-1,5.9904176E-1,2.3732404E-1,9.6197456E-1,4.3221614E-1,8.6701787E-1,5.9904176E-1,-2.4601589E-1,7.987681E-2,1.8455838E4,2.3732404E-1,3.8672043E4,2.3732404E-1,5.9904176E-1,-4.6188516E2,1.2608553E4,5.3891225E0,3.126064E0,1.4807327E4,-1.3319794E0,-1.267009E0,-1.0770956E0,-1.3700426E0,-1.3669634E0,1.8344408E4,-1.2270273E0,-8.571959E-1,-1.9080572E4,-3.3233489E3,8.7801075E-1,-2.4591452E-1,2.727356E0,8.7801075E-1,-7.630198E-2,-1.6687428E4,-6.710845E3,1.3463984E4,-1.1503431E-1,5.0137476E3,2.8372322E4,-3.3104656E3,8.7801075E-1,-1.6879719E3,-8.919035E3,-1.4802367E3,2.088403E3,-1.757875E-2,-3.2571916E-2,-1.0506256E0,6.0713637E-1,6.8335164E-1,5.9904176E-1,1.948244E-1,-9.98953E3,4.3506047E4,1E0,4.23939E-2,4.23939E-2,2.1481527E-1,1E0,7.238023E-2,-3.6969001E3,1.3235289E-1,2.727356E0,1E0,1.5252737E0,1.8565667E0,9.332377E-1,1.8565667E0,2.9238533E3,-1.9015292E3,4.105541E0,-1.5276085E4,-7.583251E3,-1.4883078E4,-1.9020041E4,-9.113778E3,-1.5000477E4,-1.7090014E4,-1.0640083E3,-1.8289424E4,-7.029734E3,-1.1331093E4,1.1287007E4,-1.1727877E4,-6.0106123E3,1.4529844E3,6.7228784E3,3.649785E3,-5.551075E3,-7.3800312E3,-3.1582551E3,-1.9088004E3,8.016488E3,-9.811046E3,-4.722185E3,-9.8500586E2,-7.3727E3,1.4321875E3,3.7813384E3,3.455098E4,1.1282302E4,1.5098784E4,4.415811E3,-8.578719E2,-9.657364E3,-2.6624197E2,1.4667507E4,-1.9692908E4,-1.1685644E4,-1.5552946E2,-6.766643E3,-7.8444E3,1.2427826E3,5.150146E3,-1.1154685E4,-3.4867449E3,5.3939585E3,3.6422761E3,3.587507E4,2.9275787E4,-8.08443E2,1.1445089E3,-1.4292991E4,4.540606E3,1.1271433E4,-8.1658413E3,-2.3295095E3,5.8144346E3,2.6403225E4,1.7365031E4,3.32893E4,7.47297E3,1.5538578E4,2.5483338E4,8.224407E3,3.7127273E3,1.6242511E4,2.6494428E4,4.025147E4,9.079446E3,2.2794807E4],"split_indices":[3,4,2,2,3,4,9,1,3,3,6,11,13,4,3,11,11,1,3,11,13,2,9,3,3,3,3,11,3,3,3,9,3,3,3,7,3,3,3,0,13,3,2,3,3,2,11,9,3,3,3,11,2,3,0,9,0,9,11,0,0,9,2,0,3,3,3,2,3,0,3,3,0,0,2,11,13,2,3,0,0,0,3,0,0,0,2,0,0,0,0,3,3,9,3,3,11,3,0,0,6,3,3,3,7,3,0,3,13,1,9,3,3,3,0,0,3,0,0,0,0,0,0,0,0,0,0,0,0,0,0,0,0,0,0,0,0,0,0,0,0,0,0,0,0,0,0,0,0,0,0,0,0,0,0,0,0,0,0,0,0,0,0,0,0,0,0,0,0,0,0,0,0,0,0,0,0,0,0,0,0,0,0,0,0,0,0],"split_type":[0,0,0,0,0,0,0,0,0,0,0,0,0,0,0,0,0,0,0,0,0,0,0,0,0,0,0,0,0,0,0,0,0,0,0,0,0,0,0,0,0,0,0,0,0,0,0,0,0,0,0,0,0,0,0,0,0,0,0,0,0,0,0,0,0,0,0,0,0,0,0,0,0,0,0,0,0,0,0,0,0,0,0,0,0,0,0,0,0,0,0,0,0,0,0,0,0,0,0,0,0,0,0,0,0,0,0,0,0,0,0,0,0,0,0,0,0,0,0,0,0,0,0,0,0,0,0,0,0,0,0,0,0,0,0,0,0,0,0,0,0,0,0,0,0,0,0,0,0,0,0,0,0,0,0,0,0,0,0,0,0,0,0,0,0,0,0,0,0,0,0,0,0,0,0,0,0,0,0,0,0,0,0,0,0,0,0],"sum_hessian":[2.692E3,1.61E3,1.082E3,1.035E3,5.75E2,4E2,6.82E2,4.09E2,6.26E2,5.42E2,3.3E1,1.86E2,2.14E2,6.14E2,6.8E1,3.73E2,3.6E1,1.34E2,4.92E2,2.2E1,5.2E2,1.4E1,1.9E1,1.55E2,3.1E1,1.9E2,2.4E1,1.98E2,4.16E2,7E0,6.1E1,3E1,3.43E2,2.6E1,1E1,1.24E2,1E1,2.83E2,2.09E2,4E0,1.8E1,5.13E2,7E0,8E0,6E0,4E0,1.5E1,1.12E2,4.3E1,2.1E1,1E1,1.6E1,1.74E2,1E1,1.4E1,1.96E2,2E0,2.03E2,2.13E2,3E0,4E0,4E1,2.1E1,2E0,2.8E1,9.3E1,2.5E2,1.8E1,8E0,4E0,6E0,1.17E2,7E0,5E0,5E0,9E1,1.93E2,1.36E2,7.3E1,1.4E1,4E0,4E0,5.09E2,4E0,3E0,2E0,6E0,3E0,3E0,3E0,1E0,1.1E1,4E0,2.3E1,8.9E1,1.8E1,2.5E1,1.3E1,8E0,3E0,7E0,8E0,8E0,6E0,1.68E2,9E0,1E0,7E0,1.89E2,1E1,1.93E2,7.8E1,1.35E2,3.9E1,1E0,2E0,1.9E1,1.5E1,1.3E1,4.7E1,4.6E1,2.4E1,2.26E2,4E0,1.4E1,5E0,3E0,4E0,2E0,9.3E1,2.4E1,3E0,2E0,2.2E1,6.8E1,1.65E2,2.8E1,1.11E2,2.5E1,3.4E1,3.9E1,4.84E2,2.5E1,2E0,4E0,8E0,3E0,1E0,3E0,4E0,1.9E1,8.5E1,4E0,7E0,1.1E1,6E0,1.9E1,2E0,1.1E1,6E0,1E0,4E0,4E0,2E0,6E0,3E0,3E0,1.65E2,3E0,5E0,4E0,3E0,4E0,1.84E2,5E0,7E0,3E0,1.34E2,5.9E1,6.7E1,1.1E1,1.1E1,1.24E2,1.7E1,2.2E1,3E0,1.6E1],"tree_param":{"num_deleted":"0","num_feature":"15","num_nodes":"187","size_leaf_vector":"1"}},{"base_weights":[3.9044296E2,-7.9386266E4,8.5448875E4,-1.1354956E5,-1.1928152E3,3.885388E4,1.4910067E5,-1.6974698E5,-9.685278E4,-3.4128664E4,1.0274256E5,-7.0504497E3,8.128966E4,8.777431E4,2.2805677E5,-2.1790447E4,-1.6167319E5,-1.2110351E5,-6.968967E4,-5.13937E4,7.444031E4,7.421251E3,1.4559975E5,-7.843933E4,1.1309881E4,1.7115646E4,1.0212108E5,7.2279055E4,1.6626395E5,1.8298347E5,2.716178E5,-1.6632934E5,-1.2812856E4,-1.4327167E5,-9.644429E4,-1.00461836E5,-4.9231902E4,-7.7869055E4,-2.4553848E4,3.8990324E4,1.25449164E5,-3.9833207E4,9.3435984E4,5.370754E4,2.0418753E5,-1.1596548E4,-5.2260555E4,-2.3968785E4,3.339421E4,-8.288492E3,8.778436E4,8.749128E4,1.7649517E5,6.7113305E4,3.2644225E4,1.1299728E5,1.8336494E5,1.2017595E5,2.327482E5,-3.3149926E4,2.7701853E5,-1.1227638E5,-1.6905707E4,-1.6053542E5,-1.2497226E5,-1.0082218E5,-2.874525E4,-9.665126E4,-1.7072639E4,-6.6478086E4,-3.185172E4,-1.9435283E4,-7.0333695E4,-5.1512242E4,2.2577104E4,5.637064E4,1.1119016E4,4.4722594E4,2.2076705E4,-6.384658E4,5.458158E3,2.8452865E4,-1.875868E3,7.451899E4,-2.2345466E3,1.0174876E5,2.24695E5,-3.5651633E4,-9.63482E4,-3.307262E4,5.541122E4,1.0292643E4,9.325244E4,-4.36992E4,4.6944965E4,7.369219E2,1.3382494E5,2.6139742E4,1.00405914E5,1.607288E5,2.7994025E4,3.7531938E4,1.0351146E5,1.7883342E5,4.9236133E4,1.3733119E5,2.1562706E5,1.2716697E5,2.3434193E4,2.7933347E5,1.943198E5,-8.814011E3,3.841522E3,2.5659506E5,3.65285E4,-1.2261151E4,-4.4625626E2,-1.6695568E4,-1.1173957E4,-1.4636519E4,-1.0714187E4,-1.481521E4,-9.461044E3,3.8647625E3,-3.7581958E3,-1.1087408E4,-8.5449375E3,1.3252257E3,-7.298904E3,-5.916278E3,1.3774818E3,-7.577397E3,-8.7097266E2,-7.9164736E3,-2.3341067E3,3.6942122E3,-5.0160435E3,2.8849385E3,7.762849E3,2.8094626E3,-5.0199374E2,1.9501125E3,8.398488E3,-7.4185894E3,-3.0803635E3,8.265831E3,-2.277493E3,9.256866E3,2.910479E3,1.2498382E4,1.3617375E3,1.8722709E4,3.1213264E4,-4.294346E3,5.644236E3,-1.0375443E4,-7.4398596E2,-7.870301E3,-2.1678884E3,1.57969375E4,-1.5614036E3,-2.8674042E2,3.6378813E3,-4.2374957E2,1.0664283E4,-5.137052E3,8.0822773E3,2.613772E3,9.02791E3,-4.9691016E2,3.8922324E2,1.4571364E4,2.9773157E3,-1.7593398E3,2.968243E3,8.487176E3,1.2606517E4,1.4437948E4,2.402112E4,1.9466951E4,3.1693499E3,3.6645789E3,1.3690257E4,5.7524E3,2.158524E4,6.510365E3,1.312582E3,8.145497E3,1.654838E4,2.5413953E3,2.243007E4,9.158561E3,1.5020713E4,-3.1133125E3,4.4859307E3,1.523213E4,3.414335E4,1.7086785E4,2.8046936E4,2.620531E4,1.2741032E4],"categories":[],"categories_nodes":[],"categories_segments":[],"categories_sizes":[],"default_left":[0,0,0,0,0,0,0,0,0,0,0,0,0,0,0,0,0,0,0,0,0,0,0,0,0,0,0,0,0,0,0,0,0,0,0,0,0,0,0,0,0,0,0,0,0,0,0,0,0,0,0,0,0,0,0,0,0,0,0,0,0,0,0,0,0,0,0,0,0,0,0,0,0,0,0,0,0,0,0,0,0,0,0,0,0,0,0,0,0,0,0,0,0,0,0,0,0,0,0,0,0,0,0,0,0,0,0,0,0,0,0,0,0,0,0,0,0,0,0,0,0,0,0,0,0,0,0,0,0,0,0,0,0,0,0,0,0,0,0,0,0,0,0,0,0,0,0,0,0,0,0,0,0,0,0,0,0,0,0,0,0,0,0,0,0,0,0,0,0,0,0,0,0,0,0,0,0,0,0,0,0,0,0,0,0,0,0,0,0,0,0,0,0,0,0,0,0,0,0,0,0],"id":3,"left_children":[1,3,5,7,9,11,13,15,17,19,21,23,25,27,29,-1,31,33,35,37,39,41,43,45,47,49,51,53,55,57,59,61,-1,63,65,67,69,71,73,75,77,79,81,83,85,-1,87,89,91,93,95,97,99,101,-1,103,105,107,109,111,113,115,-1,117,119,121,123,125,-1,127,129,-1,131,133,135,137,139,141,-1,143,-1,-1,145,147,-1,149,151,153,155,157,159,161,163,165,167,169,171,173,175,177,-1,179,181,183,185,187,189,191,193,195,197,-1,-1,199,-1,-1,-1,-1,-1,-1,-1,-1,-1,-1,-1,-1,-1,-1,-1,-1,-1,-1,-1,-1,-1,-1,-1,-1,-1,-1,-1,-1,-1,-1,-1,-1,-1,-1,-1,-1,-1,-1,-1,-1,-1,-1,-1,-1,-1,-1,-1,-1,-1,-1,-1,-1,-1,-1,-1,-1,-1,-1,-1,-1,-1,-1,-1,-1,-1,-1,-1,-1,-1,-1,-1,-1,-1,-1,-1,-1,-1,-1,-1,-1,-1,-1,-1,-1,-1,-1,-1],"loss_changes":[1.8423124E13,3.7424212E12,3.891341E12,8.984168E11,1.4652127E12,1.4810422E12,2.6673425E12,5.108767E10,4.88239E11,6.130212E11,4.1969536E11,4.806119E11,5.263023E11,3.698747E11,4.2545027E11,0E0,8.988918E9,2.032025E11,2.2042575E11,1.977651E11,7.6480545E10,1.3785298E11,3.7128084E11,6.7618734E10,2.282993E11,1.766648E11,3.088051E11,3.2470847E11,2.5736774E10,3.5335202E11,2.0834471E11,5.641863E9,0E0,4.53323E10,5.371003E10,2.15194E10,6.2926586E10,1.1009294E11,1.8031405E11,1.2936757E10,1.2863108E11,5.336363E10,2.1909448E11,4.7565603E10,6.747023E10,0E0,3.024846E10,8.349347E10,2.4794758E11,1.4482894E11,1.0410197E11,1.9625083E11,3.329137E10,2.76059E11,0E0,5.4161752E10,2.5338184E10,3.4894053E10,6.566314E10,1.5192063E10,1.2079176E11,1.1709809E10,0E0,1.3612351E10,2.4369824E10,3.8609617E10,9.194359E9,1.2353012E10,0E0,5.7032245E10,1.3788692E11,0E0,4.426367E10,6.8262494E10,5.6186585E10,7.70619E9,3.428656E9,9.25498E9,0E0,3.8643548E9,0E0,0E0,1.7782702E10,1.6159171E10,0E0,1.6727695E10,5.622399E10,2.5927504E10,7.1297843E9,5.1323675E10,8.987718E10,4.507599E10,6.5723335E10,4.7138054E10,2.3788569E10,1.9938363E8,1.6691331E10,7.494189E9,7.180989E10,2.2495625E10,0E0,1.2685876E11,2.5397835E11,1.9018564E10,4.302289E9,1.4835614E10,2.72964E10,2.8872802E10,7.2421647E9,1.6884118E11,3.2891732E10,0E0,0E0,3.712064E10,0E0,0E0,0E0,0E0,0E0,0E0,0E0,0E0,0E0,0E0,0E0,0E0,0E0,0E0,0E0,0E0,0E0,0E0,0E0,0E0,0E0,0E0,0E0,0E0,0E0,0E0,0E0,0E0,0E0,0E0,0E0,0E0,0E0,0E0,0E0,0E0,0E0,0E0,0E0,0E0,0E0,0E0,0E0,0E0,0E0,0E0,0E0,0E0,0E0,0E0,0E0,0E0,0E0,0E0,0E0,0E0,0E0,0E0,0E0,0E0,0E0,0E0,0E0,0E0,0E0,0E0,0E0,0E0,0E0,0E0,0E0,0E0,0E0,0E0,0E0,0E0,0E0,0E0,0E0,0E0,0E0,0E0,0E0,0E0,0E0,0E0,0E0],"parents":[2147483647,0,0,1,1,2,2,3,3,4,4,5,5,6,6,7,7,8,8,9,9,10,10,11,11,12,12,13,13,14,14,16,16,17,17,18,18,19,19,20,20,21,21,22,22,23,23,24,24,25,25,26,26,27,27,28,28,29,29,30,30,31,31,33,33,34,34,35,35,36,36,37,37,38,38,39,39,40,40,41,41,42,42,43,43,44,44,46,46,47,47,48,48,49,49,50,50,51,51,52,52,53,53,55,55,56,56,57,57,58,58,59,59,60,60,61,61,63,63,64,64,65,65,66,66,67,67,69,69,70,70,72,72,73,73,74,74,75,75,76,76,77,77,79,79,82,82,83,83,85,85,86,86,87,87,88,88,89,89,90,90,91,91,92,92,93,93,94,94,95,95,96,96,97,97,98,98,99,99,101,101,102,102,103,103,104,104,105,105,106,106,107,107,108,108,109,109,110,110,113,113],"right_children":[2,4,6,8,10,12,14,16,18,20,22,24,26,28,30,-1,32,34,36,38,40,42,44,46,48,50,52,54,56,58,60,62,-1,64,66,68,70,72,74,76,78,80,82,84,86,-1,88,90,92,94,96,98,100,102,-1,104,106,108,110,112,114,116,-1,118,120,122,124,126,-1,128,130,-1,132,134,136,138,140,142,-1,144,-1,-1,146,148,-1,150,152,154,156,158,160,162,164,166,168,170,172,174,176,178,-1,180,182,184,186,188,190,192,194,196,198,-1,-1,200,-1,-1,-1,-1,-1,-1,-1,-1,-1,-1,-1,-1,-1,-1,-1,-1,-1,-1,-1,-1,-1,-1,-1,-1,-1,-1,-1,-1,-1,-1,-1,-1,-1,-1,-1,-1,-1,-1,-1,-1,-1,-1,-1,-1,-1,-1,-1,-1,-1,-1,-1,-1,-1,-1,-1,-1,-1,-1,-1,-1,-1,-1,-1,-1,-1,-1,-1,-1,-1,-1,-1,-1,-1,-1,-1,-1,-1,-1,-1,-1,-1,-1,-1,-1,-1,-1,-1],"split_conditions":[-9.6548624E-2,9.861826E-2,2.073187E-1,-1.2626517E0,-2.7260086E-1,8.0117184E-1,7.7815336E-1,-1.7956245E0,1E0,2.0020373E0,8.774246E-1,-8.45951E-1,-8.5094875E-1,2.0020373E0,7.320794E-1,-2.1790447E4,-1.062883E-1,-8.794233E-2,-7.022665E-1,8.774246E-1,2.206407E0,1E0,5.396671E-1,-1.1620569E0,3.0197132E-1,1.9586854E0,1.8040118E0,1E0,5.9904176E-1,1.0501574E0,-2.4591452E-1,1E0,-1.2812856E4,-2.4601589E-1,-1.6214721E-1,1E0,8.774246E-1,-1.6964943E0,6.0713637E-1,-6.434825E-1,-1.2444605E0,-1.2499421E-1,2.972777E-1,1.8427916E0,8.7801075E-1,-1.1596548E4,-9.0217537E-1,1.07364275E-1,-1.8125412E-1,-8.794233E-2,-1.4869088E0,1E0,5.707702E0,4.7340053E-1,3.2644225E4,8.6701787E-1,1E0,1.8427916E0,3.472549E-1,8.4032214E-1,2.8523626E0,-1.273869E0,-1.6905707E4,-2.3135039E-1,-5.7982236E-1,-1.2270273E0,-1.521353E-1,-7.0208794E-1,-1.7072639E4,-6.4479274E-1,8.7801075E-1,-1.9435283E4,-4.3793678E-1,1E0,1.5879391E0,9.332377E-1,5.9904176E-1,3.126064E0,2.2076705E4,9.757183E-1,5.458158E3,2.8452865E4,-2.5026247E-1,4.1222528E-1,-2.2345466E3,-1.9360377E-1,2.727356E0,-9.1342026E-1,5.9904176E-1,1E0,-8.794233E-2,8.774246E-1,-2.4601589E-1,2.727356E0,1E0,1E0,-2.4591452E-1,-7.247563E-1,1.3618093E0,2.1454887E0,2.7994025E4,-2.4591452E-1,8.7801075E-1,4.3721387E-1,2.727356E0,8.68587E-2,9.332377E-1,4.3221614E-1,7.8853256E-1,8.774246E-1,1.8427916E0,-8.814011E3,3.841522E3,2.283872E0,3.65285E4,-1.2261151E4,-4.4625626E2,-1.6695568E4,-1.1173957E4,-1.4636519E4,-1.0714187E4,-1.481521E4,-9.461044E3,3.8647625E3,-3.7581958E3,-1.1087408E4,-8.5449375E3,1.3252257E3,-7.298904E3,-5.916278E3,1.3774818E3,-7.577397E3,-8.7097266E2,-7.9164736E3,-2.3341067E3,3.6942122E3,-5.0160435E3,2.8849385E3,7.762849E3,2.8094626E3,-5.0199374E2,1.9501125E3,8.398488E3,-7.4185894E3,-3.0803635E3,8.265831E3,-2.277493E3,9.256866E3,2.910479E3,1.2498382E4,1.3617375E3,1.8722709E4,3.1213264E4,-4.294346E3,5.644236E3,-1.0375443E4,-7.4398596E2,-7.870301E3,-2.1678884E3,1.57969375E4,-1.5614036E3,-2.8674042E2,3.6378813E3,-4.2374957E2,1.0664283E4,-5.137052E3,8.0822773E3,2.613772E3,9.02791E3,-4.9691016E2,3.8922324E2,1.4571364E4,2.9773157E3,-1.7593398E3,2.968243E3,8.487176E3,1.2606517E4,1.4437948E4,2.402112E4,1.9466951E4,3.1693499E3,3.6645789E3,1.3690257E4,5.7524E3,2.158524E4,6.510365E3,1.312582E3,8.145497E3,1.654838E4,2.5413953E3,2.243007E4,9.158561E3,1.5020713E4,-3.1133125E3,4.4859307E3,1.523213E4,3.414335E4,1.7086785E4,2.8046936E4,2.620531E4,1.2741032E4],"split_indices":[0,3,3,0,0,0,0,0,12,2,14,3,3,2,3,0,3,14,3,14,3,12,3,3,0,0,0,1,11,0,11,6,0,2,0,7,14,0,3,0,0,0,3,14,2,0,3,3,3,14,3,6,13,0,0,3,6,14,3,0,3,0,0,0,3,3,0,0,0,3,2,0,0,12,3,3,11,2,0,3,0,0,0,3,0,0,13,3,11,6,14,14,2,13,12,12,11,3,0,0,0,11,2,3,13,0,3,3,0,14,14,0,0,3,0,0,0,0,0,0,0,0,0,0,0,0,0,0,0,0,0,0,0,0,0,0,0,0,0,0,0,0,0,0,0,0,0,0,0,0,0,0,0,0,0,0,0,0,0,0,0,0,0,0,0,0,0,0,0,0,0,0,0,0,0,0,0,0,0,0,0,0,0,0,0,0,0,0,0,0,0,0,0,0,0,0,0,0,0,0,0],"split_type":[0,0,0,0,0,0,0,0,0,0,0,0,0,0,0,0,0,0,0,0,0,0,0,0,0,0,0,0,0,0,0,0,0,0,0,0,0,0,0,0,0,0,0,0,0,0,0,0,0,0,0,0,0,0,0,0,0,0,0,0,0,0,0,0,0,0,0,0,0,0,0,0,0,0,0,0,0,0,0,0,0,0,0,0,0,0,0,0,0,0,0,0,0,0,0,0,0,0,0,0,0,0,0,0,0,0,0,0,0,0,0,0,0,0,0,0,0,0,0,0,0,0,0,0,0,0,0,0,0,0,0,0,0,0,0,0,0,0,0,0,0,0,0,0,0,0,0,0,0,0,0,0,0,0,0,0,0,0,0,0,0,0,0,0,0,0,0,0,0,0,0,0,0,0,0,0,0,0,0,0,0,0,0,0,0,0,0,0,0,0,0,0,0,0,0,0,0,0,0,0,0],"sum_hessian":[2.713E3,1.4E3,1.313E3,9.74E2,4.26E2,7.59E2,5.54E2,2.21E2,7.53E2,3.24E2,1.02E2,3.65E2,3.94E2,3.13E2,2.41E2,2.8E1,1.93E2,3.96E2,3.57E2,2.8E2,4.4E1,3.2E1,7E1,7.4E1,2.91E2,9.7E1,2.97E2,2.63E2,5E1,1.21E2,1.2E2,1.66E2,2.7E1,2.06E2,1.9E2,1.41E2,2.16E2,1.4E2,1.4E2,2.7E1,1.7E1,2.1E1,1.1E1,2.8E1,4.2E1,2.9E1,4.5E1,1.12E2,1.79E2,7.2E1,2.5E1,2.5E2,4.7E1,2.59E2,4E0,1.4E1,3.6E1,5.5E1,6.6E1,2E0,1.18E2,1E1,1.56E2,1.02E2,1.04E2,1.78E2,1.2E1,1.36E2,5E0,1.07E2,1.09E2,7E0,1.33E2,8.9E1,5.1E1,1.6E1,1.1E1,1E1,7E0,1.7E1,4E0,3E0,8E0,2.2E1,6E0,8E0,3.4E1,3.4E1,1.1E1,1.01E2,1.1E1,1.3E2,4.9E1,4.4E1,2.8E1,9E0,1.6E1,4.4E1,2.06E2,4.3E1,4E0,1.44E2,1.15E2,6E0,8E0,1.7E1,1.9E1,5.1E1,4E0,2.7E1,3.9E1,1E0,1E0,9.9E1,1.9E1,9E0,1E0,8.8E1,1.4E1,4.4E1,6E1,1.8E1,1.6E2,1E0,1.1E1,5.6E1,8E1,8E0,9.9E1,6.8E1,4.1E1,1.22E2,1.1E1,4.4E1,4.5E1,4.3E1,8E0,8E0,8E0,5E0,6E0,7E0,3E0,1.2E1,5E0,1E0,7E0,1.5E1,7E0,6E0,2E0,2.6E1,8E0,3.2E1,2E0,1E1,1E0,1.9E1,8.2E1,4E0,7E0,8.7E1,4.3E1,6E0,4.3E1,4.2E1,2E0,2E1,8E0,3E0,6E0,1.4E1,2E0,3E0,4.1E1,1.31E2,7.5E1,3.8E1,5E0,4E0,1.4E2,3.9E1,7.6E1,2E0,4E0,5E0,3E0,7E0,1E1,1E0,1.8E1,2.2E1,2.9E1,1E0,3E0,1E1,1.7E1,3.3E1,6E0,9.4E1,5E0],"tree_param":{"num_deleted":"0","num_feature":"15","num_nodes":"201","size_leaf_vector":"1"}},{"base_weights":[1.1166708E3,-4.157855E4,7.9717586E4,-6.982045E4,2.950853E3,6.828963E4,2.3278706E5,-8.735263E4,-1.3827422E4,-1.037394E4,5.622849E4,8.997345E3,9.502411E4,6.854275E4,2.5425967E5,-1.0190997E5,-5.981582E4,-5.5888777E4,1.06217E4,-5.063642E4,6.654967E3,9.811672E4,2.8630953E4,2.533624E3,2.5887373E4,5.578683E4,1.4012333E5,-1.8615588E4,1.4199255E4,3.117371E5,1.3814531E5,-1.1504222E5,-7.915882E4,-7.2505195E4,2.0036453E4,-9.5639305E4,-2.393672E4,-6.550416E4,2.2259094E4,-1.026482E5,-3.0542582E4,3.6850688E3,1.4652202E5,6.2495223E4,2.486018E5,1.7764773E4,8.661049E4,-2.7184084E4,6.394401E4,8.479008E3,8.385631E4,1.4348406E5,-1.3183897E4,-3.4630624E2,-2.7562917E3,3.2665547E4,2.8804187E3,-2.94941E3,1.7932483E5,-1.2115826E5,-6.520275E4,-8.338233E4,-1.2316125E4,-8.5047734E4,5.896717E3,1.5972569E4,-1.4434767E4,-1.4972971E4,-7.8508336E4,-8.548258E3,-8.331451E3,-9.5226586E4,-1.1991027E4,1.3987952E4,9.747261E4,1.8969611E4,-1.2184504E5,1.8082292E2,-4.1845223E4,1.9453936E4,-1.2103193E4,4.127645E3,2.4144848E4,2.2022613E4,4.1735473E4,3.2051865E4,6.059685E4,6.9246196E3,1.174341E4,2.645266E4,3.0214232E4,-4.462352E4,1.8547611E3,4.498019E4,1.3624686E5,-1.4928119E4,8.231894E4,2.1796567E5,7.374607E4,8.2983016E4,1.6015716E5,7.768601E3,1.9555557E4,-1.2850264E4,-1.0115593E4,5.8026562E3,-1.1568664E4,-7.3889995E3,-1.2114492E4,5.6633535E3,-7.950634E3,-9.477079E3,1.9217694E3,2.5578083E3,-1.173071E4,8.975981E2,-5.6151577E3,-8.295446E3,3.4106907E3,5.218705E3,-1.5926465E3,-1.30167E4,-4.1690894E3,3.39966E3,-7.797471E3,9.853E2,9.780146E3,2.779908E3,2.6470666E4,-5.182488E3,8.50217E3,-1.6321086E4,-9.741538E3,3.0442014E3,-7.2464116E3,-6.479358E3,1.6999818E2,-7.9791864E2,4.697105E3,-7.395136E3,2.3396268E2,-3.1018445E3,8.49019E3,8.494031E3,-6.216766E2,-3.262535E3,3.1836196E3,6.069099E3,-3.8292844E3,-6.3230664E3,3.6908086E3,5.179056E3,-2.8829812E3,1.6596266E3,9.767812E3,1.8751639E4,7.647961E3,-2.3797546E3,1.4948108E4,-2.268927E3,1.1526445E4,3.0567951E4,8.658335E3,6.898905E3,2.8245729E4,2.7243863E4,5.82607E3,1.5114177E4,2.3442564E4],"categories":[],"categories_nodes":[],"categories_segments":[],"categories_sizes":[],"default_left":[0,0,0,0,0,0,0,0,0,0,0,0,0,0,0,0,0,0,0,0,0,0,0,0,0,0,0,0,0,0,0,0,0,0,0,0,0,0,0,0,0,0,0,0,0,0,0,0,0,0,0,0,0,0,0,0,0,0,0,0,0,0,0,0,0,0,0,0,0,0,0,0,0,0,0,0,0,0,0,0,0,0,0,0,0,0,0,0,0,0,0,0,0,0,0,0,0,0,0,0,0,0,0,0,0,0,0,0,0,0,0,0,0,0,0,0,0,0,0,0,0,0,0,0,0,0,0,0,0,0,0,0,0,0,0,0,0,0,0,0,0,0,0,0,0,0,0,0,0,0,0,0,0,0,0,0,0,0,0,0,0,0,0,0,0,0,0,0,0],"id":4,"left_children":[1,3,5,7,9,11,13,15,17,19,21,23,25,27,29,31,33,35,37,39,41,43,45,47,-1,49,51,53,-1,55,57,59,61,63,65,67,69,71,73,75,77,79,81,83,85,87,89,91,93,95,97,99,-1,-1,-1,-1,-1,-1,101,103,105,107,109,111,113,-1,115,-1,117,119,-1,121,123,125,127,129,131,133,135,137,139,-1,-1,-1,141,-1,143,145,-1,-1,147,149,151,153,155,157,159,161,163,165,167,-1,-1,-1,-1,-1,-1,-1,-1,-1,-1,-1,-1,-1,-1,-1,-1,-1,-1,-1,-1,-1,-1,-1,-1,-1,-1,-1,-1,-1,-1,-1,-1,-1,-1,-1,-1,-1,-1,-1,-1,-1,-1,-1,-1,-1,-1,-1,-1,-1,-1,-1,-1,-1,-1,-1,-1,-1,-1,-1,-1,-1,-1,-1,-1,-1,-1,-1,-1],"loss_changes":[9.114537E12,2.2135736E12,1.6564056E12,1.0560618E12,4.8616417E11,1.4115117E12,2.1533793E11,3.226112E11,2.6591134E11,3.7606005E11,1.5556447E11,4.483506E11,1.0786995E12,6.025913E10,3.440244E11,1.50737E11,2.912494E11,1.18371254E11,1.4674674E11,1.672188E11,1.5980093E11,2.7393078E11,5.138274E10,4.981317E11,0E0,4.374981E11,2.794046E11,5.824211E8,0E0,1.5098524E11,1.5025855E11,9.4824825E10,5.5153E10,2.433914E11,1.9491591E11,2.7163034E10,4.8629383E10,3.3850024E10,8.759708E10,1.0737182E11,4.1330975E10,9.4592434E10,6.9958566E10,1.381592E11,1.1578488E11,7.697783E10,1.2244696E11,9.326423E10,1.1590291E11,2.1554807E11,2.6459269E11,2.7117381E11,0E0,0E0,0E0,0E0,0E0,0E0,1.2852494E10,3.0925914E10,2.4933561E11,5.8079707E10,6.4728375E10,2.1775594E11,8.786916E10,0E0,3.2732525E10,0E0,1.9853165E10,2.0548334E10,0E0,2.076106E10,2.996077E10,4.4089803E10,1.557664E11,3.7139104E10,2.351235E10,7.475059E10,8.704844E10,1.4380204E11,1.6989277E11,0E0,0E0,0E0,1.3139512E11,0E0,7.033952E9,6.60653E10,0E0,0E0,2.529064E10,1.7679683E11,1.0875121E11,1.0607464E11,4.08151E10,1.4208775E11,1.0640174E11,1.3486988E11,1.731252E11,2.7920577E11,1.11871525E11,0E0,0E0,0E0,0E0,0E0,0E0,0E0,0E0,0E0,0E0,0E0,0E0,0E0,0E0,0E0,0E0,0E0,0E0,0E0,0E0,0E0,0E0,0E0,0E0,0E0,0E0,0E0,0E0,0E0,0E0,0E0,0E0,0E0,0E0,0E0,0E0,0E0,0E0,0E0,0E0,0E0,0E0,0E0,0E0,0E0,0E0,0E0,0E0,0E0,0E0,0E0,0E0,0E0,0E0,0E0,0E0,0E0,0E0,0E0,0E0,0E0,0E0,0E0,0E0,0E0,0E0,0E0,0E0],"parents":[2147483647,0,0,1,1,2,2,3,3,4,4,5,5,6,6,7,7,8,8,9,9,10,10,11,11,12,12,13,13,14,14,15,15,16,16,17,17,18,18,19,19,20,20,21,21,22,22,23,23,25,25,26,26,27,27,29,29,30,30,31,31,32,32,33,33,34,34,35,35,36,36,37,37,38,38,39,39,40,40,41,41,42,42,43,43,44,44,45,45,46,46,47,47,48,48,49,49,50,50,51,51,58,58,59,59,60,60,61,61,62,62,63,63,64,64,66,66,68,68,69,69,71,71,72,72,73,73,74,74,75,75,76,76,77,77,78,78,79,79,80,80,84,84,86,86,87,87,90,90,91,91,92,92,93,93,94,94,95,95,96,96,97,97,98,98,99,99,100,100],"right_children":[2,4,6,8,10,12,14,16,18,20,22,24,26,28,30,32,34,36,38,40,42,44,46,48,-1,50,52,54,-1,56,58,60,62,64,66,68,70,72,74,76,78,80,82,84,86,88,90,92,94,96,98,100,-1,-1,-1,-1,-1,-1,102,104,106,108,110,112,114,-1,116,-1,118,120,-1,122,124,126,128,130,132,134,136,138,140,-1,-1,-1,142,-1,144,146,-1,-1,148,150,152,154,156,158,160,162,164,166,168,-1,-1,-1,-1,-1,-1,-1,-1,-1,-1,-1,-1,-1,-1,-1,-1,-1,-1,-1,-1,-1,-1,-1,-1,-1,-1,-1,-1,-1,-1,-1,-1,-1,-1,-1,-1,-1,-1,-1,-1,-1,-1,-1,-1,-1,-1,-1,-1,-1,-1,-1,-1,-1,-1,-1,-1,-1,-1,-1,-1,-1,-1,-1,-1,-1,-1,-1,-1],"split_conditions":[2.073187E-1,1E0,2.8132234E0,8.774246E-1,-6.005938E-2,-8.794233E-2,1.2730827E0,1E0,2.3732404E-1,-8.794233E-2,4.7391623E-2,2.727356E0,7.820566E-1,1E0,3.3346426E0,2.3732404E-1,-2.0374386E-1,-5.14852E-1,-7.947244E-1,-9.1342026E-1,5.707702E0,4.23939E-2,1.7608294E-1,1.443998E0,2.5887373E4,1E0,1E0,2.7478793E-1,1.4199255E4,5.3891225E0,3.4758282E0,-3.4742835E-1,1.3235289E-1,1E0,-1.5270539E-1,-2.4591452E-1,-1.8125412E-1,-2.4591452E-1,1.8427916E0,-1.0908707E0,2.3732404E-1,-4.5987707E-1,-7.672369E-1,-3.2571916E-2,-8.794233E-2,1.5252737E0,-8.794233E-2,1E0,1E0,1.5252737E0,-2.4591452E-1,1E0,-1.3183897E4,-3.4630624E2,-2.7562917E3,3.2665547E4,2.8804187E3,-2.94941E3,4.105541E0,-8.794233E-2,-2.4497506E-1,-1.6626096E-1,1.6483808E-1,2.727356E0,-7.572415E-1,1.5972569E4,-2.6324762E-2,-1.4972971E4,1.8427916E0,-4.8736453E-1,-8.331451E3,-8.7968564E-1,-8.9217997E-1,1E0,1.5252737E0,-1.3082402E0,-1.0770956E0,-3.4368005E-1,-2.9745114E-1,2.3732404E-1,-3.8491124E-1,4.127645E3,2.4144848E4,2.2022613E4,8.774246E-1,3.2051865E4,5.9904176E-1,5.9904176E-1,1.174341E4,2.645266E4,1.8607838E-1,1.7366214E0,4.472093E-1,3.1339107E0,1.4442546E0,1E0,3.2476515E-1,5.209257E-1,2.8081584E0,8.6701787E-1,1.443998E0,7.768601E3,1.9555557E4,-1.2850264E4,-1.0115593E4,5.8026562E3,-1.1568664E4,-7.3889995E3,-1.2114492E4,5.6633535E3,-7.950634E3,-9.477079E3,1.9217694E3,2.5578083E3,-1.173071E4,8.975981E2,-5.6151577E3,-8.295446E3,3.4106907E3,5.218705E3,-1.5926465E3,-1.30167E4,-4.1690894E3,3.39966E3,-7.797471E3,9.853E2,9.780146E3,2.779908E3,2.6470666E4,-5.182488E3,8.50217E3,-1.6321086E4,-9.741538E3,3.0442014E3,-7.2464116E3,-6.479358E3,1.6999818E2,-7.9791864E2,4.697105E3,-7.395136E3,2.3396268E2,-3.1018445E3,8.49019E3,8.494031E3,-6.216766E2,-3.262535E3,3.1836196E3,6.069099E3,-3.8292844E3,-6.3230664E3,3.6908086E3,5.179056E3,-2.8829812E3,1.6596266E3,9.767812E3,1.8751639E4,7.647961E3,-2.3797546E3,1.4948108E4,-2.268927E3,1.1526445E4,3.0567951E4,8.658335E3,6.898905E3,2.8245729E4,2.7243863E4,5.82607E3,1.5114177E4,2.3442564E4],"split_indices":[3,4,9,14,3,14,3,12,9,14,3,13,3,4,3,9,3,3,3,3,13,3,3,11,0,4,7,3,0,9,3,3,3,1,3,11,3,11,14,11,9,3,3,3,14,9,14,12,12,9,11,4,0,0,0,0,0,0,3,14,3,3,3,13,3,0,3,0,14,3,0,3,3,1,9,3,3,3,3,9,3,0,0,0,14,0,11,11,0,0,3,3,3,11,3,8,3,3,14,3,11,0,0,0,0,0,0,0,0,0,0,0,0,0,0,0,0,0,0,0,0,0,0,0,0,0,0,0,0,0,0,0,0,0,0,0,0,0,0,0,0,0,0,0,0,0,0,0,0,0,0,0,0,0,0,0,0,0,0,0,0,0,0,0,0,0,0,0,0],"split_type":[0,0,0,0,0,0,0,0,0,0,0,0,0,0,0,0,0,0,0,0,0,0,0,0,0,0,0,0,0,0,0,0,0,0,0,0,0,0,0,0,0,0,0,0,0,0,0,0,0,0,0,0,0,0,0,0,0,0,0,0,0,0,0,0,0,0,0,0,0,0,0,0,0,0,0,0,0,0,0,0,0,0,0,0,0,0,0,0,0,0,0,0,0,0,0,0,0,0,0,0,0,0,0,0,0,0,0,0,0,0,0,0,0,0,0,0,0,0,0,0,0,0,0,0,0,0,0,0,0,0,0,0,0,0,0,0,0,0,0,0,0,0,0,0,0,0,0,0,0,0,0,0,0,0,0,0,0,0,0,0,0,0,0,0,0,0,0,0,0],"sum_hessian":[2.714E3,1.759E3,9.55E2,1.076E3,6.83E2,8.9E2,6.5E1,8.19E2,2.57E2,5.47E2,1.36E2,2.77E2,6.13E2,8E0,5.7E1,5.34E2,2.85E2,9.4E1,1.63E2,1.62E2,3.85E2,5.3E1,8.3E1,2.71E2,6E0,3.29E2,2.84E2,4E0,4E0,3.7E1,2E1,3.36E2,1.98E2,2.46E2,3.9E1,4.1E1,5.3E1,2.1E1,1.42E2,4.4E1,1.18E2,3.78E2,7E0,4.4E1,9E0,7.1E1,1.2E1,1.83E2,8.8E1,1.23E2,2.06E2,2.81E2,3E0,2E0,2E0,3.5E1,2E0,4E0,1.6E1,2.98E2,3.8E1,1.86E2,1.2E1,2.12E2,3.4E1,7E0,3.2E1,8E0,3.3E1,4.3E1,1E1,1.3E1,8E0,1.29E2,1.3E1,6E0,3.8E1,3.2E1,8.6E1,1.89E2,1.89E2,4E0,3E0,4E0,4E1,6E0,3E0,6.5E1,6E0,2E0,1E1,1.14E2,6.9E1,7.1E1,1.7E1,9.4E1,2.9E1,1.3E1,1.93E2,6.2E1,2.19E2,3E0,1.3E1,2.14E2,8.4E1,1.1E1,2.7E1,1.51E2,3.5E1,6E0,6E0,1.94E2,1.8E1,3E1,4E0,2.1E1,1.1E1,3.2E1,1E0,4E0,3.9E1,7E0,6E0,5E0,3E0,1.24E2,5E0,1E1,3E0,3E0,3E0,1.2E1,2.6E1,2.3E1,9E0,5.6E1,3E1,9.5E1,9.4E1,3.5E1,1.54E2,1.5E1,2.5E1,2E0,1E0,2.5E1,4E1,7E0,3E0,9.3E1,2.1E1,2.6E1,4.3E1,4.7E1,2.4E1,8E0,9E0,9E1,4E0,7E0,2.2E1,7E0,6E0,1.9E2,3E0,6E0,5.6E1,1.98E2,2.1E1],"tree_param":{"num_deleted":"0","num_feature":"15","num_nodes":"169","size_leaf_vector":"1"}},{"base_weights":[7.8885223E2,-6.0093508E4,8.483053E4,-8.9189625E4,1.538726E4,5.0591496E4,1.3355131E5,-1.1794108E5,-5.6703625E4,-1.4194536E4,5.916829E4,2.910579E4,1.1793722E5,1.053294E5,1.9805495E5,-1.3123383E5,-7.943702E4,-7.016939E4,-2.4384848E4,-2.869014E4,4.755071E4,-7.667188E3,1.1494439E5,-8.08928E2,5.9379844E4,-1.7711434E4,1.3730378E5,8.968149E4,1.7076514E5,1.775869E5,3.36905E5,-1.5502848E5,-1.1275157E5,-9.68774E4,-5.068763E4,-8.059374E4,-4.1858555E4,-6.5440457E4,-5.669254E2,-5.9327555E4,-1.5631158E4,-5.1744164E4,6.4918348E4,9.84648E3,-8.538377E3,9.790704E3,1.4794089E5,-2.15745E4,3.0754527E4,7.498587E4,1.5169405E4,-7.341873E4,2.2217572E4,1.0313417E5,1.8171384E5,2.801507E4,1.0347706E5,1.2307841E5,2.5187381E5,1.2775497E5,2.3868655E5,3.46454E4,9.206094E3,-1.9052572E4,-1.4640864E5,-1.30789555E5,-9.749593E4,-1.4123794E4,-8.885877E4,-7.839227E4,-1.5063818E3,-8.92791E4,-6.310482E4,-8.481043E4,-1.4359594E4,-8.018753E4,-3.5639066E4,-7.915172E3,9.9240266E4,-6.909626E4,-2.0201637E4,-3.89815E4,-4.865778E2,-6.737613E3,-3.2321875E2,3.1683896E4,9.520196E4,7.250157E4,-1.1231617E4,-4.8738758E4,9.660583E4,1.9796111E5,3.7567875E4,-5.425085E4,-7.713712E3,-1.3896258E4,3.9099742E4,2.9138398E4,9.767461E4,1.5033635E4,4.201086E3,-1.1224871E4,-4.628892E3,8.386108E3,6.5527085E3,5.6799633E4,1.30184586E5,2.4519044E5,1.4867172E5,1.2935995E5,8.508694E3,1.13091805E5,1.7461783E4,1.7304917E5,8.759338E4,1.4940525E5,3.4076008E4,7.6965445E4,1.5717205E5,2.4282836E5,8.595241E3,-1.4957227E4,-8.462981E3,-1.1467399E4,-1.4219633E4,-1.1788634E4,-8.093654E3,-1.03225205E4,-6.875138E3,-8.131747E3,1.638264E3,-1.0369832E3,9.674476E3,-1.0442739E4,-7.8689937E3,-3.0509521E3,-6.7959507E3,-8.757123E3,-2.157023E3,-3.7766472E3,1.3427087E3,3.4807063E3,-8.423623E3,-8.9579795E3,1.2281461E3,-1.7281565E3,2.0513804E3,1.6991682E4,-5.1634062E3,-8.352354E3,-5.985038E3,-6.208214E3,4.598605E3,-4.527988E3,5.8941094E3,-2.4759197E3,1.2871472E3,6.4497065E3,-6.992639E2,2.534939E4,7.559312E3,-4.826599E3,1.4276261E4,-4.3211777E3,8.461151E1,-6.098107E3,6.1326797E3,1.1682796E4,1.047823E3,1.4647182E4,2.4763818E4,3.49171E2,1.1982546E4,-7.771547E3,-2.9503474E3,-4.3554526E3,2.2620732E2,5.751421E-1,6.9664033E3,3.646882E3,-8.810255E3,8.389487E3,1.4888658E4,2.4547312E3,-3.4832664E3,1.2011194E3,4.5987457E2,3.3778533E3,7.770958E3,1.07288E4,2.2511443E4,3.2294232E4,1.7292334E4,1.1140922E4,1.8409002E4,1.857978E4,-2.6635679E3,-9.7002014E2,5.6356694E3,1.0382759E4,1.587532E4,-1.9557502E3,5.302592E3,2.61136E4,1.2192557E4,4.782426E3,1.0946007E4,2.3503323E3,1.722353E4,1.5465544E3,1.05283E4,1.0439123E4,1.759385E4,1.6997428E4,2.5581828E4],"categories":[],"categories_nodes":[],"categories_segments":[],"categories_sizes":[],"default_left":[0,0,0,0,0,0,0,0,0,0,0,0,0,0,0,0,0,0,0,0,0,0,0,0,0,0,0,0,0,0,0,0,0,0,0,0,0,0,0,0,0,0,0,0,0,0,0,0,0,0,0,0,0,0,0,0,0,0,0,0,0,0,0,0,0,0,0,0,0,0,0,0,0,0,0,0,0,0,0,0,0,0,0,0,0,0,0,0,0,0,0,0,0,0,0,0,0,0,0,0,0,0,0,0,0,0,0,0,0,0,0,0,0,0,0,0,0,0,0,0,0,0,0,0,0,0,0,0,0,0,0,0,0,0,0,0,0,0,0,0,0,0,0,0,0,0,0,0,0,0,0,0,0,0,0,0,0,0,0,0,0,0,0,0,0,0,0,0,0,0,0,0,0,0,0,0,0,0,0,0,0,0,0,0,0,0,0,0,0,0,0,0,0,0,0,0,0,0,0,0,0,0,0,0,0,0,0,0,0,0,0,0,0,0,0],"id":5,"left_children":[1,3,5,7,9,11,13,15,17,19,21,23,25,27,29,31,33,35,37,39,41,43,45,47,49,51,53,55,57,59,61,63,65,67,69,71,73,75,77,79,81,83,85,87,-1,89,91,93,95,97,99,101,103,105,107,109,111,113,115,117,119,-1,-1,-1,121,123,125,-1,127,129,131,133,135,137,139,141,143,145,147,149,151,153,155,-1,-1,157,159,161,163,165,167,169,171,173,175,-1,177,179,181,-1,183,-1,-1,185,-1,187,189,191,193,195,197,199,201,203,205,207,-1,209,211,213,-1,-1,-1,-1,-1,-1,-1,-1,-1,-1,-1,-1,-1,-1,-1,-1,-1,-1,-1,-1,-1,-1,-1,-1,-1,-1,-1,-1,-1,-1,-1,-1,-1,-1,-1,-1,-1,-1,-1,-1,-1,-1,-1,-1,-1,-1,-1,-1,-1,-1,-1,-1,-1,-1,-1,-1,-1,-1,-1,-1,-1,-1,-1,-1,-1,-1,-1,-1,-1,-1,-1,-1,-1,-1,-1,-1,-1,-1,-1,-1,-1,-1,-1,-1,-1,-1,-1,-1,-1,-1,-1,-1,-1,-1,-1],"loss_changes":[1.3799602E13,3.436225E12,1.8832603E12,1.0478221E12,5.655128E11,9.6169676E11,8.2927315E11,2.95646E11,2.2981391E11,2.3496827E11,6.569779E11,4.592074E11,4.2538657E11,3.195116E11,3.40891E11,1.7734251E11,7.3307914E10,1.0729711E11,1.5446468E11,8.389244E10,8.9585E10,1.11090024E11,3.316431E11,1.6845442E11,1.7272963E11,4.834226E10,1.9522283E11,2.2339361E11,2.0880373E11,3.5009567E11,7.851213E9,3.054764E10,5.6869257E10,2.1597979E10,8.2997395E10,3.5834167E10,1.20438735E11,2.2632219E10,7.485969E10,2.2683353E10,5.3025706E10,5.848926E9,4.0261386E10,8.929787E10,0E0,1.26658265E11,3.955875E11,6.978412E10,1.4989863E11,1.9063511E11,9.869955E10,4.2851779E9,7.2379244E9,9.538175E10,8.939137E10,9.774288E10,1.7748748E11,5.7543754E10,1.4946573E11,9.398282E10,1.3921157E10,0E0,0E0,0E0,1.8221892E10,4.466016E9,3.8067765E10,0E0,1.7168335E10,1.2144378E10,2.1032636E10,2.0655899E10,1.2801147E10,5.0948014E9,4.213266E10,2.0623966E10,5.53824E10,2.5650815E10,8.341642E10,1.6707256E9,4.166254E10,3.9057277E10,3.0148293E10,0E0,0E0,2.8371198E10,4.9123934E10,1.511399E11,1.9735202E10,2.3951626E10,1.6192684E10,9.161985E10,6.685415E10,2.4418755E10,3.9427957E10,0E0,1.17097824E11,5.7356816E10,7.501447E10,0E0,5.0888983E10,0E0,0E0,9.578822E7,0E0,1.2778922E10,8.67E10,5.091492E10,3.492112E10,7.538129E10,3.8010823E10,6.60055E10,3.131791E10,4.0213905E10,1.7375248E10,3.0444028E10,0E0,4.7134507E10,2.521596E10,6.6749727E9,0E0,0E0,0E0,0E0,0E0,0E0,0E0,0E0,0E0,0E0,0E0,0E0,0E0,0E0,0E0,0E0,0E0,0E0,0E0,0E0,0E0,0E0,0E0,0E0,0E0,0E0,0E0,0E0,0E0,0E0,0E0,0E0,0E0,0E0,0E0,0E0,0E0,0E0,0E0,0E0,0E0,0E0,0E0,0E0,0E0,0E0,0E0,0E0,0E0,0E0,0E0,0E0,0E0,0E0,0E0,0E0,0E0,0E0,0E0,0E0,0E0,0E0,0E0,0E0,0E0,0E0,0E0,0E0,0E0,0E0,0E0,0E0,0E0,0E0,0E0,0E0,0E0,0E0,0E0,0E0,0E0,0E0,0E0,0E0,0E0,0E0,0E0,0E0,0E0,0E0,0E0,0E0,0E0,0E0,0E0],"parents":[2147483647,0,0,1,1,2,2,3,3,4,4,5,5,6,6,7,7,8,8,9,9,10,10,11,11,12,12,13,13,14,14,15,15,16,16,17,17,18,18,19,19,20,20,21,21,22,22,23,23,24,24,25,25,26,26,27,27,28,28,29,29,30,30,31,31,32,32,33,33,34,34,35,35,36,36,37,37,38,38,39,39,40,40,41,41,42,42,43,43,45,45,46,46,47,47,48,48,49,49,50,50,51,51,52,52,53,53,54,54,55,55,56,56,57,57,58,58,59,59,60,60,64,64,65,65,66,66,68,68,69,69,70,70,71,71,72,72,73,73,74,74,75,75,76,76,77,77,78,78,79,79,80,80,81,81,82,82,85,85,86,86,87,87,88,88,89,89,90,90,91,91,92,92,93,93,94,94,96,96,97,97,98,98,100,100,103,103,105,105,106,106,107,107,108,108,109,109,110,110,111,111,112,112,113,113,114,114,115,115,117,117,118,118,119,119],"right_children":[2,4,6,8,10,12,14,16,18,20,22,24,26,28,30,32,34,36,38,40,42,44,46,48,50,52,54,56,58,60,62,64,66,68,70,72,74,76,78,80,82,84,86,88,-1,90,92,94,96,98,100,102,104,106,108,110,112,114,116,118,120,-1,-1,-1,122,124,126,-1,128,130,132,134,136,138,140,142,144,146,148,150,152,154,156,-1,-1,158,160,162,164,166,168,170,172,174,176,-1,178,180,182,-1,184,-1,-1,186,-1,188,190,192,194,196,198,200,202,204,206,208,-1,210,212,214,-1,-1,-1,-1,-1,-1,-1,-1,-1,-1,-1,-1,-1,-1,-1,-1,-1,-1,-1,-1,-1,-1,-1,-1,-1,-1,-1,-1,-1,-1,-1,-1,-1,-1,-1,-1,-1,-1,-1,-1,-1,-1,-1,-1,-1,-1,-1,-1,-1,-1,-1,-1,-1,-1,-1,-1,-1,-1,-1,-1,-1,-1,-1,-1,-1,-1,-1,-1,-1,-1,-1,-1,-1,-1,-1,-1,-1,-1,-1,-1,-1,-1,-1,-1,-1,-1,-1,-1,-1,-1,-1,-1,-1,-1,-1],"split_conditions":[8.68587E-2,8.7801075E-1,8.7801075E-1,-7.149728E-1,-2.7260086E-1,1.3704187E0,1.167099E0,1E0,8.774246E-1,2.0020373E0,1E0,8.774246E-1,-1.0908707E0,2.0020373E0,1.8427916E0,-1.273869E0,-8.7963206E-1,-1.3876604E-1,-2.8567407E-1,-8.794233E-2,1E0,1E0,1E0,1E0,1E0,1E0,1E0,3.1783214E-1,1.443998E0,1.9842637E0,2.123853E0,-1.7956245E0,-2.4601589E-1,-2.4601589E-1,1E0,1E0,-2.4601589E-1,5.9904176E-1,5.707702E0,1E0,1E0,-7.81995E-1,-7.81995E-1,1E0,-8.538377E3,-7.477911E-2,-2.3175871E-2,-2.4591452E-1,-1.3700426E0,6.82214E-1,-2.4591452E-1,1E0,1E0,1E0,1E0,1E0,1E0,1E0,4.3282324E-1,1E0,3.126064E0,3.46454E4,9.206094E3,-1.9052572E4,1E0,-9.429604E-1,1E0,-1.4123794E4,8.774246E-1,1E0,5.9904176E-1,1E0,1E0,6.900286E-2,5.9904176E-1,1E0,1E0,5.9904176E-1,-5.4897547E-2,1E0,1E0,1.8427916E0,1E0,-6.737613E3,-3.2321875E2,1E0,-7.765657E-1,8.774246E-1,5.9904176E-1,2.0020373E0,5.707702E0,1E0,1.8427916E0,1E0,2.8214526E-1,-1.3896258E4,5.837753E-1,1E0,1E0,1.5033635E4,1E0,-1.1224871E4,-4.628892E3,2.0176795E0,6.5527085E3,1.6550989E0,1.9586854E0,1E0,5.9904176E-1,2.8214526E-1,1.8427916E0,9.308332E-1,8.774246E-1,8.774246E-1,7.723605E-1,9.293679E-2,3.4076008E4,-8.794233E-2,5.9904176E-1,1E0,8.595241E3,-1.4957227E4,-8.462981E3,-1.1467399E4,-1.4219633E4,-1.1788634E4,-8.093654E3,-1.03225205E4,-6.875138E3,-8.131747E3,1.638264E3,-1.0369832E3,9.674476E3,-1.0442739E4,-7.8689937E3,-3.0509521E3,-6.7959507E3,-8.757123E3,-2.157023E3,-3.7766472E3,1.3427087E3,3.4807063E3,-8.423623E3,-8.9579795E3,1.2281461E3,-1.7281565E3,2.0513804E3,1.6991682E4,-5.1634062E3,-8.352354E3,-5.985038E3,-6.208214E3,4.598605E3,-4.527988E3,5.8941094E3,-2.4759197E3,1.2871472E3,6.4497065E3,-6.992639E2,2.534939E4,7.559312E3,-4.826599E3,1.4276261E4,-4.3211777E3,8.461151E1,-6.098107E3,6.1326797E3,1.1682796E4,1.047823E3,1.4647182E4,2.4763818E4,3.49171E2,1.1982546E4,-7.771547E3,-2.9503474E3,-4.3554526E3,2.2620732E2,5.751421E-1,6.9664033E3,3.646882E3,-8.810255E3,8.389487E3,1.4888658E4,2.4547312E3,-3.4832664E3,1.2011194E3,4.5987457E2,3.3778533E3,7.770958E3,1.07288E4,2.2511443E4,3.2294232E4,1.7292334E4,1.1140922E4,1.8409002E4,1.857978E4,-2.6635679E3,-9.7002014E2,5.6356694E3,1.0382759E4,1.587532E4,-1.9557502E3,5.302592E3,2.61136E4,1.2192557E4,4.782426E3,1.0946007E4,2.3503323E3,1.722353E4,1.5465544E3,1.05283E4,1.0439123E4,1.759385E4,1.6997428E4,2.5581828E4],"split_indices":[0,2,2,0,0,0,0,4,14,2,4,14,11,2,14,0,0,0,0,14,6,8,6,5,10,5,10,0,11,0,0,0,2,2,5,5,2,11,13,5,10,0,0,10,0,0,0,11,2,0,11,4,4,4,6,10,8,10,0,6,2,0,0,0,8,0,10,0,14,8,11,6,6,0,11,6,4,11,0,6,4,14,4,0,0,4,0,14,11,2,13,5,14,6,0,0,0,8,5,0,5,0,0,0,0,0,0,5,11,0,14,0,14,14,0,0,0,14,11,10,0,0,0,0,0,0,0,0,0,0,0,0,0,0,0,0,0,0,0,0,0,0,0,0,0,0,0,0,0,0,0,0,0,0,0,0,0,0,0,0,0,0,0,0,0,0,0,0,0,0,0,0,0,0,0,0,0,0,0,0,0,0,0,0,0,0,0,0,0,0,0,0,0,0,0,0,0,0,0,0,0,0,0,0,0,0,0,0,0,0,0,0,0,0,0],"split_type":[0,0,0,0,0,0,0,0,0,0,0,0,0,0,0,0,0,0,0,0,0,0,0,0,0,0,0,0,0,0,0,0,0,0,0,0,0,0,0,0,0,0,0,0,0,0,0,0,0,0,0,0,0,0,0,0,0,0,0,0,0,0,0,0,0,0,0,0,0,0,0,0,0,0,0,0,0,0,0,0,0,0,0,0,0,0,0,0,0,0,0,0,0,0,0,0,0,0,0,0,0,0,0,0,0,0,0,0,0,0,0,0,0,0,0,0,0,0,0,0,0,0,0,0,0,0,0,0,0,0,0,0,0,0,0,0,0,0,0,0,0,0,0,0,0,0,0,0,0,0,0,0,0,0,0,0,0,0,0,0,0,0,0,0,0,0,0,0,0,0,0,0,0,0,0,0,0,0,0,0,0,0,0,0,0,0,0,0,0,0,0,0,0,0,0,0,0,0,0,0,0,0,0,0,0,0,0,0,0,0,0,0,0,0,0],"sum_hessian":[2.695E3,1.563E3,1.132E3,1.128E3,4.35E2,6.66E2,4.66E2,5.97E2,5.31E2,2.6E2,1.75E2,5.06E2,1.6E2,3.26E2,1.4E2,4.42E2,1.55E2,3.74E2,1.57E2,2.11E2,4.9E1,8E1,9.5E1,2.55E2,2.51E2,2E1,1.4E2,2.65E2,6.1E1,1.24E2,1.6E1,1.9E2,2.52E2,9.5E1,6E1,2.72E2,1.02E2,5.7E1,1E2,6.2E1,1.49E2,7E0,4.2E1,6.6E1,1.4E1,2.3E1,7.2E1,1.54E2,1.01E2,1.85E2,6.6E1,8E0,1.2E1,8.1E1,5.9E1,4.9E1,2.16E2,4E1,2.1E1,7E1,5.4E1,1.5E1,1E0,3.3E1,1.57E2,1.12E2,1.4E2,1.2E1,8.3E1,3.8E1,2.2E1,1.79E2,9.3E1,3.9E1,6.3E1,3.7E1,2E1,9.4E1,6E0,4.9E1,1.3E1,5.8E1,9.1E1,5E0,2E0,2.1E1,2.1E1,1.6E1,5E1,1.4E1,9E0,4.9E1,2.3E1,4.5E1,1.09E2,4E0,9.7E1,6.2E1,1.23E2,4E0,6.2E1,2E0,6E0,1E1,2E0,3.1E1,5E1,1.8E1,4.1E1,7E0,4.2E1,1.94E2,2.2E1,1.5E1,2.5E1,1.1E1,1E1,2.7E1,4.3E1,5.2E1,2E0,1.48E2,9E0,5.1E1,6.1E1,6E1,8E1,4.6E1,3.7E1,3.7E1,1E0,2.1E1,1E0,7E1,1.09E2,1.3E1,8E1,3.7E1,2E0,3.4E1,2.9E1,1E0,3.6E1,9E0,1.1E1,7.1E1,2.3E1,4E0,2E0,1.6E1,3.3E1,8E0,5E0,5.5E1,3E0,3.2E1,5.9E1,1.1E1,1E1,1E0,2E1,6E0,1E1,1.3E1,3.7E1,1.3E1,1E0,7E0,2E0,2.6E1,2.3E1,1.7E1,6E0,2.2E1,2.3E1,2.3E1,8.6E1,4.3E1,5.4E1,5.9E1,3E0,9.9E1,2.4E1,4.1E1,2.1E1,4E0,6E0,1.6E1,1.5E1,4.2E1,8E0,7E0,1.1E1,2.2E1,1.9E1,5E0,2E0,3.1E1,1.1E1,1.64E2,3E1,1.1E1,1.1E1,4E0,1.1E1,1E1,1.5E1,2E0,9E0,9E0,1.8E1,1.3E1,3E1,1E1,4.2E1],"tree_param":{"num_deleted":"0","num_feature":"15","num_nodes":"215","size_leaf_vector":"1"}},{"base_weights":[2.5208884E2,-5.6159027E4,7.722126E4,-7.9358586E4,6.8583364E3,4.5945777E4,1.4158728E5,-1.24805664E5,-6.635001E4,-2.6521105E4,5.42831E4,2.4114844E4,1.0678009E5,9.1951E4,1.9153312E5,-1.7337014E4,-1.1817793E5,-8.140357E4,-3.44783E4,-3.9247836E4,9.8579266E4,2.0571242E4,1.1137719E5,-3.4242324E4,3.7045023E4,8.451322E4,1.871503E5,8.177727E4,1.8349298E5,1.3898092E5,2.1584081E5,-1.232091E5,-7.512485E4,-9.637435E4,-6.229965E4,-5.4191434E4,-4.4332383E3,-7.378038E4,-1.992472E4,4.0623938E4,1.8421823E5,-8.341543E3,5.8090703E4,1.3000715E5,2.8289887E4,1.4766882E4,-4.1176348E4,1.9501066E4,6.1487344E4,-6.925275E3,9.615279E4,1.381976E5,2.4746254E4,7.740762E4,2.4485852E4,2.615184E5,9.492081E4,1.4662488E5,4.4473875E4,1.2087799E5,2.2780011E5,-1.3259408E5,-1.1131531E5,-8.873614E4,-2.5503334E4,-1.0534032E5,-6.559707E4,-7.65378E4,-4.3793004E4,-7.063805E4,-3.7689688E4,-4.640613E4,9.77196E3,-1.0502328E5,-3.9911902E4,-6.2709316E4,-5.741355E3,9.717469E2,9.994026E3,-1.3074641E3,2.1051418E4,-3.1757705E4,1.129875E4,4.599624E4,1.7963076E4,2.3063992E4,1.5492066E5,2.2554167E3,1.7035178E4,-6.720447E4,-1.8658713E4,-1.6814006E4,2.9038082E4,1.6326673E4,6.81105E4,1.9526512E4,-5.5060695E4,7.736416E4,1.4379036E5,3.1304598E4,1.1058332E5,4.570389E4,9.69711E4,2.9952957E4,-2.128536E3,1.7248479E3,1.1218283E4,1.5128508E5,1.386602E3,7.9245503E3,7.2766875E3,1.972826E4,7.896958E4,2.1816283E5,3.2220037E4,-9.554449E3,-1.3674569E4,-1.1677785E4,-7.970394E3,-3.344202E3,-1.0046955E4,-3.1626587E3,-1.300425E3,-1.1996979E4,-8.790581E3,-1.0453303E4,-5.54465E3,-1.0283164E4,-6.5603735E3,-8.0171675E3,-3.15844E3,-8.027362E3,-3.7449934E3,-1.3167048E3,-4.1388433E3,1.2670417E3,-5.125144E3,6.008032E2,1.6485291E4,-5.7544995E3,-1.1478938E4,-7.6896577E3,9.176078E1,-4.272917E0,-9.028091E3,-1.2728879E4,1.258892E2,2.3985583E3,-7.77991E2,3.7781876E1,-4.6237583E3,6.9099165E3,-5.619181E2,6.894004E3,7.7505347E2,1.0243585E4,-5.955962E2,1.2134862E4,1.9715316E4,-1.9905026E3,7.5371753E3,-7.576358E3,1.8132988E3,3.8445264E2,-4.7885586E3,-3.3737095E3,1.8807805E3,6.0608905E2,4.7874746E3,4.466099E3,-1.1149954E3,2.9863032E3,7.5875347E3,6.442125E2,8.826958E3,-6.5423013E3,3.556594E2,8.678882E3,1.0577839E3,1.7075398E4,1.0284644E4,5.257933E3,1.7435357E4,2.0170966E3,1.1267108E4,1.0203963E4,-1.0599292E4,1.2793033E4,1.9088736E4,6.7626564E1,9.251406E2,-2.437375E3,9.058022E3,2.2027855E4,2.2377188E2],"categories":[],"categories_nodes":[],"categories_segments":[],"categories_sizes":[],"default_left":[0,0,0,0,0,0,0,0,0,0,0,0,0,0,0,0,0,0,0,0,0,0,0,0,0,0,0,0,0,0,0,0,0,0,0,0,0,0,0,0,0,0,0,0,0,0,0,0,0,0,0,0,0,0,0,0,0,0,0,0,0,0,0,0,0,0,0,0,0,0,0,0,0,0,0,0,0,0,0,0,0,0,0,0,0,0,0,0,0,0,0,0,0,0,0,0,0,0,0,0,0,0,0,0,0,0,0,0,0,0,0,0,0,0,0,0,0,0,0,0,0,0,0,0,0,0,0,0,0,0,0,0,0,0,0,0,0,0,0,0,0,0,0,0,0,0,0,0,0,0,0,0,0,0,0,0,0,0,0,0,0,0,0,0,0,0,0,0,0,0,0,0,0,0,0,0,0,0,0,0,0,0,0,0,0,0,0,0,0,0,0,0,0,0,0],"id":6,"left_children":[1,3,5,7,9,11,13,15,17,19,21,23,25,27,29,-1,31,33,35,37,39,41,43,45,47,49,51,53,55,57,59,61,63,65,67,69,71,73,75,77,79,81,83,85,87,-1,89,91,93,95,97,99,-1,101,-1,103,105,107,109,111,113,115,117,119,121,123,125,127,129,131,133,135,137,139,141,143,145,147,-1,-1,-1,149,151,153,-1,155,157,159,-1,161,163,165,167,169,171,173,175,177,179,-1,181,183,185,-1,-1,-1,-1,187,-1,-1,189,-1,191,193,-1,-1,-1,-1,-1,-1,-1,-1,-1,-1,-1,-1,-1,-1,-1,-1,-1,-1,-1,-1,-1,-1,-1,-1,-1,-1,-1,-1,-1,-1,-1,-1,-1,-1,-1,-1,-1,-1,-1,-1,-1,-1,-1,-1,-1,-1,-1,-1,-1,-1,-1,-1,-1,-1,-1,-1,-1,-1,-1,-1,-1,-1,-1,-1,-1,-1,-1,-1,-1,-1,-1,-1,-1,-1,-1,-1,-1,-1,-1,-1,-1],"loss_changes":[1.1662383E13,2.2666056E12,2.2803524E12,6.615513E11,6.631387E11,1.01472666E12,9.0214393E11,6.0301246E10,4.2084126E11,3.9553014E11,3.3069023E11,4.275999E11,3.4568117E11,1.6008308E11,2.0504746E11,0E0,3.926393E10,1.6531037E11,1.6856023E11,1.4799988E11,1.06670735E11,1.198117E11,9.53885E10,1.3600217E11,1.9734233E11,1.7095446E11,9.275638E10,1.0290214E11,9.957245E10,3.7545837E10,1.132892E11,7.453278E9,1.5297659E10,8.525683E10,6.6739306E10,4.4018106E10,6.8424065E10,8.046028E10,8.763025E10,3.5183223E10,4.944439E10,2.9332537E10,6.2295835E10,1.3497211E11,4.769636E10,0E0,5.7355207E10,9.434568E10,5.6615436E10,2.5267235E10,1.1597211E11,9.091842E10,0E0,9.9767615E10,0E0,1.0312273E11,1.147283E10,3.2548717E10,7.183794E9,3.5652616E10,2.887254E10,3.2391823E9,6.9241405E9,9.615852E9,1.2446515E8,5.500384E10,2.5031344E10,3.6091134E10,4.987547E10,2.4175608E10,7.436894E9,8.950469E9,4.920892E10,1.2405211E10,6.0473213E10,6.2197547E10,9.375506E10,2.2006979E9,0E0,0E0,0E0,1.3511707E10,3.4613498E10,3.8953255E10,0E0,2.594715E10,3.562465E10,2.094376E10,0E0,3.4972828E10,3.6357562E10,3.499589E10,9.276478E10,2.0739785E10,4.76277E10,1.1124348E10,4.484557E9,6.4543523E10,2.5494422E10,0E0,7.9606874E10,1.105786E11,1.167744E11,0E0,0E0,0E0,0E0,2.5524306E10,0E0,0E0,4.5879504E7,0E0,1.660638E10,4.6104314E10,0E0,0E0,0E0,0E0,0E0,0E0,0E0,0E0,0E0,0E0,0E0,0E0,0E0,0E0,0E0,0E0,0E0,0E0,0E0,0E0,0E0,0E0,0E0,0E0,0E0,0E0,0E0,0E0,0E0,0E0,0E0,0E0,0E0,0E0,0E0,0E0,0E0,0E0,0E0,0E0,0E0,0E0,0E0,0E0,0E0,0E0,0E0,0E0,0E0,0E0,0E0,0E0,0E0,0E0,0E0,0E0,0E0,0E0,0E0,0E0,0E0,0E0,0E0,0E0,0E0,0E0,0E0,0E0,0E0,0E0,0E0,0E0,0E0,0E0,0E0,0E0,0E0,0E0,0E0,0E0,0E0],"parents":[2147483647,0,0,1,1,2,2,3,3,4,4,5,5,6,6,7,7,8,8,9,9,10,10,11,11,12,12,13,13,14,14,16,16,17,17,18,18,19,19,20,20,21,21,22,22,23,23,24,24,25,25,26,26,27,27,28,28,29,29,30,30,31,31,32,32,33,33,34,34,35,35,36,36,37,37,38,38,39,39,40,40,41,41,42,42,43,43,44,44,46,46,47,47,48,48,49,49,50,50,51,51,53,53,55,55,56,56,57,57,58,58,59,59,60,60,61,61,62,62,63,63,64,64,65,65,66,66,67,67,68,68,69,69,70,70,71,71,72,72,73,73,74,74,75,75,76,76,77,77,81,81,82,82,83,83,85,85,86,86,87,87,89,89,90,90,91,91,92,92,93,93,94,94,95,95,96,96,97,97,98,98,100,100,101,101,102,102,107,107,110,110,112,112,113,113],"right_children":[2,4,6,8,10,12,14,16,18,20,22,24,26,28,30,-1,32,34,36,38,40,42,44,46,48,50,52,54,56,58,60,62,64,66,68,70,72,74,76,78,80,82,84,86,88,-1,90,92,94,96,98,100,-1,102,-1,104,106,108,110,112,114,116,118,120,122,124,126,128,130,132,134,136,138,140,142,144,146,148,-1,-1,-1,150,152,154,-1,156,158,160,-1,162,164,166,168,170,172,174,176,178,180,-1,182,184,186,-1,-1,-1,-1,188,-1,-1,190,-1,192,194,-1,-1,-1,-1,-1,-1,-1,-1,-1,-1,-1,-1,-1,-1,-1,-1,-1,-1,-1,-1,-1,-1,-1,-1,-1,-1,-1,-1,-1,-1,-1,-1,-1,-1,-1,-1,-1,-1,-1,-1,-1,-1,-1,-1,-1,-1,-1,-1,-1,-1,-1,-1,-1,-1,-1,-1,-1,-1,-1,-1,-1,-1,-1,-1,-1,-1,-1,-1,-1,-1,-1,-1,-1,-1,-1,-1,-1,-1,-1,-1,-1],"split_conditions":[8.171714E-2,2.6854077E-1,4.3221614E-1,-1.2276801E0,-3.9920992E-1,1.3618093E0,7.8853256E-1,-1.7956245E0,-3.124443E-1,2.206407E0,1E0,-8.047198E-1,4.23939E-2,2.8132234E0,7.6206577E-1,-1.7337014E4,1.2407576E-2,1E0,-2.7260086E-1,-9.108409E-1,-8.6663777E-1,1E0,-2.3175871E-2,-1.0506256E0,7.8853256E-1,-1.2770045E0,2.0176795E0,1E0,5.3891225E0,1E0,2.3732404E-1,1E0,1E0,-2.1350592E-1,1E0,1E0,2.3732404E-1,1E0,1E0,3.4758282E0,1E0,6.371227E-1,4.101173E0,-3.3938968E-1,1E0,1.4766882E4,-9.6714574E-1,3.0197132E-1,-6.023121E-1,-1.4419292E0,1.9249316E0,4.7391623E-2,2.4746254E4,4.7340053E-1,2.4485852E4,3.1859605E0,2.4812818E0,7.358277E-1,-8.794233E-2,9.4448256E-1,3.1859605E0,1E0,-8.794233E-2,2.740074E-2,9.861826E-2,-8.794233E-2,-1.0770956E0,1E0,-1.0421115E0,7.987681E-2,-2.5621992E-1,-2.6243332E-1,1E0,1E0,7.0209306E-1,5.209257E-1,3.022754E-1,1E0,9.994026E3,-1.3074641E3,2.1051418E4,1E0,9.6197456E-1,-1.521353E-1,1.7963076E4,1E0,-1.4549465E-1,1.1743777E0,1.7035178E4,1.0830967E0,-8.896811E-1,1E0,-3.124443E-1,-7.4474716E-1,1E0,2.123853E0,1.9586854E0,1E0,2.3732404E-1,3.1304598E4,8.774246E-1,1.7816008E0,2.8523626E0,2.9952957E4,-2.128536E3,1.7248479E3,1.1218283E4,1.5252737E0,1.386602E3,7.9245503E3,8.1451094E-1,1.972826E4,9.132673E-1,2.958564E0,3.2220037E4,-9.554449E3,-1.3674569E4,-1.1677785E4,-7.970394E3,-3.344202E3,-1.0046955E4,-3.1626587E3,-1.300425E3,-1.1996979E4,-8.790581E3,-1.0453303E4,-5.54465E3,-1.0283164E4,-6.5603735E3,-8.0171675E3,-3.15844E3,-8.027362E3,-3.7449934E3,-1.3167048E3,-4.1388433E3,1.2670417E3,-5.125144E3,6.008032E2,1.6485291E4,-5.7544995E3,-1.1478938E4,-7.6896577E3,9.176078E1,-4.272917E0,-9.028091E3,-1.2728879E4,1.258892E2,2.3985583E3,-7.77991E2,3.7781876E1,-4.6237583E3,6.9099165E3,-5.619181E2,6.894004E3,7.7505347E2,1.0243585E4,-5.955962E2,1.2134862E4,1.9715316E4,-1.9905026E3,7.5371753E3,-7.576358E3,1.8132988E3,3.8445264E2,-4.7885586E3,-3.3737095E3,1.8807805E3,6.0608905E2,4.7874746E3,4.466099E3,-1.1149954E3,2.9863032E3,7.5875347E3,6.442125E2,8.826958E3,-6.5423013E3,3.556594E2,8.678882E3,1.0577839E3,1.7075398E4,1.0284644E4,5.257933E3,1.7435357E4,2.0170966E3,1.1267108E4,1.0203963E4,-1.0599292E4,1.2793033E4,1.9088736E4,6.7626564E1,9.251406E2,-2.437375E3,9.058022E3,2.2027855E4,2.2377188E2],"split_indices":[0,3,3,0,0,0,0,0,3,3,5,3,3,9,3,0,3,12,0,0,0,12,0,9,0,3,0,1,9,8,9,12,5,0,5,12,9,12,6,3,6,3,9,0,1,0,3,0,3,3,0,3,0,0,0,3,3,3,14,3,3,6,14,3,3,14,3,6,3,3,3,3,1,6,3,3,3,5,0,0,0,6,3,0,0,12,0,3,0,0,3,5,3,3,6,0,0,8,9,0,14,3,3,0,0,0,0,9,0,0,0,0,0,3,0,0,0,0,0,0,0,0,0,0,0,0,0,0,0,0,0,0,0,0,0,0,0,0,0,0,0,0,0,0,0,0,0,0,0,0,0,0,0,0,0,0,0,0,0,0,0,0,0,0,0,0,0,0,0,0,0,0,0,0,0,0,0,0,0,0,0,0,0,0,0,0,0,0,0,0,0,0,0,0,0],"split_type":[0,0,0,0,0,0,0,0,0,0,0,0,0,0,0,0,0,0,0,0,0,0,0,0,0,0,0,0,0,0,0,0,0,0,0,0,0,0,0,0,0,0,0,0,0,0,0,0,0,0,0,0,0,0,0,0,0,0,0,0,0,0,0,0,0,0,0,0,0,0,0,0,0,0,0,0,0,0,0,0,0,0,0,0,0,0,0,0,0,0,0,0,0,0,0,0,0,0,0,0,0,0,0,0,0,0,0,0,0,0,0,0,0,0,0,0,0,0,0,0,0,0,0,0,0,0,0,0,0,0,0,0,0,0,0,0,0,0,0,0,0,0,0,0,0,0,0,0,0,0,0,0,0,0,0,0,0,0,0,0,0,0,0,0,0,0,0,0,0,0,0,0,0,0,0,0,0,0,0,0,0,0,0,0,0,0,0,0,0,0,0,0,0,0,0],"sum_hessian":[2.684E3,1.549E3,1.135E3,1.132E3,4.17E2,7.65E2,3.7E2,2.5E2,8.82E2,2.45E2,1.72E2,5.64E2,2.01E2,1.87E2,1.83E2,2.7E1,2.23E2,5.98E2,2.84E2,2.23E2,2.2E1,1.09E2,6.3E1,1.02E2,4.62E2,1.59E2,4.2E1,1.7E2,1.7E1,6E1,1.23E2,1.98E2,2.5E1,3.33E2,2.65E2,1.71E2,1.13E2,7.9E1,1.44E2,1.4E1,8E0,6.2E1,4.7E1,5.1E1,1.2E1,3E0,9.9E1,2.7E2,1.92E2,1.8E1,1.41E2,2.5E1,1.7E1,1.67E2,3E0,8E0,9E0,5.5E1,5E0,1.5E1,1.08E2,1.05E2,9.3E1,1.9E1,6E0,2.56E2,7.7E1,1.48E2,1.17E2,8.4E1,8.7E1,2.8E1,8.5E1,4E1,3.9E1,3.5E1,1.09E2,9E0,5E0,1E0,7E0,2.8E1,3.4E1,4.4E1,3E0,1E1,4.1E1,1.1E1,1E0,4.5E1,5.4E1,5.6E1,2.14E2,2.5E1,1.67E2,1.2E1,6E0,1.03E2,3.8E1,2E0,2.3E1,6.5E1,1.02E2,7E0,1E0,2E0,7E0,5.3E1,2E0,2E0,3E0,4E0,1.1E1,1.01E2,7E0,1.3E1,9.2E1,7.7E1,1.6E1,4E0,1.5E1,3E0,3E0,1.36E2,1.2E2,1.4E1,6.3E1,4.1E1,1.07E2,2.8E1,8.9E1,6.4E1,2E1,1.2E1,7.5E1,2E0,2.6E1,8.4E1,1E0,8E0,3.2E1,2E1,1.9E1,1.1E1,2.4E1,5E0,1.04E2,2E0,7E0,9E0,1.9E1,7E0,2.7E1,2.7E1,1.7E1,2E0,8E0,2.5E1,1.6E1,9E0,2E0,4.1E1,4E0,3.1E1,2.3E1,3.8E1,1.8E1,9.7E1,1.17E2,1.2E1,1.3E1,2.9E1,1.38E2,1.1E1,1E0,5E0,1E0,9E1,1.3E1,2.1E1,1.7E1,1.3E1,1E1,4.8E1,1.7E1,1E2,2E0,3.6E1,1.7E1,1E0,2E0,1E0,1E1,1E2,1E0],"tree_param":{"num_deleted":"0","num_feature":"15","num_nodes":"195","size_leaf_vector":"1"}},{"base_weights":[2.0686348E2,-1.4869334E4,9.7456055E4,-4.1107996E4,2.4129555E4,8.00778E4,1.732958E5,-5.719257E4,-7.1042114E3,-4.4165195E3,4.1703918E4,4.5050703E4,1.0311229E5,1.9483595E5,5.8333754E4,-7.411766E4,-3.5810984E4,-8.124326E3,1.4828106E4,-3.6638902E4,9.666332E3,3.1019863E4,9.7181055E4,3.2566799E4,1.6579425E5,8.95799E4,1.9561252E5,1.630403E5,2.5290236E4,3.4137777E4,1.1954241E4,-7.891291E4,-1.4883855E4,-3.848527E4,1.9545629E4,-2.4628176E4,1.1550784E3,-6.2987515E3,-3.1483953E4,1.5350412E4,-5.045589E4,3.2664693E4,-8.760976E3,8.783749E4,2.4592896E4,-9.1202675E1,4.7178156E4,2.941681E4,1.045814E4,8.320077E4,1.2943582E4,7.41839E4,2.2696305E4,1.9785467E4,1.3303736E5,1.0619144E4,4.804701E3,-8.885638E4,-5.593516E4,-8.209203E4,5.9789336E4,-4.0622598E4,1.9341791E4,-5.0098696E3,-4.324066E4,-5.3742438E4,6.1038955E3,-2.8947686E4,-8.131303E3,1.2802566E4,1.2795253E4,-8.9327445E4,4.5601367E3,2.88022E4,7.388439E4,5.9847348E4,1.4464962E5,-8.073603E4,8.055869E4,-1.6611055E4,5.939818E4,4.1645977E4,9.3307875E4,1.5559844E3,8.279675E3,1.0631399E5,1.7319484E4,3.029896E1,1.7395585E3,8.778263E3,-8.963409E3,-6.819104E3,-4.2606655E3,-1.1557473E4,-3.0355337E3,5.196364E2,1.1386268E4,-4.888519E3,-1.4707513E3,-2.7020845E3,3.2575784E3,-4.7525186E3,1.9664896E3,-4.030018E3,-1.1087868E4,-5.677995E2,2.8823772E3,-3.2670525E3,-1.3120586E3,1.5977468E3,-4.0690215E3,-1.2209745E4,-2.975208E3,2.0093369E3,4.7304956E3,6.1711562E3,1.4918643E4,3.6913684E3,1.0616237E4,1.1997587E3,1.5949417E4,-9.836749E3,-1.5220713E3,2.1232217E4,2.774612E3,4.515839E3,-4.908174E3,6.151964E3,-3.7126704E3,5.2672925E3,3.4937E3,1.1440259E4,7.8286187E3,1.2230394E4,-9.073688E2],"categories":[],"categories_nodes":[],"categories_segments":[],"categories_sizes":[],"default_left":[0,0,0,0,0,0,0,0,0,0,0,0,0,0,0,0,0,0,0,0,0,0,0,0,0,0,0,0,0,0,0,0,0,0,0,0,0,0,0,0,0,0,0,0,0,0,0,0,0,0,0,0,0,0,0,0,0,0,0,0,0,0,0,0,0,0,0,0,0,0,0,0,0,0,0,0,0,0,0,0,0,0,0,0,0,0,0,0,0,0,0,0,0,0,0,0,0,0,0,0,0,0,0,0,0,0,0,0,0,0,0,0,0,0,0,0,0,0,0,0,0,0,0,0,0,0,0,0,0,0,0,0,0,0,0],"id":7,"left_children":[1,3,5,7,9,11,13,15,17,19,21,23,25,27,29,31,33,35,-1,37,39,41,43,45,47,49,51,53,-1,55,-1,57,59,61,-1,63,65,-1,67,69,71,73,-1,75,-1,77,79,-1,-1,81,-1,83,-1,-1,85,87,-1,89,91,93,95,97,-1,99,101,103,105,107,-1,109,-1,111,-1,113,115,117,119,121,123,125,127,129,131,-1,-1,133,-1,-1,-1,-1,-1,-1,-1,-1,-1,-1,-1,-1,-1,-1,-1,-1,-1,-1,-1,-1,-1,-1,-1,-1,-1,-1,-1,-1,-1,-1,-1,-1,-1,-1,-1,-1,-1,-1,-1,-1,-1,-1,-1,-1,-1,-1,-1,-1,-1],"loss_changes":[3.9761763E12,2.4036502E12,4.6586108E11,7.6749236E11,4.7427092E11,2.3579053E11,1.545466E11,3.4222218E11,7.285156E10,1.6416986E11,3.4372708E11,1.7548277E11,2.0653998E11,6.2157357E10,1.3691126E10,1.496512E11,2.6913699E11,6.89441E10,0E0,1.2957729E10,8.689288E10,9.886358E10,1.09042794E11,5.249386E10,5.567493E10,2.9401809E10,6.6913763E10,1.441484E10,0E0,2.761043E9,0E0,1.0721296E11,2.1067284E11,2.1553558E11,0E0,5.8936934E10,7.8842905E10,0E0,9.525879E9,6.463412E10,8.6219145E10,7.5248435E10,0E0,1.3445923E11,0E0,2.3414386E11,6.022909E10,0E0,0E0,5.4493905E10,0E0,1.7412116E9,0E0,0E0,7.3423585E9,3.4426323E8,0E0,5.4713123E10,2.1760803E10,3.4601927E10,5.8448806E10,8.835727E10,0E0,6.7063976E10,2.330475E10,1.3964534E10,7.136737E10,4.9332224E9,0E0,3.9202505E10,0E0,2.7603902E10,0E0,7.0916735E10,2.8375646E10,6.193588E10,5.5192125E10,1.9295142E10,1.1936668E11,2.82905E10,1.5389508E10,3.0517248E8,2.6217284E10,0E0,0E0,3.2475447E10,0E0,0E0,0E0,0E0,0E0,0E0,0E0,0E0,0E0,0E0,0E0,0E0,0E0,0E0,0E0,0E0,0E0,0E0,0E0,0E0,0E0,0E0,0E0,0E0,0E0,0E0,0E0,0E0,0E0,0E0,0E0,0E0,0E0,0E0,0E0,0E0,0E0,0E0,0E0,0E0,0E0,0E0,0E0,0E0,0E0,0E0,0E0,0E0,0E0],"parents":[2147483647,0,0,1,1,2,2,3,3,4,4,5,5,6,6,7,7,8,8,9,9,10,10,11,11,12,12,13,13,14,14,15,15,16,16,17,17,19,19,20,20,21,21,22,22,23,23,24,24,25,25,26,26,27,27,29,29,31,31,32,32,33,33,35,35,36,36,38,38,39,39,40,40,41,41,43,43,45,45,46,46,49,49,51,51,54,54,55,55,57,57,58,58,59,59,60,60,61,61,63,63,64,64,65,65,66,66,67,67,69,69,71,71,73,73,74,74,75,75,76,76,77,77,78,78,79,79,80,80,81,81,82,82,85,85],"right_children":[2,4,6,8,10,12,14,16,18,20,22,24,26,28,30,32,34,36,-1,38,40,42,44,46,48,50,52,54,-1,56,-1,58,60,62,-1,64,66,-1,68,70,72,74,-1,76,-1,78,80,-1,-1,82,-1,84,-1,-1,86,88,-1,90,92,94,96,98,-1,100,102,104,106,108,-1,110,-1,112,-1,114,116,118,120,122,124,126,128,130,132,-1,-1,134,-1,-1,-1,-1,-1,-1,-1,-1,-1,-1,-1,-1,-1,-1,-1,-1,-1,-1,-1,-1,-1,-1,-1,-1,-1,-1,-1,-1,-1,-1,-1,-1,-1,-1,-1,-1,-1,-1,-1,-1,-1,-1,-1,-1,-1,-1,-1,-1,-1],"split_conditions":[1.5252737E0,8.774246E-1,1.8427916E0,1E0,1E0,1E0,2.2889543E0,2.3732404E-1,5.707702E0,2.3732404E-1,2.727356E0,6.513736E0,2.8132234E0,1.443998E0,1E0,1E0,2.727356E0,2.3732404E-1,1.4828106E4,-2.4591452E-1,1.8427916E0,1E0,1E0,1E0,2.8132234E0,1.443998E0,1E0,5.9904176E-1,2.5290236E4,3.1339107E0,1.1954241E4,-8.794233E-2,1E0,3.1339107E0,1.9545629E4,-2.4591452E-1,-2.4591452E-1,-6.2987515E3,1E0,2.727356E0,2.8081584E0,1.8427916E0,-8.760976E3,5.707702E0,2.4592896E4,8.774246E-1,5.9904176E-1,2.941681E4,1.045814E4,8.774246E-1,1.2943582E4,1E0,2.2696305E4,1.9785467E4,2.8132234E0,1E0,4.804701E3,-1.0506256E0,-2.4591452E-1,-1.0908707E0,-1.0908707E0,-8.794233E-2,1.9341791E4,-8.794233E-2,2.727356E0,1E0,-8.794233E-2,5.9904176E-1,-8.131303E3,1E0,1.2795253E4,1E0,4.5601367E3,5.9904176E-1,2.8081584E0,2.3732404E-1,1E0,2.2889543E0,5.9904176E-1,1E0,5.6687794E0,5.9904176E-1,5.9904176E-1,1.5559844E3,8.279675E3,1E0,1.7319484E4,3.029896E1,1.7395585E3,8.778263E3,-8.963409E3,-6.819104E3,-4.2606655E3,-1.1557473E4,-3.0355337E3,5.196364E2,1.1386268E4,-4.888519E3,-1.4707513E3,-2.7020845E3,3.2575784E3,-4.7525186E3,1.9664896E3,-4.030018E3,-1.1087868E4,-5.677995E2,2.8823772E3,-3.2670525E3,-1.3120586E3,1.5977468E3,-4.0690215E3,-1.2209745E4,-2.975208E3,2.0093369E3,4.7304956E3,6.1711562E3,1.4918643E4,3.6913684E3,1.0616237E4,1.1997587E3,1.5949417E4,-9.836749E3,-1.5220713E3,2.1232217E4,2.774612E3,4.515839E3,-4.908174E3,6.151964E3,-3.7126704E3,5.2672925E3,3.4937E3,1.1440259E4,7.8286187E3,1.2230394E4,-9.073688E2],"split_indices":[9,14,14,4,4,4,11,9,13,9,13,11,9,11,6,1,13,9,0,11,14,1,1,10,9,11,6,11,0,11,0,14,10,11,0,11,11,0,1,13,14,14,0,13,0,14,11,0,0,14,0,8,0,0,9,4,0,9,11,11,11,14,0,14,13,7,14,11,0,8,0,10,0,11,14,9,6,11,11,6,11,11,11,0,0,10,0,0,0,0,0,0,0,0,0,0,0,0,0,0,0,0,0,0,0,0,0,0,0,0,0,0,0,0,0,0,0,0,0,0,0,0,0,0,0,0,0,0,0,0,0,0,0,0,0],"split_type":[0,0,0,0,0,0,0,0,0,0,0,0,0,0,0,0,0,0,0,0,0,0,0,0,0,0,0,0,0,0,0,0,0,0,0,0,0,0,0,0,0,0,0,0,0,0,0,0,0,0,0,0,0,0,0,0,0,0,0,0,0,0,0,0,0,0,0,0,0,0,0,0,0,0,0,0,0,0,0,0,0,0,0,0,0,0,0,0,0,0,0,0,0,0,0,0,0,0,0,0,0,0,0,0,0,0,0,0,0,0,0,0,0,0,0,0,0,0,0,0,0,0,0,0,0,0,0,0,0,0,0,0,0,0,0],"sum_hessian":[2.71E3,2.347E3,3.63E2,1.403E3,9.44E2,2.97E2,6.6E1,9.52E2,4.51E2,3.6E2,5.84E2,1.19E2,1.78E2,5.5E1,1.1E1,5.3E2,4.22E2,4.49E2,2E0,1.09E2,2.51E2,4.91E2,9.3E1,1.09E2,1E1,1.57E2,2.1E1,3.8E1,1.7E1,9E0,2E0,4.9E2,4E1,4.18E2,4E0,1.61E2,2.88E2,1.6E1,9.3E1,2.3E2,2.1E1,4.85E2,6E0,8.9E1,4E0,3.4E1,7.5E1,2E0,8E0,1.38E2,1.9E1,5E0,1.6E1,1.5E1,2.3E1,4E0,5E0,3.4E2,1.5E2,2.1E1,1.9E1,4.15E2,3E0,7.9E1,8.2E1,2.3E1,2.65E2,9E1,3E0,2.26E2,4E0,1.5E1,6E0,4.45E2,4E1,6.1E1,2.8E1,1.7E1,1.7E1,1.2E1,6.3E1,2.8E1,1.1E2,1E0,4E0,1.6E1,7E0,2E0,2E0,1E0,3.39E2,7.6E1,7.4E1,1.2E1,9E0,1E1,9E0,3.14E2,1.01E2,5E1,2.9E1,7.7E1,5E0,2E1,3E0,1.75E2,9E1,7.2E1,1.8E1,2.14E2,1.2E1,9E0,6E0,3.04E2,1.41E2,3.6E1,4E0,4.2E1,1.9E1,3E0,2.5E1,1.3E1,4E0,4E0,1.3E1,4E0,8E0,6.2E1,1E0,8E0,2E1,4.3E1,6.7E1,1.4E1,2E0],"tree_param":{"num_deleted":"0","num_feature":"15","num_nodes":"135","size_leaf_vector":"1"}},{"base_weights":[7.352455E2,-3.6105336E4,4.8004117E4,-6.321397E4,-2.2435889E4,5.9624736E3,7.616074E4,-7.6271914E4,-4.4464406E4,-5.7157637E4,-1.566835E4,-1.5443863E4,4.8472195E4,6.817001E4,1.5777644E5,-8.7705125E4,-6.0347754E4,-6.2800973E4,-1.61128545E4,-7.428629E4,-2.1238246E4,-2.512606E4,-7.0201035E3,5.196279E4,-1.7561621E4,1.1911919E5,3.0709303E4,5.119734E4,8.80935E4,1.8271767E5,5.7430863E4,-8.275917E4,-1.3106486E5,-1.9989318E4,-9.0073766E4,-1.0015577E4,-5.700731E4,2.4150006E4,-3.7394516E4,-8.190296E4,-2.690473E4,3.345742E4,-3.896446E4,-1.1727456E4,-5.0414715E4,-2.2379879E4,1.0031198E4,6.9545635E3,8.2021173E2,-1.4311233E4,-1.5459617E4,7.383179E4,3.489048E4,-1.2349606E4,5.140048E4,8.635151E3,6.0707363E4,1.181649E5,6.581138E4,1.8584325E5,1.4781844E3,2.2440562E4,1.003445E4,-9.141446E4,-5.0888066E4,-6.0308125E3,-1.5774445E4,-1.1904886E4,-7.487965E3,-1.339675E4,-7.357279E4,-3.4712344E4,-7.4504625E4,-3.4227527E4,5.505015E4,-5.079094E4,2.9308145E4,-2.6784922E4,-8.593713E4,-7.741341E4,7.859674E4,5.425085E4,-3.2088867E3,-5.2805758E4,-2.2608605E4,-5.450287E3,-8.9291836E4,1.6842346E4,-5.737709E4,-6.441612E3,-7.471415E4,9.0377875E4,6.45485E3,4.8106606E3,-2.0505543E4,1.6051267E5,-2.4314275E4,1.761717E4,-2.5842639E4,1.4557431E5,3.8829105E4,-5.8726313E3,1.5469175E5,2.1043962E5,5.5162773E4,1.6115473E5,8.2593125E4,-1.6327235E4,7.780728E4,6.9045835E3,1.9195948E5,7.189383E4,-3.1500818E3,-1.0318189E4,-6.237726E3,-8.769079E3,1.320842E3,-2.3470823E3,8.201159E2,-4.980944E2,-9.631814E3,3.8657112E1,-7.5677188E3,-9.220976E3,-4.9080015E3,-2.1531492E3,-5.106271E3,4.5770856E2,1.050655E4,9.323292E3,-5.59487E3,9.7302E3,-3.2238093E3,-7.233232E3,7.323819E3,-1.2674724E4,-7.5256187E3,6.243234E2,-1.0599265E4,1.5473583E4,3.2421755E3,2.4642542E3,7.4817354E3,-2.3377825E3,-6.4980273E3,-4.9962275E3,1.9414316E3,-9.837275E2,2.8169521E3,-1.0759647E4,5.029997E3,-2.4719631E3,6.19357E3,-7.231032E3,-4.620817E3,-2.7691187E3,2.356031E3,5.3900714E2,-8.463283E3,3.14078E3,1.3127237E4,3.3748648E2,8.187763E3,4.959636E3,-2.1061384E3,-2.594491E3,1.0920747E3,2.6506645E4,3.5894824E3,-5.7495547E3,7.301279E3,-1.1433169E4,-1.5847933E3,6.252242E3,1.7223623E4,6.9454736E3,3.1919271E1,1.3733788E3,-3.279411E3,7.947978E3,2.0341045E4,-2.4229922E3,2.3920623E4,4.512275E3,8.918823E3,1.1448116E4,2.3349256E4,5.4176343E3,1.1027393E4,-6.1798643E3,-6.4165924E2,7.365493E3,2.1303059E4,2.0446021E4,1.2651086E4,-2.2595547E2,1.842537E4],"categories":[],"categories_nodes":[],"categories_segments":[],"categories_sizes":[],"default_left":[0,0,0,0,0,0,0,0,0,0,0,0,0,0,0,0,0,0,0,0,0,0,0,0,0,0,0,0,0,0,0,0,0,0,0,0,0,0,0,0,0,0,0,0,0,0,0,0,0,0,0,0,0,0,0,0,0,0,0,0,0,0,0,0,0,0,0,0,0,0,0,0,0,0,0,0,0,0,0,0,0,0,0,0,0,0,0,0,0,0,0,0,0,0,0,0,0,0,0,0,0,0,0,0,0,0,0,0,0,0,0,0,0,0,0,0,0,0,0,0,0,0,0,0,0,0,0,0,0,0,0,0,0,0,0,0,0,0,0,0,0,0,0,0,0,0,0,0,0,0,0,0,0,0,0,0,0,0,0,0,0,0,0,0,0,0,0,0,0,0,0,0,0,0,0,0,0,0,0,0,0,0,0,0,0,0,0,0,0,0,0,0,0,0,0,0,0],"id":8,"left_children":[1,3,5,7,9,11,13,15,17,19,21,23,25,27,29,31,33,35,37,39,41,43,45,47,49,51,53,55,57,59,61,63,65,67,69,-1,71,73,75,77,79,81,83,85,87,89,91,-1,-1,-1,93,95,-1,97,99,101,103,105,107,109,-1,111,-1,113,115,-1,-1,117,-1,-1,119,121,123,125,127,129,131,133,135,137,139,141,-1,143,145,147,149,151,153,155,157,159,161,163,165,167,169,-1,171,173,175,177,179,181,183,185,187,189,191,-1,193,195,-1,-1,-1,-1,-1,-1,-1,-1,-1,-1,-1,-1,-1,-1,-1,-1,-1,-1,-1,-1,-1,-1,-1,-1,-1,-1,-1,-1,-1,-1,-1,-1,-1,-1,-1,-1,-1,-1,-1,-1,-1,-1,-1,-1,-1,-1,-1,-1,-1,-1,-1,-1,-1,-1,-1,-1,-1,-1,-1,-1,-1,-1,-1,-1,-1,-1,-1,-1,-1,-1,-1,-1,-1,-1,-1,-1,-1,-1,-1,-1,-1,-1,-1,-1,-1],"loss_changes":[4.7470823E12,5.662797E11,1.4129444E12,1.22206814E11,2.3878494E11,4.3753773E11,4.5554545E11,4.9508647E10,1.097204E11,1.0055392E11,6.975629E10,4.659286E10,1.9838E11,2.1630498E11,1.471793E11,2.6253853E10,1.5296024E11,2.2208709E10,7.3736225E10,3.8216073E10,5.462875E10,1.3765252E11,1.1755757E11,7.1239496E9,7.986294E10,3.0724427E11,1.1645693E11,1.431683E11,1.9256967E11,2.349767E10,1.8770072E10,3.8933037E10,2.0690895E10,2.3958964E10,4.374102E10,0E0,4.188537E10,5.6000455E10,5.1528925E10,1.9044303E10,9.6673006E10,2.0821897E10,8.3143516E9,1.2999844E11,6.699231E10,1.9637046E11,6.062168E10,0E0,0E0,0E0,3.1499305E10,2.4210958E11,0E0,1.1393289E11,9.853021E10,1.4075965E11,2.2915075E11,1.7937203E11,1.7271718E11,2.1749563E10,0E0,2.6272913E10,0E0,3.559201E10,8.607958E10,0E0,0E0,1.1819749E10,0E0,0E0,8.6888415E10,7.4795975E10,2.3833575E10,1.2516833E9,5.0007663E10,4.0129733E10,4.498449E10,4.1743835E10,2.925573E10,2.9351846E10,1.6077521E10,4.8546427E9,0E0,6.3628657E9,2.5109086E10,3.7002035E10,5.6515658E10,2.7769391E10,1.8007556E10,1.1668252E11,4.4155208E10,1.758099E10,4.7345394E10,7.288382E10,4.233437E10,1.8592445E11,4.9410007E10,0E0,3.4449383E10,1.1374608E10,9.3149676E10,3.2648253E10,5.8183516E9,7.330241E10,9.1969815E10,1.623404E11,4.9874305E10,9.968433E9,6.9656445E10,0E0,1.1768693E10,4.2075652E10,0E0,0E0,0E0,0E0,0E0,0E0,0E0,0E0,0E0,0E0,0E0,0E0,0E0,0E0,0E0,0E0,0E0,0E0,0E0,0E0,0E0,0E0,0E0,0E0,0E0,0E0,0E0,0E0,0E0,0E0,0E0,0E0,0E0,0E0,0E0,0E0,0E0,0E0,0E0,0E0,0E0,0E0,0E0,0E0,0E0,0E0,0E0,0E0,0E0,0E0,0E0,0E0,0E0,0E0,0E0,0E0,0E0,0E0,0E0,0E0,0E0,0E0,0E0,0E0,0E0,0E0,0E0,0E0,0E0,0E0,0E0,0E0,0E0,0E0,0E0,0E0,0E0,0E0,0E0,0E0,0E0,0E0,0E0,0E0,0E0],"parents":[2147483647,0,0,1,1,2,2,3,3,4,4,5,5,6,6,7,7,8,8,9,9,10,10,11,11,12,12,13,13,14,14,15,15,16,16,17,17,18,18,19,19,20,20,21,21,22,22,23,23,24,24,25,25,26,26,27,27,28,28,29,29,30,30,31,31,32,32,33,33,34,34,36,36,37,37,38,38,39,39,40,40,41,41,42,42,43,43,44,44,45,45,46,46,50,50,51,51,53,53,54,54,55,55,56,56,57,57,58,58,59,59,61,61,63,63,64,64,67,67,70,70,71,71,72,72,73,73,74,74,75,75,76,76,77,77,78,78,79,79,80,80,81,81,83,83,84,84,85,85,86,86,87,87,88,88,89,89,90,90,91,91,92,92,93,93,94,94,95,95,96,96,98,98,99,99,100,100,101,101,102,102,103,103,104,104,105,105,106,106,107,107,108,108,110,110,111,111],"right_children":[2,4,6,8,10,12,14,16,18,20,22,24,26,28,30,32,34,36,38,40,42,44,46,48,50,52,54,56,58,60,62,64,66,68,70,-1,72,74,76,78,80,82,84,86,88,90,92,-1,-1,-1,94,96,-1,98,100,102,104,106,108,110,-1,112,-1,114,116,-1,-1,118,-1,-1,120,122,124,126,128,130,132,134,136,138,140,142,-1,144,146,148,150,152,154,156,158,160,162,164,166,168,170,-1,172,174,176,178,180,182,184,186,188,190,192,-1,194,196,-1,-1,-1,-1,-1,-1,-1,-1,-1,-1,-1,-1,-1,-1,-1,-1,-1,-1,-1,-1,-1,-1,-1,-1,-1,-1,-1,-1,-1,-1,-1,-1,-1,-1,-1,-1,-1,-1,-1,-1,-1,-1,-1,-1,-1,-1,-1,-1,-1,-1,-1,-1,-1,-1,-1,-1,-1,-1,-1,-1,-1,-1,-1,-1,-1,-1,-1,-1,-1,-1,-1,-1,-1,-1,-1,-1,-1,-1,-1,-1,-1,-1,-1,-1,-1],"split_conditions":[-6.005938E-2,-8.5094875E-1,8.7801075E-1,1E0,-2.4601589E-1,1E0,2.8132234E0,-1.0071275E0,1E0,1E0,1E0,-1.757875E-2,4.7391623E-2,1E0,3.1339107E0,-1.0183724E0,-9.284134E-1,-1.2857505E0,1E0,-3.4742835E-1,-2.4591452E-1,1E0,-3.6991808E-1,5.9904176E-1,-1.258103E-2,4.23939E-2,2.6854077E-1,3.322617E-1,1E0,5.3891225E0,3.126064E0,-1.1120796E0,1E0,1E0,-9.0217537E-1,-1.0015577E4,-2.4591452E-1,1E0,-9.284134E-1,-7.672369E-1,1E0,1E0,1E0,-1.1503431E-1,-6.560376E-1,-4.4238505E-1,-3.624215E-1,6.9545635E3,8.2021173E2,-1.4311233E4,7.987681E-2,1E0,3.489048E4,-2.4601589E-1,3.8598722E-1,1.5252737E0,3.8598722E-1,5.9904176E-1,2.1481527E-1,4.7844505E-1,1.4781844E3,3.1859605E0,1.003445E4,1E0,1E0,-6.0308125E3,-1.5774445E4,-2.4601589E-1,-7.487965E3,-1.339675E4,-8.9217997E-1,1E0,-9.6714574E-1,-1.2045375E0,-1.4869088E0,-1.0506256E0,-9.0217537E-1,-8.047198E-1,-6.9477E-1,-2.4591452E-1,-3.3493403E-1,1E0,-3.2088867E3,-5.685775E-1,-5.673281E-1,-2.2498417E-1,-7.630198E-2,-7.247563E-1,-4.0989986E-1,1E0,2.3732404E-1,1E0,1.5252737E0,1E0,1.443998E0,5.9904176E-1,5.9904176E-1,1.761717E4,7.238023E-2,1E0,1E0,2.323073E-1,2.5229818E-1,1E0,1.7816008E0,7.358277E-1,1.0431875E0,2.3732404E-1,2.958564E0,6.9045835E3,3.3346426E0,2.7478793E-1,-3.1500818E3,-1.0318189E4,-6.237726E3,-8.769079E3,1.320842E3,-2.3470823E3,8.201159E2,-4.980944E2,-9.631814E3,3.8657112E1,-7.5677188E3,-9.220976E3,-4.9080015E3,-2.1531492E3,-5.106271E3,4.5770856E2,1.050655E4,9.323292E3,-5.59487E3,9.7302E3,-3.2238093E3,-7.233232E3,7.323819E3,-1.2674724E4,-7.5256187E3,6.243234E2,-1.0599265E4,1.5473583E4,3.2421755E3,2.4642542E3,7.4817354E3,-2.3377825E3,-6.4980273E3,-4.9962275E3,1.9414316E3,-9.837275E2,2.8169521E3,-1.0759647E4,5.029997E3,-2.4719631E3,6.19357E3,-7.231032E3,-4.620817E3,-2.7691187E3,2.356031E3,5.3900714E2,-8.463283E3,3.14078E3,1.3127237E4,3.3748648E2,8.187763E3,4.959636E3,-2.1061384E3,-2.594491E3,1.0920747E3,2.6506645E4,3.5894824E3,-5.7495547E3,7.301279E3,-1.1433169E4,-1.5847933E3,6.252242E3,1.7223623E4,6.9454736E3,3.1919271E1,1.3733788E3,-3.279411E3,7.947978E3,2.0341045E4,-2.4229922E3,2.3920623E4,4.512275E3,8.918823E3,1.1448116E4,2.3349256E4,5.4176343E3,1.1027393E4,-6.1798643E3,-6.4165924E2,7.365493E3,2.1303059E4,2.0446021E4,1.2651086E4,-2.2595547E2,1.842537E4],"split_indices":[3,3,2,12,2,5,9,3,5,12,12,3,3,5,11,3,3,3,6,3,11,10,3,11,3,3,3,3,10,9,2,3,5,8,3,0,11,10,3,3,5,10,5,3,3,3,3,0,0,0,3,10,0,2,3,9,3,11,3,3,0,3,0,5,10,0,0,2,0,0,3,10,3,3,3,9,3,3,3,11,3,5,0,3,3,3,3,3,3,5,9,10,9,10,11,11,11,0,3,10,10,3,3,10,3,3,3,9,3,0,3,3,0,0,0,0,0,0,0,0,0,0,0,0,0,0,0,0,0,0,0,0,0,0,0,0,0,0,0,0,0,0,0,0,0,0,0,0,0,0,0,0,0,0,0,0,0,0,0,0,0,0,0,0,0,0,0,0,0,0,0,0,0,0,0,0,0,0,0,0,0,0,0,0,0,0,0,0,0,0,0,0,0,0,0,0,0],"split_type":[0,0,0,0,0,0,0,0,0,0,0,0,0,0,0,0,0,0,0,0,0,0,0,0,0,0,0,0,0,0,0,0,0,0,0,0,0,0,0,0,0,0,0,0,0,0,0,0,0,0,0,0,0,0,0,0,0,0,0,0,0,0,0,0,0,0,0,0,0,0,0,0,0,0,0,0,0,0,0,0,0,0,0,0,0,0,0,0,0,0,0,0,0,0,0,0,0,0,0,0,0,0,0,0,0,0,0,0,0,0,0,0,0,0,0,0,0,0,0,0,0,0,0,0,0,0,0,0,0,0,0,0,0,0,0,0,0,0,0,0,0,0,0,0,0,0,0,0,0,0,0,0,0,0,0,0,0,0,0,0,0,0,0,0,0,0,0,0,0,0,0,0,0,0,0,0,0,0,0,0,0,0,0,0,0,0,0,0,0,0,0,0,0,0,0,0,0],"sum_hessian":[2.724E3,1.531E3,1.193E3,5.12E2,1.019E3,4.79E2,7.14E2,3E2,2.12E2,1.65E2,8.54E2,3.19E2,1.6E2,6.52E2,6.2E1,1.72E2,1.28E2,1.28E2,8.4E1,1.11E2,5.4E1,4.07E2,4.47E2,9E0,3.1E2,3.1E1,1.29E2,3.54E2,2.98E2,4.9E1,1.3E1,1.57E2,1.5E1,5.5E1,7.3E1,1.5E1,1.13E2,2.9E1,5.5E1,9.5E1,1.6E1,1.3E1,4.1E1,2.67E2,1.4E2,2.35E2,2.12E2,6E0,3E0,4E0,3.06E2,2.7E1,4E0,4.2E1,8.7E1,6.5E1,2.89E2,1.25E2,1.73E2,4.8E1,1E0,8E0,5E0,1.22E2,3.5E1,5E0,1E1,4.9E1,6E0,1.8E1,5.5E1,5.1E1,6.2E1,1E1,1.9E1,4.6E1,9E0,7E0,8.8E1,1.1E1,5E0,1E1,3E0,2.1E1,2E1,2.48E2,1.9E1,1.3E1,1.27E2,1.81E2,5.4E1,8E0,2.04E2,6.1E1,2.45E2,1.4E1,1.3E1,2E0,4E1,9E0,7.8E1,6E1,5E0,9E0,2.8E2,5.5E1,7E1,2.2E1,1.51E2,3E0,4.5E1,4E0,4E0,8.5E1,3.7E1,2.2E1,1.3E1,3.1E1,1.8E1,1.4E1,4.1E1,2.8E1,2.3E1,3.5E1,2.7E1,7E0,3E0,1E1,9E0,1E0,4.5E1,4E0,5E0,5E0,2E0,1.6E1,7.2E1,3E0,8E0,1E0,4E0,5E0,5E0,7E0,1.4E1,1.2E1,8E0,2.2E2,2.8E1,1.7E1,2E0,7E0,6E0,5.2E1,7.5E1,1.06E2,7.5E1,6E0,4.8E1,4E0,4E0,1.97E2,7E0,2.2E1,3.9E1,2.09E2,3.6E1,7E0,7E0,1E1,3E0,3E0,3.7E1,3E0,6E0,4.3E1,3.5E1,3.5E1,2.5E1,3E0,2E0,1E0,8E0,2.18E2,6.2E1,3.5E1,2E1,3.6E1,3.4E1,3E0,1.9E1,1.48E2,3E0,3.6E1,9E0,3E0,1E0],"tree_param":{"num_deleted":"0","num_feature":"15","num_nodes":"197","size_leaf_vector":"1"}},{"base_weights":[9.092398E2,-3.9546508E4,7.0437766E4,-6.2923113E4,6.2115225E3,3.6576324E4,1.0176591E5,-8.396458E4,-4.319254E4,-2.6534709E4,3.8707914E4,2.0232307E4,7.610541E4,8.864599E4,1.9492652E4,-1.0258363E5,-7.019305E4,-5.248803E4,-1.4281819E4,-3.7060934E4,4.730116E4,-9.713978E2,7.867149E4,-2.2388933E3,4.1417535E4,-7.821224E3,9.208995E4,6.673077E4,1.3444803E5,-1.05676805E5,-4.353619E4,-7.64443E4,-3.1264617E4,-5.767093E4,-2.401009E4,-1.8540139E4,1.8920037E4,-6.3549504E4,-1.0488458E4,1.8205854E4,9.172194E4,-6.404634E3,9.287335E3,2.6441793E4,9.800338E4,-7.999916E4,4.426385E3,1.8387334E4,5.8446297E4,-5.2051963E3,1.4159844E3,7.575259E4,1.3088536E5,5.8906805E4,9.973845E4,9.249596E4,1.7511544E5,-1.108029E5,-8.499625E3,-8.110281E3,2.498817E2,-9.0923305E4,-6.949439E4,1.466212E4,-3.8706223E4,-5.543073E4,-1.3255106E4,-5.9305195E4,-5.073292E3,-3.5161098E4,-7.694873E3,-9.02018E4,-3.7559664E4,-4.3167E4,3.582026E3,3.1071334E4,-1.5639724E4,1.544767E4,1.9084635E4,4.019307E4,-1.4643169E4,-2.690193E4,7.130948E4,1.1116333E5,5.4635024E3,-9.288224E3,-2.7791658E3,1.3767361E4,1.7319308E3,9.678134E3,4.032156E4,1.4430436E4,6.55262E4,-5.6916426E3,2.3877193E4,8.39239E4,1.9731117E4,1.17714195E5,2.7618129E4,4.003364E4,7.7012875E4,1.9555592E4,5.7576617E4,1.2986616E5,2.7798643E4,1.6692906E5,2.7255156E4,-1.1299115E4,-6.90997E3,3.0858328E3,-1.8165162E3,-1.0049808E4,-5.287816E3,-6.479741E3,-8.6658E3,-6.0972186E2,4.4373647E3,-4.2816196E3,2.4885522E3,-5.0953315E3,-7.985918E3,-6.440893E3,2.9040344E3,2.9609427E2,-7.1546206E3,-2.0412147E3,-4.6771484E3,-2.9875635E3,1.8853673E2,-1.0614033E4,-2.9112422E3,-1.9304727E3,-5.955529E3,-5.8651084E3,-2.0589546E3,1.9627129E3,-1.6563903E3,1.7050573E3,6.131105E3,-2.6518672E3,2.4816985E3,3.6452644E3,-1.9921711E3,5.205978E2,1.8758672E4,-3.4333856E0,-2.9251423E3,-7.276814E3,3.214588E3,1.0424909E4,-3.390436E3,2.4898725E4,1.0363539E4,-1.3976874E3,1.2909419E4,6.2126646E3,-7.7910515E1,1.6989344E3,-4.288293E3,4.997758E3,7.8519165E2,3.5322E3,6.264045E2,7.0439033E3,-1.0899255E3,5.539576E2,-5.620678E3,-1.4145021E3,5.3940347E3,5.3511577E3,9.220064E3,-3.9064626E3,2.8627515E3,1.277074E4,6.378027E3,6.792017E3,1.9620858E3,1.0036141E4,4.7908374E3,1.0406771E2,8.685301E3,9.862107E3,2.2031678E4,2.5930222E2,8.0722397E3,1.10432295E4,1.8470377E4],"categories":[],"categories_nodes":[],"categories_segments":[],"categories_sizes":[],"default_left":[0,0,0,0,0,0,0,0,0,0,0,0,0,0,0,0,0,0,0,0,0,0,0,0,0,0,0,0,0,0,0,0,0,0,0,0,0,0,0,0,0,0,0,0,0,0,0,0,0,0,0,0,0,0,0,0,0,0,0,0,0,0,0,0,0,0,0,0,0,0,0,0,0,0,0,0,0,0,0,0,0,0,0,0,0,0,0,0,0,0,0,0,0,0,0,0,0,0,0,0,0,0,0,0,0,0,0,0,0,0,0,0,0,0,0,0,0,0,0,0,0,0,0,0,0,0,0,0,0,0,0,0,0,0,0,0,0,0,0,0,0,0,0,0,0,0,0,0,0,0,0,0,0,0,0,0,0,0,0,0,0,0,0,0,0,0,0,0,0,0,0,0,0,0,0,0,0,0,0,0,0,0,0,0,0,0,0],"id":9,"left_children":[1,3,5,7,9,11,13,15,17,19,21,23,25,27,-1,29,31,33,35,37,39,41,43,45,47,49,51,53,55,57,59,61,63,65,67,69,-1,71,73,75,77,79,-1,81,83,85,87,89,91,-1,93,95,97,99,101,103,105,107,-1,-1,109,111,113,115,117,119,-1,121,123,125,127,129,131,133,135,137,139,141,-1,143,145,147,149,151,153,-1,-1,-1,155,157,159,161,163,165,167,169,171,173,-1,175,177,-1,179,181,183,185,-1,-1,-1,-1,-1,-1,-1,-1,-1,-1,-1,-1,-1,-1,-1,-1,-1,-1,-1,-1,-1,-1,-1,-1,-1,-1,-1,-1,-1,-1,-1,-1,-1,-1,-1,-1,-1,-1,-1,-1,-1,-1,-1,-1,-1,-1,-1,-1,-1,-1,-1,-1,-1,-1,-1,-1,-1,-1,-1,-1,-1,-1,-1,-1,-1,-1,-1,-1,-1,-1,-1,-1,-1,-1,-1,-1,-1,-1,-1,-1,-1],"loss_changes":[7.501787E12,1.8038501E12,1.0369384E12,4.5969205E11,6.0864784E11,3.040485E11,6.048506E11,1.3100594E11,1.5458173E11,2.2325874E11,4.551802E11,1.6004805E11,1.8585125E11,4.4071335E11,0E0,3.685928E10,7.377899E10,6.3115756E10,1.265497E11,1.7530018E11,4.485782E10,7.452751E10,1.4179559E11,8.535428E10,6.6771747E10,9.470781E9,6.3607538E10,7.289124E10,2.2947824E11,1.3374587E10,2.1403898E10,2.075014E10,1.59471E10,5.4551118E10,4.58171E10,2.4965657E10,0E0,8.319818E10,5.808979E10,1.0501058E10,1.0290086E11,5.3566312E10,0E0,9.7654735E10,1.2604578E11,6.1623665E9,5.4333886E10,1.393698E10,2.9905617E10,0E0,3.3288184E9,3.679666E10,3.0642143E10,8.200487E10,2.1901142E11,1.7288574E11,1.1934106E10,7.61489E9,0E0,0E0,4.5061376E9,2.5284903E10,9.379512E9,4.5880975E9,1.1258556E10,3.530634E10,0E0,1.2691866E10,2.477856E10,8.4635525E9,1.8331075E10,5.6304173E10,2.4949662E10,1.2076859E10,2.9093771E10,6.162336E9,3.7389985E9,7.412596E9,0E0,1.07317805E11,2.5181325E10,5.3796884E10,7.977999E10,6.8611342E10,3.545231E10,0E0,0E0,0E0,2.2796397E10,2.1864225E10,6.191655E9,2.3378714E9,3.2682312E10,9.388905E9,6.4783247E9,1.3441434E10,7.3951657E9,9.101935E9,0E0,6.925332E10,8.081487E10,0E0,6.7771523E10,1.0827452E11,3.714201E10,4.8893395E10,0E0,0E0,0E0,0E0,0E0,0E0,0E0,0E0,0E0,0E0,0E0,0E0,0E0,0E0,0E0,0E0,0E0,0E0,0E0,0E0,0E0,0E0,0E0,0E0,0E0,0E0,0E0,0E0,0E0,0E0,0E0,0E0,0E0,0E0,0E0,0E0,0E0,0E0,0E0,0E0,0E0,0E0,0E0,0E0,0E0,0E0,0E0,0E0,0E0,0E0,0E0,0E0,0E0,0E0,0E0,0E0,0E0,0E0,0E0,0E0,0E0,0E0,0E0,0E0,0E0,0E0,0E0,0E0,0E0,0E0,0E0,0E0,0E0,0E0,0E0,0E0,0E0,0E0,0E0,0E0,0E0],"parents":[2147483647,0,0,1,1,2,2,3,3,4,4,5,5,6,6,7,7,8,8,9,9,10,10,11,11,12,12,13,13,15,15,16,16,17,17,18,18,19,19,20,20,21,21,22,22,23,23,24,24,25,25,26,26,27,27,28,28,29,29,30,30,31,31,32,32,33,33,34,34,35,35,37,37,38,38,39,39,40,40,41,41,43,43,44,44,45,45,46,46,47,47,48,48,50,50,51,51,52,52,53,53,54,54,55,55,56,56,57,57,60,60,61,61,62,62,63,63,64,64,65,65,67,67,68,68,69,69,70,70,71,71,72,72,73,73,74,74,75,75,76,76,77,77,79,79,80,80,81,81,82,82,83,83,84,84,88,88,89,89,90,90,91,91,92,92,93,93,94,94,95,95,96,96,97,97,99,99,100,100,102,102,103,103,104,104,105,105],"right_children":[2,4,6,8,10,12,14,16,18,20,22,