{"learner":{"attributes":{"scikit_learn":"{\"_estimator_type\": \"regressor\"}"},"feature_names":["location.address.city","condos","description.baths","description.sqft","fireplace","hardwood_floors","single_family","mobile","townhomes","description.baths_full","basement","description.beds"],"feature_types":["float","int","float","float","int","int","int","int","int","float","int","float"],"gradient_booster":{"model":{"gbtree_model_param":{"num_parallel_tree":"1","num_trees":"100"},"iteration_indptr":[0,1,2,3,4,5,6,7,8,9,10,11,12,13,14,15,16,17,18,19,20,21,22,23,24,25,26,27,28,29,30,31,32,33,34,35,36,37,38,39,40,41,42,43,44,45,46,47,48,49,50,51,52,53,54,55,56,57,58,59,60,61,62,63,64,65,66,67,68,69,70,71,72,73,74,75,76,77,78,79,80,81,82,83,84,85,86,87,88,89,90,91,92,93,94,95,96,97,98,99,100],"tree_info":[0,0,0,0,0,0,0,0,0,0,0,0,0,0,0,0,0,0,0,0,0,0,0,0,0,0,0,0,0,0,0,0,0,0,0,0,0,0,0,0,0,0,0,0,0,0,0,0,0,0,0,0,0,0,0,0,0,0,0,0,0,0,0,0,0,0,0,0,0,0,0,0,0,0,0,0,0,0,0,0,0,0,0,0,0,0,0,0,0,0,0,0,0,0,0,0,0,0,0,0],"trees":[{"base_weights":[6.468066E-4,-8.9254086E4,1.24286625E5,-1.4161786E5,1.820551E4,7.278713E4,2.3737423E5,-2.1855288E5,-1.2077461E5,-3.5151656E4,1.0341814E5,3.8091457E4,1.7032988E5,1.6197381E5,3.14808E5,-2.3089962E5,-1.6482217E5,-1.5245523E5,-8.6918695E4,-5.7723902E4,1.0666661E5,1.6214609E4,1.8441202E5,-2.9504328E4,7.223391E4,1.358792E5,2.9604662E5,1.4747123E5,3.2136625E5,2.7105406E5,4.3287066E5,-1.5119334E5,-2.3748525E5,-5.236789E4,-3.2735412E4,-1.8193567E5,-1.344729E5,-1.08096E5,-5.0715098E4,-1.02500305E5,-1.68341E4,6.1362855E4,1.8927567E5,-1.6222516E3,8.145015E4,6.4843207E4,2.282425E5,-1.1369172E5,-8.629973E3,-1.4126695E4,8.7583875E4,-1.47028125E4,1.5820781E5,1.5414483E5,2.6834875E5,6.2763723E4,1.677703E5,4.2014312E5,1.7590681E5,2.1122888E5,3.13627E5,1.9022512E5,1.3576314E5,-5.3532883E4,-2.6404084E4,-8.533329E4,-6.788277E4,-5.711726E4,-4.680879E4,-4.3946426E4,-2.4526662E4,-3.8315875E4,-1.7486611E4,-2.2908088E4,-4.896009E3,-4.9361734E4,-1.9822012E4,-2.2286793E4,2.4541882E3,2.269892E4,9.739544E3,1.9600951E4,9.5917875E4,-2.3227312E3,4.232329E4,-1.2432461E4,3.3805047E4,-2.8284822E3,4.1891547E4,5.2568715E4,8.141693E4,-4.5338656E4,-1.4579009E4,2.2288591E3,-1.9173637E4,9.700605E3,-1.1263057E4,1.4086085E4,3.196536E4,-3.447339E4,5.820045E3,3.8746508E4,6.366719E4,3.1520375E4,8.908448E4,2.9987682E4,-1.9877059E4,3.175061E4,5.7285902E4,1.377387E5,1.0390523E4,-2.6594766E3,6.0033418E4,7.4349305E4,5.0932797E4,2.3448376E3,9.823161E4,1.4454032E4,7.476079E4],"categories":[],"categories_nodes":[],"categories_segments":[],"categories_sizes":[],"default_left":[0,0,0,0,0,0,0,0,0,0,0,0,0,0,0,0,0,0,0,0,0,0,0,0,0,0,0,0,0,0,0,0,0,0,0,0,0,0,0,0,0,0,0,0,0,0,0,0,0,0,0,0,0,0,0,0,0,0,0,0,0,0,0,0,0,0,0,0,0,0,0,0,0,0,0,0,0,0,0,0,0,0,0,0,0,0,0,0,0,0,0,0,0,0,0,0,0,0,0,0,0,0,0,0,0,0,0,0,0,0,0,0,0,0,0,0,0,0,0],"id":0,"left_children":[1,3,5,7,9,11,13,15,17,19,21,23,25,27,29,31,33,35,37,39,41,43,45,47,49,51,53,55,57,59,61,63,65,-1,-1,67,69,71,73,75,77,79,81,83,85,87,89,91,93,95,97,99,101,-1,103,105,107,109,111,113,115,117,-1,-1,-1,-1,-1,-1,-1,-1,-1,-1,-1,-1,-1,-1,-1,-1,-1,-1,-1,-1,-1,-1,-1,-1,-1,-1,-1,-1,-1,-1,-1,-1,-1,-1,-1,-1,-1,-1,-1,-1,-1,-1,-1,-1,-1,-1,-1,-1,-1,-1,-1,-1,-1,-1,-1,-1,-1],"loss_changes":[3.752792E13,1.1082123E13,8.217795E12,2.0967368E12,2.9408064E12,3.286447E12,2.5296414E12,1.4835778E11,1.1065193E12,1.2802177E12,1.755685E12,1.6615008E12,1.0641846E12,4.7502957E11,1.00362984E12,8.272531E10,1.1327767E10,2.6074205E11,3.83232E11,6.281036E11,1.9422314E11,1.409274E11,6.61258E11,4.2429936E11,6.348897E11,6.815086E11,1.8783299E11,3.4884236E11,1.8471846E11,3.438092E11,1.8601004E11,1.8727043E10,4.4596986E10,0E0,0E0,1.4320402E10,2.0211617E11,3.0434525E11,1.6546464E11,3.5974926E11,2.6074566E11,1.2833587E10,2.8630096E11,8.493385E10,1.0446599E11,2.0130213E11,1.6745864E11,1.0963026E11,1.7359657E11,8.063752E10,3.0788E11,9.449926E10,2.4879038E11,0E0,2.0228787E11,2.0817879E11,2.2100731E11,1.3439179E11,4.2024927E10,6.4132743E10,3.860259E11,3.8258147E10,0E0,0E0,0E0,0E0,0E0,0E0,0E0,0E0,0E0,0E0,0E0,0E0,0E0,0E0,0E0,0E0,0E0,0E0,0E0,0E0,0E0,0E0,0E0,0E0,0E0,0E0,0E0,0E0,0E0,0E0,0E0,0E0,0E0,0E0,0E0,0E0,0E0,0E0,0E0,0E0,0E0,0E0,0E0,0E0,0E0,0E0,0E0,0E0,0E0,0E0,0E0,0E0,0E0,0E0,0E0,0E0,0E0],"parents":[2147483647,0,0,1,1,2,2,3,3,4,4,5,5,6,6,7,7,8,8,9,9,10,10,11,11,12,12,13,13,14,14,15,15,16,16,17,17,18,18,19,19,20,20,21,21,22,22,23,23,24,24,25,25,26,26,27,27,28,28,29,29,30,30,31,31,32,32,35,35,36,36,37,37,38,38,39,39,40,40,41,41,42,42,43,43,44,44,45,45,46,46,47,47,48,48,49,49,50,50,51,51,52,52,54,54,55,55,56,56,57,57,58,58,59,59,60,60,61,61],"right_children":[2,4,6,8,10,12,14,16,18,20,22,24,26,28,30,32,34,36,38,40,42,44,46,48,50,52,54,56,58,60,62,64,66,-1,-1,68,70,72,74,76,78,80,82,84,86,88,90,92,94,96,98,100,102,-1,104,106,108,110,112,114,116,118,-1,-1,-1,-1,-1,-1,-1,-1,-1,-1,-1,-1,-1,-1,-1,-1,-1,-1,-1,-1,-1,-1,-1,-1,-1,-1,-1,-1,-1,-1,-1,-1,-1,-1,-1,-1,-1,-1,-1,-1,-1,-1,-1,-1,-1,-1,-1,-1,-1,-1,-1,-1,-1,-1,-1,-1,-1],"split_conditions":[8.68587E-2,9.861826E-2,4.3221614E-1,-1.2626517E0,-3.0867097E-1,1.3704187E0,7.9467136E-1,1E0,-5.635798E-1,2.0020373E0,1E0,-5.898178E-1,4.23939E-2,2.8132234E0,1.443998E0,1E0,-9.254457E-2,-9.9213433E-1,-2.8567407E-1,1E0,2.206407E0,1E0,8.7801075E-1,1E0,3.718066E-1,-1.0908707E0,4.7391623E-2,8.7801075E-1,3.1859605E0,7.6206577E-1,2.3732404E-1,-6.023121E-1,-1.7956245E0,-5.236789E4,-3.2735412E4,-2.4601589E-1,-1.521353E-1,8.7801075E-1,-2.1124044E-1,-8.979892E-1,-1.005691E0,-6.434825E-1,-1.2444605E0,3.4758282E0,2.073187E-1,1E0,1E0,9.231875E-1,1E0,1E0,-3.124443E-1,1E0,1.9249316E0,1.5414483E5,1.4734605E-1,1.0294439E0,3.1783214E-1,4.2500906E0,3.126064E0,5.296717E-1,-2.4591452E-1,9.132673E-1,1.3576314E5,-5.3532883E4,-2.6404084E4,-8.533329E4,-6.788277E4,-5.711726E4,-4.680879E4,-4.3946426E4,-2.4526662E4,-3.8315875E4,-1.7486611E4,-2.2908088E4,-4.896009E3,-4.9361734E4,-1.9822012E4,-2.2286793E4,2.4541882E3,2.269892E4,9.739544E3,1.9600951E4,9.5917875E4,-2.3227312E3,4.232329E4,-1.2432461E4,3.3805047E4,-2.8284822E3,4.1891547E4,5.2568715E4,8.141693E4,-4.5338656E4,-1.4579009E4,2.2288591E3,-1.9173637E4,9.700605E3,-1.1263057E4,1.4086085E4,3.196536E4,-3.447339E4,5.820045E3,3.8746508E4,6.366719E4,3.1520375E4,8.908448E4,2.9987682E4,-1.9877059E4,3.175061E4,5.7285902E4,1.377387E5,1.0390523E4,-2.6594766E3,6.0033418E4,7.4349305E4,5.0932797E4,2.3448376E3,9.823161E4,1.4454032E4,7.476079E4],"split_indices":[0,3,3,0,0,0,0,4,3,2,4,3,3,9,11,6,3,3,0,4,3,5,2,6,0,11,3,2,3,3,9,3,0,0,0,2,0,2,3,0,0,0,0,3,3,5,5,0,10,10,3,10,0,0,3,3,0,2,2,3,11,0,0,0,0,0,0,0,0,0,0,0,0,0,0,0,0,0,0,0,0,0,0,0,0,0,0,0,0,0,0,0,0,0,0,0,0,0,0,0,0,0,0,0,0,0,0,0,0,0,0,0,0,0,0,0,0,0,0],"split_type":[0,0,0,0,0,0,0,0,0,0,0,0,0,0,0,0,0,0,0,0,0,0,0,0,0,0,0,0,0,0,0,0,0,0,0,0,0,0,0,0,0,0,0,0,0,0,0,0,0,0,0,0,0,0,0,0,0,0,0,0,0,0,0,0,0,0,0,0,0,0,0,0,0,0,0,0,0,0,0,0,0,0,0,0,0,0,0,0,0,0,0,0,0,0,0,0,0,0,0,0,0,0,0,0,0,0,0,0,0,0,0,0,0,0,0,0,0,0,0],"sum_hessian":[3.381E3,1.968E3,1.413E3,1.323E3,6.45E2,9.72E2,4.41E2,2.8E2,1.043E3,3.97E2,2.48E2,7.18E2,2.54E2,2.25E2,2.16E2,2.25E2,5.5E1,5.37E2,5.06E2,3.43E2,5.4E1,1.2E2,1.28E2,2.41E2,4.77E2,2.01E2,5.3E1,2.08E2,1.7E1,1.6E2,5.6E1,1.9E1,2.06E2,4.5E1,1E1,2E2,3.37E2,3.18E2,1.88E2,1.63E2,1.8E2,3.6E1,1.8E1,9.5E1,2.5E1,3.5E1,9.3E1,4.7E1,1.94E2,7.2E1,4.05E2,2.6E1,1.75E2,4E0,4.9E1,4.1E1,1.67E2,9E0,8E0,6.9E1,9.1E1,5E0,5.1E1,1.2E1,7E0,3.5E1,1.71E2,1.46E2,5.4E1,2.73E2,6.4E1,2.27E2,9.1E1,1.07E2,8.1E1,5.9E1,1.04E2,5.4E1,1.26E2,2.3E1,1.3E1,1E1,8E0,9.2E1,3E0,5E0,2E1,1.8E1,1.7E1,4.4E1,4.9E1,2.9E1,1.8E1,1.51E2,4.3E1,2.4E1,4.8E1,1.3E2,2.75E2,6E0,2E1,1.16E2,5.9E1,8E0,4.1E1,3.2E1,9E0,4.7E1,1.2E2,8E0,1E0,1E0,7E0,3.4E1,3.5E1,4E0,8.7E1,2E0,3E0],"tree_param":{"num_deleted":"0","num_feature":"12","num_nodes":"119","size_leaf_vector":"1"}},{"base_weights":[2.338074E2,-6.2620516E4,8.775851E4,-9.802169E4,1.6974889E4,5.974088E4,1.9338003E5,-1.500696E5,-8.216952E4,-4.2543457E4,6.1994637E4,2.1476117E4,1.0522718E5,1.360344E5,2.5545478E5,-1.7362683E5,-1.3117533E5,-1.0681725E5,-5.7270434E4,-7.607479E4,1.920783E4,1.1349583E4,9.554112E4,-6.78979E4,3.6702242E4,6.8299445E4,1.6673803E5,1.4043553E5,-4.057056E4,2.3010983E5,1.04856484E5,-5.3320977E4,-1.0324847E5,-1.402418E5,-1.08595266E5,-1.267473E5,-9.280492E4,-7.2453234E4,-3.1777816E4,-1.07583695E5,-2.3520656E4,-1.6867066E4,8.85027E4,-8.0215337E3,7.637243E4,4.256585E4,1.631844E5,5.1008266E4,-7.532178E4,6.4108934E4,1.7480845E3,1.9544219E4,9.2246E4,1.4008934E5,2.5008516E5,1.0593574E5,1.8032192E5,5.94025E3,2.3820744E5,-2.0538979E4,-4.149314E4,-4.6181023E4,-3.49862E4,-3.312504E4,-1.1882794E4,-4.0970945E4,-2.668208E4,-3.218644E4,-1.921621E4,-3.459649E4,-1.8596543E4,-1.8647145E4,-3.4028958E3,-3.8789992E4,-2.0088262E4,3.894633E4,-9.910293E3,-4.918634E4,-1.1688927E3,-1.4491831E4,3.657957E4,8.554263E1,-2.2349611E4,1.5804595E4,4.2257555E4,6.3712217E3,5.3162215E4,5.433618E4,2.2336541E4,-4.8188406E4,-1.7859324E4,7.3846367E3,3.4355297E4,-8.216913E3,5.423119E3,-5.8331665E2,2.1686607E4,2.3792934E4,4.3092785E4,3.5179297E4,6.4615793E4,5.438214E4,8.3534516E4,2.2157268E4,5.675886E4,4.9291164E4,1.0670872E5,-3.3761203E4,1.9108195E4,5.1581973E4,7.670252E4],"categories":[],"categories_nodes":[],"categories_segments":[],"categories_sizes":[],"default_left":[0,0,0,0,0,0,0,0,0,0,0,0,0,0,0,0,0,0,0,0,0,0,0,0,0,0,0,0,0,0,0,0,0,0,0,0,0,0,0,0,0,0,0,0,0,0,0,0,0,0,0,0,0,0,0,0,0,0,0,0,0,0,0,0,0,0,0,0,0,0,0,0,0,0,0,0,0,0,0,0,0,0,0,0,0,0,0,0,0,0,0,0,0,0,0,0,0,0,0,0,0,0,0,0,0,0,0,0,0,0,0],"id":1,"left_children":[1,3,5,7,9,11,13,15,17,19,21,23,25,27,29,31,33,35,37,39,41,43,45,47,49,51,53,55,-1,57,-1,-1,59,61,63,65,67,69,71,73,75,77,79,81,83,85,87,-1,89,91,93,95,97,99,101,103,105,107,109,-1,-1,-1,-1,-1,-1,-1,-1,-1,-1,-1,-1,-1,-1,-1,-1,-1,-1,-1,-1,-1,-1,-1,-1,-1,-1,-1,-1,-1,-1,-1,-1,-1,-1,-1,-1,-1,-1,-1,-1,-1,-1,-1,-1,-1,-1,-1,-1,-1,-1,-1,-1],"loss_changes":[1.8610913E13,5.549854E12,4.172847E12,1.1122424E12,1.6290945E12,1.9453845E12,1.0189254E12,1.1831974E11,6.3643215E11,5.4395925E11,5.867569E11,8.3123136E11,1.1493263E12,2.0523935E11,2.5573196E11,2.1563703E10,2.1620064E10,1.3485264E11,2.0012427E11,2.789764E11,2.3397468E11,1.7569217E11,7.3840565E11,1.7001035E11,4.9899438E11,3.72971E11,3.891942E11,1.9281242E11,0E0,2.0552247E11,0E0,0E0,2.727207E9,2.248409E10,2.663383E9,6.7324346E10,1.230462E11,1.3954594E11,1.2159186E11,8.4852605E10,9.911314E10,1.1764694E11,1.5223906E11,5.96593E10,4.1465823E10,3.3509655E11,1.3133781E11,0E0,1.07630625E11,5.7849925E11,1.0992692E11,1.2141489E11,1.31556704E11,2.2738397E11,3.735185E10,2.1304816E11,1.3819786E11,4.138057E10,8.336808E10,0E0,0E0,0E0,0E0,0E0,0E0,0E0,0E0,0E0,0E0,0E0,0E0,0E0,0E0,0E0,0E0,0E0,0E0,0E0,0E0,0E0,0E0,0E0,0E0,0E0,0E0,0E0,0E0,0E0,0E0,0E0,0E0,0E0,0E0,0E0,0E0,0E0,0E0,0E0,0E0,0E0,0E0,0E0,0E0,0E0,0E0,0E0,0E0,0E0,0E0,0E0,0E0],"parents":[2147483647,0,0,1,1,2,2,3,3,4,4,5,5,6,6,7,7,8,8,9,9,10,10,11,11,12,12,13,13,14,14,15,15,16,16,17,17,18,18,19,19,20,20,21,21,22,22,23,23,24,24,25,25,26,26,27,27,29,29,32,32,33,33,34,34,35,35,36,36,37,37,38,38,39,39,40,40,41,41,42,42,43,43,44,44,45,45,46,46,48,48,49,49,50,50,51,51,52,52,53,53,54,54,55,55,56,56,57,57,58,58],"right_children":[2,4,6,8,10,12,14,16,18,20,22,24,26,28,30,32,34,36,38,40,42,44,46,48,50,52,54,56,-1,58,-1,-1,60,62,64,66,68,70,72,74,76,78,80,82,84,86,88,-1,90,92,94,96,98,100,102,104,106,108,110,-1,-1,-1,-1,-1,-1,-1,-1,-1,-1,-1,-1,-1,-1,-1,-1,-1,-1,-1,-1,-1,-1,-1,-1,-1,-1,-1,-1,-1,-1,-1,-1,-1,-1,-1,-1,-1,-1,-1,-1,-1,-1,-1,-1,-1,-1,-1,-1,-1,-1,-1,-1],"split_conditions":[8.68587E-2,1.4734605E-1,7.820566E-1,-1.2214155E0,8.7801075E-1,8.8662744E-1,7.9467136E-1,-2.4601589E-1,-5.635798E-1,1E0,1E0,-8.047198E-1,-1.7000924E-1,1E0,2.8132234E0,5.9904176E-1,1E0,-7.149728E-1,-2.7260086E-1,-6.434825E-1,-3.9920992E-1,2.0020373E0,-3.3938968E-1,-1.0506256E0,1E0,-8.5094875E-1,1.997561E0,5.837753E-1,-4.057056E4,-2.4591452E-1,1.04856484E5,-5.3320977E4,-5.348429E-1,1E0,-1.2444605E0,1E0,1E0,1E0,-3.1994087E-1,1E0,-2.4591452E-1,-1.6964943E0,2.6854077E-1,1E0,1E0,2.206407E0,9.140587E-3,5.1008266E4,-1.4219384E0,-1.7000924E-1,2.3732404E-1,1.9586854E0,1.7497826E0,1.5252737E0,8.7801075E-1,2.0020373E0,3.9788668E0,8.4032214E-1,9.308332E-1,-2.0538979E4,-4.149314E4,-4.6181023E4,-3.49862E4,-3.312504E4,-1.1882794E4,-4.0970945E4,-2.668208E4,-3.218644E4,-1.921621E4,-3.459649E4,-1.8596543E4,-1.8647145E4,-3.4028958E3,-3.8789992E4,-2.0088262E4,3.894633E4,-9.910293E3,-4.918634E4,-1.1688927E3,-1.4491831E4,3.657957E4,8.554263E1,-2.2349611E4,1.5804595E4,4.2257555E4,6.3712217E3,5.3162215E4,5.433618E4,2.2336541E4,-4.8188406E4,-1.7859324E4,7.3846367E3,3.4355297E4,-8.216913E3,5.423119E3,-5.8331665E2,2.1686607E4,2.3792934E4,4.3092785E4,3.5179297E4,6.4615793E4,5.438214E4,8.3534516E4,2.2157268E4,5.675886E4,4.9291164E4,1.0670872E5,-3.3761203E4,1.9108195E4,5.1581973E4,7.670252E4],"split_indices":[0,3,3,0,2,0,0,2,3,5,4,3,3,7,9,11,4,0,0,0,0,2,0,9,10,3,0,0,0,11,0,0,3,10,0,4,5,6,3,4,11,0,3,8,5,3,0,0,3,3,9,0,0,9,2,2,11,0,0,0,0,0,0,0,0,0,0,0,0,0,0,0,0,0,0,0,0,0,0,0,0,0,0,0,0,0,0,0,0,0,0,0,0,0,0,0,0,0,0,0,0,0,0,0,0,0,0,0,0,0,0],"split_type":[0,0,0,0,0,0,0,0,0,0,0,0,0,0,0,0,0,0,0,0,0,0,0,0,0,0,0,0,0,0,0,0,0,0,0,0,0,0,0,0,0,0,0,0,0,0,0,0,0,0,0,0,0,0,0,0,0,0,0,0,0,0,0,0,0,0,0,0,0,0,0,0,0,0,0,0,0,0,0,0,0,0,0,0,0,0,0,0,0,0,0,0,0,0,0,0,0,0,0,0,0,0,0,0,0,0,0,0,0,0,0],"sum_hessian":[3.381E3,1.968E3,1.413E3,1.362E3,6.06E2,1.118E3,2.95E2,3.16E2,1.046E3,2.61E2,3.45E2,6.08E2,5.1E2,1.55E2,1.4E2,1.37E2,1.79E2,5.24E2,5.22E2,1.69E2,9.2E1,1.38E2,2.07E2,8.8E1,5.2E2,3.2E2,1.9E2,1.53E2,2E0,1.13E2,2.7E1,1.28E2,9E0,1.24E2,5.5E1,2.13E2,3.11E2,3.26E2,1.96E2,1.05E2,6.4E1,6.1E1,3.1E1,1.07E2,3.1E1,1.17E2,9E1,2E0,8.6E1,2.91E2,2.29E2,1.06E2,2.14E2,1.46E2,4.4E1,8.4E1,6.9E1,4E0,1.09E2,6E0,3E0,7.5E1,4.9E1,5.3E1,2E0,1.67E2,4.6E1,2.05E2,1.06E2,6.2E1,2.64E2,7.8E1,1.18E2,6.7E1,3.8E1,3E0,6.1E1,4E0,5.7E1,6E0,2.5E1,9.6E1,1.1E1,2.4E1,7E0,1.02E2,1.5E1,7.4E1,1.6E1,1.2E1,7.4E1,1.64E2,1.27E2,8.2E1,1.47E2,7.6E1,3E1,1.73E2,4.1E1,1.14E2,3.2E1,1.5E1,2.9E1,6.2E1,2.2E1,6.5E1,4E0,1E0,3E0,2.5E1,8.4E1],"tree_param":{"num_deleted":"0","num_feature":"12","num_nodes":"111","size_leaf_vector":"1"}},{"base_weights":[2.939152E2,-4.132843E4,6.7403695E4,-6.664451E4,2.1713783E4,4.848619E4,1.5715144E5,-8.85534E4,-4.145585E4,-9.876953E3,6.835746E4,4.0097996E4,1.4916702E5,1.15147195E5,2.0322086E5,-1.0085948E5,-5.5462688E4,-9.5307695E4,-3.1818121E4,-4.3469363E4,1.0897988E4,3.0894422E4,1.0203742E5,-1.5225975E4,5.046462E4,5.8923703E4,1.9239694E5,7.5963195E4,1.7876578E5,1.747218E5,2.5604116E5,-1.1902818E5,-8.525451E4,-6.3523652E4,6.5076465E3,-9.04456E4,-4.8137387E4,-4.415277E4,-3.856446E3,-1.4950794E4,-7.482915E4,4.0758457E3,9.184915E4,1.349503E4,1.0066175E5,2.9996822E4,1.4398631E5,-4.3024574E4,1.905155E4,2.6127588E4,6.953435E4,-6.0630586E3,9.158777E4,2.013347E5,1.2434452E5,1.0609709E5,2.6221316E4,2.5305348E5,1.3318681E5,2.1685911E5,1.2656063E5,5.425638E4,8.3664484E4,-3.648329E4,-1.7882178E4,-3.278161E4,-1.9076623E4,-3.0080867E4,-1.7821387E4,-1.2480937E4,2.2768604E4,-2.8573451E4,-1.8423432E4,-1.5793753E4,-8.676696E3,4.4634793E4,-2.7026594E3,-2.084039E4,1.0385965E2,7.9506987E3,-2.4047924E4,-1.500763E4,2.8478035E3,-1.7284152E4,7.381144E3,3.7051868E3,5.0293004E4,2.3516755E3,3.402389E4,2.9480092E4,5.8339117E4,4.977681E4,-1.5738676E4,-7.976721E3,1.1625718E4,3.4747454E3,2.0341111E4,6.410134E3,2.3741293E4,1.7772768E4,3.9810086E4,4.821589E4,7.319002E4,1.0467207E4,4.3475516E4,4.8159152E4,1.4172894E4,-8.274007E3,1.5177711E4,2.7800385E4,8.488117E4,2.9393111E4,5.150811E4,7.0049734E4,2.7590797E4,3.2352123E4,8.896091E4],"categories":[],"categories_nodes":[],"categories_segments":[],"categories_sizes":[],"default_left":[0,0,0,0,0,0,0,0,0,0,0,0,0,0,0,0,0,0,0,0,0,0,0,0,0,0,0,0,0,0,0,0,0,0,0,0,0,0,0,0,0,0,0,0,0,0,0,0,0,0,0,0,0,0,0,0,0,0,0,0,0,0,0,0,0,0,0,0,0,0,0,0,0,0,0,0,0,0,0,0,0,0,0,0,0,0,0,0,0,0,0,0,0,0,0,0,0,0,0,0,0,0,0,0,0,0,0,0,0,0,0,0,0,0,0,0,0],"id":2,"left_children":[1,3,5,7,9,11,13,15,17,19,21,23,25,27,29,31,33,35,37,39,41,43,45,47,49,51,53,55,57,59,61,63,65,67,69,71,-1,73,75,77,79,81,-1,83,85,87,89,91,93,95,97,-1,99,101,103,105,107,109,111,113,115,-1,-1,-1,-1,-1,-1,-1,-1,-1,-1,-1,-1,-1,-1,-1,-1,-1,-1,-1,-1,-1,-1,-1,-1,-1,-1,-1,-1,-1,-1,-1,-1,-1,-1,-1,-1,-1,-1,-1,-1,-1,-1,-1,-1,-1,-1,-1,-1,-1,-1,-1,-1,-1,-1,-1,-1],"loss_changes":[9.449613E12,3.3338564E12,2.1910352E12,8.185934E11,8.833065E11,8.9851114E11,4.1199967E11,3.185511E11,3.5767924E11,2.5031492E11,3.02192E11,5.685561E11,3.0856262E11,2.8556E11,1.1482903E11,1.540117E11,1.0931326E11,1.8747752E10,2.036642E11,1.21405325E11,4.4593683E11,1.39455E11,3.794777E11,1.5041987E11,3.8524302E11,7.422638E10,8.418099E9,1.1113569E11,1.1866459E11,1.1866984E11,9.668395E9,3.3421E10,1.5696449E11,2.325545E10,8.995316E10,8.085111E9,0E0,5.1512214E10,1.4447616E11,6.090232E10,3.7234606E10,6.4361415E10,0E0,7.5671224E10,1.3397954E11,8.783066E10,1.6551431E11,1.8026658E11,6.4870654E10,2.2229018E11,2.1432631E11,0E0,1.8734367E10,4.217032E10,1.1507368E10,1.429867E11,4.073119E10,5.0467504E10,2.3852515E10,5.5417373E10,8.25728E10,0E0,0E0,0E0,0E0,0E0,0E0,0E0,0E0,0E0,0E0,0E0,0E0,0E0,0E0,0E0,0E0,0E0,0E0,0E0,0E0,0E0,0E0,0E0,0E0,0E0,0E0,0E0,0E0,0E0,0E0,0E0,0E0,0E0,0E0,0E0,0E0,0E0,0E0,0E0,0E0,0E0,0E0,0E0,0E0,0E0,0E0,0E0,0E0,0E0,0E0,0E0,0E0,0E0,0E0,0E0,0E0],"parents":[2147483647,0,0,1,1,2,2,3,3,4,4,5,5,6,6,7,7,8,8,9,9,10,10,11,11,12,12,13,13,14,14,15,15,16,16,17,17,18,18,19,19,20,20,21,21,22,22,23,23,24,24,25,25,26,26,27,27,28,28,29,29,30,30,31,31,32,32,33,33,34,34,35,35,37,37,38,38,39,39,40,40,41,41,43,43,44,44,45,45,46,46,47,47,48,48,49,49,50,50,52,52,53,53,54,54,55,55,56,56,57,57,58,58,59,59,60,60],"right_children":[2,4,6,8,10,12,14,16,18,20,22,24,26,28,30,32,34,36,38,40,42,44,46,48,50,52,54,56,58,60,62,64,66,68,70,72,-1,74,76,78,80,82,-1,84,86,88,90,92,94,96,98,-1,100,102,104,106,108,110,112,114,116,-1,-1,-1,-1,-1,-1,-1,-1,-1,-1,-1,-1,-1,-1,-1,-1,-1,-1,-1,-1,-1,-1,-1,-1,-1,-1,-1,-1,-1,-1,-1,-1,-1,-1,-1,-1,-1,-1,-1,-1,-1,-1,-1,-1,-1,-1,-1,-1,-1,-1,-1,-1,-1,-1,-1,-1],"split_conditions":[2.6395E-1,8.7801075E-1,1.5252737E0,-7.041787E-1,8.0829465E-1,2.0176795E0,1.1069084E0,1E0,-9.9213433E-1,-1.5270539E-1,-3.652653E-1,-8.5094875E-1,-3.7741467E-1,1.0950133E0,2.8132234E0,-2.4601589E-1,5.396671E-1,1E0,1.1627034E-3,-6.7561066E-1,1E0,2.206407E0,1E0,1.0830967E0,7.817463E-1,-1.4869088E0,1.1568857E0,1E0,3.472549E-1,1E0,1.6529095E0,-1.258103E-2,1E0,-1.5086876E0,1E0,2.3732404E-1,-4.8137387E4,1E0,-2.4591452E-1,-1.303117E0,-8.19713E-1,-9.429604E-1,9.184915E4,1E0,-1.2444605E0,5.6687794E0,1E0,-1.0506256E0,-1.0908707E0,4.25969E-1,1E0,-6.0630586E3,1E0,3.8598722E-1,1.1968675E0,6.5836304E-1,1E0,-2.6746482E-1,5.296717E-1,2.0020373E0,3.1859605E0,5.425638E4,8.3664484E4,-3.648329E4,-1.7882178E4,-3.278161E4,-1.9076623E4,-3.0080867E4,-1.7821387E4,-1.2480937E4,2.2768604E4,-2.8573451E4,-1.8423432E4,-1.5793753E4,-8.676696E3,4.4634793E4,-2.7026594E3,-2.084039E4,1.0385965E2,7.9506987E3,-2.4047924E4,-1.500763E4,2.8478035E3,-1.7284152E4,7.381144E3,3.7051868E3,5.0293004E4,2.3516755E3,3.402389E4,2.9480092E4,5.8339117E4,4.977681E4,-1.5738676E4,-7.976721E3,1.1625718E4,3.4747454E3,2.0341111E4,6.410134E3,2.3741293E4,1.7772768E4,3.9810086E4,4.821589E4,7.319002E4,1.0467207E4,4.3475516E4,4.8159152E4,1.4172894E4,-8.274007E3,1.5177711E4,2.7800385E4,8.488117E4,2.9393111E4,5.150811E4,7.0049734E4,2.7590797E4,3.2352123E4,8.896091E4],"split_indices":[0,2,9,0,3,0,3,4,3,3,0,3,3,0,9,2,3,7,3,0,1,3,6,0,0,3,3,5,3,10,3,3,10,0,5,9,0,5,11,0,3,0,0,6,0,11,5,9,11,3,6,0,1,3,3,3,10,3,3,2,3,0,0,0,0,0,0,0,0,0,0,0,0,0,0,0,0,0,0,0,0,0,0,0,0,0,0,0,0,0,0,0,0,0,0,0,0,0,0,0,0,0,0,0,0,0,0,0,0,0,0,0,0,0,0,0,0],"split_type":[0,0,0,0,0,0,0,0,0,0,0,0,0,0,0,0,0,0,0,0,0,0,0,0,0,0,0,0,0,0,0,0,0,0,0,0,0,0,0,0,0,0,0,0,0,0,0,0,0,0,0,0,0,0,0,0,0,0,0,0,0,0,0,0,0,0,0,0,0,0,0,0,0,0,0,0,0,0,0,0,0,0,0,0,0,0,0,0,0,0,0,0,0,0,0,0,0,0,0,0,0,0,0,0,0,0,0,0,0,0,0,0,0,0,0,0,0],"sum_hessian":[3.381E3,2.087E3,1.294E3,1.489E3,5.98E2,1.07E3,2.24E2,7.95E2,6.94E2,3.57E2,2.41E2,9.89E2,8.1E1,1.19E2,1.05E2,5.78E2,2.17E2,1.04E2,5.9E2,1.36E2,2.21E2,1.15E2,1.26E2,1.56E2,8.33E2,2.7E1,5.4E1,7.5E1,4.4E1,7.1E1,3.4E1,2.64E2,3.14E2,1.92E2,2.5E1,9.9E1,5E0,4.09E2,1.81E2,7.2E1,6.4E1,2.17E2,4E0,9.3E1,2.2E1,4.7E1,7.9E1,8.6E1,7E1,3.67E2,4.66E2,8E0,1.9E1,4.6E1,8E0,4.6E1,2.9E1,1.5E1,2.9E1,3.6E1,3.5E1,1E1,2.4E1,2.52E2,1.2E1,1.47E2,1.67E2,1.7E1,1.75E2,1.5E1,1E1,8.3E1,1.6E1,2.61E2,1.48E2,5E0,1.76E2,1.5E1,5.7E1,3E0,6.1E1,1.9E1,1.98E2,1.2E1,8.1E1,1E1,1.2E1,3.8E1,9E0,4.3E1,3.6E1,3E0,8.3E1,2.1E1,4.9E1,2.73E2,9.4E1,7.8E1,3.88E2,1.2E1,7E0,2.6E1,2E1,2E0,6E0,2.3E1,2.3E1,9E0,2E1,3E0,1.2E1,1.7E1,1.2E1,3.1E1,5E0,3.3E1,2E0],"tree_param":{"num_deleted":"0","num_feature":"12","num_nodes":"117","size_leaf_vector":"1"}},{"base_weights":[4.8008884E2,-4.157837E4,3.378354E4,-5.5324363E4,3.0483948E3,2.85667E3,6.4707387E4,-6.482114E4,-3.202944E4,-1.6845016E4,3.0717273E4,-1.9502562E4,3.03771E4,4.0787625E4,1.00258516E5,-3.786112E4,-6.147288E4,-3.8795848E4,1.9973633E4,-5.34315E4,-7.7071187E3,9.744049E3,6.13156E4,-6.331405E4,-1.166335E4,-2.0759309E4,3.7581004E4,8.798028E3,5.8109508E4,9.253374E4,1.7844748E5,-7.531536E4,-5.1745473E4,-8.73634E4,-3.5511633E4,-4.244121E4,8.790721E4,-6.7822836E4,-1.7217625E4,-5.746265E4,6.9735565E2,-4.138416E4,1.983977E4,4.806213E4,1.414554E5,-5.9695617E4,-3.1478334E4,-5.7786577E3,-5.31791E4,-8.9851805E4,2.7390512E4,2.876873E4,9.508295E4,7.0193945E4,3.0087078E3,3.8549457E4,9.707395E4,8.346153E4,1.6628844E5,5.436414E4,1.3488854E4,-3.2026715E4,-2.1343836E4,-2.2016453E4,-1.3420667E4,-4.6602188E3,-3.203295E4,-1.5700003E4,-7.8622656E3,8.0315317E3,-1.972305E4,1.3318396E4,3.678872E4,-2.1790352E4,-5.877401E3,1.0501094E4,-8.968365E3,-1.3395314E4,-2.4659346E4,-6.6466133E3,5.245301E3,-2.9543313E3,-2.2805678E4,9.690902E3,-2.9227383E3,1.1319366E4,3.6809723E4,4.7175348E4,4.6327734E3,-1.1616037E4,-2.0642166E4,-2.6893594E3,2.6190371E4,-2.4118883E4,-1.3831878E4,-2.0958043E4,-3.2056738E4,-8.0547207E3,2.4992447E4,-4.191337E3,1.1802914E4,1.3528849E4,4.127027E4,-5.6738174E3,7.95412E3,2.4684818E4,2.5610088E3,1.785989E4,3.6960457E4,2.5649623E4,-1.749465E4,7.871745E4,4.2921785E4],"categories":[],"categories_nodes":[],"categories_segments":[],"categories_sizes":[],"default_left":[0,0,0,0,0,0,0,0,0,0,0,0,0,0,0,0,0,0,0,0,0,0,0,0,0,0,0,0,0,0,0,0,0,0,0,0,0,0,0,0,0,0,0,0,0,0,0,0,0,0,0,0,0,0,0,0,0,0,0,0,0,0,0,0,0,0,0,0,0,0,0,0,0,0,0,0,0,0,0,0,0,0,0,0,0,0,0,0,0,0,0,0,0,0,0,0,0,0,0,0,0,0,0,0,0,0,0,0,0,0,0,0,0],"id":3,"left_children":[1,3,5,7,9,11,13,15,17,19,21,23,25,27,29,-1,31,33,35,37,39,41,43,45,47,49,51,53,55,57,59,61,63,65,67,69,71,73,75,77,79,81,83,85,87,89,-1,91,93,95,97,99,101,-1,103,105,107,109,111,-1,-1,-1,-1,-1,-1,-1,-1,-1,-1,-1,-1,-1,-1,-1,-1,-1,-1,-1,-1,-1,-1,-1,-1,-1,-1,-1,-1,-1,-1,-1,-1,-1,-1,-1,-1,-1,-1,-1,-1,-1,-1,-1,-1,-1,-1,-1,-1,-1,-1,-1,-1,-1,-1],"loss_changes":[4.7385443E12,9.172605E11,1.8054562E12,2.5078582E11,1.9481862E11,5.820846E11,7.9866416E11,1.5892244E11,1.1794897E11,6.845883E10,9.438092E10,1.7854113E11,1.5697406E11,3.1312065E11,2.1240034E11,0E0,9.991933E10,4.3951948E10,1.6909337E11,2.0200063E10,6.9456134E10,4.676073E10,5.692919E10,5.631836E9,1.0816518E11,1.7878103E11,1.8576543E11,2.6002593E11,2.7596567E11,2.183054E11,4.037673E9,3.3826669E10,6.589815E10,2.3441056E10,4.2138403E10,3.562932E10,2.3261823E10,5.307138E9,9.652486E9,3.9353057E9,5.5246234E10,1.5635214E10,2.7966487E10,3.6237E10,1.3495386E10,1.1669815E10,0E0,1.1643351E11,6.880887E9,1.368064E7,9.929114E10,1.4697975E11,9.785603E10,0E0,1.0149315E11,3.2218638E11,1.1232975E11,9.481185E10,4.5010256E10,0E0,0E0,0E0,0E0,0E0,0E0,0E0,0E0,0E0,0E0,0E0,0E0,0E0,0E0,0E0,0E0,0E0,0E0,0E0,0E0,0E0,0E0,0E0,0E0,0E0,0E0,0E0,0E0,0E0,0E0,0E0,0E0,0E0,0E0,0E0,0E0,0E0,0E0,0E0,0E0,0E0,0E0,0E0,0E0,0E0,0E0,0E0,0E0,0E0,0E0,0E0,0E0,0E0,0E0],"parents":[2147483647,0,0,1,1,2,2,3,3,4,4,5,5,6,6,7,7,8,8,9,9,10,10,11,11,12,12,13,13,14,14,16,16,17,17,18,18,19,19,20,20,21,21,22,22,23,23,24,24,25,25,26,26,27,27,28,28,29,29,30,30,31,31,32,32,33,33,34,34,35,35,36,36,37,37,38,38,39,39,40,40,41,41,42,42,43,43,44,44,45,45,47,47,48,48,49,49,50,50,51,51,52,52,54,54,55,55,56,56,57,57,58,58],"right_children":[2,4,6,8,10,12,14,16,18,20,22,24,26,28,30,-1,32,34,36,38,40,42,44,46,48,50,52,54,56,58,60,62,64,66,68,70,72,74,76,78,80,82,84,86,88,90,-1,92,94,96,98,100,102,-1,104,106,108,110,112,-1,-1,-1,-1,-1,-1,-1,-1,-1,-1,-1,-1,-1,-1,-1,-1,-1,-1,-1,-1,-1,-1,-1,-1,-1,-1,-1,-1,-1,-1,-1,-1,-1,-1,-1,-1,-1,-1,-1,-1,-1,-1,-1,-1,-1,-1,-1,-1,-1,-1,-1,-1,-1,-1],"split_conditions":[-2.095479E-1,8.7801075E-1,-6.005938E-2,1E0,6.0713637E-1,7.9467136E-1,7.7815336E-1,-1.7956245E0,5.396671E-1,1E0,2.0020373E0,-9.6714574E-1,-1.2770045E0,8.7801075E-1,2.8132234E0,-3.786112E4,-2.4601589E-1,-1.0770956E0,1E0,1E0,-1.005691E0,1E0,-2.8567407E-1,1E0,1E0,1E0,1.9249316E0,-3.2571916E-2,1.2730827E0,2.123853E0,2.2581413E0,-1.2857505E0,-1.2626517E0,-1.2857505E0,-9.2318493E-1,-1.273869E0,5.9904176E-1,2.3730503E-1,1E0,2.5229818E-1,1E0,5.9904176E-1,-7.1113884E-1,2.8132234E0,-2.1869522E-1,-7.477911E-2,-3.1478334E4,1.5252737E0,-8.7968564E-1,-1.0908707E0,-1.4869088E0,1E0,1E0,7.0193945E4,5.9904176E-1,1E0,1E0,1E0,8.7801075E-1,5.436414E4,1.3488854E4,-3.2026715E4,-2.1343836E4,-2.2016453E4,-1.3420667E4,-4.6602188E3,-3.203295E4,-1.5700003E4,-7.8622656E3,8.0315317E3,-1.972305E4,1.3318396E4,3.678872E4,-2.1790352E4,-5.877401E3,1.0501094E4,-8.968365E3,-1.3395314E4,-2.4659346E4,-6.6466133E3,5.245301E3,-2.9543313E3,-2.2805678E4,9.690902E3,-2.9227383E3,1.1319366E4,3.6809723E4,4.7175348E4,4.6327734E3,-1.1616037E4,-2.0642166E4,-2.6893594E3,2.6190371E4,-2.4118883E4,-1.3831878E4,-2.0958043E4,-3.2056738E4,-8.0547207E3,2.4992447E4,-4.191337E3,1.1802914E4,1.3528849E4,4.127027E4,-5.6738174E3,7.95412E3,2.4684818E4,2.5610088E3,1.785989E4,3.6960457E4,2.5649623E4,-1.749465E4,7.871745E4,4.2921785E4],"split_indices":[0,2,3,4,3,0,0,0,3,6,2,3,3,2,9,0,2,3,5,5,0,6,0,7,8,5,0,3,3,0,0,3,0,3,0,0,11,3,4,3,10,11,0,9,0,0,0,9,3,11,3,6,4,0,11,10,4,7,2,0,0,0,0,0,0,0,0,0,0,0,0,0,0,0,0,0,0,0,0,0,0,0,0,0,0,0,0,0,0,0,0,0,0,0,0,0,0,0,0,0,0,0,0,0,0,0,0,0,0,0,0,0,0],"split_type":[0,0,0,0,0,0,0,0,0,0,0,0,0,0,0,0,0,0,0,0,0,0,0,0,0,0,0,0,0,0,0,0,0,0,0,0,0,0,0,0,0,0,0,0,0,0,0,0,0,0,0,0,0,0,0,0,0,0,0,0,0,0,0,0,0,0,0,0,0,0,0,0,0,0,0,0,0,0,0,0,0,0,0,0,0,0,0,0,0,0,0,0,0,0,0,0,0,0,0,0,0,0,0,0,0,0,0,0,0,0,0,0,0],"sum_hessian":[3.381E3,1.494E3,1.887E3,1.142E3,3.52E2,9.44E2,9.43E2,8.1E2,3.32E2,2.05E2,1.47E2,5.21E2,4.23E2,5.65E2,3.78E2,4E1,7.7E2,2.94E2,3.8E1,4E1,1.65E2,8.8E1,5.9E1,7.8E1,4.43E2,5.2E1,3.71E2,1.99E2,3.66E2,3.46E2,3.2E1,3.15E2,4.55E2,1.7E1,2.77E2,2E1,1.8E1,2.8E1,1.2E1,2.3E1,1.42E2,1.4E1,7.4E1,5.2E1,7E0,7.4E1,4E0,3.89E2,5.4E1,2.1E1,3.1E1,3.23E2,4.8E1,4E0,1.95E2,2.45E2,1.21E2,3.1E2,3.6E1,3.1E1,1E0,3.4E1,2.81E2,1.09E2,3.46E2,4E0,1.3E1,9.7E1,1.8E2,5E0,1.5E1,9E0,9E0,2.5E1,3E0,2E0,1E1,1.7E1,6E0,6E1,8.2E1,8E0,6E0,5.2E1,2.2E1,4.7E1,5E0,6E0,1E0,2.4E1,5E1,3.77E2,1.2E1,9E0,4.5E1,1.2E1,9E0,1.6E1,1.5E1,6.4E1,2.59E2,2.3E1,2.5E1,1.01E2,9.4E1,9.9E1,1.46E2,5.1E1,7E1,3.06E2,4E0,5E0,3.1E1],"tree_param":{"num_deleted":"0","num_feature":"12","num_nodes":"113","size_leaf_vector":"1"}},{"base_weights":[3.8549628E2,-2.0931588E4,3.475591E4,-3.600566E4,6.807749E3,2.3156229E4,8.363378E4,-5.749229E4,-3.057094E4,-2.7167654E3,5.6213984E4,1.2345559E4,5.0450734E4,8.683798E4,-4.00596E4,-2.4734643E4,-5.3458844E4,-4.4731965E4,-2.371013E4,-2.1501746E4,1.5538444E4,1.2069204E4,6.842576E4,-6.162539E3,2.8474904E4,-1.0427034E4,5.657713E4,8.272833E4,7.1025336E4,-5.6065566E4,-2.6767328E4,-4.028126E4,-8.044878E4,-4.530749E4,-1.922351E4,-3.366561E4,-1.9306025E4,-4.451045E3,4.349667E4,3.3436754E4,-4.710785E3,8.707162E4,1.702792E4,-9.134611E4,-1.2837091E3,4.682502E4,4.645636E3,-4.9041684E4,1.3750087E4,3.9546945E4,7.988856E4,1.4617028E5,7.500251E4,-8.436614E3,-1.7406217E4,-9.448637E3,1.069541E3,-1.78001E4,-9.928879E3,-1.6568406E4,-2.8348768E4,-9.661497E3,-2.8928783E4,-1.0984967E4,-3.9064397E3,4.3301205E2,-7.2916943E3,-4.8132295E3,4.141628E3,5.955664E4,1.0730788E4,1.3501532E4,5.6233047E3,1.5037388E4,-6.366256E3,1.8875047E4,4.5201867E4,-1.1392204E4,1.7968281E4,-1.9232906E3,-2.871257E4,2.0294994E2,-2.4300527E4,1.3223384E4,7.117413E4,-2.3584236E2,3.165679E4,-2.8547676E4,-8.46606E3,-1.2927976E3,2.341061E4,9.818421E3,4.899297E4,2.6924959E4,5.676539E3,3.7124973E4,6.988193E4,3.296107E4,1.7879559E4],"categories":[],"categories_nodes":[],"categories_segments":[],"categories_sizes":[],"default_left":[0,0,0,0,0,0,0,0,0,0,0,0,0,0,0,0,0,0,0,0,0,0,0,0,0,0,0,0,0,0,0,0,0,0,0,0,0,0,0,0,0,0,0,0,0,0,0,0,0,0,0,0,0,0,0,0,0,0,0,0,0,0,0,0,0,0,0,0,0,0,0,0,0,0,0,0,0,0,0,0,0,0,0,0,0,0,0,0,0,0,0,0,0,0,0,0,0,0,0],"id":4,"left_children":[1,3,5,7,9,11,13,15,17,19,21,23,25,27,-1,-1,29,31,33,35,37,39,41,43,45,47,49,51,-1,53,55,57,59,61,63,-1,65,67,69,71,73,75,77,79,81,83,85,87,89,91,93,95,97,-1,-1,-1,-1,-1,-1,-1,-1,-1,-1,-1,-1,-1,-1,-1,-1,-1,-1,-1,-1,-1,-1,-1,-1,-1,-1,-1,-1,-1,-1,-1,-1,-1,-1,-1,-1,-1,-1,-1,-1,-1,-1,-1,-1,-1,-1],"loss_changes":[2.4786413E12,8.7333156E11,7.322867E11,1.562373E11,3.464925E11,3.0861256E11,1.8416481E11,2.2972137E10,1.04062255E11,2.1226098E11,6.332544E10,2.2466514E11,1.1135943E11,1.3135616E11,0E0,0E0,1.4989132E10,5.271506E10,6.9962334E10,5.858617E10,1.7567898E11,9.83829E9,8.76445E10,1.45757E11,1.7556495E11,2.6814876E10,1.0403014E11,1.0667072E11,0E0,1.0114564E10,3.4108488E9,4.1157132E10,8.24379E9,8.0622354E10,6.500175E10,0E0,3.105307E10,3.916477E10,1.4982916E11,1.1960125E9,1.5549067E10,9.4986895E10,6.357546E10,6.4263946E9,5.2090716E10,1.0828707E11,9.6520634E10,7.87712E9,2.1233457E10,1.2799523E11,6.6238677E10,1.9808879E10,1.0946583E11,0E0,0E0,0E0,0E0,0E0,0E0,0E0,0E0,0E0,0E0,0E0,0E0,0E0,0E0,0E0,0E0,0E0,0E0,0E0,0E0,0E0,0E0,0E0,0E0,0E0,0E0,0E0,0E0,0E0,0E0,0E0,0E0,0E0,0E0,0E0,0E0,0E0,0E0,0E0,0E0,0E0,0E0,0E0,0E0,0E0,0E0],"parents":[2147483647,0,0,1,1,2,2,3,3,4,4,5,5,6,6,7,7,8,8,9,9,10,10,11,11,12,12,13,13,16,16,17,17,18,18,19,19,20,20,21,21,22,22,23,23,24,24,25,25,26,26,27,27,29,29,30,30,31,31,32,32,33,33,34,34,36,36,37,37,38,38,39,39,40,40,41,41,42,42,43,43,44,44,45,45,46,46,47,47,48,48,49,49,50,50,51,51,52,52],"right_children":[2,4,6,8,10,12,14,16,18,20,22,24,26,28,-1,-1,30,32,34,36,38,40,42,44,46,48,50,52,-1,54,56,58,60,62,64,-1,66,68,70,72,74,76,78,80,82,84,86,88,90,92,94,96,98,-1,-1,-1,-1,-1,-1,-1,-1,-1,-1,-1,-1,-1,-1,-1,-1,-1,-1,-1,-1,-1,-1,-1,-1,-1,-1,-1,-1,-1,-1,-1,-1,-1,-1,-1,-1,-1,-1,-1,-1,-1,-1,-1,-1,-1,-1],"split_conditions":[2.6395E-1,7.987681E-2,7.820566E-1,-1.2626517E0,2.0020373E0,1.3618093E0,1E0,-1.7956245E0,-2.4601589E-1,1E0,-7.81995E-1,-3.124443E-1,-1.0908707E0,4.823823E0,-4.00596E4,-2.4734643E4,-9.254457E-2,1E0,-8.571959E-1,-1.6964943E0,-3.9920992E-1,1E0,2.2889543E0,-1.4219384E0,1E0,1E0,1E0,8.6701787E-1,7.1025336E4,1E0,1E0,-1.1620569E0,-1.1917943E0,-9.0967196E-1,1E0,-3.366561E4,2.972777E-1,6.0713637E-1,-2.4591452E-1,1.5879391E0,5.9904176E-1,2.206407E0,3.4758282E0,6.82214E-1,-3.3493403E-1,1E0,9.97193E-1,-1.3669634E0,-1.4869088E0,1E0,1E0,1.443998E0,5.9904176E-1,-8.436614E3,-1.7406217E4,-9.448637E3,1.069541E3,-1.78001E4,-9.928879E3,-1.6568406E4,-2.8348768E4,-9.661497E3,-2.8928783E4,-1.0984967E4,-3.9064397E3,4.3301205E2,-7.2916943E3,-4.8132295E3,4.141628E3,5.955664E4,1.0730788E4,1.3501532E4,5.6233047E3,1.5037388E4,-6.366256E3,1.8875047E4,4.5201867E4,-1.1392204E4,1.7968281E4,-1.9232906E3,-2.871257E4,2.0294994E2,-2.4300527E4,1.3223384E4,7.117413E4,-2.3584236E2,3.165679E4,-2.8547676E4,-8.46606E3,-1.2927976E3,2.341061E4,9.818421E3,4.899297E4,2.6924959E4,5.676539E3,3.7124973E4,6.988193E4,3.296107E4,1.7879559E4],"split_indices":[0,3,3,0,2,0,7,0,2,4,0,3,11,11,0,0,3,8,3,0,0,4,11,3,10,5,5,3,0,6,8,3,0,3,6,0,3,3,11,3,11,3,3,0,3,1,0,3,3,1,8,11,11,0,0,0,0,0,0,0,0,0,0,0,0,0,0,0,0,0,0,0,0,0,0,0,0,0,0,0,0,0,0,0,0,0,0,0,0,0,0,0,0,0,0,0,0,0,0],"split_type":[0,0,0,0,0,0,0,0,0,0,0,0,0,0,0,0,0,0,0,0,0,0,0,0,0,0,0,0,0,0,0,0,0,0,0,0,0,0,0,0,0,0,0,0,0,0,0,0,0,0,0,0,0,0,0,0,0,0,0,0,0,0,0,0,0,0,0,0,0,0,0,0,0,0,0,0,0,0,0,0,0,0,0,0,0,0,0,0,0,0,0,0,0,0,0,0,0,0,0],"sum_hessian":[3.381E3,2.087E3,1.294E3,1.352E3,7.35E2,1.047E3,2.47E2,2.71E2,1.081E3,6.17E2,1.18E2,7.51E2,2.96E2,2.44E2,3E0,3.5E1,2.36E2,3.51E2,7.3E2,3.04E2,3.13E2,2.6E1,9.2E1,3.5E2,4.01E2,2.7E1,2.69E2,2.39E2,5E0,2.14E2,2.2E1,3.14E2,3.7E1,1.24E2,6.06E2,6E0,2.98E2,1.83E2,1.3E2,1.1E1,1.5E1,6.7E1,2.5E1,1.8E1,3.32E2,2.26E2,1.75E2,1E1,1.7E1,1.57E2,1.12E2,2.4E1,2.15E2,1.5E1,1.99E2,1.9E1,3E0,8.4E1,2.3E2,1.5E1,2.2E1,1E2,2.4E1,1.58E2,4.48E2,5.8E1,2.4E2,1.12E2,7.1E1,5E0,1.25E2,5E0,6E0,3E0,1.2E1,5E1,1.7E1,1.1E1,1.4E1,1E0,1.7E1,3.25E2,7E0,2.24E2,2E0,1.67E2,8E0,2E0,8E0,1.4E1,3E0,1.5E2,7E0,9.6E1,1.6E1,2.1E1,3E0,6.4E1,1.51E2],"tree_param":{"num_deleted":"0","num_feature":"12","num_nodes":"99","size_leaf_vector":"1"}},{"base_weights":[3.4934958E2,-1.3280559E4,2.7778773E4,-2.2849887E4,9.804005E3,1.8800473E4,6.765402E4,-3.1748021E4,-9.550251E3,-1.8073152E4,1.7099145E4,3.2153828E3,2.9753225E4,5.7100074E4,1.1431665E5,-6.3097285E4,-2.9729535E4,-1.8922777E4,8.51397E3,1.737829E3,-3.8492363E4,1.4346594E4,6.573951E4,2.6961215E2,8.0206984E4,2.3290672E4,8.193517E4,6.8560484E4,1.8139738E4,7.530532E4,3.969302E4,-5.0124273E4,-2.7202062E4,-3.2910383E4,-1.0263076E4,-3.773273E4,-9.780482E3,-7.3443884E2,6.0943875E4,-4.757048E3,4.183228E4,3.2282297E4,-4.225554E4,6.7482217E3,3.6405402E4,-5.8333857E3,2.8191365E4,5.640563E4,4.4603027E4,-2.1413967E4,3.1864115E4,8.952014E4,2.2391E4,1.0665468E5,5.5169887E4,5.9085347E3,5.0106523E4,1.0823293E4,3.6478785E4,-2.054885E4,-1.1418363E4,-1.2519185E4,-7.647845E3,7.565245E3,-6.8560054E3,-9.755915E3,-3.03622E4,4.3206128E2,-5.9465283E3,-5.603616E3,8.1485615E3,4.465189E4,4.877114E3,5.0928647E3,-4.426474E3,2.1160252E4,-1.4595057E4,-9.02806E3,1.8931627E4,-1.3141503E4,8.536585E3,3.5615886E3,-4.4379443E3,4.631212E3,1.5874363E4,3.2908066E4,-2.2078162E3,1.6614873E4,2.0094138E3,-1.4738813E3,1.8728002E4,-9.664531E3,4.2817688E4,8.404829E3,1.9309002E4,1.3722395E4,3.0882068E4,-3.0277087E3,1.7219236E4,1.8175969E3,3.7320562E4,1.4900445E4,5.2025754E4,6.333783E3,-9.998967E3],"categories":[],"categories_nodes":[],"categories_segments":[],"categories_sizes":[],"default_left":[0,0,0,0,0,0,0,0,0,0,0,0,0,0,0,0,0,0,0,0,0,0,0,0,0,0,0,0,0,0,0,0,0,0,0,0,0,0,0,0,0,0,0,0,0,0,0,0,0,0,0,0,0,0,0,0,0,0,0,0,0,0,0,0,0,0,0,0,0,0,0,0,0,0,0,0,0,0,0,0,0,0,0,0,0,0,0,0,0,0,0,0,0,0,0,0,0,0,0,0,0,0,0,0,0],"id":5,"left_children":[1,3,5,7,9,11,13,15,17,19,21,23,25,27,29,31,33,35,37,39,41,43,-1,45,47,49,51,53,55,57,-1,59,-1,61,63,65,67,69,71,73,75,77,79,81,83,85,87,89,-1,91,93,95,97,99,101,103,-1,-1,-1,-1,-1,-1,-1,-1,-1,-1,-1,-1,-1,-1,-1,-1,-1,-1,-1,-1,-1,-1,-1,-1,-1,-1,-1,-1,-1,-1,-1,-1,-1,-1,-1,-1,-1,-1,-1,-1,-1,-1,-1,-1,-1,-1,-1,-1,-1],"loss_changes":[1.2647652E12,4.9946644E11,4.0077564E11,1.8880732E11,1.3514185E11,1.566066E11,9.492228E10,5.8681262E10,1.0885644E11,5.5891292E10,2.893675E11,8.616222E10,1.7985792E11,7.4661495E10,1.6008446E10,1.5846654E10,5.5451976E10,7.23726E10,1.06721255E11,1.8688004E10,1.9475046E10,8.6912066E10,0E0,6.27036E10,1.4429225E10,1.850365E11,2.4642388E10,6.0939567E10,7.185338E10,2.1035336E10,0E0,6.4794214E9,0E0,4.9574904E10,5.7755165E10,4.2372153E10,3.2252172E10,9.461625E10,1.2719713E11,1.3722229E10,2.9401678E10,9.589535E9,8.368161E9,4.300011E10,4.522297E10,5.4048133E10,3.820185E10,4.7371223E9,0E0,1.4288365E11,4.8720085E10,2.5842156E10,9.676294E9,5.816107E10,5.5793648E10,2.3373867E10,0E0,0E0,0E0,0E0,0E0,0E0,0E0,0E0,0E0,0E0,0E0,0E0,0E0,0E0,0E0,0E0,0E0,0E0,0E0,0E0,0E0,0E0,0E0,0E0,0E0,0E0,0E0,0E0,0E0,0E0,0E0,0E0,0E0,0E0,0E0,0E0,0E0,0E0,0E0,0E0,0E0,0E0,0E0,0E0,0E0,0E0,0E0,0E0,0E0],"parents":[2147483647,0,0,1,1,2,2,3,3,4,4,5,5,6,6,7,7,8,8,9,9,10,10,11,11,12,12,13,13,14,14,15,15,16,16,17,17,18,18,19,19,20,20,21,21,23,23,24,24,25,25,26,26,27,27,28,28,29,29,31,31,33,33,34,34,35,35,36,36,37,37,38,38,39,39,40,40,41,41,42,42,43,43,44,44,45,45,46,46,47,47,49,49,50,50,51,51,52,52,53,53,54,54,55,55],"right_children":[2,4,6,8,10,12,14,16,18,20,22,24,26,28,30,32,34,36,38,40,42,44,-1,46,48,50,52,54,56,58,-1,60,-1,62,64,66,68,70,72,74,76,78,80,82,84,86,88,90,-1,92,94,96,98,100,102,104,-1,-1,-1,-1,-1,-1,-1,-1,-1,-1,-1,-1,-1,-1,-1,-1,-1,-1,-1,-1,-1,-1,-1,-1,-1,-1,-1,-1,-1,-1,-1,-1,-1,-1,-1,-1,-1,-1,-1,-1,-1,-1,-1,-1,-1,-1,-1,-1,-1],"split_conditions":[5.4489446E-1,8.7801075E-1,1.5252737E0,-4.5617676E-1,-1.5270539E-1,1E0,2.8132234E0,-1.6964943E0,1E0,-6.858179E-1,1E0,2.1454887E0,1.9249316E0,2.0020373E0,1.443998E0,-8.2549125E-2,3.022754E-1,-8.047198E-1,2.6854077E-1,-7.075043E-1,-8.19713E-1,2.0020373E0,6.573951E4,8.7801075E-1,1.443998E0,1E0,1.1568857E0,5.9904176E-1,3.1859605E0,1E0,3.969302E4,-2.4591452E-1,-2.7202062E4,1E0,4.472093E-1,1E0,1E0,2.3732404E-1,3.8598722E-1,-4.8736453E-1,1E0,-9.0967196E-1,1.443998E0,1.443998E0,-2.8567407E-1,-1.0506256E0,1E0,-1.4869088E0,4.4603027E4,2.0020373E0,7.6206577E-1,-6.6728246E-1,2.2581413E0,1E0,2.5237625E0,1.1743777E0,5.0106523E4,1.0823293E4,3.6478785E4,-2.054885E4,-1.1418363E4,-1.2519185E4,-7.647845E3,7.565245E3,-6.8560054E3,-9.755915E3,-3.03622E4,4.3206128E2,-5.9465283E3,-5.603616E3,8.1485615E3,4.465189E4,4.877114E3,5.0928647E3,-4.426474E3,2.1160252E4,-1.4595057E4,-9.02806E3,1.8931627E4,-1.3141503E4,8.536585E3,3.5615886E3,-4.4379443E3,4.631212E3,1.5874363E4,3.2908066E4,-2.2078162E3,1.6614873E4,2.0094138E3,-1.4738813E3,1.8728002E4,-9.664531E3,4.2817688E4,8.404829E3,1.9309002E4,1.3722395E4,3.0882068E4,-3.0277087E3,1.7219236E4,1.8175969E3,3.7320562E4,1.4900445E4,5.2025754E4,6.333783E3,-9.998967E3],"split_indices":[0,2,9,0,3,4,9,0,5,0,1,0,0,2,11,3,3,3,3,0,3,2,0,2,11,6,3,11,3,10,0,11,0,10,3,7,10,9,3,3,1,3,11,11,0,9,10,3,0,2,3,3,0,6,3,3,0,0,0,0,0,0,0,0,0,0,0,0,0,0,0,0,0,0,0,0,0,0,0,0,0,0,0,0,0,0,0,0,0,0,0,0,0,0,0,0,0,0,0,0,0,0,0,0,0],"split_type":[0,0,0,0,0,0,0,0,0,0,0,0,0,0,0,0,0,0,0,0,0,0,0,0,0,0,0,0,0,0,0,0,0,0,0,0,0,0,0,0,0,0,0,0,0,0,0,0,0,0,0,0,0,0,0,0,0,0,0,0,0,0,0,0,0,0,0,0,0,0,0,0,0,0,0,0,0,0,0,0,0,0,0,0,0,0,0,0,0,0,0,0,0,0,0,0,0,0,0,0,0,0,0,0,0],"sum_hessian":[3.381E3,2.259E3,1.122E3,1.597E3,6.62E2,9.17E2,2.05E2,9.56E2,6.41E2,1.37E2,5.25E2,3.79E2,5.38E2,1.69E2,3.6E1,5.6E1,9E2,4.22E2,2.19E2,7E1,6.7E1,5.19E2,6E0,3.66E2,1.3E1,4.8E2,5.8E1,1.3E2,3.9E1,1.3E1,2.3E1,4E1,1.6E1,7.73E2,1.27E2,1.37E2,2.85E2,1.87E2,3.2E1,6.1E1,9E0,3E0,6.4E1,3.87E2,1.32E2,3.01E2,6.5E1,1.1E1,2E0,7.7E1,4.03E2,5.1E1,7E0,3.2E1,9.8E1,3.7E1,2E0,8E0,5E0,1.4E1,2.6E1,3.51E2,4.22E2,3.3E1,9.4E1,1.28E2,9E0,1.35E2,1.5E2,1.14E2,7.3E1,1E1,2.2E1,1.9E1,4.2E1,7E0,2E0,1E0,2E0,6.3E1,1E0,3.13E2,7.4E1,5.9E1,7.3E1,3E0,2.98E2,2.8E1,3.7E1,1E0,1E1,7.3E1,4E0,3.62E2,4.1E1,1.3E1,3.8E1,4E0,3E0,5E0,2.7E1,9.5E1,3E0,2.7E1,1E1],"tree_param":{"num_deleted":"0","num_feature":"12","num_nodes":"105","size_leaf_vector":"1"}},{"base_weights":[3.912185E2,-1.5426413E4,1.2722275E4,-2.2815408E4,-2.1500464E3,-3.1026082E3,2.1823826E4,-2.4445605E4,7.7256826E3,-1.2807395E4,1.3330206E4,-7.8606426E3,1.515807E4,1.4363432E4,4.1941137E4,-3.1329982E4,-2.0337354E4,3.9095771E3,6.4936105E4,-9.968674E3,-5.6507004E4,5.919603E3,8.602866E4,-4.5892105E4,-6.120348E3,2.5796854E4,-2.7919754E4,1.316103E4,4.8835066E4,2.0028854E4,4.9833773E4,-2.2053514E4,-4.1517918E4,-2.6398777E4,-1.4247206E4,2.9896264E4,-3.921859E3,2.7579705E4,1.6415438E3,-1.6337867E4,1.0161972E4,-6.586301E4,-1.0622886E4,4.1666353E3,5.268814E4,-2.719772E3,9.151079E4,9.410045E3,-6.4848934E4,-2.0651791E4,-1.806351E3,1.5822105E4,1.4262752E5,1.27673955E4,-5.349342E4,5.6134795E3,2.9039154E4,2.8018512E4,-1.5964728E4,6.932568E4,4.7329176E4,-1.3304601E4,-2.65092E3,-1.3678042E4,2.3282676E3,-1.2189444E4,-3.8573647E3,3.4289287E3,-5.803343E3,-9.393432E3,1.4093107E4,-7.379064E3,4.464526E3,-1.6734686E4,-4.218099E3,1.2134976E4,-2.0492484E2,-9.949684E3,-2.1923125E4,2.4777533E2,2.841758E4,3.8292773E4,1.9504777E4,-5.77097E3,1.0711244E4,-1.25211455E4,-2.4996979E4,-1.7072986E4,-4.9525835E3,2.2100998E4,-1.0487488E3,-5.9390034E1,1.12256045E4,5.9739477E4,6.6643574E3,-6.2116646E3,1.9131188E4,-2.1039543E4,-7.178691E3,6.10373E3,-1.9078716E3,2.259116E4,6.5234634E3,-3.0978455E3,1.33909E4,1.1483577E4,2.091661E4],"categories":[],"categories_nodes":[],"categories_segments":[],"categories_sizes":[],"default_left":[0,0,0,0,0,0,0,0,0,0,0,0,0,0,0,0,0,0,0,0,0,0,0,0,0,0,0,0,0,0,0,0,0,0,0,0,0,0,0,0,0,0,0,0,0,0,0,0,0,0,0,0,0,0,0,0,0,0,0,0,0,0,0,0,0,0,0,0,0,0,0,0,0,0,0,0,0,0,0,0,0,0,0,0,0,0,0,0,0,0,0,0,0,0,0,0,0,0,0,0,0,0,0,0,0,0,0],"id":6,"left_children":[1,3,5,7,9,11,13,15,17,19,21,23,25,27,29,31,33,35,37,39,41,43,45,47,49,51,53,55,-1,57,59,61,63,65,67,69,71,-1,-1,73,75,77,-1,79,-1,-1,81,83,85,87,89,91,93,95,97,99,101,103,-1,-1,105,-1,-1,-1,-1,-1,-1,-1,-1,-1,-1,-1,-1,-1,-1,-1,-1,-1,-1,-1,-1,-1,-1,-1,-1,-1,-1,-1,-1,-1,-1,-1,-1,-1,-1,-1,-1,-1,-1,-1,-1,-1,-1,-1,-1,-1,-1],"loss_changes":[6.5984895E11,1.4533371E11,2.7387059E11,4.7587E10,8.777428E10,6.0504187E10,1.8054781E11,2.4930451E10,1.0443856E10,3.8512755E10,1.16397195E11,3.625376E10,6.6714804E10,1.5525988E11,5.5382114E10,3.0839079E10,2.062852E10,9.682363E9,4.3128996E9,3.824618E10,1.4181745E9,5.8171605E10,1.1256037E10,2.5770717E10,3.3124962E10,1.3292468E11,3.0858043E10,1.0481769E11,0E0,5.2988576E10,9.7560035E10,5.2060725E10,3.2287195E10,5.421105E10,3.765348E10,1.2971134E10,1.4750351E10,0E0,0E0,1.9518657E10,2.3677788E10,4.069294E8,0E0,5.9520336E10,0E0,0E0,9.890038E9,5.959483E9,4.2078618E9,1.7237606E10,5.2411433E10,3.737311E10,5.68108E10,2.1807143E10,7.176106E9,1.0508169E11,9.352841E10,5.1437298E10,0E0,0E0,4.5363593E10,0E0,0E0,0E0,0E0,0E0,0E0,0E0,0E0,0E0,0E0,0E0,0E0,0E0,0E0,0E0,0E0,0E0,0E0,0E0,0E0,0E0,0E0,0E0,0E0,0E0,0E0,0E0,0E0,0E0,0E0,0E0,0E0,0E0,0E0,0E0,0E0,0E0,0E0,0E0,0E0,0E0,0E0,0E0,0E0,0E0,0E0],"parents":[2147483647,0,0,1,1,2,2,3,3,4,4,5,5,6,6,7,7,8,8,9,9,10,10,11,11,12,12,13,13,14,14,15,15,16,16,17,17,18,18,19,19,20,20,21,21,22,22,23,23,24,24,25,25,26,26,27,27,29,29,30,30,31,31,32,32,33,33,34,34,35,35,36,36,39,39,40,40,41,41,43,43,46,46,47,47,48,48,49,49,50,50,51,51,52,52,53,53,54,54,55,55,56,56,57,57,60,60],"right_children":[2,4,6,8,10,12,14,16,18,20,22,24,26,28,30,32,34,36,38,40,42,44,46,48,50,52,54,56,-1,58,60,62,64,66,68,70,72,-1,-1,74,76,78,-1,80,-1,-1,82,84,86,88,90,92,94,96,98,100,102,104,-1,-1,106,-1,-1,-1,-1,-1,-1,-1,-1,-1,-1,-1,-1,-1,-1,-1,-1,-1,-1,-1,-1,-1,-1,-1,-1,-1,-1,-1,-1,-1,-1,-1,-1,-1,-1,-1,-1,-1,-1,-1,-1,-1,-1,-1,-1,-1,-1],"split_conditions":[-2.1350592E-1,1E0,-3.4742835E-1,1.0294439E0,1E0,1.3618093E0,9.5004517E-1,-2.4601589E-1,-2.3455451E-1,1.1743777E0,-3.3938968E-1,-1.4219384E0,-5.635798E-1,1E0,-3.2571916E-2,-9.509032E-1,1E0,5.9904176E-1,8.7801075E-1,2.972777E-1,1.5252737E0,2.8132234E0,1E0,6.82214E-1,1E0,-6.472916E-1,1.4418017E0,8.0829465E-1,4.8835066E4,1E0,-1.757875E-2,-1.2045375E0,-1.258103E-2,-7.8955764E-1,-6.560376E-1,-2.2679422E0,1E0,2.7579705E4,1.6415438E3,-1.0770956E0,4.472093E-1,-1.005691E0,-1.0622886E4,3.4758282E0,5.268814E4,-2.719772E3,5.9904176E-1,1E0,1E0,-1.3319794E0,-1.3319794E0,1E0,1.997561E0,-4.4238505E-1,-3.7741467E-1,1E0,-9.0948604E-2,1.3265815E0,-1.5964728E4,6.932568E4,2.0176795E0,-1.3304601E4,-2.65092E3,-1.3678042E4,2.3282676E3,-1.2189444E4,-3.8573647E3,3.4289287E3,-5.803343E3,-9.393432E3,1.4093107E4,-7.379064E3,4.464526E3,-1.6734686E4,-4.218099E3,1.2134976E4,-2.0492484E2,-9.949684E3,-2.1923125E4,2.4777533E2,2.841758E4,3.8292773E4,1.9504777E4,-5.77097E3,1.0711244E4,-1.25211455E4,-2.4996979E4,-1.7072986E4,-4.9525835E3,2.2100998E4,-1.0487488E3,-5.9390034E1,1.12256045E4,5.9739477E4,6.6643574E3,-6.2116646E3,1.9131188E4,-2.1039543E4,-7.178691E3,6.10373E3,-1.9078716E3,2.259116E4,6.5234634E3,-3.0978455E3,1.33909E4,1.1483577E4,2.091661E4],"split_indices":[0,4,3,3,5,0,0,2,0,3,0,3,3,1,3,3,10,11,2,3,9,9,6,0,6,3,0,3,0,8,3,3,3,0,3,0,6,0,0,3,3,0,0,3,0,0,11,1,5,3,3,10,0,3,3,10,0,0,0,0,0,0,0,0,0,0,0,0,0,0,0,0,0,0,0,0,0,0,0,0,0,0,0,0,0,0,0,0,0,0,0,0,0,0,0,0,0,0,0,0,0,0,0,0,0,0,0],"split_type":[0,0,0,0,0,0,0,0,0,0,0,0,0,0,0,0,0,0,0,0,0,0,0,0,0,0,0,0,0,0,0,0,0,0,0,0,0,0,0,0,0,0,0,0,0,0,0,0,0,0,0,0,0,0,0,0,0,0,0,0,0,0,0,0,0,0,0,0,0,0,0,0,0,0,0,0,0,0,0,0,0,0,0,0,0,0,0,0,0,0,0,0,0,0,0,0,0,0,0,0,0,0,0,0,0,0,0],"sum_hessian":[3.381E3,1.481E3,1.9E3,9.51E2,5.3E2,6.94E2,1.206E3,9.03E2,4.8E1,3.14E2,2.16E2,5.51E2,1.43E2,8.81E2,3.25E2,3.35E2,5.68E2,4.6E1,2E0,2.96E2,1.8E1,1.97E2,1.9E1,2.3E1,5.28E2,1.15E2,2.8E1,8.75E2,6E0,8.7E1,2.38E2,1.77E2,1.58E2,2.83E2,2.85E2,1E1,3.6E1,1E0,1E0,2.25E2,7.1E1,1.1E1,7E0,1.96E2,1E0,1E0,1.8E1,6E0,1.7E1,1.2E2,4.08E2,1.07E2,8E0,1.1E1,1.7E1,5.94E2,2.81E2,7.9E1,8E0,2E0,2.36E2,6.5E1,1.12E2,1.46E2,1.2E1,1.37E2,1.46E2,4.7E1,2.38E2,2E0,8E0,1.7E1,1.9E1,1.1E1,2.14E2,1.8E1,5.3E1,3E0,8E0,1.9E2,6E0,6E0,1.2E1,3E0,3E0,9E0,8E0,1.1E1,1.09E2,8E0,4E2,6.2E1,4.5E1,5E0,3E0,7E0,4E0,1E1,7E0,2.66E2,3.28E2,3.7E1,2.44E2,2.4E1,5.5E1,1.7E2,6.6E1],"tree_param":{"num_deleted":"0","num_feature":"12","num_nodes":"107","size_leaf_vector":"1"}},{"base_weights":[3.55792E2,-7.2932744E3,1.4710498E4,-1.27569E4,4.1020093E3,9.385493E3,3.959235E4,-1.9366852E4,-6.5338467E3,-1.1511967E3,2.756977E4,-8.7941113E2,1.6499012E4,3.5241797E4,1.01805125E5,-1.7131152E4,-6.2824848E4,-7.610027E3,4.465678E4,-3.9723535E3,4.9484754E4,3.5987242E4,-5.8902445E4,-9.78182E3,9.739832E3,5.4558203E3,2.94039E4,6.80919E4,2.8856371E4,-1.5016707E4,3.5589453E4,-1.8373176E4,2.5333182E4,-7.434573E4,-3.4547688E4,1.5793665E4,-8.325811E3,1.06168984E5,1.53053E4,-2.9035889E3,-3.6350848E4,2.7502115E4,3.6277477E4,-2.0931053E4,4.4945164E4,3.329065E4,-9.333244E4,-1.7231395E4,9.998421E3,4.20427E4,7.5123467E3,6.826809E3,-3.0339455E4,4.8135203E4,8.1896113E3,1.0890833E5,1.0749936E4,5.0462094E4,7.9279004E3,-5.2810425E3,-2.3959646E4,-1.4625335E4,1.8169746E4,-9.151861E3,-2.7180846E4,-3.8933344E2,-1.5303126E4,-2.9466794E3,6.450604E3,3.68981E4,5.8305376E3,-1.0414991E4,8.634405E3,-8.882687E3,5.0564243E2,1.3133888E4,-1.8900261E3,-8.9220205E3,4.53998E3,2.1625979E4,6.118147E3,-9.799684E3,1.984938E4,-3.157652E4,-1.032065E4,2.0531025E4,-5.799304E3,6.970894E3,-1.3466852E4,-1.0310056E4,3.8886118E3,7.133547E2,1.2075462E4,1.7347148E4,-6.223362E3,-1.5432745E4,9.0415625E3,6.1142036E3,4.2416902E4,-1.6626332E4,1.2828139E4,5.59338E3,2.0944814E4,1.4763837E2,1.9094096E4],"categories":[],"categories_nodes":[],"categories_segments":[],"categories_sizes":[],"default_left":[0,0,0,0,0,0,0,0,0,0,0,0,0,0,0,0,0,0,0,0,0,0,0,0,0,0,0,0,0,0,0,0,0,0,0,0,0,0,0,0,0,0,0,0,0,0,0,0,0,0,0,0,0,0,0,0,0,0,0,0,0,0,0,0,0,0,0,0,0,0,0,0,0,0,0,0,0,0,0,0,0,0,0,0,0,0,0,0,0,0,0,0,0,0,0,0,0,0,0,0,0,0,0,0,0],"id":7,"left_children":[1,3,5,7,9,11,13,15,17,19,21,23,25,27,29,31,33,35,37,39,41,43,45,47,49,51,53,55,57,-1,-1,59,61,63,65,-1,67,69,71,73,-1,75,-1,77,79,81,83,85,87,-1,89,91,-1,93,95,97,99,101,103,-1,-1,-1,-1,-1,-1,-1,-1,-1,-1,-1,-1,-1,-1,-1,-1,-1,-1,-1,-1,-1,-1,-1,-1,-1,-1,-1,-1,-1,-1,-1,-1,-1,-1,-1,-1,-1,-1,-1,-1,-1,-1,-1,-1,-1,-1],"loss_changes":[3.7145123E11,1.3745919E11,1.5544368E11,6.1245506E10,8.830091E10,7.084352E10,5.2438827E10,6.9169725E10,4.2759414E10,8.3907805E10,9.747169E10,3.7720936E10,8.149849E10,3.8938722E10,3.9156654E10,3.6804493E10,8.833745E9,3.3001406E10,2.7262644E10,6.929059E10,4.5358055E10,6.2125097E10,4.119759E10,3.2148183E10,5.181267E10,4.599071E10,1.0451178E11,7.138453E10,7.420876E10,0E0,0E0,3.0305649E10,5.5156347E10,1.4340923E10,6.5024123E9,0E0,3.3554285E10,4.9059553E9,9.08837E9,6.769894E10,0E0,1.4031206E10,0E0,5.850814E9,6.7831185E10,1.0834279E10,2.702426E9,2.974251E10,4.463909E10,0E0,4.1526637E10,4.5556814E10,0E0,9.462851E10,1.65158E11,4.8877355E10,3.2024203E10,4.8577642E10,3.51854E10,0E0,0E0,0E0,0E0,0E0,0E0,0E0,0E0,0E0,0E0,0E0,0E0,0E0,0E0,0E0,0E0,0E0,0E0,0E0,0E0,0E0,0E0,0E0,0E0,0E0,0E0,0E0,0E0,0E0,0E0,0E0,0E0,0E0,0E0,0E0,0E0,0E0,0E0,0E0,0E0,0E0,0E0,0E0,0E0,0E0,0E0],"parents":[2147483647,0,0,1,1,2,2,3,3,4,4,5,5,6,6,7,7,8,8,9,9,10,10,11,11,12,12,13,13,14,14,15,15,16,16,17,17,18,18,19,19,20,20,21,21,22,22,23,23,24,24,25,25,26,26,27,27,28,28,31,31,32,32,33,33,34,34,36,36,37,37,38,38,39,39,41,41,43,43,44,44,45,45,46,46,47,47,48,48,50,50,51,51,53,53,54,54,55,55,56,56,57,57,58,58],"right_children":[2,4,6,8,10,12,14,16,18,20,22,24,26,28,30,32,34,36,38,40,42,44,46,48,50,52,54,56,58,-1,-1,60,62,64,66,-1,68,70,72,74,-1,76,-1,78,80,82,84,86,88,-1,90,92,-1,94,96,98,100,102,104,-1,-1,-1,-1,-1,-1,-1,-1,-1,-1,-1,-1,-1,-1,-1,-1,-1,-1,-1,-1,-1,-1,-1,-1,-1,-1,-1,-1,-1,-1,-1,-1,-1,-1,-1,-1,-1,-1,-1,-1,-1,-1,-1,-1,-1,-1],"split_conditions":[4.9043864E-1,1E0,1.5252737E0,-3.124443E-1,7.6206577E-1,1E0,2.958564E0,-3.5742378E-1,3.126064E0,1E0,2.135299E-1,-3.7741467E-1,1E0,3.472549E-1,5.9904176E-1,-3.711675E-1,-6.5359753E-1,-3.0244884E-1,4.2500906E0,7.320794E-1,-2.6746482E-1,-1.2444605E0,5.9904176E-1,1E0,-2.4591452E-1,2.206407E0,8.7801075E-1,1E0,1E0,-1.5016707E4,3.5589453E4,-3.7741467E-1,1E0,-1.2626517E0,-1.3067271E-1,1.5793665E4,3.3754307E-1,2.4406645E-2,2.4812818E0,-9.9713206E-1,-3.6350848E4,8.7801075E-1,3.6277477E4,3.126064E0,1E0,2.6395E-1,2.0020373E0,-1.0506256E0,-6.285502E-1,4.20427E4,2.3732404E-1,6.1463296E-1,-3.0339455E4,4.7844505E-1,-1.2627919E-1,1E0,8.8662744E-1,1.0431875E0,2.8132234E0,-5.2810425E3,-2.3959646E4,-1.4625335E4,1.8169746E4,-9.151861E3,-2.7180846E4,-3.8933344E2,-1.5303126E4,-2.9466794E3,6.450604E3,3.68981E4,5.8305376E3,-1.0414991E4,8.634405E3,-8.882687E3,5.0564243E2,1.3133888E4,-1.8900261E3,-8.9220205E3,4.53998E3,2.1625979E4,6.118147E3,-9.799684E3,1.984938E4,-3.157652E4,-1.032065E4,2.0531025E4,-5.799304E3,6.970894E3,-1.3466852E4,-1.0310056E4,3.8886118E3,7.133547E2,1.2075462E4,1.7347148E4,-6.223362E3,-1.5432745E4,9.0415625E3,6.1142036E3,4.2416902E4,-1.6626332E4,1.2828139E4,5.59338E3,2.0944814E4,1.4763837E2,1.9094096E4],"split_indices":[0,5,9,3,3,4,3,3,2,1,0,3,5,3,11,3,0,3,2,3,3,0,11,10,11,3,2,5,10,0,0,3,6,0,0,0,0,0,3,3,0,2,0,2,10,0,2,9,3,0,9,3,0,3,3,6,0,3,9,0,0,0,0,0,0,0,0,0,0,0,0,0,0,0,0,0,0,0,0,0,0,0,0,0,0,0,0,0,0,0,0,0,0,0,0,0,0,0,0,0,0,0,0,0,0],"split_type":[0,0,0,0,0,0,0,0,0,0,0,0,0,0,0,0,0,0,0,0,0,0,0,0,0,0,0,0,0,0,0,0,0,0,0,0,0,0,0,0,0,0,0,0,0,0,0,0,0,0,0,0,0,0,0,0,0,0,0,0,0,0,0,0,0,0,0,0,0,0,0,0,0,0,0,0,0,0,0,0,0,0,0,0,0,0,0,0,0,0,0,0,0,0,0,0,0,0,0,0,0,0,0,0,0],"sum_hessian":[3.381E3,2.206E3,1.175E3,1.491E3,7.15E2,9.69E2,2.06E2,7.22E2,7.69E2,5.85E2,1.3E2,3.97E2,5.72E2,1.94E2,1.2E1,6.88E2,3.4E1,7.54E2,1.5E1,5.55E2,3E1,1.19E2,1.1E1,2.16E2,1.81E2,3.09E2,2.63E2,3E1,1.64E2,1E0,1.1E1,6.69E2,1.9E1,2.3E1,1.1E1,8E0,7.46E2,4E0,1.1E1,5.51E2,4E0,2.4E1,6E0,1.6E1,1.03E2,3E0,8E0,1.57E2,5.9E1,2E0,1.79E2,3.06E2,3E0,1.39E2,1.24E2,1.7E1,1.3E1,8E1,8.4E1,6.62E2,7E0,6E0,1.3E1,7E0,1.6E1,4E0,7E0,7.11E2,3.5E1,3E0,1E0,2E0,9E0,8E1,4.71E2,1.6E1,8E0,1.3E1,3E0,4.8E1,5.5E1,1E0,2E0,6E0,2E0,3E0,1.54E2,4.8E1,1.1E1,2E1,1.59E2,2.71E2,3.5E1,1.22E2,1.7E1,3.3E1,9.1E1,5E0,1.2E1,4E0,9E0,3.1E1,4.9E1,7.5E1,9E0],"tree_param":{"num_deleted":"0","num_feature":"12","num_nodes":"105","size_leaf_vector":"1"}},{"base_weights":[2.8422906E2,-4.9687456E3,1.0855412E4,-9.308658E3,5.499052E3,7.028226E3,2.7857844E4,-8.856701E3,-6.3731395E4,8.326097E3,-1.6445705E4,8.180105E3,-4.5100152E4,2.553223E4,3.0336871E4,-1.2430702E4,-3.3122485E3,-2.1314303E4,3.6095908E3,-1.3255413E4,1.0758166E4,-3.1052365E4,1.1212764E4,-2.0941306E3,1.2547125E4,-2.4565908E4,-3.053691E4,4.910734E4,2.110907E4,-3.096657E4,-1.1253417E4,-4.755203E3,3.6322797E4,-2.0325127E4,2.4125672E4,-1.1598311E2,1.8561098E4,2.0416431E3,-4.1556832E4,-5.5842754E3,2.7160396E4,-5.6361865E2,-3.1004896E4,4.5500668E4,1.065253E4,-1.5766517E3,-1.1460539E4,7.8932016E4,7.253665E3,1.3878271E3,3.318919E4,-6.008821E3,-1.6656865E4,6.331261E3,-3.579466E3,2.407707E3,-2.5295518E3,3.5031023E4,3.5875186E3,-7.5237827E3,-2.172967E3,1.4027112E4,2.3240813E3,-8.138539E2,1.8493363E4,4.7574985E3,1.4964935E4,-1.5058997E3,5.7553516E3,-7.9671353E3,-1.4760036E4,-8.260831E3,1.1980631E4,-8.863128E3,6.5112775E2,5.8377535E4,1.052581E4,1.3015317E3,5.7385767E3,-3.693443E3,2.865701E3,4.585649E3,3.0670691E4,-1.2636008E4,9.364544E3,4.950493E3,-1.6778367E4,1.4092381E4,5.3910645E3],"categories":[],"categories_nodes":[],"categories_segments":[],"categories_sizes":[],"default_left":[0,0,0,0,0,0,0,0,0,0,0,0,0,0,0,0,0,0,0,0,0,0,0,0,0,0,0,0,0,0,0,0,0,0,0,0,0,0,0,0,0,0,0,0,0,0,0,0,0,0,0,0,0,0,0,0,0,0,0,0,0,0,0,0,0,0,0,0,0,0,0,0,0,0,0,0,0,0,0,0,0,0,0,0,0,0,0,0,0],"id":8,"left_children":[1,3,5,7,9,11,13,15,17,19,21,23,25,27,-1,29,31,-1,-1,33,35,37,39,41,43,45,-1,47,49,51,53,55,57,59,61,63,65,67,69,-1,71,73,-1,75,77,79,-1,81,83,85,87,-1,-1,-1,-1,-1,-1,-1,-1,-1,-1,-1,-1,-1,-1,-1,-1,-1,-1,-1,-1,-1,-1,-1,-1,-1,-1,-1,-1,-1,-1,-1,-1,-1,-1,-1,-1,-1,-1],"loss_changes":[1.8785691E11,1.0272147E11,7.287947E10,3.8741148E10,4.1268666E10,5.549077E10,3.2517636E10,3.138682E10,8.0608174E9,3.1005389E10,3.1052022E10,4.036242E10,2.0780982E10,1.992296E10,0E0,2.068793E10,3.5803075E10,0E0,0E0,1.6346775E10,4.488793E10,1.746659E10,1.3348666E10,4.162943E10,3.891091E10,4.955432E9,0E0,3.812388E10,4.069213E10,1.4196769E10,2.0175946E10,2.8356061E10,4.1724723E10,2.990203E9,3.344508E9,3.5772396E10,2.5283052E10,1.6699631E9,3.0499758E9,0E0,1.3677162E10,2.1140097E10,0E0,4.5965337E10,3.1921132E10,9.5387744E8,0E0,2.5134785E10,1.7877717E10,5.8096005E10,2.1394637E10,0E0,0E0,0E0,0E0,0E0,0E0,0E0,0E0,0E0,0E0,0E0,0E0,0E0,0E0,0E0,0E0,0E0,0E0,0E0,0E0,0E0,0E0,0E0,0E0,0E0,0E0,0E0,0E0,0E0,0E0,0E0,0E0,0E0,0E0,0E0,0E0,0E0,0E0],"parents":[2147483647,0,0,1,1,2,2,3,3,4,4,5,5,6,6,7,7,8,8,9,9,10,10,11,11,12,12,13,13,15,15,16,16,19,19,20,20,21,21,22,22,23,23,24,24,25,25,27,27,28,28,29,29,30,30,31,31,32,32,33,33,34,34,35,35,36,36,37,37,38,38,40,40,41,41,43,43,44,44,45,45,47,47,48,48,49,49,50,50],"right_children":[2,4,6,8,10,12,14,16,18,20,22,24,26,28,-1,30,32,-1,-1,34,36,38,40,42,44,46,-1,48,50,52,54,56,58,60,62,64,66,68,70,-1,72,74,-1,76,78,80,-1,82,84,86,88,-1,-1,-1,-1,-1,-1,-1,-1,-1,-1,-1,-1,-1,-1,-1,-1,-1,-1,-1,-1,-1,-1,-1,-1,-1,-1,-1,-1,-1,-1,-1,-1,-1,-1,-1,-1,-1,-1],"split_conditions":[5.4489446E-1,8.7801075E-1,1.5252737E0,1E0,1E0,1E0,4.823823E0,-4.3793678E-1,1E0,-1.005691E0,1E0,-6.4479274E-1,1E0,3.472549E-1,3.0336871E4,-1.6964943E0,1.443998E0,-2.1314303E4,3.6095908E3,1.443998E0,1E0,-3.6991808E-1,-2.6324762E-2,-6.472916E-1,-5.635798E-1,8.58153E-1,-3.053691E4,1E0,9.757183E-1,-8.2549125E-2,-1.0908707E0,-2.4591452E-1,-1.6626096E-1,2.0020373E0,-1.4583448E0,3.1783214E-1,2.5237625E0,1E0,-9.254457E-2,-5.5842754E3,2.3732404E-1,-1.4869088E0,-3.1004896E4,1E0,1E0,-1.4219384E0,-1.1460539E4,1E0,8.8662744E-1,9.007525E-1,1E0,-6.008821E3,-1.6656865E4,6.331261E3,-3.579466E3,2.407707E3,-2.5295518E3,3.5031023E4,3.5875186E3,-7.5237827E3,-2.172967E3,1.4027112E4,2.3240813E3,-8.138539E2,1.8493363E4,4.7574985E3,1.4964935E4,-1.5058997E3,5.7553516E3,-7.9671353E3,-1.4760036E4,-8.260831E3,1.1980631E4,-8.863128E3,6.5112775E2,5.8377535E4,1.052581E4,1.3015317E3,5.7385767E3,-3.693443E3,2.865701E3,4.585649E3,3.0670691E4,-1.2636008E4,9.364544E3,4.950493E3,-1.6778367E4,1.4092381E4,5.3910645E3],"split_indices":[0,2,9,7,8,7,11,0,4,0,5,3,10,3,0,0,11,0,0,11,4,3,3,3,3,0,0,5,3,3,11,11,3,2,0,0,3,10,3,0,9,3,0,6,5,3,0,6,0,3,10,0,0,0,0,0,0,0,0,0,0,0,0,0,0,0,0,0,0,0,0,0,0,0,0,0,0,0,0,0,0,0,0,0,0,0,0,0,0],"split_type":[0,0,0,0,0,0,0,0,0,0,0,0,0,0,0,0,0,0,0,0,0,0,0,0,0,0,0,0,0,0,0,0,0,0,0,0,0,0,0,0,0,0,0,0,0,0,0,0,0,0,0,0,0,0,0,0,0,0,0,0,0,0,0,0,0,0,0,0,0,0,0,0,0,0,0,0,0,0,0,0,0,0,0,0,0,0,0,0,0],"sum_hessian":[3.381E3,2.259E3,1.122E3,1.597E3,6.62E2,9.17E2,2.05E2,1.585E3,1.2E1,5.87E2,7.5E1,8.98E2,1.9E1,2E2,5E0,9.63E2,6.22E2,1.1E1,1E0,5.9E1,5.28E2,4.9E1,2.6E1,2.68E2,6.3E2,1.5E1,4E0,3E1,1.7E2,5.6E1,9.07E2,6.01E2,2.1E1,5E1,9E0,2.21E2,3.07E2,1.2E1,3.7E1,9E0,1.7E1,2.65E2,3E0,3.3E1,5.97E2,6E0,9E0,1.7E1,1.3E1,6.5E1,1.05E2,4E1,1.6E1,1.8E1,8.89E2,1.34E2,4.67E2,4E0,1.7E1,3.6E1,1.4E1,3E0,6E0,2.13E2,8E0,2.84E2,2.3E1,9E0,3E0,1.4E1,2.3E1,3E0,1.4E1,2.2E1,2.43E2,1E0,3.2E1,3.43E2,2.54E2,3E0,3E0,5E0,1.2E1,4E0,9E0,5.2E1,1.3E1,5.4E1,5.1E1],"tree_param":{"num_deleted":"0","num_feature":"12","num_nodes":"89","size_leaf_vector":"1"}},{"base_weights":[2.2512128E2,-4.690317E3,5.9691074E3,-1.1594935E4,7.0849603E2,4.9677253E0,1.3164873E4,-9.161129E3,-2.7272188E4,-8.131977E3,8.223215E3,-2.8564536E3,1.2826304E4,-8.890516E2,2.0902646E4,-2.0484338E4,-2.7393123E3,-2.236636E3,-4.540708E4,-2.862378E4,-5.6847686E3,6.820704E3,5.81654E4,-2.2277975E4,-4.514557E2,3.050758E4,-6.186982E3,2.513224E4,-1.8173666E4,7.724006E4,1.6035544E4,-2.2494078E4,2.4868121E4,-3.9973186E3,4.7143785E4,-1.5341086E4,2.3293027E4,-1.3723721E4,-5.3532793E4,-7.8094565E3,-5.0847234E4,-9.201592E3,1.2440452E4,7.5064346E3,-2.6083143E4,2.9265994E4,4.018898E4,-4.3584605E4,-4.001142E2,-6.853099E3,9.387051E3,2.420796E4,7.8214766E4,-2.9146719E4,2.9989504E4,2.2075502E4,4.9620902E4,-9.535409E3,-3.9848887E4,4.3988633E4,2.0871189E5,3.7493188E4,1.4690834E4,8.771788E3,-7.1051323E3,-1.873959E2,-5.8878335E3,6.45724E3,3.2486447E4,-1.1658567E4,-6.870413E2,1.1862578E4,6.3041547E2,-7.3308096E3,1.0110028E4,-1.4130571E4,-2.3064291E4,-9.284323E3,4.7659946E3,-1.1946343E4,-2.8806729E4,-3.439505E3,2.3656177E3,1.6954402E4,1.7201273E3,1.8208339E3,1.5331306E4,6.913117E3,1.6048085E4,-6.9256714E3,-1.7052326E4,8.000428E3,-6.1168965E3,-4.0900317E2,-9.980223E3,-2.1472131E3,9.283871E3,6.011639E3,2.3070254E4,2.97907E4,-1.3572863E4,-1.1872084E4,1.9906182E4,3.178697E4,1.9748649E3,5.060535E3,2.6653543E4,-2.079172E4,-1.8087446E3,-7.9197017E3,-2.1718354E4,3.2596533E4,-1.1303098E4,2.5501451E4,7.2358125E4,8.015334E3,1.0448907E3],"categories":[],"categories_nodes":[],"categories_segments":[],"categories_sizes":[],"default_left":[0,0,0,0,0,0,0,0,0,0,0,0,0,0,0,0,0,0,0,0,0,0,0,0,0,0,0,0,0,0,0,0,0,0,0,0,0,0,0,0,0,0,0,0,0,0,0,0,0,0,0,0,0,0,0,0,0,0,0,0,0,0,0,0,0,0,0,0,0,0,0,0,0,0,0,0,0,0,0,0,0,0,0,0,0,0,0,0,0,0,0,0,0,0,0,0,0,0,0,0,0,0,0,0,0,0,0,0,0,0,0,0,0,0,0,0,0],"id":9,"left_children":[1,3,5,7,9,11,13,15,17,19,21,23,25,27,29,31,33,35,37,39,41,43,45,47,49,51,53,55,57,59,61,63,-1,65,67,69,71,73,75,77,79,81,83,85,-1,-1,87,89,91,93,95,97,99,101,103,105,-1,107,109,111,113,-1,115,-1,-1,-1,-1,-1,-1,-1,-1,-1,-1,-1,-1,-1,-1,-1,-1,-1,-1,-1,-1,-1,-1,-1,-1,-1,-1,-1,-1,-1,-1,-1,-1,-1,-1,-1,-1,-1,-1,-1,-1,-1,-1,-1,-1,-1,-1,-1,-1,-1,-1,-1,-1,-1,-1],"loss_changes":[9.551609E10,6.796371E10,6.6949767E10,3.0274462E10,6.8094947E10,3.1367545E10,7.690204E10,5.040849E10,4.8478257E10,2.3456858E10,3.8407905E10,3.2639336E10,5.2632703E10,1.13798275E11,1.237966E11,5.401318E10,2.8050895E10,1.5746741E10,1.5227216E10,2.2731215E10,2.7014099E10,3.537312E10,6.7002327E9,3.587561E10,3.9302496E10,2.2450078E10,6.399989E10,3.965451E10,2.807992E10,1.4819756E11,5.9838407E10,1.5894585E10,0E0,2.2864177E10,1.4900666E10,9.427033E9,5.4263613E9,7.9357573E9,3.7360763E9,1.5295411E10,8.130818E9,1.3781391E10,2.007183E10,3.3332711E10,0E0,0E0,1.5046451E9,9.285845E9,2.1645912E10,5.4767698E10,8.796584E10,1.4496031E10,2.792351E10,4.942731E10,5.2646466E10,3.3268625E10,0E0,2.2634883E10,1.6911446E10,1.6252463E11,7.625048E9,0E0,5.6117043E10,0E0,0E0,0E0,0E0,0E0,0E0,0E0,0E0,0E0,0E0,0E0,0E0,0E0,0E0,0E0,0E0,0E0,0E0,0E0,0E0,0E0,0E0,0E0,0E0,0E0,0E0,0E0,0E0,0E0,0E0,0E0,0E0,0E0,0E0,0E0,0E0,0E0,0E0,0E0,0E0,0E0,0E0,0E0,0E0,0E0,0E0,0E0,0E0,0E0,0E0,0E0,0E0,0E0,0E0],"parents":[2147483647,0,0,1,1,2,2,3,3,4,4,5,5,6,6,7,7,8,8,9,9,10,10,11,11,12,12,13,13,14,14,15,15,16,16,17,17,18,18,19,19,20,20,21,21,22,22,23,23,24,24,25,25,26,26,27,27,28,28,29,29,30,30,31,31,33,33,34,34,35,35,36,36,37,37,38,38,39,39,40,40,41,41,42,42,43,43,46,46,47,47,48,48,49,49,50,50,51,51,52,52,53,53,54,54,55,55,57,57,58,58,59,59,60,60,62,62],"right_children":[2,4,6,8,10,12,14,16,18,20,22,24,26,28,30,32,34,36,38,40,42,44,46,48,50,52,54,56,58,60,62,64,-1,66,68,70,72,74,76,78,80,82,84,86,-1,-1,88,90,92,94,96,98,100,102,104,106,-1,108,110,112,114,-1,116,-1,-1,-1,-1,-1,-1,-1,-1,-1,-1,-1,-1,-1,-1,-1,-1,-1,-1,-1,-1,-1,-1,-1,-1,-1,-1,-1,-1,-1,-1,-1,-1,-1,-1,-1,-1,-1,-1,-1,-1,-1,-1,-1,-1,-1,-1,-1,-1,-1,-1,-1,-1,-1,-1],"split_conditions":[1E0,2.3732404E-1,1E0,-2.2498417E-1,-1.9958307E-1,1.0950133E0,-1.062883E-1,1E0,-4.9473843E-1,-7.672369E-1,2.1454887E0,-2.4601589E-1,1.4418017E0,2.3732404E-1,4.7391623E-2,-3.124443E-1,-3.4368005E-1,-9.731801E-1,-1.8125412E-1,-3.3938968E-1,-3.652653E-1,1E0,8.7801075E-1,-7.572415E-1,1E0,6.0213864E-1,1.9586854E0,1E0,-2.6746482E-1,4.23939E-2,-1.0506256E0,-1.0506256E0,2.4868121E4,-4.8736453E-1,-1.6214721E-1,-2.4601589E-1,-2.4601589E-1,7.723605E-1,4.029097E-1,-2.4591452E-1,5.9904176E-1,1.0294439E0,-2.4591452E-1,1E0,-2.6083143E4,2.9265994E4,1.5252737E0,-2.4591452E-1,-6.422939E-1,6.5836304E-1,4.9468765E-1,1E0,2.958564E0,2.5237625E0,-2.4591452E-1,8.7801075E-1,4.9620902E4,-8.5094875E-1,1.2802848E0,1E0,-4.174399E-2,3.7493188E4,1E0,8.771788E3,-7.1051323E3,-1.873959E2,-5.8878335E3,6.45724E3,3.2486447E4,-1.1658567E4,-6.870413E2,1.1862578E4,6.3041547E2,-7.3308096E3,1.0110028E4,-1.4130571E4,-2.3064291E4,-9.284323E3,4.7659946E3,-1.1946343E4,-2.8806729E4,-3.439505E3,2.3656177E3,1.6954402E4,1.7201273E3,1.8208339E3,1.5331306E4,6.913117E3,1.6048085E4,-6.9256714E3,-1.7052326E4,8.000428E3,-6.1168965E3,-4.0900317E2,-9.980223E3,-2.1472131E3,9.283871E3,6.011639E3,2.3070254E4,2.97907E4,-1.3572863E4,-1.1872084E4,1.9906182E4,3.178697E4,1.9748649E3,5.060535E3,2.6653543E4,-2.079172E4,-1.8087446E3,-7.9197017E3,-2.1718354E4,3.2596533E4,-1.1303098E4,2.5501451E4,7.2358125E4,8.015334E3,1.0448907E3],"split_indices":[4,9,5,3,0,0,3,10,0,3,0,2,0,9,3,3,3,0,3,0,0,7,2,3,10,3,0,8,3,3,9,9,0,3,0,2,2,0,0,11,11,3,11,1,0,0,9,11,3,3,3,10,3,3,11,2,0,3,0,10,0,0,10,0,0,0,0,0,0,0,0,0,0,0,0,0,0,0,0,0,0,0,0,0,0,0,0,0,0,0,0,0,0,0,0,0,0,0,0,0,0,0,0,0,0,0,0,0,0,0,0,0,0,0,0,0,0],"split_type":[0,0,0,0,0,0,0,0,0,0,0,0,0,0,0,0,0,0,0,0,0,0,0,0,0,0,0,0,0,0,0,0,0,0,0,0,0,0,0,0,0,0,0,0,0,0,0,0,0,0,0,0,0,0,0,0,0,0,0,0,0,0,0,0,0,0,0,0,0,0,0,0,0,0,0,0,0,0,0,0,0,0,0,0,0,0,0,0,0,0,0,0,0,0,0,0,0,0,0,0,0,0,0,0,0,0,0,0,0,0,0,0,0,0,0,0,0],"sum_hessian":[3.381E3,1.822E3,1.559E3,7.99E2,1.023E3,8.53E2,7.06E2,6.93E2,1.06E2,4.7E2,5.53E2,6.98E2,1.55E2,2.51E2,4.55E2,2.5E2,4.43E2,4.5E1,6.1E1,4.9E1,4.21E2,5.39E2,1.4E1,7.6E1,6.22E2,8E1,7.5E1,1E2,1.51E2,3.5E1,4.2E2,2.46E2,4E0,4.33E2,1E1,3E1,1.5E1,1.3E1,4.8E1,2.6E1,2.3E1,3.53E2,6.8E1,5.36E2,3E0,3E0,1.1E1,3.8E1,3.8E1,3.77E2,2.45E2,7.2E1,8E0,4.6E1,2.9E1,9.9E1,1E0,1.09E2,4.2E1,2.9E1,6E0,4E0,4.16E2,5E0,2.41E2,3.57E2,7.6E1,8E0,2E0,1E1,2E1,8E0,7E0,1.1E1,2E0,4E1,8E0,1.3E1,1.3E1,2E1,3E0,3.12E2,4.1E1,8E0,6E1,5.2E2,1.6E1,6E0,5E0,1.6E1,2.2E1,1.6E1,2.2E1,3.13E2,6.4E1,1.39E2,1.06E2,6.8E1,4E0,7E0,1E0,4.2E1,4E0,6E0,2.3E1,9.3E1,6E0,5E0,1.04E2,3.1E1,1.1E1,1.6E1,1.3E1,2E0,4E0,2E2,2.16E2],"tree_param":{"num_deleted":"0","num_feature":"12","num_nodes":"117","size_leaf_vector":"1"}},{"base_weights":[2.4549371E2,-2.605044E3,5.9818867E3,-9.693743E3,-5.4411176E2,6.7870986E3,-3.8764902E4,-7.348272E3,-2.679904E4,-3.418436E3,5.299963E3,6.2930713E3,6.6194555E4,-1.421401E4,-2.2144348E4,-4.6938003E3,-2.268113E4,-1.2121996E4,-5.2266434E4,-9.119009E3,-1.2280767E3,-2.7695083E3,1.4975449E4,3.4129468E3,1.3175187E4,8.260625E2,2.5425979E4,3.6281626E3,-2.2546992E4,-1.984647E4,-6.409712E2,-3.826521E4,-1.3858083E4,1.1112466E4,-2.1318256E4,-2.1845615E4,-7.579665E4,-1.1046356E4,8.029102E4,-1.9411779E3,3.3828062E4,2.8412927E3,-1.4741424E4,3.3136297E4,-4.437447E3,6.858998E3,-3.428104E4,2.4226973E4,3.5720652E3,8.933438E2,-5.2161566E2,-1.9047704E3,2.3129463E3,-2.4240125E3,-7.657835E3,-9.668037E3,2.2746465E3,-3.574238E3,1.5585282E3,-8.216718E3,1.7791616E3,-2.9368271E3,1.0093778E4,-1.8826082E4,-4.2370967E3,-9.167824E3,3.473297E3,-3.2636674E4,-1.1006842E4,-3.7385693E3,7.002235E3,8.672632E3,2.8518652E4,-2.546429E2,-2.30093E4,-9.121397E3,2.1488447E4,-3.0960742E3,3.751637E3,-1.340213E4,-2.5744583E3,3.2845867E3,1.5310888E4,-9.408052E3,2.313754E3,1.4466693E3,9.308209E3,-1.5110762E4,3.1575679E3,1.3867246E4,2.058536E3,-1.3218328E3,8.625371E3],"categories":[],"categories_nodes":[],"categories_segments":[],"categories_sizes":[],"default_left":[0,0,0,0,0,0,0,0,0,0,0,0,0,0,0,0,0,0,0,0,0,0,0,0,0,0,0,0,0,0,0,0,0,0,0,0,0,0,0,0,0,0,0,0,0,0,0,0,0,0,0,0,0,0,0,0,0,0,0,0,0,0,0,0,0,0,0,0,0,0,0,0,0,0,0,0,0,0,0,0,0,0,0,0,0,0,0,0,0,0,0,0,0],"id":10,"left_children":[1,3,5,7,9,11,13,15,17,19,21,23,25,27,-1,29,31,33,35,37,39,41,43,45,47,49,-1,51,53,55,57,-1,59,61,63,65,67,69,71,73,75,77,79,81,83,85,87,89,91,-1,-1,-1,-1,-1,-1,-1,-1,-1,-1,-1,-1,-1,-1,-1,-1,-1,-1,-1,-1,-1,-1,-1,-1,-1,-1,-1,-1,-1,-1,-1,-1,-1,-1,-1,-1,-1,-1,-1,-1,-1,-1,-1,-1],"loss_changes":[5.531738E10,3.301181E10,4.072552E10,2.0224147E10,2.9447803E10,3.198464E10,1.6160772E10,1.8168125E10,2.2167376E10,1.4660207E10,4.5169435E10,2.1679227E10,1.0848379E10,2.0146248E9,0E0,2.3569175E10,5.9300155E10,8.783704E9,1.4091956E10,5.706462E10,2.1314454E10,2.1268249E10,9.28689E10,1.00774175E11,3.4193986E10,2.1733882E7,0E0,2.5257302E8,1.8163712E8,2.774993E10,2.0062317E10,0E0,1.6763514E10,5.981277E9,7.7589043E9,3.557488E9,1.149141E10,1.586731E10,2.56469E9,6.804068E10,4.3453874E10,2.7603239E10,1.8239021E10,5.3454864E10,4.2111943E10,3.4800353E10,4.738542E10,5.6980586E10,3.5080462E10,0E0,0E0,0E0,0E0,0E0,0E0,0E0,0E0,0E0,0E0,0E0,0E0,0E0,0E0,0E0,0E0,0E0,0E0,0E0,0E0,0E0,0E0,0E0,0E0,0E0,0E0,0E0,0E0,0E0,0E0,0E0,0E0,0E0,0E0,0E0,0E0,0E0,0E0,0E0,0E0,0E0,0E0,0E0,0E0],"parents":[2147483647,0,0,1,1,2,2,3,3,4,4,5,5,6,6,7,7,8,8,9,9,10,10,11,11,12,12,13,13,15,15,16,16,17,17,18,18,19,19,20,20,21,21,22,22,23,23,24,24,25,25,27,27,28,28,29,29,30,30,32,32,33,33,34,34,35,35,36,36,37,37,38,38,39,39,40,40,41,41,42,42,43,43,44,44,45,45,46,46,47,47,48,48],"right_children":[2,4,6,8,10,12,14,16,18,20,22,24,26,28,-1,30,32,34,36,38,40,42,44,46,48,50,-1,52,54,56,58,-1,60,62,64,66,68,70,72,74,76,78,80,82,84,86,88,90,92,-1,-1,-1,-1,-1,-1,-1,-1,-1,-1,-1,-1,-1,-1,-1,-1,-1,-1,-1,-1,-1,-1,-1,-1,-1,-1,-1,-1,-1,-1,-1,-1,-1,-1,-1,-1,-1,-1,-1,-1,-1,-1,-1,-1],"split_conditions":[5.4489446E-1,-2.4601589E-1,1E0,-4.174399E-2,1E0,3.9788668E0,-2.3747848E-1,-5.0360715E-1,1E0,1E0,-2.8567407E-1,4.3221614E-1,1.4442546E0,7.8853256E-1,-2.2144348E4,-1.2045375E0,-4.773691E-1,1E0,-2.4591452E-1,3.3754307E-1,2.4812818E0,-6.9212675E-1,-2.3175871E-2,2.7478793E-1,1E0,1.6176279E0,2.5425979E4,-1.4219384E0,8.58153E-1,1E0,1E0,-3.826521E4,-8.130523E-1,5.6419104E-2,-1.2770045E0,5.341806E-1,-6.560376E-1,3.4758282E0,1.6483808E-1,1.9615188E0,1.443998E0,-9.6165854E-1,-4.3114018E-1,-8.2549125E-2,2.3732404E-1,2.073187E-1,1.7497826E0,5.9904176E-1,1.9249316E0,8.933438E2,-5.2161566E2,-1.9047704E3,2.3129463E3,-2.4240125E3,-7.657835E3,-9.668037E3,2.2746465E3,-3.574238E3,1.5585282E3,-8.216718E3,1.7791616E3,-2.9368271E3,1.0093778E4,-1.8826082E4,-4.2370967E3,-9.167824E3,3.473297E3,-3.2636674E4,-1.1006842E4,-3.7385693E3,7.002235E3,8.672632E3,2.8518652E4,-2.546429E2,-2.30093E4,-9.121397E3,2.1488447E4,-3.0960742E3,3.751637E3,-1.340213E4,-2.5744583E3,3.2845867E3,1.5310888E4,-9.408052E3,2.313754E3,1.4466693E3,9.308209E3,-1.5110762E4,3.1575679E3,1.3867246E4,2.058536E3,-1.3218328E3,8.625371E3],"split_indices":[0,2,7,0,5,11,3,3,5,6,0,3,3,0,0,3,3,10,11,0,3,0,0,3,10,0,0,3,0,5,10,0,0,0,3,0,3,3,3,3,11,0,3,3,9,3,0,11,0,0,0,0,0,0,0,0,0,0,0,0,0,0,0,0,0,0,0,0,0,0,0,0,0,0,0,0,0,0,0,0,0,0,0,0,0,0,0,0,0,0,0,0,0],"split_type":[0,0,0,0,0,0,0,0,0,0,0,0,0,0,0,0,0,0,0,0,0,0,0,0,0,0,0,0,0,0,0,0,0,0,0,0,0,0,0,0,0,0,0,0,0,0,0,0,0,0,0,0,0,0,0,0,0,0,0,0,0,0,0,0,0,0,0,0,0,0,0,0,0,0,0,0,0,0,0,0,0,0,0,0,0,0,0,0,0,0,0,0,0],"sum_hessian":[3.381E3,2.259E3,1.122E3,5.08E2,1.751E3,1.103E3,1.9E1,4.48E2,6E1,1.174E3,5.77E2,1.095E3,8E0,1.2E1,7E0,3.83E2,6.5E1,3.9E1,2.1E1,3.25E2,8.49E2,3.15E2,2.62E2,7.73E2,3.22E2,2E0,6E0,4E0,8E0,8E1,3.03E2,4E0,6.1E1,1.1E1,2.8E1,1E1,1.1E1,3.19E2,6E0,8.33E2,1.6E1,2.15E2,1E2,1.35E2,1.27E2,7.09E2,6.4E1,1.49E2,1.73E2,1E0,1E0,1E0,3E0,2E0,6E0,5.5E1,2.5E1,1.03E2,2E2,3.6E1,2.5E1,6E0,5E0,3E0,2.5E1,8E0,2E0,5E0,6E0,3.07E2,1.2E1,2E0,4E0,8.22E2,1.1E1,6E0,1E1,9.1E1,1.24E2,1.6E1,8.4E1,6.1E1,7.4E1,3.9E1,8.8E1,6.55E2,5.4E1,4.7E1,1.7E1,6.5E1,8.4E1,1.32E2,4.1E1],"tree_param":{"num_deleted":"0","num_feature":"12","num_nodes":"93","size_leaf_vector":"1"}},{"base_weights":[1.4890036E2,-1.2532769E3,7.2474697E3,-4.962713E2,-1.8313309E4,4.0396652E4,2.8710645E3,-1.3934199E3,1.8848895E4,-2.8342709E4,1.2719647E4,6.7512625E4,-8.739505E3,-5.973257E4,4.821447E3,-7.8332074E2,-2.9465928E4,3.2516281E4,-6.3814536E3,-5.0814902E4,-1.0511353E4,2.275805E4,8.802404E1,4.550414E4,4.2946324E4,2.7332094E4,-7.1895734E4,-2.1795104E4,-5.810085E3,4.666194E4,3.6489084E3,-1.1463028E4,2.0715808E2,-4.023967E4,6.522627E4,2.1666145E4,8.510033E4,-2.0558984E4,4.9462438E4,-4.065253E4,-4.028547E4,2.2001008E3,-5.8090414E4,-2.0184955E4,2.5421912E4,5.6814957E4,-3.1461605E4,3.746935E4,4.472857E3,2.9001E3,-2.4989838E4,3.6682734E4,1.1750213E4,-5.2104535E4,4.48576E3,-6.1836133E3,2.9785507E2,4.148072E2,-3.0670342E3,-1.6931299E4,4.727125E3,2.9242857E4,-1.4403497E4,1.6050617E4,1.3596708E3,4.2292734E4,9.766861E3,2.3713845E3,-8.785622E3,1.6266664E4,1.7076376E3,-6.585602E3,-2.1732977E4,-6.8976636E3,8.546185E3,-7.419377E3,-2.2085928E4,-8.898651E3,1.4105739E3,8.989911E3,5.3992505E2,9.439412E3,2.402027E4,-1.2783572E4,1.9709391E3,3.057375E3,-5.9675E3,-1.062625E3,8.325278E3,-2.4238157E3,-2.0429617E4,1.4975852E4,1.072563E3],"categories":[],"categories_nodes":[],"categories_segments":[],"categories_sizes":[],"default_left":[0,0,0,0,0,0,0,0,0,0,0,0,0,0,0,0,0,0,0,0,0,0,0,0,0,0,0,0,0,0,0,0,0,0,0,0,0,0,0,0,0,0,0,0,0,0,0,0,0,0,0,0,0,0,0,0,0,0,0,0,0,0,0,0,0,0,0,0,0,0,0,0,0,0,0,0,0,0,0,0,0,0,0,0,0,0,0,0,0,0,0,0,0],"id":11,"left_children":[1,3,5,7,9,11,13,15,17,19,21,23,25,27,29,31,33,35,37,39,41,-1,43,45,-1,47,49,-1,-1,51,53,55,57,59,61,63,65,67,69,-1,71,73,75,77,79,81,83,-1,85,-1,-1,-1,87,89,91,-1,-1,-1,-1,-1,-1,-1,-1,-1,-1,-1,-1,-1,-1,-1,-1,-1,-1,-1,-1,-1,-1,-1,-1,-1,-1,-1,-1,-1,-1,-1,-1,-1,-1,-1,-1,-1,-1],"loss_changes":[3.367166E10,3.6474487E10,8.0835445E10,4.6990225E10,3.7709545E10,8.7194395E10,6.0605895E10,4.428451E10,4.1587454E10,3.5930448E10,2.3920337E10,6.3405867E10,5.6640573E10,6.414496E9,2.3378334E10,2.679651E10,5.8735112E10,4.2658636E10,3.5061223E10,3.0211973E10,3.1577352E10,0E0,1.3866567E10,3.1386042E10,0E0,3.51258E10,9.176318E9,0E0,0E0,3.2880763E10,2.2069357E10,2.452165E10,2.8448592E10,4.624102E10,2.6591476E10,3.5758776E10,3.3577402E10,8.924979E9,1.5663923E9,0E0,2.0223574E10,2.8468847E10,3.8777938E9,3.6773422E9,1.2342676E9,1.5164482E10,2.4002596E9,0E0,2.1532838E9,0E0,0E0,0E0,2.5451725E9,4.378829E9,1.8934317E10,0E0,0E0,0E0,0E0,0E0,0E0,0E0,0E0,0E0,0E0,0E0,0E0,0E0,0E0,0E0,0E0,0E0,0E0,0E0,0E0,0E0,0E0,0E0,0E0,0E0,0E0,0E0,0E0,0E0,0E0,0E0,0E0,0E0,0E0,0E0,0E0,0E0,0E0],"parents":[2147483647,0,0,1,1,2,2,3,3,4,4,5,5,6,6,7,7,8,8,9,9,10,10,11,11,12,12,13,13,14,14,15,15,16,16,17,17,18,18,19,19,20,20,22,22,23,23,25,25,26,26,29,29,30,30,31,31,32,32,33,33,34,34,35,35,36,36,37,37,38,38,40,40,41,41,42,42,43,43,44,44,45,45,46,46,48,48,52,52,53,53,54,54],"right_children":[2,4,6,8,10,12,14,16,18,20,22,24,26,28,30,32,34,36,38,40,42,-1,44,46,-1,48,50,-1,-1,52,54,56,58,60,62,64,66,68,70,-1,72,74,76,78,80,82,84,-1,86,-1,-1,-1,88,90,92,-1,-1,-1,-1,-1,-1,-1,-1,-1,-1,-1,-1,-1,-1,-1,-1,-1,-1,-1,-1,-1,-1,-1,-1,-1,-1,-1,-1,-1,-1,-1,-1,-1,-1,-1,-1,-1,-1],"split_conditions":[8.0829465E-1,6.371227E-1,9.169951E-1,5.1467854E-1,1.5252737E0,1.5252737E0,9.332377E-1,4.472093E-1,6.0213864E-1,1E0,6.5836304E-1,9.007525E-1,9.007525E-1,1E0,9.4448256E-1,-1.1620569E0,1.0213099E0,5.783995E-1,8.1451094E-1,6.483676E-1,1E0,2.275805E4,1.443998E0,8.6701787E-1,4.2946324E4,1E0,1.6125043E-1,-2.1795104E4,-5.810085E3,1E0,-2.4601589E-1,1E0,1E0,1.5252737E0,8.7801075E-1,5.296717E-1,-1.521353E-1,-2.7260086E-1,9.97193E-1,-4.065253E4,7.320794E-1,1E0,2.3732404E-1,8.481827E-1,1.8424553E0,1E0,6.900286E-2,3.746935E4,8.6701787E-1,2.9001E3,-2.4989838E4,3.6682734E4,-8.5974675E-1,-2.2679422E0,-2.4591452E-1,-6.1836133E3,2.9785507E2,4.148072E2,-3.0670342E3,-1.6931299E4,4.727125E3,2.9242857E4,-1.4403497E4,1.6050617E4,1.3596708E3,4.2292734E4,9.766861E3,2.3713845E3,-8.785622E3,1.6266664E4,1.7076376E3,-6.585602E3,-2.1732977E4,-6.8976636E3,8.546185E3,-7.419377E3,-2.2085928E4,-8.898651E3,1.4105739E3,8.989911E3,5.3992505E2,9.439412E3,2.402027E4,-1.2783572E4,1.9709391E3,3.057375E3,-5.9675E3,-1.062625E3,8.325278E3,-2.4238157E3,-2.0429617E4,1.4975852E4,1.072563E3],"split_indices":[3,3,3,3,9,9,3,3,3,10,3,3,3,5,3,3,0,3,0,3,5,0,11,3,0,10,0,0,0,5,2,5,8,9,2,3,0,0,0,0,3,4,9,0,0,10,0,0,3,0,0,0,0,0,11,0,0,0,0,0,0,0,0,0,0,0,0,0,0,0,0,0,0,0,0,0,0,0,0,0,0,0,0,0,0,0,0,0,0,0,0,0,0],"split_type":[0,0,0,0,0,0,0,0,0,0,0,0,0,0,0,0,0,0,0,0,0,0,0,0,0,0,0,0,0,0,0,0,0,0,0,0,0,0,0,0,0,0,0,0,0,0,0,0,0,0,0,0,0,0,0,0,0,0,0,0,0,0,0,0,0,0,0,0,0,0,0,0,0,0,0,0,0,0,0,0,0,0,0,0,0,0,0,0,0,0,0,0,0],"sum_hessian":[3.381E3,2.824E3,5.57E2,2.705E3,1.19E2,6.4E1,4.93E2,2.586E3,1.19E2,9E1,2.9E1,4.1E1,2.3E1,1.4E1,4.79E2,2.532E3,5.4E1,7.7E1,4.2E1,3.9E1,5.1E1,4E0,2.5E1,3.3E1,8E0,1.5E1,8E0,1E1,4E0,1.2E1,4.67E2,2.14E2,2.318E3,4.9E1,5E0,6.5E1,1.2E1,3.4E1,8E0,3E0,3.6E1,4.1E1,1E1,1.4E1,1.1E1,2.9E1,4E0,2E0,1.3E1,1E0,7E0,3E0,9E0,6E0,4.61E2,1.23E2,9.1E1,2.084E3,2.34E2,3.8E1,1.1E1,4E0,1E0,2.2E1,4.3E1,5E0,7E0,8E0,2.6E1,7E0,1E0,2.4E1,1.2E1,2.1E1,2E1,4E0,6E0,1E1,4E0,9E0,2E0,1.5E1,1.4E1,3E0,1E0,1.1E1,2E0,5E0,4E0,2E0,4E0,8E0,4.53E2],"tree_param":{"num_deleted":"0","num_feature":"12","num_nodes":"93","size_leaf_vector":"1"}},{"base_weights":[1.3104495E2,4.3936243E2,-3.215967E4,-7.5135405E3,1.4380012E3,-1.9004164E4,-1.9100318E4,-8.509465E3,1.265637E4,-4.1334297E3,2.6793186E3,-1.037925E4,-7.341662E3,-9.351601E3,1.44941E4,-1.2415025E4,2.9739533E4,3.3541082E3,-1.489292E4,-6.9059404E3,3.5025251E3,2.0556987E3,-1.8375174E4,-7.1134785E3,-1.5000475E4,-7.5850854E3,1.9915877E4,2.085757E3,-7.627818E3,1.9471852E4,1.4712929E4,-8.768011E3,1.8891338E4,-2.215252E4,7.684634E3,-3.9381077E3,-4.4570508E4,5.6292367E4,3.1934883E3,-5.668367E3,9.368625E3,-7.7102812E3,-6.3297227E3,-1.4557625E3,-5.44234E3,-2.0124395E4,-3.4322551E3,9.568633E3,2.98175E3,6.388032E3,3.4917892E2,-4.949469E3,-1.23328316E2,1.03723E4,-1.2443033E3,-9.887232E3,-1.9201356E3,-1.6348864E3,1.6560955E4,7.539591E3,-2.078237E3,-2.6952025E4,4.06001E3,9.254069E3,2.4251281E4,6.192601E2,2.435491E3,-2.5060303E3,-8.726227E2,3.0936025E3,8.392641E2,-5.7174893E3,2.2478625E3],"categories":[],"categories_nodes":[],"categories_segments":[],"categories_sizes":[],"default_left":[0,0,0,0,0,0,0,0,0,0,0,0,0,0,0,0,0,0,0,0,0,0,0,0,0,0,0,0,0,0,0,0,0,0,0,0,0,0,0,0,0,0,0,0,0,0,0,0,0,0,0,0,0,0,0,0,0,0,0,0,0,0,0,0,0,0,0,0,0,0,0,0,0],"id":12,"left_children":[1,3,5,7,9,11,-1,13,15,17,19,-1,21,23,25,27,29,31,33,35,37,39,41,43,45,-1,47,-1,-1,-1,49,51,53,55,57,59,61,63,65,67,69,71,-1,-1,-1,-1,-1,-1,-1,-1,-1,-1,-1,-1,-1,-1,-1,-1,-1,-1,-1,-1,-1,-1,-1,-1,-1,-1,-1,-1,-1,-1,-1],"loss_changes":[3.3684615E10,2.6624707E10,1.2054184E10,7.6204974E9,2.0606665E10,4.1105725E9,0E0,7.051395E9,8.078594E9,4.379517E10,1.924581E10,0E0,1.5930624E9,4.2550845E9,3.307203E9,2.1927101E9,4.8578273E9,6.062411E10,3.672083E10,2.1398426E10,3.6428874E10,5.614745E8,4.0670976E7,6.120244E9,1.7215191E10,0E0,1.1171855E9,0E0,0E0,0E0,7.776503E8,1.1685964E10,5.1089633E10,2.855283E10,3.4627473E10,1.5816209E10,3.8040568E10,5.6257577E9,1.2396589E10,1.2750896E7,2.14688E6,6.603784E8,0E0,0E0,0E0,0E0,0E0,0E0,0E0,0E0,0E0,0E0,0E0,0E0,0E0,0E0,0E0,0E0,0E0,0E0,0E0,0E0,0E0,0E0,0E0,0E0,0E0,0E0,0E0,0E0,0E0,0E0,0E0],"parents":[2147483647,0,0,1,1,2,2,3,3,4,4,5,5,7,7,8,8,9,9,10,10,12,12,13,13,14,14,15,15,16,16,17,17,18,18,19,19,20,20,21,21,22,22,23,23,24,24,26,26,30,30,31,31,32,32,33,33,34,34,35,35,36,36,37,37,38,38,39,39,40,40,41,41],"right_children":[2,4,6,8,10,12,-1,14,16,18,20,-1,22,24,26,28,30,32,34,36,38,40,42,44,46,-1,48,-1,-1,-1,50,52,54,56,58,60,62,64,66,68,70,72,-1,-1,-1,-1,-1,-1,-1,-1,-1,-1,-1,-1,-1,-1,-1,-1,-1,-1,-1,-1,-1,-1,-1,-1,-1,-1,-1,-1,-1,-1,-1],"split_conditions":[1E0,-1.2626517E0,-2.3747848E-1,1E0,-2.4601589E-1,-1.8178426E-1,-1.9100318E4,1.443998E0,-6.023121E-1,-8.9217997E-1,-8.272096E-1,-1.037925E4,8.58153E-1,-1.3352637E0,-1.7956245E0,-8.5094875E-1,-2.4601589E-1,-1.1120796E0,-3.4368005E-1,5.9904176E-1,-8.19713E-1,-1.0183724E0,9.231875E-1,5.9904176E-1,-1.0546058E0,-7.5850854E3,-1.4583448E0,2.085757E3,-7.627818E3,1.9471852E4,1.948244E-1,1E0,-9.62148E-1,1E0,6.110594E-1,-9.429604E-1,-9.6548624E-2,1.0501574E0,9.5004517E-1,-1.521353E-1,7.5753784E-1,-1.4219384E0,-6.3297227E3,-1.4557625E3,-5.44234E3,-2.0124395E4,-3.4322551E3,9.568633E3,2.98175E3,6.388032E3,3.4917892E2,-4.949469E3,-1.23328316E2,1.03723E4,-1.2443033E3,-9.887232E3,-1.9201356E3,-1.6348864E3,1.6560955E4,7.539591E3,-2.078237E3,-2.6952025E4,4.06001E3,9.254069E3,2.4251281E4,6.192601E2,2.435491E3,-2.5060303E3,-8.726227E2,3.0936025E3,8.392641E2,-5.7174893E3,2.2478625E3],"split_indices":[7,0,3,8,2,0,0,11,3,3,3,0,0,0,0,3,2,3,3,11,3,3,0,11,3,0,0,0,0,0,3,5,3,4,0,0,0,0,0,0,0,3,0,0,0,0,0,0,0,0,0,0,0,0,0,0,0,0,0,0,0,0,0,0,0,0,0,0,0,0,0,0,0],"split_type":[0,0,0,0,0,0,0,0,0,0,0,0,0,0,0,0,0,0,0,0,0,0,0,0,0,0,0,0,0,0,0,0,0,0,0,0,0,0,0,0,0,0,0,0,0,0,0,0,0,0,0,0,0,0,0,0,0,0,0,0,0,0,0,0,0,0,0,0,0,0,0,0,0],"sum_hessian":[3.381E3,3.35E3,3.1E1,3.73E2,2.977E3,2.3E1,8E0,3.56E2,1.7E1,5.42E2,2.435E3,9E0,1.4E1,3.44E2,1.2E1,7E0,1E1,3.2E2,2.22E2,1.92E2,2.243E3,8E0,6E0,2.48E2,9.6E1,1E0,1.1E1,3E0,4E0,2E0,8E0,1.8E2,1.4E2,1.68E2,5.4E1,1.79E2,1.3E1,1.2E1,2.231E3,4E0,4E0,2E0,4E0,2.07E2,4.1E1,5E0,9.1E1,4E0,7E0,5E0,3E0,9.3E1,8.7E1,8.3E1,5.7E1,9.9E1,6.9E1,4.3E1,1.1E1,1.6E1,1.63E2,7E0,6E0,7E0,5E0,1.816E3,4.15E2,1E0,3E0,3E0,1E0,1E0,1E0],"tree_param":{"num_deleted":"0","num_feature":"12","num_nodes":"73","size_leaf_vector":"1"}},{"base_weights":[8.663524E1,3.139665E2,-2.3721916E4,-2.0357552E3,2.2169192E3,-1.5494495E4,-1.7037498E4,-1.4741647E3,-3.8035535E4,1.8399473E3,5.157654E4,-1.4498594E3,-2.1331719E4,-3.5476224E2,-1.288599E4,-1.2960329E4,-5.3229574E4,4.5738492E4,1.502368E3,-1.6752422E3,2.4404102E4,-8.28324E3,1.7020482E3,-2.946917E3,-2.287565E4,-9.512035E2,2.6785264E4,1.5515711E4,-2.1033225E4,-2.3002773E3,-6.8262563E3,-2.0272555E4,-8.769112E3,5.553387E4,-1.2240216E4,5.567385E4,1.233366E3,-1.8151125E3,3.0300635E3,-6.7628204E2,-4.8598667E3,-8.530139E3,-1.539334E4,-9.464946E1,-6.380998E3,1.5966722E3,2.0109836E4,7.3631406E3,-1.0360052E4,-1.338121E4,-3.4916204E3,1.1231272E4,2.3100133E4,5.491845E3,2.4572035E4,2.3953208E3,2.4400145E1,3.1640251E3,-5.986259E3],"categories":[],"categories_nodes":[],"categories_segments":[],"categories_sizes":[],"default_left":[0,0,0,0,0,0,0,0,0,0,0,0,0,0,0,0,0,0,0,0,0,0,0,0,0,0,0,0,0,0,0,0,0,0,0,0,0,0,0,0,0,0,0,0,0,0,0,0,0,0,0,0,0,0,0,0,0,0,0],"id":13,"left_children":[1,3,5,7,9,11,-1,13,15,17,19,21,23,25,27,29,31,33,35,37,-1,39,-1,-1,41,43,45,47,49,-1,-1,-1,-1,51,-1,53,55,-1,-1,-1,-1,-1,57,-1,-1,-1,-1,-1,-1,-1,-1,-1,-1,-1,-1,-1,-1,-1,-1],"loss_changes":[1.8312276E10,1.4988205E10,7.826559E9,3.026963E10,3.436563E10,2.182576E9,0E0,1.887603E10,8.0729825E9,2.7183858E10,2.23309E10,4.8508422E8,1.1289498E8,2.1829945E10,3.0870526E10,3.438935E8,2.844713E9,1.4133404E10,2.6540243E10,3.702251E8,0E0,2.0211773E8,0E0,0E0,2.2771251E8,1.7030497E10,2.469441E10,1.4403049E10,2.228874E10,0E0,0E0,0E0,0E0,2.167341E9,0E0,7.3229824E9,1.4138683E10,0E0,0E0,0E0,0E0,0E0,1.275233E9,0E0,0E0,0E0,0E0,0E0,0E0,0E0,0E0,0E0,0E0,0E0,0E0,0E0,0E0,0E0,0E0],"parents":[2147483647,0,0,1,1,2,2,3,3,4,4,5,5,7,7,8,8,9,9,10,10,11,11,12,12,13,13,14,14,15,15,16,16,17,17,18,18,19,19,21,21,24,24,25,25,26,26,27,27,28,28,33,33,35,35,36,36,42,42],"right_children":[2,4,6,8,10,12,-1,14,16,18,20,22,24,26,28,30,32,34,36,38,-1,40,-1,-1,42,44,46,48,50,-1,-1,-1,-1,52,-1,54,56,-1,-1,-1,-1,-1,58,-1,-1,-1,-1,-1,-1,-1,-1,-1,-1,-1,-1,-1,-1,-1,-1],"split_conditions":[1E0,-3.124443E-1,1E0,-3.1744203E-1,1E0,-2.4591452E-1,-1.7037498E4,5.9904176E-1,1E0,-3.0244884E-1,-6.5359753E-1,-1.4219384E0,-2.4601589E-1,-3.4243062E-1,1E0,5.4489446E-1,1E0,1E0,-1.0506256E0,-7.81995E-1,2.4404102E4,8.58153E-1,1.7020482E3,-2.946917E3,-1.8178426E-1,-3.624215E-1,7.817463E-1,-4.5987707E-1,-5.4233944E-1,-2.3002773E3,-6.8262563E3,-2.0272555E4,-8.769112E3,3.3764537E-2,-1.2240216E4,-2.4601589E-1,-1.2627919E-1,-1.8151125E3,3.0300635E3,-6.7628204E2,-4.8598667E3,-8.530139E3,1.3344991E-1,-9.464946E1,-6.380998E3,1.5966722E3,2.0109836E4,7.3631406E3,-1.0360052E4,-1.338121E4,-3.4916204E3,1.1231272E4,2.3100133E4,5.491845E3,2.4572035E4,2.3953208E3,2.4400145E1,3.1640251E3,-5.986259E3],"split_indices":[7,3,10,3,1,11,0,11,10,3,0,3,2,3,6,0,4,5,9,0,0,0,0,0,0,3,0,3,3,0,0,0,0,0,0,2,3,0,0,0,0,0,0,0,0,0,0,0,0,0,0,0,0,0,0,0,0,0,0],"split_type":[0,0,0,0,0,0,0,0,0,0,0,0,0,0,0,0,0,0,0,0,0,0,0,0,0,0,0,0,0,0,0,0,0,0,0,0,0,0,0,0,0,0,0,0,0,0,0,0,0,0,0,0,0,0,0,0,0,0,0],"sum_hessian":[3.381E3,3.35E3,3.1E1,1.499E3,1.851E3,2.6E1,5E0,1.477E3,2.2E1,1.838E3,1.3E1,8E0,1.8E1,1.346E3,1.31E2,9E0,1.3E1,1.3E1,1.825E3,5E0,8E0,4E0,4E0,3E0,1.5E1,1.318E3,2.8E1,2.9E1,1.02E2,7E0,2E0,7E0,6E0,1.2E1,1E0,8E0,1.817E3,4E0,1E0,3E0,1E0,7E0,8E0,1.279E3,3.9E1,1.9E1,9E0,2.5E1,4E0,2.8E1,7.4E1,8E0,4E0,4E0,4E0,2.64E2,1.553E3,1E0,7E0],"tree_param":{"num_deleted":"0","num_feature":"12","num_nodes":"59","size_leaf_vector":"1"}},{"base_weights":[6.130309E1,-2.6824234E2,1.3843034E4,-5.516889E2,2.4774234E4,2.8852602E4,-5.8504956E3,-1.5051097E2,-1.3949447E4,5.292065E4,1.383715E4,9.299081E3,6.3712164E4,-2.5897908E4,3.0068043E4,-2.4651157E3,2.6136821E3,-2.4985082E4,1.4769377E4,-1.4739766E3,7.6443195E4,-1.163764E3,4.5635055E4,-5.243478E3,3.4894727E4,5.001441E4,3.7089324E4,-3.990568E4,5.354867E3,5.490201E3,2.0488365E4,-1.740917E3,-1.755958E4,8.798988E2,1.0992418E4,1.6846895E3,-3.8356594E4,3.2618834E4,-1.2266671E4,1.2071016E3,-1.3943251E3,1.1887936E4,3.3697016E4,6.9404854E3,-2.1230428E4,1.6724113E4,5.717494E3,-1.6057092E4,1.2984078E4,4.8346313E3,1.6262037E4,1.6180222E4,1.7714004E4,-4.2806E3,-1.5427197E4,3.7832457E4,-1.1776406E4,-1.2849188E4,1.1036716E4,-6.568273E2,9.464437E3,-1.996215E4,-1.2191353E3,-3.098708E3,8.526735E2,7.707652E3,-2.1586888E2,-4.4214917E3,5.0144355E3,-6.742633E3,-1.7363496E4,2.0538662E3,2.4955809E4,8.355606E3,4.7425894E2,-9.015235E2,-1.1536225E4,-3.1304792E3,-6.889669E3,1.0218591E4,-1.942515E3,2.2422024E3,6.70896E3,5.0825005E1,-2.191125E3,2.2447314E3,1.4779876E4,-1.1546298E3,-5.526338E3],"categories":[],"categories_nodes":[],"categories_segments":[],"categories_sizes":[],"default_left":[0,0,0,0,0,0,0,0,0,0,0,0,0,0,0,0,0,0,0,0,0,0,0,0,0,0,0,0,0,0,0,0,0,0,0,0,0,0,0,0,0,0,0,0,0,0,0,0,0,0,0,0,0,0,0,0,0,0,0,0,0,0,0,0,0,0,0,0,0,0,0,0,0,0,0,0,0,0,0,0,0,0,0,0,0,0,0,0,0],"id":14,"left_children":[1,3,5,7,9,11,13,15,17,19,21,23,25,27,29,31,33,35,37,39,41,43,45,47,49,-1,51,53,55,57,-1,59,61,63,65,67,69,71,-1,-1,-1,-1,-1,73,75,-1,-1,77,79,-1,-1,-1,81,83,-1,85,87,-1,-1,-1,-1,-1,-1,-1,-1,-1,-1,-1,-1,-1,-1,-1,-1,-1,-1,-1,-1,-1,-1,-1,-1,-1,-1,-1,-1,-1,-1,-1,-1],"loss_changes":[1.5363764E10,2.3466134E10,2.3520518E10,1.7563025E10,1.0657796E10,3.0080758E10,2.5981284E10,2.0313741E10,3.0477406E10,1.2907682E10,1.3409043E10,1.1349755E10,3.7692174E10,1.0282667E10,1.1838874E10,1.8858877E10,2.1010772E10,2.4671064E10,2.8157438E10,8.849418E7,4.7959613E9,3.3998546E9,1.356247E9,4.1506012E9,3.1157688E9,0E0,3.613823E9,6.3453266E9,4.8965903E9,1.5187174E10,0E0,2.4704176E10,5.1951477E10,2.6424306E10,4.2714964E10,6.1704883E9,1.2960424E10,2.679871E10,0E0,0E0,0E0,0E0,0E0,1.6371387E9,1.7678856E9,0E0,0E0,2.6528282E8,3.5018117E9,0E0,0E0,0E0,2.137193E8,6.850272E7,0E0,6.72416E8,2.4516307E8,0E0,0E0,0E0,0E0,0E0,0E0,0E0,0E0,0E0,0E0,0E0,0E0,0E0,0E0,0E0,0E0,0E0,0E0,0E0,0E0,0E0,0E0,0E0,0E0,0E0,0E0,0E0,0E0,0E0,0E0,0E0,0E0],"parents":[2147483647,0,0,1,1,2,2,3,3,4,4,5,5,6,6,7,7,8,8,9,9,10,10,11,11,12,12,13,13,14,14,15,15,16,16,17,17,18,18,19,19,20,20,21,21,22,22,23,23,24,24,26,26,27,27,28,28,29,29,31,31,32,32,33,33,34,34,35,35,36,36,37,37,43,43,44,44,47,47,48,48,52,52,53,53,55,55,56,56],"right_children":[2,4,6,8,10,12,14,16,18,20,22,24,26,28,30,32,34,36,38,40,42,44,46,48,50,-1,52,54,56,58,-1,60,62,64,66,68,70,72,-1,-1,-1,-1,-1,74,76,-1,-1,78,80,-1,-1,-1,82,84,-1,86,88,-1,-1,-1,-1,-1,-1,-1,-1,-1,-1,-1,-1,-1,-1,-1,-1,-1,-1,-1,-1,-1,-1,-1,-1,-1,-1,-1,-1,-1,-1,-1,-1],"split_conditions":[2.8132234E0,3.1339107E0,2.2889543E0,1.9615188E0,1.5252737E0,2.283872E0,1.3344991E-1,1E0,1.443998E0,1.0152997E-1,2.5237625E0,1.443998E0,3.126064E0,5.6687794E0,1E0,1.0431875E0,8.0829465E-1,-6.07394E-1,1E0,7.534915E-2,4.3721387E-1,4.823823E0,3.3346426E0,3.126064E0,1.6041818E0,5.001441E4,1E0,-2.8567407E-1,8.68587E-2,2.958564E0,2.0488365E4,9.332377E-1,1.1568857E0,1E0,5.9904176E-1,-8.7963206E-1,1.5252737E0,2.8523626E0,-1.2266671E4,1.2071016E3,-1.3943251E3,1.1887936E4,3.3697016E4,7.534915E-2,6.525732E-2,1.6724113E4,5.717494E3,9.140587E-3,7.817463E-1,4.8346313E3,1.6262037E4,1.6180222E4,-1.3693645E0,-3.9920992E-1,-1.5427197E4,-9.6548624E-2,1.0152997E-1,-1.2849188E4,1.1036716E4,-6.568273E2,9.464437E3,-1.996215E4,-1.2191353E3,-3.098708E3,8.526735E2,7.707652E3,-2.1586888E2,-4.4214917E3,5.0144355E3,-6.742633E3,-1.7363496E4,2.0538662E3,2.4955809E4,8.355606E3,4.7425894E2,-9.015235E2,-1.1536225E4,-3.1304792E3,-6.889669E3,1.0218591E4,-1.942515E3,2.2422024E3,6.70896E3,5.0825005E1,-2.191125E3,2.2447314E3,1.4779876E4,-1.1546298E3,-5.526338E3],"split_indices":[9,11,11,3,9,3,0,4,11,0,3,11,2,11,5,3,3,0,5,0,3,11,3,2,3,0,5,0,0,3,0,3,3,6,11,0,9,3,0,0,0,0,0,0,0,0,0,0,0,0,0,0,0,0,0,0,0,0,0,0,0,0,0,0,0,0,0,0,0,0,0,0,0,0,0,0,0,0,0,0,0,0,0,0,0,0,0,0,0],"split_type":[0,0,0,0,0,0,0,0,0,0,0,0,0,0,0,0,0,0,0,0,0,0,0,0,0,0,0,0,0,0,0,0,0,0,0,0,0,0,0,0,0,0,0,0,0,0,0,0,0,0,0,0,0,0,0,0,0,0,0,0,0,0,0,0,0,0,0,0,0,0,0,0,0,0,0,0,0,0,0,0,0,0,0,0,0,0,0,0,0],"sum_hessian":[3.381E3,3.303E3,7.8E1,3.267E3,3.6E1,4.4E1,3.4E1,3.173E3,9.4E1,9E0,2.7E1,2.9E1,1.5E1,2.2E1,1.2E1,1.727E3,1.446E3,6.8E1,2.6E1,3E0,6E0,1.9E1,8E0,1.9E1,1E1,2E0,1.3E1,1.5E1,7E0,8E0,4E0,1.649E3,7.8E1,1.199E3,2.47E2,2.3E1,4.5E1,2E1,6E0,1E0,2E0,4E0,2E0,1.4E1,5E0,5E0,3E0,1.2E1,7E0,6E0,4E0,6E0,7E0,4E0,1.1E1,2E0,5E0,3E0,5E0,1.628E3,2.1E1,1.6E1,6.2E1,1.78E2,1.021E3,1.09E2,1.38E2,1.1E1,1.2E1,2.6E1,1.9E1,1.4E1,6E0,2E0,1.2E1,3E0,2E0,8E0,4E0,3E0,4E0,3E0,4E0,2E0,2E0,1E0,1E0,3E0,2E0],"tree_param":{"num_deleted":"0","num_feature":"12","num_nodes":"89","size_leaf_vector":"1"}},{"base_weights":[8.8526276E1,-5.0880513E3,7.3191327E2,6.482393E3,-5.899974E3,9.425266E3,2.0478549E2,-4.9897764E3,1.7455918E4,-6.491698E3,9.938702E3,3.0589996E4,5.446684E3,-1.06464E4,9.654775E2,1.872256E3,-1.0674596E4,1.423622E4,7.687703E3,-4.6527524E3,-1.1286204E4,-6.2681123E3,1.4249212E4,7.87203E3,1.0879087E5,-3.0877334E4,8.930009E3,-1.4919335E4,7.5719194E3,3.6636707E4,7.759461E2,-6.511722E3,2.4914688E3,5.714624E3,1.0462188E3,4.767706E3,-6.901643E3,-5.4970645E4,-8.179468E3,-2.9846954E2,1.9441127E4,1.3894164E4,3.8360427E3,3.9808047E4,-1.6083329E3,2.4665234E3,-4.1127145E4,1.3037742E4,-1.049107E3,-8.612031E3,-6.1044855E4,-1.4089941E4,1.0472058E4,3.9658695E4,-3.9736877E2,5.3622983E3,-1.5379097E2,-1.8115009E3,1.8400513E3,-1.2584595E3,1.0477173E3,-1.4578818E3,7.2978174E3,-2.3657645E4,-1.3921764E3,-7.182656E2,-1.9502127E4,-1.4905425E4,-1.5241616E3,7.5900337E3,1.7377102E3,-2.8145193E3,2.5658867E3,-1.3699712E3,1.8999235E3,4.5614346E3,-1.4722701E4,7.0830023E2,6.436203E3,-1.1487109E4,9.015987E2,-5.553133E3,-8.064356E2,-8.258805E3,-2.7450465E4,5.033922E3,-5.640469E1,1.27950625E4,5.640844E2,-2.2967139E3,2.8979165E3,-3.3237104E3,2.5169887E2],"categories":[],"categories_nodes":[],"categories_segments":[],"categories_sizes":[],"default_left":[0,0,0,0,0,0,0,0,0,0,0,0,0,0,0,0,0,0,0,0,0,0,0,0,0,0,0,0,0,0,0,0,0,0,0,0,0,0,0,0,0,0,0,0,0,0,0,0,0,0,0,0,0,0,0,0,0,0,0,0,0,0,0,0,0,0,0,0,0,0,0,0,0,0,0,0,0,0,0,0,0,0,0,0,0,0,0,0,0,0,0,0,0],"id":15,"left_children":[1,3,5,7,9,11,13,15,17,19,21,23,25,27,29,-1,31,-1,33,35,37,-1,39,41,43,45,47,49,51,53,55,-1,57,-1,59,61,63,65,67,-1,69,-1,71,-1,-1,73,75,77,79,81,83,-1,85,87,-1,89,91,-1,-1,-1,-1,-1,-1,-1,-1,-1,-1,-1,-1,-1,-1,-1,-1,-1,-1,-1,-1,-1,-1,-1,-1,-1,-1,-1,-1,-1,-1,-1,-1,-1,-1,-1,-1],"loss_changes":[1.1267619E10,3.5517184E9,1.3786836E10,3.2343542E9,3.344764E9,1.4316749E10,2.3436294E10,8.965919E8,3.4445548E9,2.9275802E9,2.0254632E9,4.711084E10,1.8748875E10,1.4592264E10,1.7908017E10,0E0,1.3612101E9,0E0,8.1006694E8,5.244559E9,1.2171962E10,0E0,9.690954E8,3.2356557E9,1.7082565E10,4.544427E9,5.5065457E9,4.3404354E10,6.1859154E9,1.6585892E9,1.1258055E10,0E0,1.923654E8,0E0,1.1721483E8,9.156343E9,3.2011174E10,3.0104392E9,1.1066305E10,0E0,5.731635E8,0E0,1.3895301E9,0E0,0E0,1.376958E8,5.2237425E9,8.485886E9,6.154767E9,7.8076426E9,1.5854911E10,0E0,2.3565668E9,1.3889946E9,0E0,2.496899E10,2.382808E10,0E0,0E0,0E0,0E0,0E0,0E0,0E0,0E0,0E0,0E0,0E0,0E0,0E0,0E0,0E0,0E0,0E0,0E0,0E0,0E0,0E0,0E0,0E0,0E0,0E0,0E0,0E0,0E0,0E0,0E0,0E0,0E0,0E0,0E0,0E0,0E0],"parents":[2147483647,0,0,1,1,2,2,3,3,4,4,5,5,6,6,7,7,8,8,9,9,10,10,11,11,12,12,13,13,14,14,16,16,18,18,19,19,20,20,22,22,23,23,24,24,25,25,26,26,27,27,28,28,29,29,30,30,32,32,34,34,35,35,36,36,37,37,38,38,40,40,42,42,45,45,46,46,47,47,48,48,49,49,50,50,52,52,53,53,55,55,56,56],"right_children":[2,4,6,8,10,12,14,16,18,20,22,24,26,28,30,-1,32,-1,34,36,38,-1,40,42,44,46,48,50,52,54,56,-1,58,-1,60,62,64,66,68,-1,70,-1,72,-1,-1,74,76,78,80,82,84,-1,86,88,-1,90,92,-1,-1,-1,-1,-1,-1,-1,-1,-1,-1,-1,-1,-1,-1,-1,-1,-1,-1,-1,-1,-1,-1,-1,-1,-1,-1,-1,-1,-1,-1,-1,-1,-1,-1,-1,-1],"split_conditions":[-1.2626517E0,1E0,-9.6165854E-1,-6.023121E-1,1.443998E0,-1.0770956E0,-8.412176E-1,-8.5094875E-1,-2.4601589E-1,-1.3352637E0,-1.7956245E0,-1.1120796E0,-2.4591452E-1,6.483676E-1,-8.341731E-1,1.872256E3,1E0,1.423622E4,5.9904176E-1,-1.0183724E0,-2.4591452E-1,-6.2681123E3,-2.5621992E-1,-1.935827E0,1E0,-1.0421115E0,1E0,4.7391623E-2,-2.4601589E-1,1E0,-2.4591452E-1,-6.511722E3,-1.5086876E0,5.714624E3,1E0,-2.4591452E-1,-1.0071275E0,-7.022665E-1,-1.0546058E0,-2.9846954E2,2.0020373E0,1.3894164E4,-1.3319794E0,3.9808047E4,-1.6083329E3,-2.4601589E-1,-1.935827E0,1E0,-2.4601589E-1,-2.4601589E-1,5.9904176E-1,-1.4089941E4,1.5879391E0,6.1463296E-1,-3.9736877E2,-1.2270273E0,-2.4601589E-1,-1.8115009E3,1.8400513E3,-1.2584595E3,1.0477173E3,-1.4578818E3,7.2978174E3,-2.3657645E4,-1.3921764E3,-7.182656E2,-1.9502127E4,-1.4905425E4,-1.5241616E3,7.5900337E3,1.7377102E3,-2.8145193E3,2.5658867E3,-1.3699712E3,1.8999235E3,4.5614346E3,-1.4722701E4,7.0830023E2,6.436203E3,-1.1487109E4,9.015987E2,-5.553133E3,-8.064356E2,-8.258805E3,-2.7450465E4,5.033922E3,-5.640469E1,1.27950625E4,5.640844E2,-2.2967139E3,2.8979165E3,-3.3237104E3,2.5169887E2],"split_indices":[0,6,0,3,11,3,0,3,2,0,0,3,11,3,0,0,1,0,11,3,11,0,3,11,1,3,4,3,2,1,11,0,0,0,8,11,3,3,3,0,2,0,3,0,0,2,11,6,2,2,11,0,3,3,0,3,2,0,0,0,0,0,0,0,0,0,0,0,0,0,0,0,0,0,0,0,0,0,0,0,0,0,0,0,0,0,0,0,0,0,0,0,0],"split_type":[0,0,0,0,0,0,0,0,0,0,0,0,0,0,0,0,0,0,0,0,0,0,0,0,0,0,0,0,0,0,0,0,0,0,0,0,0,0,0,0,0,0,0,0,0,0,0,0,0,0,0,0,0,0,0,0,0,0,0,0,0,0,0,0,0,0,0,0,0,0,0,0,0,0,0,0,0,0,0,0,0,0,0,0,0,0,0,0,0,0,0,0,0],"sum_hessian":[3.381E3,3.73E2,3.008E3,2.4E1,3.49E2,1.71E2,2.837E3,1.2E1,1.2E1,3.37E2,1.2E1,2.6E1,1.45E2,1.85E2,2.652E3,4E0,8E0,2E0,1E1,2.45E2,9.2E1,1E0,1.1E1,2.1E1,5E0,1.2E1,1.33E2,1.5E2,3.5E1,1.3E1,2.639E3,4E0,4E0,3E0,7E0,4.7E1,1.98E2,5E0,8.7E1,3E0,8E0,1E0,2E1,4E0,1E0,3E0,9E0,9.4E1,3.9E1,1.33E2,1.7E1,1E0,3.4E1,1.2E1,1E0,4.44E2,2.195E3,1E0,3E0,2E0,5E0,3.2E1,1.5E1,5E0,1.93E2,1E0,4E0,5E0,8.2E1,5E0,3E0,5E0,1.5E1,1E0,2E0,1E0,8E0,4.2E1,5.2E1,3E0,3.6E1,4.9E1,8.4E1,9E0,8E0,2.1E1,1.3E1,1.1E1,1E0,1.1E2,3.34E2,1.82E2,2.013E3],"tree_param":{"num_deleted":"0","num_feature":"12","num_nodes":"93","size_leaf_vector":"1"}},{"base_weights":[5.018007E1,-1.2800378E3,2.4513694E3,-2.1793372E3,5.1889097E3,1.9525283E3,2.1940852E4,-2.406973E3,4.1357707E4,-6.808751E3,1.9842803E4,2.9273914E3,-9.181463E3,1.0957778E3,4.9115504E4,-1.6991582E3,-2.0127547E4,-1.2673594E3,5.9806645E4,-1.6958041E4,1.2059337E4,5.308109E4,1.0537137E4,1.7258774E3,7.3921086E4,-1.2655353E4,1.0889463E4,4.5277938E4,-1.4761835E4,2.2484549E4,7.080399E3,-2.5555247E3,1.7076508E4,-6.787918E4,-6.6076562E3,9.882844E2,-1.1658E3,8.974426E3,2.6907275E4,-7.468106E3,-4.5116676E4,2.8158277E4,-1.3046636E4,7.784026E3,6.3495438E4,-1.3948287E4,2.0464412E4,2.2946697E3,-7.378373E4,4.986723E4,1.391757E4,6.4255E3,-2.0209209E4,1.3467235E3,3.1265008E4,-6.9651323E3,-5.518242E3,3.8133415E1,-2.3763044E3,2.676463E4,2.681084E3,-3.9819797E4,4.0697656E3,-4.098165E3,1.7038252E4,-1.0324898E4,5.931192E2,-5.9932334E3,-1.8493893E4,-5.0259546E3,1.3938219E4,-9.242706E3,2.8718665E3,2.9710852E3,7.089688E2,3.9012234E4,1.355402E4,-1.04032036E2,-1.278722E4,1.30182705E4,1.5709697E3,7.6715564E2,-1.6066522E4,-3.150406E4,3.9811375E3,-8.710171E3,1.4623469E4,-4.2340254E3,6.0433237E3,3.4664307E3,-8.105925E3,1.6423595E2,-2.7801453E3],"categories":[],"categories_nodes":[],"categories_segments":[],"categories_sizes":[],"default_left":[0,0,0,0,0,0,0,0,0,0,0,0,0,0,0,0,0,0,0,0,0,0,0,0,0,0,0,0,0,0,0,0,0,0,0,0,0,0,0,0,0,0,0,0,0,0,0,0,0,0,0,0,0,0,0,0,0,0,0,0,0,0,0,0,0,0,0,0,0,0,0,0,0,0,0,0,0,0,0,0,0,0,0,0,0,0,0,0,0,0,0,0,0],"id":16,"left_children":[1,3,5,7,9,11,13,15,17,19,21,23,25,27,29,31,33,35,37,39,41,43,45,47,49,51,-1,53,55,-1,-1,57,59,61,63,-1,-1,-1,-1,65,67,69,71,73,75,77,79,81,83,-1,85,87,89,-1,-1,-1,91,-1,-1,-1,-1,-1,-1,-1,-1,-1,-1,-1,-1,-1,-1,-1,-1,-1,-1,-1,-1,-1,-1,-1,-1,-1,-1,-1,-1,-1,-1,-1,-1,-1,-1,-1,-1],"loss_changes":[1.0805602E10,1.2676048E10,1.1682077E10,1.9048602E10,4.6901215E10,1.2802173E10,1.693991E10,2.3834909E10,7.939668E9,2.8354662E10,3.6557206E10,9.225223E10,1.5468546E10,1.327961E10,6.7995116E9,2.9484012E10,4.6680044E10,6.058277E7,3.5699978E9,2.5316526E10,2.1384708E10,1.177097E10,2.3377428E10,4.5953237E10,9.737965E10,1.2957784E10,0E0,1.1552386E10,9.660818E8,0E0,0E0,2.521869E10,4.6177014E10,8.6312575E10,2.671148E10,0E0,0E0,0E0,0E0,1.8648773E10,8.741478E9,2.7082031E10,8.732241E9,4.553472E7,1.9719619E10,1.0906169E10,2.3516447E10,1.5663409E10,2.314306E10,0E0,1.9365872E10,7.610368E9,1.4157308E10,0E0,0E0,0E0,1.869912E8,0E0,0E0,0E0,0E0,0E0,0E0,0E0,0E0,0E0,0E0,0E0,0E0,0E0,0E0,0E0,0E0,0E0,0E0,0E0,0E0,0E0,0E0,0E0,0E0,0E0,0E0,0E0,0E0,0E0,0E0,0E0,0E0,0E0,0E0,0E0,0E0],"parents":[2147483647,0,0,1,1,2,2,3,3,4,4,5,5,6,6,7,7,8,8,9,9,10,10,11,11,12,12,13,13,14,14,15,15,16,16,17,17,18,18,19,19,20,20,21,21,22,22,23,23,24,24,25,25,27,27,28,28,31,31,32,32,33,33,34,34,39,39,40,40,41,41,42,42,43,43,44,44,45,45,46,46,47,47,48,48,50,50,51,51,52,52,56,56],"right_children":[2,4,6,8,10,12,14,16,18,20,22,24,26,28,30,32,34,36,38,40,42,44,46,48,50,52,-1,54,56,-1,-1,58,60,62,64,-1,-1,-1,-1,66,68,70,72,74,76,78,80,82,84,-1,86,88,90,-1,-1,-1,92,-1,-1,-1,-1,-1,-1,-1,-1,-1,-1,-1,-1,-1,-1,-1,-1,-1,-1,-1,-1,-1,-1,-1,-1,-1,-1,-1,-1,-1,-1,-1,-1,-1,-1,-1,-1],"split_conditions":[1E0,1.5252737E0,2.8132234E0,3.1339107E0,2.6395E-1,1.3293071E0,9.140587E-3,1.1743777E0,1.0152997E-1,2.0020373E0,4.9468765E-1,1.1743777E0,3.4758282E0,-7.765657E-1,4.101173E0,7.820566E-1,5.9904176E-1,7.534915E-2,4.3721387E-1,1E0,2.2889543E0,1E0,9.332377E-1,1.1568857E0,1.5252737E0,5.9904176E-1,1.0889463E4,-1.3693645E0,-8.2654014E-2,2.2484549E4,7.080399E3,-1.8125412E-1,2.3732404E-1,4.7340053E-1,2.2889543E0,9.882844E2,-1.1658E3,8.974426E3,2.6907275E4,4.1222528E-1,-2.3817226E-1,9.332377E-1,3.4758282E0,8.0117184E-1,-1.2627919E-1,7.6206577E-1,7.723605E-1,2.2889543E0,4.029097E-1,4.986723E4,3.3764537E-2,1E0,1E0,1.3467235E3,3.1265008E4,-6.9651323E3,1E0,3.8133415E1,-2.3763044E3,2.676463E4,2.681084E3,-3.9819797E4,4.0697656E3,-4.098165E3,1.7038252E4,-1.0324898E4,5.931192E2,-5.9932334E3,-1.8493893E4,-5.0259546E3,1.3938219E4,-9.242706E3,2.8718665E3,2.9710852E3,7.089688E2,3.9012234E4,1.355402E4,-1.04032036E2,-1.278722E4,1.30182705E4,1.5709697E3,7.6715564E2,-1.6066522E4,-3.150406E4,3.9811375E3,-8.710171E3,1.4623469E4,-4.2340254E3,6.0433237E3,3.4664307E3,-8.105925E3,1.6423595E2,-2.7801453E3],"split_indices":[5,9,9,11,0,3,0,3,0,2,3,3,3,0,9,3,11,0,3,4,11,6,3,3,9,11,0,0,0,0,0,3,9,0,11,0,0,0,0,3,0,3,3,0,3,3,0,11,0,0,0,4,4,0,0,0,10,0,0,0,0,0,0,0,0,0,0,0,0,0,0,0,0,0,0,0,0,0,0,0,0,0,0,0,0,0,0,0,0,0,0,0,0],"split_type":[0,0,0,0,0,0,0,0,0,0,0,0,0,0,0,0,0,0,0,0,0,0,0,0,0,0,0,0,0,0,0,0,0,0,0,0,0,0,0,0,0,0,0,0,0,0,0,0,0,0,0,0,0,0,0,0,0,0,0,0,0,0,0,0,0,0,0,0,0,0,0,0,0,0,0,0,0,0,0,0,0,0,0,0,0,0,0,0,0,0,0,0,0],"sum_hessian":[3.381E3,2.176E3,1.205E3,1.911E3,2.65E2,1.176E3,2.9E1,1.902E3,9E0,1.46E2,1.19E2,1.082E3,9.4E1,1.7E1,1.2E1,1.83E3,7.2E1,3E0,6E0,9.5E1,5.1E1,2.5E1,9.4E1,1.065E3,1.7E1,8.8E1,6E0,4E0,1.3E1,5E0,7E0,1.751E3,7.9E1,1.5E1,5.7E1,1E0,2E0,4E0,2E0,7.2E1,2.3E1,3.1E1,2E1,5E0,2E1,2.7E1,6.7E1,1.058E3,7E0,6E0,1.1E1,2.5E1,6.3E1,3E0,1E0,6E0,7E0,1.168E3,5.83E2,7E0,7.2E1,8E0,7E0,5.2E1,5E0,1.8E1,5.4E1,1E1,1.3E1,9E0,2.2E1,1.1E1,9E0,3E0,2E0,3E0,1.7E1,1.9E1,8E0,2.6E1,4.1E1,1.054E3,4E0,5E0,2E0,5E0,6E0,1E1,1.5E1,1.1E1,5.2E1,3E0,4E0],"tree_param":{"num_deleted":"0","num_feature":"12","num_nodes":"93","size_leaf_vector":"1"}},{"base_weights":[7.648886E1,-9.948878E1,1.40732705E4,5.3254604E1,-1.5895773E4,-9.457507E3,1.9888086E4,-2.9135854E4,1.1507982E2,-9.376338E3,-1.2775183E4,1.4449537E4,-3.147305E4,-3.114853E3,2.8293738E4,-1.6667345E3,-1.1237019E4,3.53674E4,1.8785534E1,1.0123993E3,-1.3803827E4,9.196875E3,2.7337969E3,-1.08239375E4,-1.2489344E4,-1.237038E4,4.1583096E3,2.0857219E4,1.7129672E4,1.6886934E4,1.5524583E4,-1.4946481E3,1.2545375E3,-2.619675E3,1.3325981E3,-1.75445E4,-8.6827705E3,2.1653938E3,-1.6078126E3,-4.767825E3,-1.0294688E2,-4.387307E3,-9.040322E3,2.5219914E4,3.5404722E3,6.344524E3,-1.8891844E3,-3.215822E2,-8.478719E3,2.9029144E2,1.1427893E4,6.8126953E2,-3.3272954E3,-1.131275E3,-6.1549595E3,1.3426859E3,-3.7595461E3,-2.525714E3,-5.69145E2,4.7453955E3,1.006575E4,4.122765E3,-2.2109102E3],"categories":[],"categories_nodes":[],"categories_segments":[],"categories_sizes":[],"default_left":[0,0,0,0,0,0,0,0,0,0,0,0,0,0,0,0,0,0,0,0,0,0,0,0,0,0,0,0,0,0,0,0,0,0,0,0,0,0,0,0,0,0,0,0,0,0,0,0,0,0,0,0,0,0,0,0,0,0,0,0,0,0,0],"id":17,"left_children":[1,3,5,7,9,11,13,15,17,19,-1,21,23,25,27,-1,-1,29,31,33,35,-1,37,39,-1,41,-1,-1,43,-1,45,47,49,51,-1,53,55,-1,-1,-1,-1,57,-1,59,61,-1,-1,-1,-1,-1,-1,-1,-1,-1,-1,-1,-1,-1,-1,-1,-1,-1,-1],"loss_changes":[8.331673E9,8.061938E9,5.934832E9,5.976654E9,5.1684557E9,5.1917097E9,6.662191E9,1.1653468E9,1.1215084E10,1.2558671E9,0E0,8.6556026E8,5.98165E8,1.7426737E9,1.0316528E10,0E0,0E0,2.862554E9,6.166148E9,1.2374546E8,2.1163315E8,0E0,1.8384891E8,1.5392166E8,0E0,8.604717E8,0E0,0E0,2.2194478E9,0E0,8.695123E8,1.6738425E10,1.9145736E10,2.323343E8,0E0,3.31989E8,5.625608E8,0E0,0E0,0E0,0E0,4.42658E7,0E0,4.877179E8,1.1030363E9,0E0,0E0,0E0,0E0,0E0,0E0,0E0,0E0,0E0,0E0,0E0,0E0,0E0,0E0,0E0,0E0,0E0,0E0],"parents":[2147483647,0,0,1,1,2,2,3,3,4,4,5,5,6,6,7,7,8,8,9,9,11,11,12,12,13,13,14,14,17,17,18,18,19,19,20,20,22,22,23,23,25,25,28,28,30,30,31,31,32,32,33,33,35,35,36,36,41,41,43,43,44,44],"right_children":[2,4,6,8,10,12,14,16,18,20,-1,22,24,26,28,-1,-1,30,32,34,36,-1,38,40,-1,42,-1,-1,44,-1,46,48,50,52,-1,54,56,-1,-1,-1,-1,58,-1,60,62,-1,-1,-1,-1,-1,-1,-1,-1,-1,-1,-1,-1,-1,-1,-1,-1,-1,-1],"split_conditions":[2.1454887E0,1E0,1E0,-1.3700426E0,1E0,1E0,2.3732404E-1,-2.2679422E0,-1.935827E0,-2.4591452E-1,-1.2775183E4,-2.4601589E-1,8.0829465E-1,2.2581413E0,8.7801075E-1,-1.6667345E3,-1.1237019E4,-2.4601589E-1,-3.124443E-1,-1.4219384E0,-1.8178426E-1,9.196875E3,2.1814806E0,2.2581413E0,-1.2489344E4,9.4448256E-1,4.1583096E3,2.0857219E4,1E0,1.6886934E4,-8.341731E-1,-3.1744203E-1,1E0,8.58153E-1,1.3325981E3,-2.4601589E-1,1.3344991E-1,2.1653938E3,-1.6078126E3,-4.767825E3,-1.0294688E2,-1.4869088E0,-9.040322E3,1E0,3.8598722E-1,6.344524E3,-1.8891844E3,-3.215822E2,-8.478719E3,2.9029144E2,1.1427893E4,6.8126953E2,-3.3272954E3,-1.131275E3,-6.1549595E3,1.3426859E3,-3.7595461E3,-2.525714E3,-5.69145E2,4.7453955E3,1.006575E4,4.122765E3,-2.2109102E3],"split_indices":[0,7,10,2,10,5,9,0,11,11,0,2,3,0,2,0,0,2,3,3,0,0,0,0,0,3,0,0,8,0,0,3,1,0,0,2,0,0,0,0,0,3,0,4,3,0,0,0,0,0,0,0,0,0,0,0,0,0,0,0,0,0,0],"split_type":[0,0,0,0,0,0,0,0,0,0,0,0,0,0,0,0,0,0,0,0,0,0,0,0,0,0,0,0,0,0,0,0,0,0,0,0,0,0,0,0,0,0,0,0,0,0,0,0,0,0,0,0,0,0,0,0,0,0,0,0,0,0,0],"sum_hessian":[3.381E3,3.34E3,4.1E1,3.309E3,3.1E1,8E0,3.3E1,6E0,3.303E3,2.6E1,5E0,4E0,4E0,9E0,2.4E1,2E0,4E0,8E0,3.295E3,8E0,1.8E1,1E0,3E0,2E0,2E0,6E0,3E0,4E0,2E1,3E0,5E0,1.481E3,1.814E3,4E0,4E0,9E0,9E0,2E0,1E0,1E0,1E0,5E0,1E0,1.2E1,8E0,4E0,1E0,1.459E3,2.2E1,1.801E3,1.3E1,3E0,1E0,2E0,7E0,2E0,7E0,1E0,4E0,7E0,5E0,4E0,4E0],"tree_param":{"num_deleted":"0","num_feature":"12","num_nodes":"63","size_leaf_vector":"1"}},{"base_weights":[5.6371033E1,4.5557492E2,-4.201539E3,-9.5109184E1,5.113946E3,-6.0443667E3,3.2560225E4,1.4410834E3,-2.403479E3,1.0983746E4,-6.2520435E3,-2.4171547E4,-2.972385E3,2.1820791E4,-1.8006375E4,-6.9093945E2,1.0853402E4,2.6701067E3,-8.67142E3,5.032936E3,5.8380523E4,-7.8397516E4,8.130707E2,6.8767812E3,-2.9852922E4,6.279568E3,-7.5219595E3,2.3451377E3,-2.3613146E4,-4.136354E3,2.7402908E3,2.9876921E3,2.3085904E4,7.163359E3,-7.1217896E3,-1.3307641E4,7.1192334E3,3.030101E4,-5.608721E2,1.7400733E5,2.6554795E4,-2.954375E4,-3.6402758E4,2.2357217E4,-9.662844E3,-5.2511566E2,3.2033176E3,-3.2731434E4,-2.4370314E1,2.7675134E3,4.2032973E4,-1.0240068E4,7.565431E3,-9.438788E3,2.3451377E3,-4.052054E3,-4.8719592E2,2.6636826E3,-1.375417E2,5.428828E3,-7.405438E2,3.851442E4,5.217444E3,1.08224795E4,1.6192538E3,-4.904126E3,2.6881108E3,-3.20089E3,-2.084243E4,-4.137352E3,9.0663545E3,5.2284565E3,1.7040836E4,-3.6131555E3,3.6414666E3,5.733332E4,1.5838856E4,-1.0581776E4,2.121373E4,-7.605E1,-1.7624852E4,-1.0076118E4,9.948286E3,-1.8266645E4,-1.9381067E3,-8.790378E3,-2.0345508E4,-2.8777097E3,7.5543936E3,3.5479578E2,-4.7147896E3,-4.125441E3,7.589002E3],"categories":[],"categories_nodes":[],"categories_segments":[],"categories_sizes":[],"default_left":[0,0,0,0,0,0,0,0,0,0,0,0,0,0,0,0,0,0,0,0,0,0,0,0,0,0,0,0,0,0,0,0,0,0,0,0,0,0,0,0,0,0,0,0,0,0,0,0,0,0,0,0,0,0,0,0,0,0,0,0,0,0,0,0,0,0,0,0,0,0,0,0,0,0,